tree
version=v4
num_class=1
num_tree_per_iteration=1
label_index=0
max_feature_idx=44
objective=regression_l1
feature_names=pm25_lag1 pm25_lag3 pm25_lag7 pm25_lag14 pm25_lag30 pm25_roll3_mean pm25_roll7_mean pm25_roll14_mean pm25_roll30_mean pm25_roll7_std pm25_roll14_std month week day_of_year sin_month cos_month sin_doy cos_doy is_haze_season temp_max temp_min temp_mean humidity_max humidity_min precipitation wind_speed pressure cloud_cover evapotranspiration wind_dir_sin wind_dir_cos hotspot_50km hotspot_100km mean_frp_50km hotspot_7d_roll hotspot_14d_roll fire_flag alert_lag1 alert_lag3 alert_lag7 lag1_x_temp lag1_x_wind roll7_x_fire precip_flag humidity_wind
feature_infos=[3:266] [3:266] [3:266] [3:266] [3:266] [6:232] [7.5714285714285712:186.42857142857144] [8.8571428571428577:169.21428571428572] [9.3333333333333339:124] [0.43094580367593538:73.209093892571971] [0.72373421144061201:88.014390681484315] [1:12] [1:53] [1:366] [-1:1] [-1:1] [-0.99999073973619002:0.99999073973619002] [-0.99996295911626565:1] [0:1] [12.9765:40.676501999999999] [8.6265000000000001:29.076499999999999] [11.622332999999999:34.403584000000002] [46.447315000000003:100] [10.397731:96.135369999999995] [0:122.59999999999999] [3.219938:28.802247999999999] [962.69560000000001:985.60720000000003] [0:100] [0.46755368000000003:7.5202622000000003] [-1:1] [-0.99999999999993905:1] [0:76] [0:341] [3.2999999999999998:123.55] [0:27.714285714285715] [0:21.214285714285715] [0:1] [0:1] [0:1] [0:1] [77.858999999999995:9742.6489999999994] [17.5811262:3642.7936559999998] [0:186.42857142857144] [0:1] [313.37161102049998:2307.4931354009282]
tree_sizes=3905 4582 4425 4340 4174 4504 4424 5102 5014 4839 4360 4937 5133 5364 4618 5106 4892 5257 4121 5505 6153 4714 4940 4444 4535 5181 4635 5145 5952 5097 4702 5292 5016 5594 5436 5556 4297 5373 4951 4540 4869 5292 4316 3792 4202 4951 6025 4547 4541 4864 5043 4990 4974 5294 5155 4808 3779 4218 4897 3894 4543 5032 4645 4136 4067 4323 4120 3224 4287 4079 4813 4623 4633 5127 3943 3539 3552 4141 5362 3901 3449 3214 2530 4655 4322 4128 2973 5114 4232 4819 2461 2535 3621 2962 3294 3040 4074 3392 4146 3215 2537 2874 2796 2451 4326 3856 4307 4229 3125 2979 1699 1793 3974 2981 2709 3971 4225 2155 3154 3391 3454 2370 4008 3292 3698 1871 2690 2717 3225 2118 2028 1700 2536 2552 2035 4165 2637 2049 3125 936 2970 2878 3829 1951 3065 4833 2607 2624 2676 2209 4729 4001 3654 2555 2207 3364 2959 3201 3229 2893 939 1965 1865 4411 3224 1709 3898 2561 2720 1841 4739 3285 2381 1862 1854 2465 1788 3050 2301 2284 3322 3235 2466 1537 3913 4454 4216 3542 3465 3050 4059 3313 4075 4682 3238 1281 1793 1520 2968 1709 2609 2275 2197 2903 2451 2882 2219 1777 2386 1522 1773 2282 1885 3478 2638 2951 3387 2470 2704 3554 3382 3877 2350 2373 1525 2120 4263 3737 2107 3564 3213 3892 4367 3969 4504 1371 2380 2718 3218 3577 2449 1865 1361 2722 1603 3394 3144 3295 3036 3621 3334 2966 3389 4617 4258 2209 1707 1524 1953 1273 2830 3326 4344 3660 4156 2123 1422 2194 3121 3223 2384 2319 3224 3661 2659 3302 2201 2961 2684 2892 2629 3580 1786 2560 3743 4337 1952 3125 1265 2031 3918 1953 3238 3156 2709 4265 3706 1700 2734 2887 3151 2092 3734 2888 1538 3655 2280 2274 3064 2954 3997 3232 2139 2695 3882 3929 1884 3233 2667 4575 2278 1793 1014 1962 4011 3273 1283 2130 1865 1958 2976 2706 2783 2471 2222 2197 4073 3467 2890 4483 2811 3547 2533 3919 3140 2721 1625 3240 3139 3199 1461 1118 2052 1117 1456 2720 1793 1779 1202 1951 2934 2955 2635 2035 2663 2996 2799 2149 2645 2065 1601 2563 4266 1543 1285 2910 2966 3152 2875 1765 2288 2221 2613 2621 1607 1870 3087 2812 2432 4258 3033 4244 3057 2730 2586 3039 2482 2349 4435 3932 3838 4103 3421 2646 1628 1965 2571 3671 1861 2374 1687 3058 2498 2041 3851 3157 4484 2038 3966 3824 1725 2923 2390 3423 2395 1776 2037 1780 1877 1686 2403 2525 2382 2618 3131 3402 3055 3597 1995 1191 2465 3407 2734 2988 2659 4266 2372 4115 2983 4002 2208 3140 2220 3110 3139 3870 3745 3744 1872 2836 2069 1707 4018 4610 1447 4002 2871 3399 3898 2895 3747 4673 3977 3661 3100 2392 3227 3673 4097 2824 2375 1184 3069 2719 1715 2904 3477 3418 3005 1613 1782 3747 3504 2965 3423 3340 2907 2383 3774 2672 3730 3479 2911 3674 3385 4779 2812 2708 2858 3159 2032 2421 1967 2965 3051 2136 2547 2532 1780 2326 3229 2738 4151 2921 1206 2730 2569 2140 2314 2860 4082 3658 3433 2924 2903 3562 2969 4009 2163 1879 2418 2653 3740 3315 3086 4060 3409 2972 2233 3174 3676 2476 2480 5082 2066 2304 1789 1615 2576 2901 3346 3336 2738 2956 2401 2378 2897 2300 2381 4196 3671 3633 3074 3828 3301 3909 4077 3722 2630 3270 1452 1456 1957 1541 1535 3498 3253 2833 3678 3058 4365 3256 2662 2555 3584 3435 2637 3563 2149 3508 2035 2576 2652 1969 3184 2574 2337 2561 2140 2407 4024 3092 1207 2061 2752 3918 3166 3066 3154 2652 1798 2273 1526 2468 1366 2539 4006 2231 1790 2561 2993 3064 3003 3500 3669 2990 1962 2051 3926 1363 2566 3399 2385 2562 2574 3337 3600 1623 1639 2830 2545 1366 2413 1876 2994 4346 3497 2222 2823 3569 2213 3418 2496 3235 3563 2366 2064 3355 3434 2037 4180 4356 2576 2798 4256 4423 3069 3170 2882 2393 2062 1379 1289 3392 2379 3934 3065 3076 3588 4446 1882 2489 1869 1947 1542 2161 2290 2417 4921 1806 2049 3572 2574 2914 2386 3401 3920 2989 4376 1457 2313 3169 2658 2041 2983 2559 2739 2495 3313 2038 3084 1797 1551 3195 3263 2468 2133 3070 2121 2307 2059 1547 1523 1614 2133 2307 3332 2637 2720 2902 3434 2577 3276 2293 3342 3419 3392 2569 4445 3849 2916 3075 2815 2658 3220 2588 4346 3416 2637 3235 3018 2592 2817 2899 2228 3298 2147 3677 2883 2902 3065 3345 3314 2219 3247 3597 2227 3543 2975 5010 4598 3251 3178 3160 4384 3985 2124 2548 2383 2806 3662 2649 2556 3571 3497 4248 2232 2792 3513 4772 4937 2230 3337 2896 3325 2393 2205 2128 2395 1620 4238 2148 2070 3084 4348 1606 2239 2312 4465 2991 3420 3511 3577 3578 1387 3422 3420 2852 3766 4256 3266 3168 3270 2901 2546 1626 2058 1628 1276 1284 2959 2373 4003 3661 3755 3333 2492 3575 3601 3153

Tree=0
num_leaves=48
num_cat=0
split_feature=5 5 24 20 12 13 12 13 13 24 12 23 0 5 20 25 3 20 29 20 3 0 26 26 20 30 22 12 30 40 3 24 40 20 5 25 3 5 5 13 13 26 22 3 26 26 3
split_gain=1242.11 116.583 81.0896 48.6049 27.3397 26.3011 26.0531 21.7341 19.9834 16.5947 13.6672 13.8812 12.3486 9.90993 10.6045 8.88052 7.80729 7.6571 6.72775 6.49494 6.43965 6.33401 6.27071 6.12551 6.02061 5.97317 5.36471 4.68011 4.27696 4.20918 4.19418 4.01935 3.83162 3.55377 3.37797 4.52432 3.45746 3.1119 2.99788 2.7002 2.49566 2.0438 1.18573 0.966514 0.432863 0.214077 1.06812
threshold=21.383333333333336 17.350000000000005 0.55000000000000016 21.913250000000001 17.500000000000004 136.50000000000003 46.500000000000007 112.50000000000001 144.50000000000003 6.2999998500000007 37.500000000000007 59.969780000000007 47.500000000000007 27.500000000000004 22.988250500000003 6.628295650000001 16.950000000000003 26.288250000000001 -0.2775409400192958 20.463250500000004 32.500000000000007 24.300000000000004 974.9230500000001 972.35127000000011 22.838250000000006 -0.14715038344902392 96.688895000000016 46.500000000000007 -0.92161172652825163 678.72500000000014 18.800000000000004 2.7000001500000006 988.94600000000014 21.088250000000006 30.500000000000004 6.6136203500000006 24.300000000000004 14.283333333333337 17.133333333333336 299.50000000000006 269.50000000000006 977.71410000000003 95.061630500000021 27.500000000000004 969.22167500000012 971.39614500000005 54.500000000000007
decision_type=2 2 2 2 2 2 2 2 2 2 2 2 2 2 2 2 2 2 2 2 2 2 2 2 2 2 2 2 2 2 2 2 2 2 2 2 2 2 2 2 2 2 2 2 2 2 2
left_child=1 8 4 15 29 -5 12 25 24 13 38 22 17 14 -9 27 31 21 -16 42 23 -6 -12 -18 -1 -4 -24 33 -11 -2 -15 -7 -32 -3 35 36 -8 40 43 -39 -13 -37 -17 44 -10 46 -31
right_child=2 3 7 5 6 16 34 9 10 28 11 37 -14 30 18 19 20 -19 -20 -21 -22 -23 26 -25 -26 -27 -28 -29 -30 45 32 -33 -34 -35 -36 41 -38 39 -40 -41 -42 -43 -44 -45 -46 -47 -48
leaf_value=21.060126210003425 21.180378630010278 20.924842237495717 21.631325205035974 21.300631050017131 20.990981062765403 20.879747579993147 21.060126210003425 21.060126210003425 20.78955826498801 20.95490534249743 20.879747579993147 20.78955826498801 21.856798492548823 21 21 21.150315525008565 20.969936894998288 20.969936894998288 20.879747579993147 21.060126210003425 20.834652922490577 21.120252420006853 21.090189315005141 20.879747579993147 20.849684474991435 21.105220867505995 20.969936894998288 21.090189315005141 20.879747579993147 21.841766940047968 21.120252420006853 20.78955826498801 21.21044173501199 21.090189315005141 21.390820365022272 21.120252420006853 21.270567945015419 20.879747579993147 20.864716027492292 20.909810684994859 20.78955826498801 21.180378630010278 21.120252420006853 20.804589817488864 20.759495159986294 22.022145570058246 22.473092145083942
leaf_weight=23 33 26 44 21 38 29 37 29 109 32 17 38 22 17 23 27 74 17 21 31 20 78 17 33 17 24 18 29 30 21 21 57 34 19 82 21 17 70 22 37 101 63 17 18 546 624 25
leaf_count=23 33 26 44 21 38 29 37 29 109 32 17 38 22 17 23 27 74 17 21 31 20 78 17 33 17 24 18 29 30 21 21 57 34 19 82 21 17 70 22 37 101 63 17 18 546 624 25
internal_value=21.0003 20.9806 21.0209 20.9948 21.0246 20.9863 21.018 21.0063 20.9754 21.0014 20.9746 20.9801 21.0085 21.007 20.9992 21.0082 20.9831 21.0049 20.99 21.0155 20.988 21.0077 20.9943 20.9911 20.9963 21.021 21.0017 21.0008 20.9885 21.0281 21.0148 20.9761 21.0188 20.9948 21.0246 21.0214 21.0142 20.9771 20.9722 20.9813 20.974 21.0259 21.0228 20.9718 20.9716 21.0287 21.0244
internal_weight=2769 1416 1353 383 1078 234 375 275 1033 207 993 298 155 145 73 149 213 133 44 75 127 116 52 107 40 68 35 74 62 703 72 86 55 45 220 138 54 246 695 107 139 84 44 673 655 670 46
internal_count=2769 1416 1353 383 1078 234 375 275 1033 207 993 298 155 145 73 149 213 133 44 75 127 116 52 107 40 68 35 74 62 703 72 86 55 45 220 138 54 246 695 107 139 84 44 673 655 670 46
is_linear=0
shrinkage=1


Tree=1
num_leaves=53
num_cat=0
split_feature=0 27 20 0 0 12 1 8 5 12 20 0 43 20 40 8 19 35 19 26 25 20 19 41 12 35 41 25 29 21 17 4 44 8 9 4 4 19 8 44 27 17 4 20 25 29 5 25 12 26 1 9
split_gain=1171.86 115.599 80.4224 33.8634 33.6997 32.3943 31.3526 20.4322 15.5558 14.3867 13.4831 12.937 11.2522 9.50143 11.4164 8.83118 8.42149 9.11024 8.46728 8.3361 7.8364 6.26687 5.94342 5.82577 5.39699 5.15792 5.04315 5.78015 4.53072 6.01198 6.18049 5.94292 4.4523 4.28878 6.56413 3.91478 3.61981 3.54176 3.47041 2.65713 2.15773 2.14461 5.82908 3.88778 2.52862 1.15113 1.08579 0.977528 0.750799 1.15059 0.576395 0.550949
threshold=20.550000000000004 65.479164000000011 21.763250000000003 31.900000000000002 24.300000000000004 21.500000000000004 20.800000000000004 16.81666666666667 16.383333333333336 16.500000000000004 23.838250000000006 15.950000000000001 1.0000000180025095e-35 23.138250500000002 494.76200000000011 25.683333333333337 28.288250000000001 0.10714285714285711 30.513250000000003 977.93432000000018 6.9200561500000006 21.563250000000004 28.763250000000003 146.23468200000002 3.5000000000000004 0.53571428571428581 198.59506100000002 9.7066480000000031 0.35264681827248195 25.877084000000004 0.08167336996455922 18.800000000000004 660.59844245365207 22.983333333333338 3.3022358947788208 69.500000000000014 16.850000000000005 28.588250000000006 25.150000000000002 1235.8774751004323 91.354168000000016 -0.2925894974583354 17.950000000000003 22.888250500000002 5.9208555000000009 0.66812661695315245 23.683333333333337 7.7001278500000003 24.500000000000004 971.50855000000013 23.800000000000001 4.6342410895622521
decision_type=2 2 2 2 2 2 2 2 2 2 2 2 2 2 2 2 2 2 2 2 2 2 2 2 2 2 2 2 2 2 2 2 2 2 2 2 2 2 2 2 2 2 2 2 2 2 2 2 2 2 2 2
left_child=2 4 6 7 21 13 11 -3 41 39 23 37 47 -4 -15 20 50 18 -18 36 22 24 -8 40 -2 -14 -12 -28 29 30 -10 -31 -25 34 -26 -19 -13 -1 -23 46 -9 48 44 -44 -43 -30 -6 -5 49 -7 -11 -35
right_child=1 3 5 12 9 8 15 10 28 16 26 19 25 14 -16 -17 17 35 -20 -21 -22 38 -24 32 33 -27 27 -29 45 31 -32 -33 -34 51 -36 -37 -38 -39 -40 -41 -42 42 43 -45 -46 -47 -48 -49 -50 -51 -52 -53
leaf_value=-0.083862783028731236 -0.033226370989917209 -0.20411520303558375 0.034582056413433267 0.31894488134837201 1.0200051071945666 -0.20321141275323965 -0.029837157431127102 -0.026447943872336996 -0.025996048731165046 0.1960000560833316 -0.10296139180013589 -0.092448790710999457 -0.026447943872336996 -0.17585967859855864 0.048031975920187799 0.28888177634665896 0.14172951732629738 0.18772796511121106 -0.078772923633658953 0.058318629438738244 0.17676346888090264 -0.074705867363110814 0.058318629438738244 0.13325044437243505 0.11573346859513238 0.21179742043550798 0.043287076937881627 -0.059222419721082255 -0.14534467845567345 -0.19134312624058719 -0.14602252116743147 -0.089285524722795384 0.039681412938133161 0.084766573311075247 -0.0036151611293761335 0.51040702043113939 -0.014579657359684561 -0.15212310557325365 0.11889673458333645 0.91297665912388248 0.0013556854235160633 -0.20411520303558375 -0.056511048874050125 -0.20411520303558375 -0.23417830803729689 -0.17676346888090264 1.0214798054602627 0.57053323043456561 -0.23327451775495278 -0.23327451775495278 0.31894488134837201 0.16173191638004614
leaf_weight=29 17 27 21 17 18 43 18 23 47 20 22 32 17 25 28 20 50 92 20 23 17 22 18 20 35 21 20 41 41 48 18 40 68 17 23 55 30 37 18 17 17 30 17 17 121 27 611 41 534 29 90 20
leaf_count=29 17 27 21 17 18 43 18 23 47 20 22 32 17 25 28 20 50 92 20 23 17 22 18 20 35 21 20 41 41 48 18 40 68 17 23 55 30 37 18 17 17 30 17 17 121 27 611 41 534 29 90 20
internal_value=0.000336337 0.0188631 -0.0202962 0.00332076 0.0234711 -0.0236771 -0.00387569 -0.00276749 -0.0250805 0.0255292 0.000424055 -0.0116778 0.018309 -0.00441294 -0.0111573 0.0122064 0.0202636 0.0166957 0.00763195 -0.00384756 0.00557541 0.0102247 -0.00243744 0.00652979 0.0138486 0.00540663 -0.00895831 -0.00436835 -0.0178852 -0.0148477 -0.00775489 -0.0199573 0.0108225 0.0166182 0.011231 0.02094 -0.00955981 -0.0215782 0 0.0281637 -0.0029346 -0.0270688 -0.0237758 -0.0120641 -0.0263275 -0.0244442 0.0284942 0.0265542 -0.0280385 -0.0239275 0.0271154 0.0246078
internal_weight=2769 1459 1310 334 1125 1086 224 238 1012 973 211 151 96 74 53 73 327 217 70 85 53 152 36 128 112 38 83 61 221 153 65 88 88 95 58 147 62 66 40 646 40 791 185 34 151 68 629 58 606 72 110 37
internal_count=2769 1459 1310 334 1125 1086 224 238 1012 973 211 151 96 74 53 73 327 217 70 85 53 152 36 128 112 38 83 61 221 153 65 88 88 95 58 147 62 66 40 646 40 791 185 34 151 68 629 58 606 72 110 37
is_linear=0
shrinkage=0.0300631


Tree=2
num_leaves=51
num_cat=0
split_feature=1 20 24 16 13 20 16 1 1 8 26 1 17 16 24 8 10 26 25 24 16 34 25 26 13 12 2 10 10 10 8 24 24 27 1 24 20 25 2 24 12 2 13 10 8 10 16 26 2 17
split_gain=1027 164.431 104.773 66.9504 35.9942 34.742 28.1565 24.6903 23.5621 13.952 13.7908 12.8872 10.6327 9.36497 8.12016 7.60569 7.17963 6.58701 7.85886 6.40174 6.11481 6.01901 5.99454 5.59432 5.04359 5.69852 4.63999 4.47454 7.23106 5.1894 3.79823 3.26882 3.20887 3.20096 2.61123 2.58182 2.47173 2.3228 2.63033 2.00095 1.99149 4.24224 2.64949 1.6905 4.74436 1.65168 1.54744 4.71772 1.30205 0.223147
threshold=22.150000000000002 21.563250000000004 1.4000001500000001 0.59125596962661842 126.50000000000001 20.938250000000004 -0.72660079619119988 34.20000000000001 15.950000000000001 20.016666666666669 975.13595000000009 16.950000000000003 -0.8140159405215136 -0.97505550290239429 5.9999997500000015 21.716666666666672 6.8132416178013857 972.7392900000001 7.5942077500000007 1.2500001000000003 -0.58429276287313725 0.35714285714285715 9.5076805000000011 971.42735000000005 194.50000000000003 22.500000000000004 24.300000000000004 4.2700718842267147 2.9510661139288783 6.3419066706935512 19.383333333333336 0.35000000000000003 0.25000000000000006 44.625000000000007 16.950000000000003 0.15000000000000005 22.338250000000006 16.548233500000006 32.500000000000007 2.6999999000000003 37.500000000000007 16.950000000000003 265.50000000000006 14.599881630151224 35.583333333333343 4.4512004324090091 0.25118773779856129 970.13565000000006 16.950000000000003 -0.42889193791248376
decision_type=2 2 2 2 2 2 2 2 2 2 2 2 2 2 2 2 2 2 2 2 2 2 2 2 2 2 2 2 2 2 2 2 2 2 2 2 2 2 2 2 2 2 2 2 2 2 2 2 2 2
left_child=1 6 4 8 37 30 11 16 40 13 -8 31 -7 -10 36 23 20 32 -19 34 -4 27 -21 -11 25 -22 -17 28 -12 -29 -6 -1 -14 -13 -5 45 -9 38 43 -15 46 42 -42 44 -2 -32 -3 -48 -33 -40
right_child=2 3 7 19 5 12 10 14 9 15 21 33 17 39 -16 26 -18 18 -20 22 24 -23 -24 -25 -26 -27 -28 29 -30 -31 35 48 -34 -35 -36 -37 -38 -39 49 -41 41 -43 -44 -45 -46 -47 47 -49 -50 -51
leaf_value=-0.026461529243415754 0.42311243807503524 -0.2262615614334616 -0.15467145196733992 0.14746830045074538 0.054057800077515657 -0.086601324617920875 -0.032665792880114751 0.38661741433337349 -0.049430165697165011 0.027412868324535714 0.056140665959351049 0.056565390358365483 0.11758180527305682 -0.16613535143003536 0.0047162209828438637 -0.11672556378948871 -0.14999948357818182 0.058879207548540695 -0.060523763660283066 0.03263862213795702 0.021133885146903352 0.45023430033983403 -0.17730366893408703 -0.08954543572107844 0.030022348888476692 -0.088408905182608993 -0.015819826421469705 0.018747993041274127 0.11225416117654448 0.14093441001258392 0.19423964783740796 -0.16780297570727853 0.13746860654995302 -0.053067493830944772 0.19782942717241192 0.12700882096526944 0.10755859994079967 0.99403289229290803 0.62501575491109562 -0.19708866134301378 -0.19106246070567456 -0.13966023681554074 -0.19933455167779499 1.0208340558132942 0.29931953577217918 0.32407846684100483 -0.16703914171237935 -0.25632466643517476 -0.098180740442347175 1.0208340558132942
leaf_weight=26 108 499 21 21 17 17 25 20 25 27 26 27 23 58 31 117 33 37 25 17 29 30 21 24 21 17 19 55 33 21 72 20 25 18 23 22 27 17 31 114 29 33 96 47 19 119 17 51 18 501
leaf_count=26 108 499 21 21 17 17 25 20 25 27 26 27 23 58 31 117 33 37 25 17 29 30 21 24 21 17 19 55 33 21 72 20 25 18 23 22 27 17 31 114 29 33 96 47 19 119 17 51 18 501
internal_value=0.000140971 -0.0168173 0.0198953 -0.0218182 0.023586 0.0157086 0.00310682 -0.000148672 -0.0237553 -0.017653 0.0100792 -0.00902739 0.00305393 -0.0232455 0.0129574 -0.0116804 -0.00863183 0.00650529 0 0.00434969 -0.00405599 0.0132297 -0.00463297 -0.00173241 0.000437872 -0.00512515 -0.0153741 0.0103977 0.016568 0.00547155 0.0226573 -0.0176084 0.0147604 0.00327021 0.0120555 0.0237555 0.0207223 0.027452 0.0277295 -0.0257378 -0.0269622 -0.0234642 -0.0260335 0.024068 0.0218642 0.0249126 -0.0278994 -0.0226978 -0.0232009 0.0288857
internal_weight=2769 1490 1279 1191 1080 357 299 199 1109 384 190 109 127 197 78 187 121 110 62 82 88 165 38 51 67 46 136 135 59 76 230 64 48 45 44 213 47 723 706 172 725 158 125 174 127 191 567 68 38 532
internal_count=2769 1490 1279 1191 1080 357 299 199 1109 384 190 109 127 197 78 187 121 110 62 82 88 165 38 51 67 46 136 135 59 76 230 64 48 45 44 213 47 723 706 172 725 158 125 174 127 191 567 68 38 532
is_linear=0
shrinkage=0.0300631


Tree=3
num_leaves=50
num_cat=0
split_feature=6 13 13 6 13 21 28 30 21 28 8 1 30 4 4 23 7 8 25 1 29 3 23 6 10 28 29 26 7 25 2 13 22 19 4 21 6 29 7 13 13 22 29 26 13 10 13 26 6
split_gain=1071.77 167.813 92.1322 42.6484 35.2969 25.2987 21.1343 12.2245 11.5995 11.5898 11.0747 9.47472 9.3982 9.32807 9.08035 8.88119 8.44092 10.1669 8.37 7.30432 6.5106 5.98751 5.88181 7.3318 5.54788 5.52576 8.7217 5.30138 5.03508 4.01142 4.00822 3.4097 5.16472 3.37322 3.07377 2.88284 2.33309 2.27152 2.18521 4.3358 2.16738 2.0421 1.74173 1.01999 0.524537 1.23369 0.430788 1.44408 0.562297
threshold=19.071428571428573 116.50000000000001 323.50000000000006 16.485714285714288 144.50000000000003 25.247627000000005 3.1782130000000004 0.96566563948663198 27.667709500000004 2.8791507500000004 26.916666666666671 16.950000000000003 0.17308063849989727 15.850000000000003 16.850000000000005 62.532250000000012 51.607142857142868 25.850000000000005 9.7864375000000017 21.200000000000003 0.062903541315420961 16.950000000000003 61.823047500000008 17.607142857142861 3.6359012550001597 2.6531995500000005 -0.0142503055188363 977.17800000000011 21.892857142857146 16.889326500000003 15.950000000000001 334.50000000000006 95.947035000000014 29.688250000000004 33.500000000000007 26.247623000000001 17.607142857142861 -0.64564585001226449 48.250000000000007 104.50000000000001 150.50000000000003 97.025027000000009 -0.51822491555353623 976.90160000000003 258.50000000000006 3.2511747604851018 168.50000000000003 970.13565000000006 14.578571428571431
decision_type=2 2 2 2 2 2 2 2 2 2 2 2 2 2 2 2 2 2 2 2 2 2 2 2 2 2 2 2 2 2 2 2 2 2 2 2 2 2 2 2 2 2 2 2 2 2 2 2 2
left_child=3 6 4 12 8 9 10 14 18 13 -2 35 40 -6 27 30 17 -10 -3 31 -11 -13 23 -16 -8 26 -21 36 -27 38 -14 -4 -33 -24 -12 -7 41 -17 39 -26 -1 -5 -30 46 -39 -46 47 -42 -48
right_child=1 2 19 7 5 11 24 -9 16 20 34 21 15 -15 22 37 -18 -19 -20 25 -22 -23 33 -25 29 28 -28 -29 42 -31 -32 32 -34 -35 -36 -37 -38 44 -40 -41 43 -43 -44 -45 45 -47 48 -49 -50
leaf_value=-0.15681170926676949 -0.0014286685741934624 0.031657403813512418 -0.0040701010441168235 -0.13231152741602864 -0.11598393581038137 -0.054931764897859947 0.18351700593287962 0.040916658888221956 0.14443671532914057 0.17212613400823146 0.29450713025192438 -0.13519297216829387 -0.023598521948293948 0.0059313475261883073 -0.08103704721636508 -0.17948464474924797 0.79712962299411505 0.019228135377893887 -0.15073805566370471 -0.0026186257395467974 0.027247504647931135 -0.038021690773824057 -0.045593066579526165 0.088699817963021288 0.64532554922316898 0.10556259941208383 0.25341360043012851 -0.023123649502725854 0.10713358169128336 0.96414917707674974 -0.10514095956386926 0.1464213713264691 0.015373284406944448 -0.19785317529303514 0.27979440302780173 -0.18894443621135079 -0.17342663054008625 -0.21945943635423593 1.350901874424612 0.38930732018392816 -0.18939633135252279 -0.092818214588551773 0.2734538559604921 -0.07623919673050876 -0.15846494292070473 -0.20475900967365804 -0.21945943635423593 -0.21945943635423593 -0.18939633135252279
leaf_weight=18 32 23 17 29 21 17 18 27 28 30 24 43 26 45 20 23 33 71 20 20 38 162 28 22 304 31 23 20 25 17 17 22 17 24 18 36 36 36 353 37 17 18 143 17 44 35 459 33 152
leaf_count=18 32 23 17 29 21 17 18 27 28 30 24 43 26 45 20 23 33 71 20 20 38 162 28 22 304 31 23 20 25 17 17 22 17 24 18 36 36 36 353 37 17 18 143 17 44 35 459 33 152
internal_value=1.07273e-05 0.0152038 0.00600626 -0.0230001 -0.00111115 -0.00612103 0.025094 -0.0112291 0.0100841 0.00445588 0.00963375 -0.0116124 -0.0259923 -0.00449132 -0.013825 -0.0196701 0.0144793 0.00993141 -0.00341933 0.0195139 0.0130928 -0.00861454 -0.0069687 0.00139475 0.0266497 0.0217854 0.0116449 -0.0199696 0.0239154 0.0270701 -0.0075321 0.00951114 0.014322 -0.0136434 0.0196326 -0.0228793 -0.0232983 -0.0233797 0.0274296 0.0254137 -0.0276097 -0.0182096 0.0259914 -0.0278989 -0.0251667 -0.0229595 -0.0281159 -0.0236378 -0.0284481
internal_weight=2769 1668 865 1101 567 392 803 224 175 134 74 258 877 66 197 181 132 99 43 298 68 205 94 42 729 242 43 103 199 711 43 56 39 52 42 53 83 138 694 341 696 47 168 678 115 79 661 50 611
internal_count=2769 1668 865 1101 567 392 803 224 175 134 74 258 877 66 197 181 132 99 43 298 68 205 94 42 729 242 43 103 199 711 43 56 39 52 42 53 83 138 694 341 696 47 168 678 115 79 661 50 611
is_linear=0
shrinkage=0.0300631


Tree=4
num_leaves=48
num_cat=0
split_feature=0 43 17 17 12 8 41 1 40 2 9 26 8 1 0 17 26 44 26 25 40 19 17 1 12 2 14 26 2 17 17 40 41 17 35 25 8 8 23 12 19 29 25 44 41 1 2
split_gain=1110.37 108.967 76.5328 54.744 39.432 31.4048 29.1493 19.2678 14.3326 13.7419 13.6932 13.4688 11.6945 11.6429 9.67833 8.65553 7.67108 7.41442 7.4164 7.00569 7.52142 6.81721 6.37253 6.30421 8.16546 7.73001 6.28593 12.326 6.25886 4.94651 5.58028 4.82057 4.77753 4.32584 3.18066 3.1725 2.93586 2.82508 2.39175 2.24153 1.78006 1.31695 1.14246 2.96003 1.19757 0.587782 0.56689
threshold=20.550000000000004 1.0000000180025095e-35 0.63207999751838673 -0.67758968959607091 21.500000000000004 16.81666666666667 216.37466250000003 15.950000000000001 1174.0000000000002 21.900000000000002 2.3094010767593542 975.37878500000011 18.183333333333337 24.300000000000004 15.950000000000001 -0.8038981836306559 973.74407500000018 546.56435507926506 971.28537000000017 7.5385101000000008 452.95000000000005 25.213250500000004 0.36570897681179726 27.400000000000002 25.500000000000004 26.500000000000004 -0.24999999999999997 978.15155000000016 19.450000000000003 0.98927755889796032 0.72064045540576316 774.85000000000014 108.0230925 0.21771516573566843 3.2500000000000004 14.536581500000002 18.81666666666667 45.250000000000007 41.030019000000003 23.500000000000004 32.488250000000008 -0.032197068214391437 5.9481660000000014 542.15167688661006 194.85363400000003 20.800000000000004 14.950000000000001
decision_type=2 2 2 2 2 2 2 2 2 2 2 2 2 2 2 2 2 2 2 2 2 2 2 2 2 2 2 2 2 2 2 2 2 2 2 2 2 2 2 2 2 2 2 2 2 2 2
left_child=2 3 4 15 19 -3 9 33 21 13 -4 -12 16 28 -13 39 46 -14 -19 -1 -21 -7 -18 24 -23 -25 27 -8 -5 30 -11 -15 -16 42 35 -28 41 -10 -17 -2 -22 -35 43 -6 -44 -34 -9
right_child=1 5 10 6 7 8 26 12 37 29 11 14 17 31 32 38 22 18 -20 20 40 23 -24 25 -26 -27 34 -29 -30 -31 -32 -33 45 36 -36 -37 -38 -39 -40 -41 -42 -43 44 -45 -46 -47 -48
leaf_value=0.034843248830319355 -0.055993849037328611 -0.18822497162547033 -0.079536794803180724 0.059653554524220824 -0.21681379331031722 -0.017656549092830466 -0.042490510542872291 -0.18551007012082066 0.30207322641551626 0.1405519049751294 -0.022439495014060156 -0.01380907269868431 0.0044169940316084108 0.14400427423395273 0.02783088872704775 -9.7128762822789997e-05 -0.053542129131581677 -0.043271252418859027 -0.13419195632832234 -0.17096888102381594 0.1218672734766498 -0.08742974655942326 -0.14128344107369567 0.11686278230902492 0.026457509386918567 0.0091964672335738979 0.54986065463348632 0.16664681901426484 -0.02200100812741132 0.17114031092148546 0.23186899323118224 0.16535507653489898 0.075135749674895905 -0.13816474349816646 1.5289844299220421 0.3641778506903201 -0.069668735393932243 0.26483650064981828 0.045782910339076228 -0.057011276478977309 -0.11507408682810341 -0.13813638142941054 -0.21286180427550178 -0.16776714677293209 -0.18370248955613275 0.18811287121663056 -0.18974511596584559
leaf_weight=21 17 28 26 53 66 19 17 71 21 39 21 24 26 24 19 17 30 64 78 25 17 44 25 22 64 33 509 21 30 29 109 20 20 24 256 17 25 33 19 18 17 19 541 36 17 24 74
leaf_count=21 17 28 26 53 66 19 17 71 21 39 21 24 26 24 19 17 30 64 78 25 17 44 25 22 64 33 509 21 30 29 109 20 20 24 256 17 25 33 19 18 17 19 541 36 17 24 74
internal_value=-9.75566e-05 0.0179364 -0.0201816 0.0217955 -0.0226328 0.000452705 0.0234118 -0.0241191 0.00406011 0.0153825 0.00133495 0.00607247 -0.0184188 0.00775651 0.0112879 -0.00376044 -0.0233473 -0.0124606 -0.0151492 -0.00222648 -0.00752774 0 -0.0134488 0.00201604 -0.00220613 0.0102196 0.0263688 0.0139169 0.00107133 0.0207885 0.0230209 0.0200976 0.0174134 -0.026975 0.0269576 0.0254486 -0.0192051 0.0175301 0.00651565 -0.0142429 0.00171484 -0.0239832 -0.027749 -0.0239633 -0.0284025 0.0227784 -0.0269983
internal_weight=2769 1459 1310 1195 1176 264 1124 1096 236 304 134 108 368 127 87 71 200 168 142 80 59 182 55 163 108 55 820 38 83 177 148 44 63 728 782 526 68 54 36 35 34 43 660 102 558 44 145
internal_count=2769 1459 1310 1195 1176 264 1124 1096 236 304 134 108 368 127 87 71 200 168 142 80 59 182 55 163 108 55 820 38 83 177 148 44 63 728 782 526 68 54 36 35 34 43 660 102 558 44 145
is_linear=0
shrinkage=0.0300631


Tree=5
num_leaves=52
num_cat=0
split_feature=5 6 27 27 12 12 20 23 6 41 41 20 41 10 12 5 10 30 6 16 10 16 16 6 22 6 27 27 19 44 27 4 9 10 16 19 26 19 44 22 12 19 9 6 9 41 16 41 23 16 22
split_gain=1074.08 113.371 74.3409 38.9071 24.0484 22.0857 18.8394 16.4504 20.0838 15.1127 14.3138 11.7999 11.6352 10.404 9.68142 9.43597 7.7016 7.67091 7.30537 10.7731 7.29124 6.9296 12.8945 6.75851 6.98386 6.73329 6.66143 6.519 6.51566 8.68152 7.17003 5.72301 5.01061 4.88872 4.77722 4.57064 3.77506 3.64207 3.62195 3.55589 4.87844 3.20626 2.88861 2.22432 3.40715 2.33113 1.86347 1.39705 1.16608 2.38302 0.192941
threshold=21.383333333333336 17.028571428571432 61.062500000000007 51.416666000000006 16.500000000000004 45.500000000000007 20.263250000000003 73.959995000000006 20.750000000000004 198.59506100000002 119.69574900000002 21.563250000000004 165.67822000000004 5.2048686438196841 21.500000000000004 33.833333333333336 5.9912937694175161 0.44721082963941722 14.72857142857143 -0.94130860066615785 8.6064574031366732 -0.52707282776374165 -0.21772121422198129 26.214285714285719 89.363960000000006 21.785714285714288 86.312500000000014 37.895834000000008 28.288250000000001 901.2582522781878 35.062500000000007 18.800000000000004 8.5648756300373012 13.810701135252847 -0.49750868180287644 26.438250000000004 977.88285000000008 28.138250500000002 1193.7550486622652 94.008840000000006 45.500000000000007 29.313250000000004 3.7320987732844082 16.157142857142862 2.2990681342030039 48.241243250000004 -0.055916472294523394 302.00577200000004 30.637334500000005 0.99466160899732492 89.363960000000006
decision_type=2 2 2 2 2 2 2 2 2 2 2 2 2 2 2 2 2 2 2 2 2 2 2 2 2 2 2 2 2 2 2 2 2 2 2 2 2 2 2 2 2 2 2 2 2 2 2 2 2 2 2
left_child=1 5 4 10 23 14 -5 8 -4 21 27 39 13 31 -1 26 34 43 37 -20 -18 36 -23 24 -2 -11 -13 -3 46 33 -31 -6 -17 -30 -12 -9 -8 -19 48 47 -41 -15 -36 45 -45 -16 50 -10 -25 -50 -14
right_child=2 3 7 6 12 -7 9 35 11 25 16 15 28 41 17 32 20 18 19 -21 -22 22 -24 38 -26 -27 -28 -29 29 30 -32 -33 -34 -35 42 -37 -38 -39 -40 40 -42 -43 -44 44 -46 -47 -48 -49 49 -51 -52
leaf_value=-0.039190328032211133 0.32016240898703002 -0.059474379694083451 -0.1104058102197666 0.10693965892428832 0.037241080882609516 0.0020498064399955803 -0.15199846272819298 -0.0013247872280401122 0.25866889974291202 -0.050473286648296145 0.065484673877281879 -0.035837382622732408 0.27831270241113526 0.18011298339752593 -0.23899673278730432 0.32653481145341978 -0.060069893626287701 -0.15811521392133857 0.024702337942697793 -0.20646251750271327 0.26438827663906389 0.040825089931744316 -0.11519901761357107 1.3545128650691827 0.028801827040168065 0.041568653553391371 0.035621429172213594 0.070888723723959088 0.12938816601236874 0.15169786122417114 -0.029789906329472191 -0.091305361627850828 0.10706646041105031 0.52811035982106347 0.13318132554779347 -0.10332166642456476 -0.12586227066780148 -0.17639941250100014 0.87132138788926994 0.032986727843617204 0.13067507629234104 0.071888420410928175 0.3431856306899681 -0.040044824794727735 -0.20094515231466098 -0.20646251750271327 0.16599530178422695 0.60615572128482742 0.62351945104206852 0.66658511961354971 0.27876557038078431
leaf_weight=26 25 31 17 25 25 25 126 24 31 33 26 45 26 22 17 26 22 21 24 31 17 21 125 242 26 22 39 18 111 22 20 24 31 37 18 18 20 75 19 22 20 17 28 17 32 638 17 20 338 22 72
leaf_count=26 25 31 17 25 25 25 126 24 31 33 26 45 26 22 17 26 22 21 24 31 17 21 125 242 26 22 39 18 111 22 20 24 31 37 18 18 20 75 19 22 20 17 28 17 32 638 17 20 338 22 72
internal_value=0.000300844 -0.0178012 0.0194687 -0.00676957 0.0231564 -0.024266 -0.0120934 0.00603479 0.008951 -0.0139132 0.00560459 0.011263 0.0171733 0.00743925 -0.0250562 0.00571947 0.0115536 -0.0256066 -0.0192006 -0.0102196 0.000745474 -0.0166288 -0.0118707 0.0266286 0.0156456 0.000531941 -0.000704426 -0.00783163 0.0199519 0.0163798 0.00420057 -0.0018019 0.0150624 0.0197895 0.0173255 -0.0112151 -0.0212873 -0.0242062 0.0275072 0.0195348 0.012618 0.0188475 0.0230893 -0.0269551 -0.0198911 -0.0274563 0.0256857 0.0249211 0.0279253 0.0264916 0.0273658
internal_weight=2796 1438 1358 532 1065 906 372 293 251 347 160 234 393 88 881 141 111 855 151 55 39 292 146 672 51 55 84 49 305 190 42 49 57 148 72 42 146 96 621 93 42 39 46 704 49 655 115 51 602 360 98
internal_count=2796 1438 1358 532 1065 906 372 293 251 347 160 234 393 88 881 141 111 855 151 55 39 292 146 672 51 55 84 49 305 190 42 49 57 148 72 42 146 96 621 93 42 39 46 704 49 655 115 51 602 360 98
is_linear=0
shrinkage=0.0300631


Tree=6
num_leaves=51
num_cat=0
split_feature=40 6 27 27 19 13 13 6 40 41 12 19 6 40 19 23 22 30 44 43 27 40 19 13 22 12 22 6 44 19 23 6 6 29 22 19 28 40 32 44 28 41 1 29 29 13 30 22 40 23
split_gain=997.555 153.185 76.8465 45.93 35.3773 28.8212 24.94 22.1425 17.08 16.3986 15.092 11.6031 10.5852 10.4992 7.92626 10.7817 7.72434 7.5468 9.7439 7.06709 6.76042 6.57699 7.2665 6.33642 5.97044 5.88956 5.70265 6.99379 5.65124 4.80999 4.8071 4.74625 4.69686 4.70515 4.16981 3.511 6.38843 2.82719 2.85021 2.81149 2.23591 2.22405 2.09516 1.74125 1.67493 1.44472 1.13527 0.792459 0.640559 0.308671
threshold=670.18301150000013 18.357142857142858 61.062500000000007 48.645834000000008 26.038250000000001 317.50000000000006 118.50000000000001 21.785714285714288 523.87500000000011 117.98776100000002 21.500000000000004 28.288250000000001 14.578571428571431 1360.32725 34.713250000000009 72.234760000000009 88.47256800000001 0.44721082963941722 675.74945907844005 1.0000000180025095e-35 31.312500000000004 1833.6752500000002 30.313250000000004 312.50000000000006 97.299747000000011 20.500000000000004 94.305025000000015 22.592857142857149 769.4470109307241 28.738250500000003 54.983791000000004 25.992857142857147 22.207142857142859 0.0074667675745681015 92.537295000000015 29.738250500000003 2.8493256500000004 824.52500000000009 1.0000000180025095e-35 938.7637835533601 4.724345350000001 48.241243250000004 12.400000000000002 -0.43454971474369664 -0.41418301711731537 140.50000000000003 0.76822215773361491 95.377187000000006 458.37500000000006 30.637334500000005
decision_type=2 2 2 2 2 2 2 2 2 2 2 2 2 2 2 2 2 2 2 2 2 2 2 2 2 2 2 2 2 2 2 2 2 2 2 2 2 2 2 2 2 2 2 2 2 2 2 2 2 2
left_child=1 5 6 9 26 10 19 28 35 30 -1 43 41 14 15 24 -10 42 -19 37 -7 22 29 -18 -9 -24 -5 -28 -4 -13 -3 32 33 -11 -34 36 -6 38 -2 -21 -15 -12 -14 -8 -33 -16 -43 49 -37 -39
right_child=2 3 7 4 8 20 11 13 16 31 12 21 17 40 45 -17 23 18 -20 39 -22 -23 25 -25 -26 -27 27 -29 -30 -31 -32 44 34 -35 -36 48 -38 47 -40 -41 -42 46 -44 -45 -46 -47 -48 -49 -50 -51
leaf_value=-0.038012145085527145 0.17373120952291804 -0.093694673608731169 -0.11074032317750501 0.25089250944926328 -0.14673476998003607 0.041807626424825516 0.15098045345398967 0.12039386686533356 0.06559217249669598 0.15568478977740108 -0.20174864391274014 0.0099988534489145742 -0.14012940315668485 0.45860343623988042 0.012478087358958447 -0.025906039658200469 -0.070485820245333397 -0.13556239381733959 -0.031253306272678992 0.40844103243374302 -0.051303879810084191 0.47019033062629839 0.10930521205886135 0.010557695469587288 0.023238753036675289 -0.038017434783163599 0.14712111952642712 -0.021225815181386831 0.0028324279626126265 0.13467953497329707 0.069727231279707133 0.50169725826103939 0.083235303309755301 0.051735889995001817 -0.012968771390435866 -0.21367641225181203 -0.082154563267021891 1.3137920025804364 0.35391597357338583 0.057564251389655527 0.66467499928208107 -0.20161129858362717 -0.14538700367213211 0.31569346450396152 0.30144767922765425 -0.053082996903655796 -0.15283907981671813 0.38773354867166843 -0.14354470500002345 0.66490073031820651
leaf_weight=32 18 22 33 19 57 18 24 86 18 24 17 17 33 20 20 17 96 41 40 18 18 21 58 19 27 39 20 17 26 95 19 17 19 21 22 34 54 263 22 20 25 509 214 80 24 17 70 20 19 317
leaf_count=32 18 22 33 19 57 18 24 86 18 24 17 17 33 20 20 17 96 41 40 18 18 21 58 19 27 39 20 17 26 95 19 17 19 21 22 34 54 263 22 20 25 509 214 80 24 17 70 20 19 317
internal_value=0.000386835 -0.0161448 0.0198801 -0.00293733 -0.00908952 -0.0230725 0.0236855 0.00563849 -0.0132208 0.00996803 -0.0240663 0.0168773 -0.0247689 0.0101673 0.00662455 0.0101058 -0.00516294 -0.0202934 -0.0121153 0.0270132 0.00325308 0.0130208 0.0113154 -0.00804092 0.013463 0.00521901 0.0126836 0.00554945 -0.0105412 0.0165124 -0.00645556 0.0152806 0.0110717 0.0176927 0.00358271 -0.0196925 -0.0163913 0.0277706 0.019122 0.0139169 0.0229372 -0.0271986 -0.0229227 0.0252265 0.0236927 -0.00554945 -0.0275294 0.0283184 -0.0262284 0.0285689
internal_weight=2796 1513 1283 521 353 992 1012 271 297 168 956 334 924 212 167 130 133 328 81 678 36 230 209 115 113 97 56 37 59 112 41 127 86 45 41 164 111 640 40 38 45 596 247 104 41 37 579 600 53 580
internal_count=2796 1513 1283 521 353 992 1012 271 297 168 956 334 924 212 167 130 133 328 81 678 36 230 209 115 113 97 56 37 59 112 41 127 86 45 41 164 111 640 40 38 45 596 247 104 41 37 579 600 53 580
is_linear=0
shrinkage=0.0300631


Tree=7
num_leaves=59
num_cat=0
split_feature=40 24 20 13 19 40 20 22 44 26 22 20 27 19 26 21 13 26 20 13 24 40 26 10 40 24 44 44 22 20 27 10 21 26 24 40 21 13 35 40 20 44 22 19 13 35 13 40 10 26 20 13 13 23 22 19 27 13
split_gain=962.143 134.676 131.126 46.516 35.1186 29.4535 21.266 19.4292 13.8577 12.6002 10.5167 10.2519 10.2432 12.3853 9.61101 9.2711 8.59348 8.28905 8.22015 7.49904 6.92599 7.84405 6.75032 6.58165 6.55156 6.17491 5.76497 5.56851 5.33308 5.32638 6.92573 5.21408 4.67989 4.63837 4.5321 3.95389 3.50202 7.29295 5.92953 3.23493 3.19572 3.18104 3.04717 2.89227 2.57252 5.23207 2.47424 3.95187 1.40489 1.34313 1.27835 0.610328 0.602864 0.597111 0.717054 0.581371 0.455136 0.107954
threshold=606.79150000000016 0.45000000000000007 20.263250000000003 122.50000000000001 30.288250000000001 471.10000000000008 21.563250000000004 83.328580000000017 542.15167688661006 972.90660000000014 92.537295000000015 22.288250000000001 52.062500000000007 29.188250000000004 978.85400000000016 23.905209000000003 138.50000000000003 979.05532500000015 24.613250500000003 150.50000000000003 4.1999996500000014 666.42826050000019 977.50390000000004 4.9213595905782492 835.72500000000014 0.75000002500000018 675.74945907844005 623.32752606900408 94.856612500000011 21.913250000000001 97.354168000000016 6.4039820476360587 22.826039500000004 978.85400000000016 3.0000003500000005 512.20025850000013 26.216666000000004 215.50000000000003 0.17857142857142852 1076.6000000000001 21.363250500000003 528.52812121735121 95.377187000000006 25.413250000000001 303.50000000000006 0.17857142857142852 298.50000000000006 319.42075000000006 5.5992541814701129 978.15155000000016 23.163250000000001 309.50000000000006 154.50000000000003 30.637334500000005 86.432020000000009 29.563250000000004 99.937500000000014 360.50000000000006
decision_type=2 2 2 2 2 2 2 2 2 2 2 2 2 2 2 2 2 2 2 2 2 2 2 2 2 2 2 2 2 2 2 2 2 2 2 2 2 2 2 2 2 2 2 2 2 2 2 2 2 2 2 2 2 2 2 2 2 2
left_child=2 3 8 24 17 11 15 -8 35 16 48 33 13 -7 22 43 39 32 -18 -14 21 28 -12 52 27 -23 -15 -2 -9 40 -31 -29 49 46 -25 -1 37 -22 -38 -6 -21 -34 53 -3 45 -11 47 -4 -10 -5 -36 -48 -13 -26 -55 -17 -54 -19
right_child=1 6 5 4 9 12 7 20 10 44 14 23 19 26 -16 55 18 57 -20 29 36 25 -24 34 42 -27 -28 31 -30 30 -32 -33 41 -35 50 -37 38 -39 -40 -41 -42 -43 -44 -45 -46 -47 51 -49 -50 -51 -52 -53 56 54 -56 -57 -58 -59
leaf_value=-0.082867621513866591 0.17840190129709946 -0.0051954530572183777 -0.1503134434800612 0.23187960749145406 0.10629592956601552 0.048082224941948734 0.28016106490325132 -0.12821799032711914 0.19984167833189009 -0.065095638269248954 0.012357077056898834 -0.15605752585526647 0.0021435902845674606 -0.082549250301006433 -0.012243856139799987 0.13289908924323998 0.057561717246759785 0.25765712451886186 -0.036874512649381561 -0.025670838395623004 0.026873363551878877 -0.054728175768588974 0.10552853502891368 -0.11196386464361881 1.2439184285869669 0.028493376850141822 0.073072896730834336 0.0091930351429397629 -0.051268110366818283 -0.16458334166071861 -0.10490902679846448 0.44173446891570201 0.075179196541494436 -0.025781592981172982 -0.13542402694134956 0.016572298900552427 -0.18626181500880434 -0.13640556383135383 -0.013548747481466571 0.45605494934588975 -0.0092863979877653418 0.097398242101566737 0.30985884096935157 0.10870432573002269 0.019477158756142331 -0.0031847222964807341 -0.1390395895963856 -0.054539330721866661 0.38946428698893498 0.13092702637636305 -0.21086299082331533 -0.074707014230412858 -0.19600213208594777 0.67497485484864772 0.60275490759936756 0.79740752710054719 -0.22425765652297289 0.1399441149235908
leaf_weight=17 30 17 29 43 19 19 32 21 32 23 18 18 19 30 26 21 17 66 21 19 24 27 24 30 282 73 19 22 19 118 87 17 28 17 17 17 28 19 23 19 22 98 22 28 19 23 22 39 17 17 29 17 589 186 145 17 41 18
leaf_count=17 30 17 29 43 19 19 32 21 32 23 18 18 19 30 26 21 17 66 21 19 24 27 24 30 282 73 19 22 19 118 87 17 28 17 17 17 28 19 23 19 22 98 22 28 19 23 22 39 17 17 29 17 589 186 145 17 41 18
internal_value=0.000257848 0.0170748 -0.0182245 0.0221727 0.014087 -0.0215958 0.000772365 -0.00337836 0.0081144 0.00190485 0.013006 -0.0245782 -0.0139563 -0.00348768 0.00523405 0.0139773 0.0101654 0.0204212 0 -0.0166214 -0.00639878 -0.0021318 0.014021 -0.0259625 0.0268698 0.00238112 -0.0114495 0.0176391 -0.0132357 -0.0180225 -0.0200055 0.0097965 0.0167304 -0.0163701 -0.0172061 -0.00861437 -0.0126734 -0.00616118 -0.0179645 0.0201062 -0.00789199 0.0132682 0.0278471 0.00458134 -0.00775489 -0.0115409 -0.0186715 -0.0148391 0.0235089 0.0237056 -0.0230893 -0.0248815 -0.0269649 0.0282574 0.0269042 0.0247482 -0.0271624 0.0283379
internal_weight=2796 1464 1332 1115 411 1181 349 266 151 141 117 848 333 68 68 83 76 270 38 265 234 140 42 724 704 100 49 69 40 246 205 39 186 124 76 34 94 43 51 38 41 126 635 45 65 46 107 68 49 60 46 39 648 613 331 38 630 84
internal_count=2796 1464 1332 1115 411 1181 349 266 151 141 117 848 333 68 68 83 76 270 38 265 234 140 42 724 704 100 49 69 40 246 205 39 186 124 76 34 94 43 51 38 41 126 635 45 65 46 107 68 49 60 46 39 648 613 331 38 630 84
is_linear=0
shrinkage=0.0300631


Tree=8
num_leaves=58
num_cat=0
split_feature=5 6 24 24 12 17 21 24 7 35 21 3 44 27 6 22 8 24 6 6 21 30 8 4 3 30 25 13 22 27 35 1 3 17 27 9 4 1 44 2 21 7 6 27 21 2 3 35 22 12 30 35 13 7 13 9 9
split_gain=990.889 116.174 85.7823 41.2523 36.2926 29.4579 22.717 17.5016 16.9419 11.4024 11.0616 10.0652 9.15334 8.91316 8.87545 8.88519 8.43658 8.07568 8.05737 7.21294 6.89566 6.8704 9.25048 6.83114 6.59714 6.50772 5.88783 5.55246 7.63145 5.27926 4.98124 16.1721 4.67212 4.59321 6.91638 7.41733 4.59005 3.80497 3.47405 3.43289 3.21601 2.86808 2.75784 2.72261 2.7038 2.52195 1.97348 1.63037 1.57639 1.55369 1.44825 1.39638 1.13213 3.31648 1.24745 0.995713 0.603552
threshold=21.383333333333336 17.028571428571432 0.45000000000000007 0.80000005000000007 17.500000000000004 0.67123509350548782 25.656998500000004 3.0000001000000007 50.678571428571438 1.0000000180025095e-35 25.656998500000004 21.900000000000002 561.3731356115635 87.437500000000014 26.500000000000004 91.113230000000016 21.283333333333335 12.399999500000002 13.500000000000002 21.785714285714288 26.144501500000004 -0.89605759477522862 21.516666666666669 16.850000000000005 15.100000000000001 0.62789730879755667 7.7420820000000008 214.50000000000003 95.888720000000021 55.854166000000006 2.3928571428571432 42.500000000000007 26.500000000000004 -0.021515300460958446 78.625000000000014 6.5755680544037247 12.850000000000003 22.650000000000002 604.06807387896413 18.800000000000004 22.826039500000004 22.217857142857145 16.028571428571432 80.770832000000013 22.362212000000003 26.500000000000004 20.550000000000004 2.6071428571428577 92.67346000000002 29.500000000000004 -0.96376269733303732 0.96428571428571441 278.50000000000006 13.746428571428572 168.50000000000003 2.5071326821100302 3.4982989063376766
decision_type=2 2 2 2 2 2 2 2 2 2 2 2 2 2 2 2 2 2 2 2 2 2 2 2 2 2 2 2 2 2 2 2 2 2 2 2 2 2 2 2 2 2 2 2 2 2 2 2 2 2 2 2 2 2 2 2 2
left_child=1 5 4 9 14 16 24 11 29 10 19 26 -11 -12 15 -2 42 20 46 -3 21 22 -5 -9 -6 38 -4 28 -22 32 31 48 -8 34 -25 -36 -23 41 -20 -26 -41 -14 52 -44 -35 -31 -18 50 -13 -19 51 -16 54 -54 -1 -45 -52
right_child=2 3 7 17 6 -7 8 23 -10 12 13 30 37 -15 47 -17 18 49 25 -21 27 36 -24 33 39 -27 -28 -29 -30 45 -32 -33 -34 44 35 -37 -38 -39 -40 40 -42 -43 43 55 -46 -47 -48 -49 -50 -51 56 -53 53 -55 -56 -57 -58
leaf_value=-0.15973784880855046 0.31579928358016451 0.077163542759179041 -0.020856339792612512 0.058819128920794037 0.047779619261046805 0.01176261903378328 -0.022935135616310144 -0.093572143167644228 0.93027483270681055 -0.026183776302906997 -0.10465047680074548 0.10287990782327168 0.1228736339378874 0.0016845117617835129 0.65057422457559255 0.00021214025394530089 -0.1912975804464751 -0.060950345552647549 -0.014879712637999384 -0.056014626200422947 -0.16153733889643698 -0.15259366403623811 -0.044224523225494437 -0.065178547600227857 0.075814351771277697 -0.0068295372169300921 0.056248606068303168 -0.20242913838536014 0.0052344715046238974 -0.056328985182926089 0.71841928523732834 -0.11448950147076081 0.11049525716256343 -0.0011973802782421863 -0.074476279545008947 0.11048835057528873 -0.052709148915104108 0.055831233297091533 -0.16516724949898134 0.24085140195066893 0.086693109185103215 0.17587242030490535 -0.050101896848996172 -0.10837059642292507 0.20047647404771746 -0.0051654691788387309 -0.14811276746801866 1.3279077039745462 0.14100730082653606 -0.17332533260654606 0.43586914167636842 0.41634933075748493 -0.11353751794576601 -0.15992514290394039 -0.18832928958595793 -0.19105424580406882 0.56666485576605063
leaf_weight=33 30 31 21 18 30 25 23 20 18 33 25 28 21 20 22 25 70 17 17 20 59 17 32 26 24 26 28 25 25 18 21 23 27 17 28 18 74 19 60 124 99 60 22 21 20 18 17 252 31 36 27 29 39 35 518 23 311
leaf_count=33 30 31 21 18 30 25 23 20 18 33 25 28 21 20 22 25 70 17 17 20 59 17 32 26 24 26 28 25 25 18 21 23 27 17 28 18 74 19 60 124 99 60 22 21 20 18 17 252 31 36 27 29 39 35 518 23 311
internal_value=0.000128862 -0.017258 0.0185395 -0.00609255 0.0223966 -0.0238019 0.0148788 0.00373187 0.00286369 0.0035298 -0.00434175 0.0106181 0.00920555 -0.0150704 0.026488 0.0145253 -0.0247153 -0.0133555 -0.0189 0.00521071 -0.011024 -0.00656717 0.00235759 -0.00439594 0.0193658 -0.0130225 -0.000595955 -0.0166897 -0.0127498 -0.00276491 0.0159171 0.0123319 0.00353982 -0.00136508 -0.00577195 0.00127569 -0.0114509 0.0137079 -0.0173712 0.020982 0.0221572 0.0165224 -0.0262884 -0.0197796 0.00713764 -0.0114095 -0.0256593 0.0274931 0.020586 -0.0239957 0.0259862 0.0202834 -0.0269471 -0.022485 -0.0275098 -0.0241187 0.0267921
internal_weight=2796 1438 1358 532 1077 906 381 281 104 229 96 152 133 45 696 55 881 303 190 51 250 141 50 129 277 103 49 109 84 86 103 82 50 109 72 46 91 100 77 247 223 81 691 66 37 36 87 641 59 53 389 51 625 74 551 44 338
internal_count=2796 1438 1358 532 1077 906 381 281 104 229 96 152 133 45 696 55 881 303 190 51 250 141 50 129 277 103 49 109 84 86 103 82 50 109 72 46 91 100 77 247 223 81 691 66 37 36 87 641 59 53 389 51 625 74 551 44 338
is_linear=0
shrinkage=0.0300631


Tree=9
num_leaves=56
num_cat=0
split_feature=5 5 13 20 12 13 13 13 35 43 3 44 4 20 16 9 23 29 17 44 3 10 3 10 10 10 16 17 29 20 20 10 16 44 4 29 29 5 44 9 4 5 20 16 21 19 5 16 5 9 9 35 13 10 10
split_gain=945.692 109.967 71.2064 35.6374 34.5332 23.5993 20.5752 19.2953 18.1447 14.5905 14.2963 10.6978 9.56822 9.27829 10.3911 8.22712 8.05709 7.99076 7.37115 6.992 12.1771 6.26892 9.6373 6.15414 6.52544 5.82902 5.53844 9.34048 5.48522 5.1043 5.0898 5.25646 5.03926 5.15642 4.95505 4.87994 4.34987 4.10432 3.91103 2.83985 2.77846 2.55815 2.5485 2.49729 2.26076 2.13024 2.0648 1.42763 1.3916 1.12049 2.76022 0.598899 0.398704 0.12016 0.795505
threshold=21.383333333333336 17.133333333333336 116.50000000000001 21.563250000000004 46.500000000000007 152.50000000000003 278.50000000000006 136.50000000000003 2.2500000000000004 1.0000000180025095e-35 14.950000000000001 611.05021809889013 17.950000000000003 21.563250000000004 0.59125596962661842 9.5493701349298217 34.595479500000003 0.4756162442137894 -0.91583036384466887 588.84716993808468 25.900000000000002 4.3399498655129332 26.500000000000004 20.935077561086445 8.5106572466416139 4.4512004324090091 -0.73831951690629072 0.8977101403255705 -0.43053526758093419 23.188250000000004 19.713250500000004 15.763357716621316 -0.82391537601316189 609.57767695784605 13.850000000000003 0.17802166985116658 -0.52824647485623644 24.366666666666667 669.76071296341217 1.6991515460454703 18.800000000000004 16.383333333333336 23.388250500000002 0.081675638985454713 25.600750500000004 29.163250000000001 26.383333333333333 -0.52707282776374165 23.383333333333333 1.9880595947736317 2.058663459160941 0.4642857142857143 358.50000000000006 8.6064574031366732 4.8800161399983581
decision_type=2 2 2 2 2 2 2 2 2 2 2 2 2 2 2 2 2 2 2 2 2 2 2 2 2 2 2 2 2 2 2 2 2 2 2 2 2 2 2 2 2 2 2 2 2 2 2 2 2 2 2 2 2 2 2
left_child=1 5 9 11 8 29 41 -5 13 16 44 26 36 32 17 -16 51 -15 43 20 46 47 40 24 -11 -18 -3 -28 38 -1 37 -32 35 -34 -20 -4 -8 -27 -21 -38 -23 49 -43 -12 -9 -14 -6 -13 -30 -7 -51 -2 -50 54 -53
right_child=2 3 4 7 19 6 12 10 -10 23 18 21 45 14 15 -17 25 -19 34 28 -22 22 -24 -25 -26 30 27 -29 48 -31 31 -33 33 -35 -36 -37 39 -39 -40 -41 -42 42 -44 -45 -46 -47 -48 -49 52 50 -52 53 -54 -55 -56
leaf_value=0.047446417584832958 0.27842843122549255 -0.052943591853878307 0.14174030748603322 0.1521724968634412 -0.011123467412534059 -0.18264035563607955 -0.021485802961815948 -0.19957503939470447 0.66953296055490985 0.1059410026171432 0.021106168524847219 0.049714427683509609 0.010048599690860294 -0.013404819749705962 0.061846964306695965 -0.078676384767788779 0.049198160832202249 -0.10316448996213197 -0.14154108438277829 0.14754988112131759 0.22513923226134891 0.042480539029868973 0.22975409785717138 0.59013756943274454 -0.082972919878197479 0.090490247186935005 0.11104554576329614 -0.037509016460428542 0.10402192206930384 -0.12895468047267425 0.3604066294378343 0.86474572017634999 0.076500749925055803 -0.014794829431258566 -0.069014204384678757 0.010454340373348581 -0.076963073183415581 0.47926099546640077 0.066507001220166326 -0.13404032921596107 -0.016008805380978989 -0.04940385027992595 -0.16471384163630404 -0.096847088035238033 -0.19035364446054609 -0.01684501666554572 0.043310964918422346 0.11562189421471658 0.24590757182032441 -0.15352600640369232 -0.18531837128406642 1.5061369745746127 0.10765579692116081 1.1736183664311384 0.52778456108965688
leaf_weight=27 23 21 23 32 17 290 19 30 31 21 26 17 20 75 87 29 20 33 26 20 28 17 23 25 22 20 25 18 18 31 42 53 20 27 121 17 17 210 30 96 17 17 24 30 43 17 22 19 89 18 397 43 20 256 37
leaf_count=27 23 21 23 32 17 290 19 30 31 21 26 17 20 75 87 29 20 33 26 20 28 17 23 25 22 20 25 18 18 31 42 53 20 27 121 17 17 210 30 96 17 17 24 30 43 17 22 19 89 18 397 43 20 256 37
internal_value=-2.13727e-05 -0.0170072 0.0179643 -0.00496827 0.0100399 -0.0227509 -0.0239291 -0.0109005 0.00385707 0.0239611 -0.0134635 0.00666332 -0.0143341 0.00163768 -0.00160282 0.00462771 0.0252491 -0.00828182 -0.00928894 0.0186608 0.0101845 0.0131287 0.00674875 0.0104732 0.00341933 0.0218167 -0.00277573 0.00341933 0.0218027 -0.00408023 0.0227867 0.0166182 0.00991917 0.00313354 -0.012807 0.0176504 -0.0180997 0.0252618 0.0129977 -0.020328 -0.00343973 -0.0260833 -0.017947 0 -0.0248246 -0.000784856 -0.000745474 0.0228285 0.025156 -0.0265336 -0.025229 0.0284867 0.0265412 0.0289145 0.0260217
internal_weight=2796 1438 1358 465 586 973 915 308 342 772 276 157 169 311 224 116 704 108 203 244 67 93 57 68 43 345 64 43 177 58 325 95 87 47 147 40 132 230 50 113 34 746 41 56 73 37 39 36 127 705 415 359 109 336 80
internal_count=2796 1438 1358 465 586 973 915 308 342 772 276 157 169 311 224 116 704 108 203 244 67 93 57 68 43 345 64 43 177 58 325 95 87 47 147 40 132 230 50 113 34 746 41 56 73 37 39 36 127 705 415 359 109 336 80
is_linear=0
shrinkage=0.0300631


Tree=10
num_leaves=50
num_cat=0
split_feature=0 0 26 13 12 20 4 21 23 13 28 21 42 20 9 23 4 4 2 13 35 0 25 12 30 25 35 20 28 23 44 9 40 44 4 19 30 30 12 19 13 23 2 28 26 13 20 20 34
split_gain=884.194 95.3042 73.4852 45.3395 28.7888 28.7792 27.3025 17.7063 14.2629 14.1227 11.9823 10.9056 10.8425 10.3337 9.44806 9.4051 8.32796 9.54581 7.69776 7.66354 6.79405 6.58766 6.25376 7.92902 9.106 6.10037 6.09999 5.76784 5.58916 9.14779 5.1363 4.87227 4.65053 4.56686 4.45226 4.2546 4.00024 3.99533 3.99472 3.93691 3.80151 3.67319 3.34151 4.43203 2.52195 2.41761 1.3502 3.96345 1.19668
threshold=20.550000000000004 26.500000000000004 975.28380000000004 146.50000000000003 16.500000000000004 22.288250000000001 12.850000000000003 31.853875000000006 71.868442000000016 144.50000000000003 2.7282969000000006 25.689292000000005 23.864285714285717 21.313250000000004 2.4035593362496228 55.229389000000005 14.950000000000001 26.500000000000004 16.950000000000003 289.50000000000006 0.39285714285714285 14.550000000000002 6.2922790000000015 6.5000000000000009 0.60587922372948788 6.3944167000000016 1.0000000180025095e-35 24.163250000000001 3.1509850000000004 69.954879500000018 1147.5044370787903 3.4086724129843105 468.80025000000006 1009.0301448681427 24.500000000000004 28.863250500000003 0.27754043699073278 0.83670112322979862 41.500000000000007 27.538250000000001 64.500000000000014 59.601932500000004 30.500000000000004 4.8341893000000011 977.31927500000018 309.50000000000006 24.038250000000001 23.913250000000001 3.9285714285714293
decision_type=2 2 2 2 2 2 2 2 2 2 2 2 2 2 2 2 2 2 2 2 2 2 2 2 2 2 2 2 2 2 2 2 2 2 2 2 2 2 2 2 2 2 2 2 2 2 2 2 2
left_child=2 5 3 20 10 22 38 12 11 42 -3 14 13 15 37 -6 -11 18 -18 21 27 46 31 24 -24 -16 -15 -1 29 -23 34 44 -13 -30 40 -33 -10 -8 -4 -25 -12 -41 43 -7 -2 -40 47 -5 -36
right_child=1 4 6 19 7 9 8 -9 36 16 30 32 -14 26 25 -17 17 -19 -20 -21 -22 28 23 39 -26 -27 -28 -29 33 -31 -32 35 -34 -35 48 -37 -38 -39 45 41 -42 -43 -44 -45 -46 -47 -48 -49 -50
leaf_value=0.015440577693240322 0.082312314713180651 0.080771174525151881 -0.10495787291855951 -0.17977947806760106 0.25331035136134039 0.0045682996158381318 -0.039655144764086665 -0.021745911966039415 -0.076655183750229366 -0.12341034244483899 0.45256299049575216 -0.086790558936465562 0.38272899744945915 -0.058984253053509156 0.013045094670342179 0.10756766067090989 -0.11122832119566513 -0.077972779402611991 0.020510953092437344 -0.018527618298586748 -0.11892978848837241 0.0072854518896529512 -0.054075013742401062 0.23447119902838326 0.10542441069480704 0.069639575776803853 0.092637913212182857 0.12112845723501947 -0.1343448697642704 -0.099636117146563827 0.61390105481106794 0.013523057201255429 0.073188139423853923 -0.13439242692555126 0.61220236869162437 -0.055555797911377894 -0.074472747031574346 0.043421590219946495 -0.1362113120494968 0.13711830303647674 1.1616956444051449 0.026789757807457022 -0.00016696213631049251 0.16298590433356344 0.036729886891360919 -0.12556499488397613 -0.20721272444875505 -0.15447965640089556 1.4022004844188498
leaf_weight=28 18 26 22 435 104 17 17 19 18 31 80 19 58 24 41 69 18 27 49 26 30 17 20 38 28 68 86 17 168 128 33 18 17 42 348 19 17 17 38 69 31 20 25 19 18 19 107 19 189
leaf_count=28 18 26 22 435 104 17 17 19 18 31 80 19 58 24 41 69 18 27 49 26 30 17 20 38 28 68 86 17 168 128 33 18 17 42 348 19 17 17 38 69 31 20 25 19 18 19 107 19 189
internal_value=0.000566527 0.0163138 -0.0174754 -0.0212949 0.0211424 0.00442372 -0.00419331 0.0141617 0.00139758 -0.00450297 0.0246749 0.00484537 0.0157403 0.0132374 0.00856564 0.0178085 -0.0102684 -0.005701 0.000437872 -0.0230844 0.00118431 -0.0235423 0.0111126 0.0141869 0.00368472 0.0128585 0.00596292 0.00851474 -0.0201899 -0.015456 0.0254394 0.00365861 -0.00977822 -0.0233806 0.0260382 -0.00396125 -0.0159196 -0.00516461 -0.0191949 0.0181022 0.0201539 0.0143823 0.00728435 0.0130408 0.0114095 -0.023376 -0.025629 -0.0247181 0.0272198
internal_weight=2811 1501 1310 1017 1067 434 293 360 214 186 707 179 341 283 143 173 125 94 67 942 75 916 248 175 48 109 110 45 355 145 681 73 36 210 648 37 35 34 79 127 111 89 61 36 36 57 561 454 537
internal_count=2811 1501 1310 1017 1067 434 293 360 214 186 707 179 341 283 143 173 125 94 67 942 75 916 248 175 48 109 110 45 355 145 681 73 36 210 648 37 35 34 79 127 111 89 61 36 36 57 561 454 537
is_linear=0
shrinkage=0.0300631


Tree=11
num_leaves=57
num_cat=0
split_feature=5 7 12 20 20 41 7 22 41 16 21 19 40 41 7 7 16 21 20 2 43 21 5 16 21 13 12 35 16 30 5 2 34 25 25 20 22 5 19 10 2 16 30 41 31 9 10 35 5 21 13 9 41 9 2 25
split_gain=838.109 97.2514 74.1576 36.2599 32.2349 29.5107 20.895 17.5275 13.9332 10.998 10.1769 16.6965 9.49383 9.38202 8.94028 8.4661 8.86639 8.28473 7.85584 9.23293 7.31783 7.02808 6.74399 6.57366 6.49946 8.0628 8.18004 5.97548 5.84416 5.70981 10.0118 5.13525 4.87504 5.64052 4.82204 4.03263 3.83905 3.80153 3.75951 3.48538 3.37281 3.37247 10.743 2.91307 2.87466 2.74804 2.38531 2.78038 2.22136 2.20638 1.92136 1.69787 1.34536 0.68937 0.267679 0.177558
threshold=21.383333333333336 16.439285714285717 16.500000000000004 21.263250000000003 22.663250000000001 178.04481525000003 53.214285714285715 93.636190000000013 96.102120500000012 -0.67760851415498069 31.853875000000006 36.138250000000006 582.19327050000015 180.19374900000003 26.950000000000003 23.607142857142861 -0.48250327361223916 25.247627000000005 21.563250000000004 14.950000000000001 1.0000000180025095e-35 26.158332500000004 18.783333333333335 0.18399664778440331 22.552833500000002 321.50000000000006 47.500000000000007 1.0000000180025095e-35 -0.88606241628642823 0.68746161047904764 16.300000000000001 15.950000000000001 3.9285714285714293 14.099860000000001 6.3741327500000011 23.938250000000004 97.193345000000008 20.383333333333336 29.013250000000003 4.8780453828786543 13.850000000000003 -0.10738035228456488 0.65028458334741523 76.902352400000012 1.0000000180025095e-35 1.812653934346881 20.363453793178788 2.8928571428571432 50.833333333333336 22.773667000000003 292.50000000000006 6.6547512564868958 201.48939500000003 6.1913918736686933 145.50000000000003 6.8352593500000003
decision_type=2 2 2 2 2 2 2 2 2 2 2 2 2 2 2 2 2 2 2 2 2 2 2 2 2 2 2 2 2 2 2 2 2 2 2 2 2 2 2 2 2 2 2 2 2 2 2 2 2 2 2 2 2 2 2 2
left_child=1 18 7 13 8 12 10 32 9 28 11 17 31 15 -9 16 39 -5 19 -1 41 -7 -23 29 37 34 -27 -24 -3 50 43 55 33 46 -26 -33 48 -10 -17 -4 45 49 -43 -31 -8 -25 47 -2 53 -15 52 -13 -20 -16 -34 -6
right_child=2 4 3 6 5 21 44 14 24 -11 -12 51 -14 20 36 38 -18 -19 23 -21 -22 22 27 40 25 26 -28 -29 -30 30 -32 35 54 -35 -36 -37 -38 -39 -40 -41 -42 42 -44 -45 -46 -47 -48 -49 -50 -51 -52 -53 -54 -55 -56 -57
leaf_value=-0.11578885490821275 0.44617608228449929 -0.066870028610923712 0.14276431162036654 0.017619544305688559 -0.1806339346504825 0.024617351924137883 0.19111490384491481 -0.004561697363137664 0.15822183371684623 0.042367542539469005 -0.032599221007892996 0.16771556823302683 -0.056562129540711638 0.28660233127880191 0.33871560425572195 0.20226998809724256 -0.1635031250976289 -0.026750571461951974 -0.17086754670566998 0.017421468102924383 0.040288396319957315 -0.1501312209636744 -0.041134373018903402 -0.16992713523208863 -0.038408575345820893 -0.037855217715084266 0.019500986008866066 0.074832899588084131 -0.13459680009208522 -0.11789256892687536 0.0015340884397366937 -0.088884867123961833 1.2999197740188868 0.1321934867613915 0.044998101007330669 -0.15773594364417984 0.087359523625679752 0.0547365114065003 0.023809439718989592 -0.0046089789689990387 -0.14568998060379698 0.24288131328591875 -0.0088936241686356048 -0.17682197175689521 0.6780689038158888 0.0028161350333085638 1.1732959492594326 0.48705687947712545 0.24705994828446926 0.157398370749842 -0.044238301544752584 0.11120021152440868 -0.14755196327092251 0.41825491975357376 2.2318760290719939 -0.18583958501591583
leaf_weight=28 320 28 21 45 28 19 17 33 26 29 18 22 32 75 17 29 20 167 574 18 20 26 23 17 31 19 32 32 23 26 21 78 196 18 71 40 20 19 19 18 24 19 18 45 23 17 81 24 21 73 21 19 18 25 17 51
leaf_count=28 320 28 21 45 28 19 17 33 26 29 18 22 32 75 17 29 20 167 574 18 20 26 23 17 31 19 32 32 23 26 21 78 196 18 71 40 20 19 19 18 24 19 18 45 23 17 81 24 21 73 21 19 18 25 17 51
internal_value=0.000502378 -0.0157861 0.0170358 0.00929992 -0.00667618 -0.0130319 0.00202328 0.0232609 0.000861208 -0.00966249 -0.000993967 0.000590746 -0.018963 0.0165267 0.0123456 0.00919478 0.00150087 -0.00282306 -0.0226065 -0.0102578 0.0202976 0.000592677 -0.00330105 -0.0233382 0.00513831 0.00214707 -0.00752959 0.00268476 -0.0179645 -0.0241485 -0.0168314 -0.0214222 0.0251719 0.0232311 0.00701125 -0.0171965 0.0175623 0.0150704 0.0184523 0.0097965 -0.0132741 0.0221583 0.0134904 -0.0221686 0.0220652 -0.00688949 0.0239306 0.0226646 0.0211796 0.0242326 -0.0252211 0.017947 -0.0255566 0.0252442 0.0290974 -0.0274769
internal_weight=2811 1416 1395 623 607 329 311 772 278 80 271 253 229 312 116 107 59 212 809 46 205 100 81 763 198 153 51 55 51 705 92 197 656 443 102 118 83 45 48 39 58 185 37 71 40 34 425 344 63 148 613 41 592 42 213 79
internal_count=2811 1416 1395 623 607 329 311 772 278 80 271 253 229 312 116 107 59 212 809 46 205 100 81 763 198 153 51 55 51 705 92 197 656 443 102 118 83 45 48 39 58 185 37 71 40 34 425 344 63 148 613 41 592 42 213 79
is_linear=0
shrinkage=0.0300631


Tree=12
num_leaves=59
num_cat=0
split_feature=5 6 12 24 20 35 22 13 40 26 27 40 24 16 6 34 27 41 24 8 30 34 16 41 29 6 24 34 34 5 16 26 44 27 41 17 44 22 30 41 40 29 16 30 16 44 22 8 27 24 35 8 44 6 24 29 41 2
split_gain=833.715 106.077 70.6851 44.2019 37.2278 19.0296 16.7729 13.5845 13.0203 12.4149 12.2443 11.4308 10.5998 10.284 8.63809 13.193 8.43136 8.43078 9.97887 9.54806 8.29764 8.25792 12.05 7.44286 6.95278 6.22658 6.02327 5.67604 5.97383 5.42711 5.20055 8.05518 4.81355 4.75191 4.62169 4.27381 4.14466 4.09239 3.87499 3.77 3.55126 3.53302 3.20629 9.87861 3.0069 2.75286 2.60761 4.88745 2.59044 2.58864 2.56934 2.49479 2.18877 1.64721 2.46374 1.37012 0.727604 0.267679
threshold=21.383333333333336 16.292857142857148 16.500000000000004 0.65000000000000002 21.263250000000003 2.2500000000000004 93.636190000000013 150.50000000000003 804.52101400000004 975.13595000000009 61.062500000000007 422.36050000000006 5.200000150000001 0.5772862706790628 30.785714285714288 1.0000000180025095e-35 40.833334000000008 180.19374900000003 1.3000000500000002 23.350000000000005 0.17308063849989727 0.6428571428571429 0.59125596962661842 92.740611740000006 -0.11102314706681159 15.164285714285716 1.2500001000000003 3.9285714285714293 3.5000000000000004 35.833333333333336 0.18399664778440331 969.87382000000014 881.58096645470005 15.979166500000002 117.08940310000001 -0.89388548498445497 1213.7073678413553 96.438108000000014 -0.49182499373699101 70.547796500000018 471.10000000000008 -0.068200388352415528 -0.10738035228456488 0.65028458334741523 0.51973899919070166 660.59844245365207 97.920877500000003 18.450000000000006 51.416666000000006 1.0000000180025095e-35 0.24999999999999997 14.583333333333334 654.70327866684511 15.164285714285716 6.0999997000000006 -0.17970829448891867 52.164543850000008 145.50000000000003
decision_type=2 2 2 2 2 2 2 2 2 2 2 2 2 2 2 2 2 2 2 2 2 2 2 2 2 2 2 2 2 2 2 2 2 2 2 2 2 2 2 2 2 2 2 2 2 2 2 2 2 2 2 2 2 2 2 2 2 2
left_child=1 10 6 8 17 16 27 34 9 13 25 39 26 35 15 -8 32 19 42 20 -4 22 -18 -11 -25 40 -13 28 36 -16 46 -32 38 -22 -5 -3 50 -14 -6 -9 48 -33 49 -44 -31 -27 53 52 -1 -19 -2 -42 -48 56 -55 -7 -12 -29
right_child=2 3 4 7 5 55 14 11 -10 23 30 12 37 -15 29 -17 21 18 -20 -21 33 -23 -24 24 -26 45 -28 57 -30 44 31 41 -34 -35 -36 -37 -38 -39 -40 -41 51 -43 43 -45 -46 -47 47 -49 -50 -51 -52 -53 -54 54 -56 -57 -58 -59
leaf_value=-0.13948267953706023 0.15690370391360339 -0.028391229390911772 0.14272911337407473 0.041776554139283342 0.10395444536517336 0.69145378948075054 0.15374705073365383 -0.16003039423829146 0.61816011013877004 -0.062311199405381906 -0.13877771182329798 -0.095001673676336232 -0.17204645206798486 0.056986909149722972 0.39749450944862746 -0.025871521850732597 -0.02473289748878179 0.21268160251099677 -0.0078955757884209051 0.14840341974217633 0.027640516296172046 -0.13920138086717482 0.049065777154259867 0.0082498685570133092 0.099796125883981165 -0.06607999487258083 -0.0091546385954093118 1.2608401493587538 0.24609150531206725 0.071328281835499857 0.0083909490428549765 -0.11899518947250134 0.19446418975222773 -0.033642687892010602 -0.030262008674801527 -0.052471570646128243 0.29536282568784633 -0.092196628221277541 -0.0067914975954088035 -0.1836469173764444 -0.10240700935362673 -0.19630450298995919 0.23557954686165014 -0.0074268058648551587 0.33914270267348612 0.0067494882757534866 -0.19008256204188473 -0.10631212561388156 -0.1162264232989306 0.26038249965604965 0.60915285577788658 -0.049319324367689273 -0.19659067665883626 -0.10351861027487377 -0.12018513608108536 0.37410275015637223 -0.16606873912311884 2.1647789056591957
leaf_weight=36 60 18 17 21 35 18 25 22 18 22 18 23 38 19 27 17 108 120 17 31 19 25 67 39 72 17 101 196 17 17 17 23 20 40 32 31 17 62 21 58 17 42 19 19 30 19 62 31 23 30 349 20 80 46 26 17 363 17
leaf_count=36 60 18 17 21 35 18 25 22 18 22 18 23 38 19 27 17 108 120 17 31 19 25 67 39 72 17 101 196 17 17 17 23 20 40 32 31 17 62 21 58 17 42 19 19 30 19 62 31 23 30 349 20 80 46 26 17 363 17
internal_value=0.000459612 -0.0157861 0.0169497 -0.0058363 0.0093963 0.00202328 0.0230275 -0.0123483 0.00478426 0.00253011 -0.0225954 -0.0147909 -0.0112291 -0.00785362 0.0123456 0.00139475 -0.000650256 0.0167189 0.0202976 0.00975224 0.00390695 -0.00388976 -0.00153657 0.00785801 0.0110161 -0.0140267 -0.00529431 0.0248973 0.0228247 0.018469 -0.0241736 -0.0166858 0.00781846 -0.00150087 0.00166807 -0.0150673 0.0235224 -0.0184771 0.00316628 -0.0245345 -0.0179986 -0.0214494 0.0222838 0.0139169 0.0119279 -0.00325308 -0.0251296 -0.0216127 -0.0225949 0.0243099 0.0241313 -0.010314 -0.0239877 -0.0264286 -0.0214517 0.0226268 -0.0273179 0.0290974
internal_weight=2811 1416 1395 576 623 311 772 357 219 201 840 304 224 68 116 42 276 312 205 107 76 200 175 133 111 132 124 656 443 74 708 82 76 59 53 49 426 100 56 80 96 65 188 38 47 36 626 173 59 150 409 37 142 453 72 35 381 213
internal_count=2811 1416 1395 576 623 311 772 357 219 201 840 304 224 68 116 42 276 312 205 107 76 200 175 133 111 132 124 656 443 74 708 82 76 59 53 49 426 100 56 80 96 65 188 38 47 36 626 173 59 150 409 37 142 453 72 35 381 213
is_linear=0
shrinkage=0.0300631


Tree=13
num_leaves=62
num_cat=0
split_feature=6 41 17 20 6 23 26 8 41 20 10 16 3 22 8 20 23 6 6 25 26 6 20 43 42 25 41 26 19 25 26 17 28 16 25 29 8 25 29 28 23 10 8 29 28 20 25 25 23 26 20 19 20 26 6 22 6 1 16 25 6
split_gain=738.18 158.275 51.8797 51.5682 38.9505 37.7177 23.2346 20.2091 19.2002 15.5592 14.7629 13.9217 11.6809 12.9456 10.0721 9.62128 9.46898 12.0131 9.05397 8.97965 9.63189 8.79604 8.87661 6.42915 5.85012 5.7839 5.74822 5.50206 5.42806 5.17767 8.16488 6.94338 6.83679 5.14858 4.12326 4.1067 3.88761 3.81445 3.71374 3.27053 2.94775 2.89196 3.80475 4.12816 2.87466 2.61465 3.6944 6.05863 2.54612 2.53339 2.83215 2.29903 2.11541 2.05022 1.47716 0.93586 0.665741 0.639453 2.96356 0.968023 0.468904
threshold=18.607142857142861 173.74202775000001 -0.53437255828097852 22.288250000000001 15.328571428571431 51.166536000000008 973.74407500000018 25.683333333333337 96.102120500000012 22.563250000000004 5.6955734317971558 0.59125596962661842 20.050000000000004 94.305025000000015 20.650000000000002 23.838250000000006 61.963169000000008 33.214285714285722 22.592857142857149 7.4172216000000004 977.93432000000018 21.500000000000004 23.413250000000001 1.0000000180025095e-35 45.785714285714292 12.509669000000002 151.68112650000003 977.50390000000004 37.66325100000001 9.8293840000000028 973.21105000000011 -0.8038981836306559 3.9164984000000005 -0.12447811117596665 9.4358365000000024 0.21842388419894784 15.550000000000001 7.4172216000000004 -0.38275506928964403 5.4500547500000005 57.446157500000005 3.4736053411308814 15.305000000000001 0.35264681827248195 3.2320763500000003 22.488250500000003 5.8381767000000009 5.3758921500000012 52.717491000000003 968.13062500000012 23.738250500000003 28.388250500000002 23.338250000000006 971.01381500000014 13.585714285714287 97.016467500000019 16.157142857142862 9.2500000000000018 -0.43664718845046341 10.957843000000002 22.592857142857149
decision_type=2 2 2 2 2 2 2 2 2 2 2 2 2 2 2 2 2 2 2 2 2 2 2 2 2 2 2 2 2 2 2 2 2 2 2 2 2 2 2 2 2 2 2 2 2 2 2 2 2 2 2 2 2 2 2 2 2 2 2 2 2
left_child=4 3 29 7 10 23 14 12 56 16 45 21 26 44 41 52 35 -18 -13 36 -21 22 -5 24 28 -25 27 -2 -4 34 31 32 -31 -15 48 -7 -10 -24 -9 -33 -38 42 43 -6 -14 46 47 -1 -3 50 -47 -23 -16 -26 55 -48 -8 58 -51 -59 -53
right_child=1 2 5 11 6 9 8 38 19 -11 -12 18 13 33 15 -17 17 -19 -20 20 -22 51 37 25 53 -27 -28 -29 -30 30 -32 39 -34 -35 -36 -37 40 -39 -40 -41 -42 -43 -44 -45 -46 49 54 -49 -50 57 -52 60 -54 -55 -56 -57 -58 59 -60 -61 -62
leaf_value=-0.1274653876073007 -0.0087230319876649819 -0.0024108143856603958 0.37759054011765025 0.014934785787805285 -0.077654635002506231 0.17722151009674658 -0.13731102790362043 0.13048512458860984 0.0028307691425544651 -0.098259600279501189 -0.046280866197325674 0.05016277948961597 0.089076919350536507 -0.0047112936947451573 -0.014944693274346669 -0.17216976176086038 0.09921239383334593 -0.039761682476724777 -0.091828132839390786 -0.056103145369379062 0.040899725802553452 -0.14373642182055443 -0.089483460784088642 0.5304237460052551 1.1241227158228893 -0.01867817010831942 0.062030816205062018 -0.067287973264978956 0.08733987578310215 0.0072361244931031053 -0.071982757405817804 0.10123746862115196 -0.13212441872948288 0.049110155221732191 0.11611833589800281 0.086410581468574998 0.039419307655641923 -0.059947782348214886 0.22771925103092758 0.028900918212341267 0.1005166010378563 -0.15785945553651387 -0.11574824905090156 -0.14637418367824515 0.29051753688658011 -0.10346693306072097 -0.081220434594993604 0.0081129125690176714 0.050841476340904052 -0.19383110221228891 -0.13811030158094847 -0.20113561896164131 0.024378276762493208 1.0461719106773031 -0.078659475089548084 -0.1972606469765846 -0.098181092701984718 -0.16161553918098437 -0.14688377281215154 -0.14212013350627539 -0.093843331125561077
leaf_weight=19 43 29 457 29 46 114 17 18 19 18 28 23 17 64 19 24 64 23 24 32 20 19 18 27 19 17 26 36 17 17 18 31 26 20 17 46 17 17 41 18 20 48 31 19 23 20 17 17 24 40 18 53 18 286 22 38 18 405 20 60 20
leaf_count=19 43 29 457 29 46 114 17 18 19 18 28 23 17 64 19 24 64 23 24 32 20 19 18 27 19 17 26 36 17 17 18 31 26 20 17 46 17 17 41 18 20 48 31 19 23 20 17 17 24 40 18 53 18 286 22 38 18 405 20 60 20
internal_value=0.000438229 0.0123506 0.017959 -0.00213854 -0.0194734 0.0204309 -0.0112018 0.00603518 -0.00187836 0.0105151 -0.023543 -0.0137131 0.00196032 0.00818365 -0.0176689 -0.00728435 0.0124916 0.00444433 0.00062086 0.00441547 -0.00454338 -0.0180136 -0.00926502 0.023609 0.0242472 0.0120555 -0.00539258 -0.00940703 0.022031 0.00299011 -0.00108159 0.00258626 -0.00616118 0.00141298 0.00932904 0.0168181 0.0126836 -0.0192732 0.0215904 0.0102435 0.018255 -0.0219963 -0.0186194 -0.0141456 0.0220652 -0.0244281 -0.0197999 -0.0114095 0.00501722 -0.0253249 -0.0170116 -0.023954 0.00237305 0.0276186 -0.0235492 -0.0263657 -0.02095 -0.0258972 -0.0217297 -0.0263931 -0.0264528
internal_weight=2811 1759 1268 491 1052 1088 348 288 143 265 704 203 229 124 205 61 247 87 47 108 52 156 64 823 779 44 105 79 474 180 110 92 43 84 70 160 56 35 59 49 37 144 96 65 40 676 113 36 53 563 38 92 37 305 77 55 35 525 60 465 73
internal_count=2811 1759 1268 491 1052 1088 348 288 143 265 704 203 229 124 205 61 247 87 47 108 52 156 64 823 779 44 105 79 474 180 110 92 43 84 70 160 56 35 59 49 37 144 96 65 40 676 113 36 53 563 38 92 37 305 77 55 35 525 60 465 73
is_linear=0
shrinkage=0.0300631


Tree=14
num_leaves=53
num_cat=0
split_feature=6 12 41 21 6 21 20 16 3 3 10 7 21 9 41 22 44 16 16 29 44 7 20 9 7 16 7 34 7 9 16 1 16 17 3 9 9 22 36 41 9 34 9 1 29 16 7 17 29 21 1 44
split_gain=722.907 158.238 68.0563 41.2691 40.0764 25.9872 20.1828 16.4225 16.0539 13.0393 12.3471 12.281 14.22 12.1151 11.4749 10.2512 9.35365 9.24096 8.78053 11.5754 8.69786 8.37788 14.423 8.24405 8.27035 8.03564 7.89485 11.3277 7.32463 6.85224 6.56008 7.06819 6.40774 6.20149 5.48238 4.74943 4.67091 4.44764 4.3713 3.88169 3.53848 3.37697 2.42496 2.07793 2.03312 2.38702 6.68513 2.35604 2.01415 1.95104 1.38921 1.37012
threshold=18.607142857142861 16.500000000000004 171.38282460500002 25.530961000000001 15.328571428571431 24.694210500000001 21.813250000000004 0.23448921811828119 21.900000000000002 20.050000000000004 3.5339794833889577 53.214285714285715 31.853875000000006 2.3603873774064188 143.39481800000001 94.459275000000019 1115.3292397188991 0.59125596962661842 -0.09025077427732299 -0.039442410192433344 528.52812121735121 18.953571428571433 23.788250000000001 1.8898223650430526 15.392857142857144 0.60505046667002438 27.392857142857146 0.92857142857142871 26.950000000000003 3.5456210417108749 -0.55601228778889811 26.500000000000004 -0.86958133671945925 -0.7721279831368929 20.550000000000004 10.486953284320373 3.2659863237093627 96.438108000000014 1.0000000180025095e-35 111.87255940000001 3.436498771936066 4.0714285714285721 1.3801311186822109 17.050000000000004 0.97117210813222898 0.18399664778440331 14.332142857142861 -0.3090055481123869 -0.33282168409974083 21.873665500000005 16.950000000000003 597.35057011384015
decision_type=2 2 2 2 2 2 2 2 2 2 2 2 2 2 2 2 2 2 2 2 2 2 2 2 2 2 2 2 2 2 2 2 2 2 2 2 2 2 2 2 2 2 2 2 2 2 2 2 2 2 2 2
left_child=4 7 3 9 8 18 13 26 42 14 -9 12 25 -6 29 51 34 20 30 -20 -5 23 -23 24 -8 -7 -2 49 -19 -3 31 -4 36 -10 -12 -18 -25 -17 -13 -15 -22 -36 -1 -34 45 47 -47 -44 -32 -28 -41 -11
right_child=1 2 5 17 6 11 21 10 33 15 16 38 -14 39 -16 37 35 28 19 -21 40 22 -24 32 -26 -27 27 -29 -30 -31 48 -33 43 -35 41 -37 -38 -39 -40 50 -42 -43 44 -45 -46 46 -48 -49 -50 -51 -52 -53
leaf_value=-0.15866130754161109 -0.0091008430064267783 0.027071797979037054 0.1100172107899553 -0.043660243559127655 -0.038881961642927038 -2.4764781852077078e-05 -0.14856205520790045 -0.0040244518134985108 -0.12410733034831548 0.1763847043283811 0.28082476826653502 0.16842139828068894 -0.034788170051115806 -0.050799935010889197 0.060834581887799735 -0.050054199591231349 -0.026937257466840149 0.0091989966560267252 -0.018555077075523178 0.2616149465199693 -0.061888409314632235 0.054910435293920694 -0.14660314115133263 -0.015685360987706749 0.011390902258094696 0.098328182936814612 0.14962380159224242 -0.040604950035070281 -0.20887060197819729 -0.08695088582900673 0.11461053883300355 -0.011048800916354445 -0.11518637679556097 0.0031800627617912147 0.51222535026711624 0.61422310006924075 -0.18413089893551382 0.03629265864515361 0.62696340033554754 0.038234240870495526 -0.13605450724227566 1.2817120240273929 -0.1575963507092773 -0.15941998492041462 -0.076395279249070913 -0.00040037410041964899 -0.18816935532527118 -0.12951592824449079 0.28001531823845782 0.28142612992559557 0.074422615880984921 0.22894987515726842
leaf_weight=136 32 21 32 20 22 144 21 17 19 17 31 17 18 17 29 28 17 18 21 22 22 30 23 29 20 115 20 17 19 63 36 18 70 30 408 31 31 63 23 17 82 210 306 47 23 17 23 150 97 33 21 18
leaf_count=136 32 21 32 20 22 144 21 17 19 17 31 17 18 17 29 28 17 18 21 22 22 30 23 29 20 115 20 17 19 63 36 18 70 30 408 31 31 63 23 17 82 210 306 47 23 17 23 150 97 33 21 18
internal_value=0.000459612 0.0122481 0.00385364 -0.0055489 -0.0192449 0.0107785 -0.0108571 0.0219344 -0.0233724 0.00237994 0.0235501 0.00520081 0.00292003 0.00269839 -0.00501369 0.00900256 0.0241669 -0.0172714 0.0185512 0.00616118 -0.0211857 -0.0147064 -0.00390084 -0.0173062 -0.00501914 0.00474196 0.0105186 0.0161174 -0.00396125 -0.0106241 0.0214182 0.0118155 -0.0201124 -0.00662568 0.0251192 0.0110685 -0.0118499 0.00359624 0.0205936 0.0102196 -0.0246531 0.025746 -0.0246144 -0.0242295 -0.0235359 -0.0239598 -0.0161789 -0.0246099 0.0249268 0.0228793 0.0154642 0.0226268
internal_weight=2811 1759 943 400 1052 543 348 816 704 239 714 317 277 77 113 126 697 161 226 43 124 271 53 218 41 259 102 70 37 84 183 50 177 49 649 48 60 91 40 55 104 618 655 117 519 496 40 456 133 53 38 35
internal_count=2811 1759 943 400 1052 543 348 816 704 239 714 317 277 77 113 126 697 161 226 43 124 271 53 218 41 259 102 70 37 84 183 50 177 49 649 48 60 91 40 55 104 618 655 117 519 496 40 456 133 53 38 35
is_linear=0
shrinkage=0.0300631


Tree=15
num_leaves=59
num_cat=0
split_feature=6 24 17 3 13 12 40 24 26 6 4 19 26 19 6 16 6 26 24 4 13 26 13 13 16 13 28 40 34 30 34 3 11 7 34 19 16 24 8 29 3 3 36 34 8 26 17 19 13 16 40 41 41 40 6 26 6 3
split_gain=712.899 179.124 53.8469 49.624 29.3828 22.9707 21.7818 18.219 17.7212 15.7033 13.9941 12.5358 11.7556 11.2066 10.1608 9.66749 9.63604 9.50338 9.46265 8.857 8.80262 8.7839 9.82015 9.26686 8.70334 7.29257 7.26738 9.18723 6.97732 6.55539 6.10004 5.88098 5.70453 5.14921 5.00118 4.91577 4.43776 6.03701 4.43664 4.8133 4.41906 4.33931 4.17665 6.71969 4.01472 3.92332 3.88868 7.31466 3.65019 3.34419 2.26033 1.9437 4.29967 1.56325 1.28861 0.924403 1.11692 0.733145
threshold=18.721428571428579 0.35000000000000003 0.2843486543654084 20.550000000000004 144.50000000000003 21.500000000000004 1122.2250000000001 4.1999996500000014 979.77050500000007 14.578571428571431 14.750000000000002 30.138250500000002 975.16923500000007 29.888250500000002 21.785714285714288 -0.84293373149377071 24.164285714285718 970.05419500000005 11.800000500000001 16.250000000000004 268.50000000000006 975.57390000000009 291.50000000000006 317.50000000000006 0.59125596962661842 299.50000000000006 3.4569963000000006 480.93850900000001 1.0000000180025095e-35 0.99393512847414656 1.3571428571428574 22.850000000000005 4.5000000000000009 23.464285714285719 1.0000000180025095e-35 34.363250000000008 0.28435655403991245 3.1000000500000007 16.81666666666667 0.41477261431552265 11.950000000000001 16.950000000000003 1.0000000180025095e-35 0.78571428571428581 32.216666666666676 975.23212000000012 -0.28435918728100346 37.738250000000008 292.50000000000006 0.92913280730858816 736.67500000000007 166.41114060000004 246.25471460000003 2255.0582500000005 15.328571428571431 967.99828000000014 13.871428571428574 48.500000000000007
decision_type=2 2 2 2 2 2 2 2 2 2 2 2 2 2 2 2 2 2 2 2 2 2 2 2 2 2 2 2 2 2 2 2 2 2 2 2 2 2 2 2 2 2 2 2 2 2 2 2 2 2 2 2 2 2 2 2 2 2
left_child=2 3 5 8 7 44 13 42 21 31 25 14 -12 16 18 38 29 -13 19 -6 41 34 -23 -24 45 -4 27 -14 -8 -5 32 55 -9 -18 -2 -26 40 -38 39 -11 -17 -16 43 50 -1 -15 47 -30 -22 -45 -3 -19 -53 -48 -27 -7 -57 -44
right_child=1 4 10 6 11 9 28 30 -10 15 12 17 26 24 20 36 33 51 -20 -21 48 22 23 -25 35 54 -28 -29 46 -31 -32 -33 -34 -35 -36 -37 37 -39 -40 -41 -42 -43 57 49 -46 -47 53 -49 -50 -51 -52 52 -54 -55 -56 56 -58 -59
leaf_value=-0.021327455457635154 -0.0043230303584433421 0.036836278281053625 -0.044852749982724503 0.033174676661084403 -0.0058467769504170963 -0.11164913263860218 0.11232659958132969 -0.10103564678809041 0.16637633807552368 -0.14623301619071799 -0.068389158970886627 0.0042557783943896321 -0.014343136809425196 -0.040952645879290032 -0.20535229135932709 -0.11117185332719885 0.030091449194722869 -0.15550541716487443 -0.056116475393313679 0.071236304149209478 0.014851505682300191 0.30748070217702433 -0.064591625190202923 0.053965475569788035 0.36476659728969579 -0.17236620432761535 0.074359238310529568 0.039537226213900642 0.37767783624187512 0.13163141520685614 0.20666941719054774 -0.12037627864457175 0.037270435965019444 0.2196458663276343 -0.048157170366329743 0.02311921285589694 0.024537818489762702 -0.11152027345509476 -0.0063888796323302742 -0.13832137451890594 -0.14480824315917554 -0.074377773207178782 0.28080158259193594 -0.035676261530582037 0.17994572065830722 0.068325137641669628 0.58694245342339069 0.18271232222883971 -0.019827183475907176 0.42406690724784724 0.14104057632917491 -0.047374358526053033 -0.1318060498959025 1.4780895644846075 -0.057285790983252032 -0.15748895331954343 -0.12420672130596694 0.68566029395193073
leaf_weight=17 26 22 28 73 23 24 22 31 26 41 20 19 22 25 23 32 18 35 20 45 17 21 31 62 44 17 27 33 48 19 21 17 17 197 27 22 17 28 30 20 144 29 17 24 17 21 264 20 75 18 34 26 17 194 28 457 79 19
leaf_count=17 26 22 28 73 23 24 22 31 26 41 20 19 22 25 23 32 18 35 20 45 17 21 31 62 44 17 27 33 48 19 21 17 17 197 27 22 17 28 30 20 144 29 17 24 17 21 264 20 75 18 34 26 17 194 28 457 79 19
internal_value=-0.00073237 0.0115075 -0.0195884 0.0181278 -0.00293311 -0.0224853 0.020904 0.00604458 0.0041853 -0.023412 -0.00427178 -0.00847491 0.00291937 0.0156802 -0.00464627 -0.017872 0.0186505 -0.0175075 0.00337933 0.00872681 -0.00954418 0.00053521 0.00523178 0.000957183 0.00745553 -0.0142416 0.00797795 0.00160835 0.0248667 0.0103563 -0.00645017 -0.0263761 -0.0122991 0.0221427 -0.00948274 0.0143837 -0.0212729 -0.0124481 -0.00948724 -0.0140884 -0.0234559 -0.0193309 0.0124811 0.00911956 0.00171484 -0.00255884 0.0255627 0.0183319 -0.00388127 0 0.015856 -0.0221069 -0.0171286 0.0265992 -0.0216261 -0.0269076 -0.0272145 0.0211972
internal_weight=2790 1692 1098 1160 532 923 967 203 193 889 175 329 102 419 232 312 307 97 88 68 144 167 114 93 112 73 82 55 548 92 69 577 48 215 53 66 221 45 91 61 176 52 134 98 34 46 526 68 92 42 56 78 43 458 45 560 536 36
internal_count=2790 1692 1098 1160 532 923 967 203 193 889 175 329 102 419 232 312 307 97 88 68 144 167 114 93 112 73 82 55 548 92 69 577 48 215 53 66 221 45 91 61 176 52 134 98 34 46 526 68 92 42 56 78 43 458 45 560 536 36
is_linear=0
shrinkage=0.0300631


Tree=16
num_leaves=57
num_cat=0
split_feature=5 6 24 24 5 12 10 40 24 13 23 3 15 3 40 23 8 12 3 27 10 6 13 3 24 2 3 12 16 24 16 3 6 2 10 13 3 10 10 27 27 27 8 0 1 0 16 10 16 1 6 1 2 2 8 11
split_gain=711.079 94.7767 87.741 44.4092 36.5083 24.2292 17.6197 16.2709 15.9924 13.6272 10.4988 10.0799 9.68406 9.67494 9.10882 8.32457 7.65596 7.64095 9.31122 6.76048 6.71275 8.35535 6.48182 6.23684 6.07572 5.82281 6.97128 5.80317 5.50743 7.802 5.44674 4.96686 4.95983 9.47906 4.86465 4.81021 4.77595 4.70504 7.13281 4.56547 4.41185 4.32174 4.08844 3.72274 3.32639 3.30729 3.27079 3.02569 2.98579 2.91571 2.43553 2.20956 1.8882 1.32846 1.0859 0.733145
threshold=21.383333333333336 16.292857142857148 0.15000000000000005 0.85000005000000012 30.500000000000004 21.500000000000004 21.943796825481112 541.10325 3.3000001000000005 288.50000000000006 78.708067500000013 22.150000000000002 -0.5 19.450000000000003 716.20000000000016 49.444547000000007 22.383333333333336 47.500000000000007 27.500000000000004 39.729166000000006 2.7759751142105897 14.500000000000002 297.50000000000006 15.950000000000001 0.90000002000000012 24.300000000000004 19.450000000000003 14.500000000000002 -0.97873101657557326 8.1000005000000019 -0.57023701209772126 37.500000000000007 40.785714285714292 53.500000000000007 3.4262228638947416 318.50000000000006 22.850000000000005 10.07341764835758 5.8349550624785342 65.479164000000011 81.104168000000016 75.437500000000014 13.903333333333334 22.150000000000002 18.800000000000004 68.500000000000014 -0.35769492645306972 11.292076119650059 0.18399664778440331 14.950000000000001 33.500000000000007 30.250000000000004 74.500000000000014 18.800000000000004 14.65 9.5000000000000018
decision_type=2 2 2 2 2 2 2 2 2 2 2 2 2 2 2 2 2 2 2 2 2 2 2 2 2 2 2 2 2 2 2 2 2 2 2 2 2 2 2 2 2 2 2 2 2 2 2 2 2 2 2 2 2 2 2 2
left_child=1 5 4 7 13 -1 8 17 11 20 27 24 -6 14 16 45 -2 18 39 -5 48 36 42 34 51 26 44 -10 -25 -30 -23 -29 35 -34 54 -13 -22 38 -17 -3 -26 43 -11 -15 -9 50 -28 -45 -7 -24 -14 -4 -8 -36 -21 -27
right_child=2 3 6 19 12 9 52 25 10 22 -12 32 15 41 -16 37 -18 -19 -20 23 21 30 49 28 40 55 46 31 29 -31 -32 -33 33 -35 53 -37 -38 -39 -40 -41 -42 -43 -44 47 -46 -47 -48 -49 -50 -51 -52 -53 -54 -55 -56 -57
leaf_value=0.12963099622387489 0.10023681729735855 -0.03702651875563738 -0.0095198628020345261 0.0038742892226069107 0.22161423884757195 -0.1477184097450695 0.83815888850256659 0.10996767418162455 0.021375774125714092 -0.084198964924959763 0.050229027971876485 0.10842397244645911 0.30853291094617091 0.071610204252238796 -0.029561626771785841 0.26294907651537391 -0.022146265911511719 0.079575173104255659 0.15558806280704041 -0.035117279933908077 -0.15574030481255605 -0.072690826612598777 -0.044998056084632712 0.0079806371105571299 0.094194796401625605 0.25790459948910255 -0.04251155257276136 -0.10722419830307071 -0.063572623115675936 -0.12771233387228134 -0.15745418934522326 -0.061371133897502129 -0.041916222578919096 0.41493358671944919 -0.16867009562131019 0.0094189774710685577 -0.11675739393996454 0.60227779090839295 -0.0049926268483231669 -0.10572716783078329 -0.0094869529485670252 0.0032732732192788682 0.0054150488811510336 0.11187451712009652 0.032124072270380229 1.4127622097648478 0.040712344732795801 0.48789579040795417 -0.12413309609738915 -0.1632528218692251 0.51600303987870633 -0.084182610421260434 0.413138371815852 -0.12256163212990683 -0.12826779770315996 0.10756269841949029
leaf_weight=21 20 38 28 17 27 388 23 26 23 20 22 68 72 29 32 24 20 22 18 17 205 59 30 17 21 19 23 58 139 51 59 23 23 22 37 27 17 25 23 25 19 23 19 139 17 190 28 18 20 23 330 20 22 29 18 17
leaf_count=21 20 38 28 17 27 388 23 26 23 20 22 68 72 29 32 24 20 22 18 17 205 59 30 17 21 19 23 58 139 51 59 23 23 22 37 27 17 25 23 25 19 23 19 139 17 190 28 18 20 23 330 20 22 29 18 17
internal_value=-0.000775458 -0.0156892 0.0146603 -0.00602428 0.0195296 -0.0219402 0.00278095 0.00398364 0.000507326 -0.0227384 -0.00805463 0.00525292 0.0232467 0.0103448 0.000820448 0.0239647 0.0102925 -0.0049175 -0.00917719 -0.0131919 -0.0240867 -0.0208138 -0.0116513 -0.01421 -0.00270268 0.0110248 0.0069687 -0.0120382 -0.011135 -0.0125994 -0.0141613 -0.0157878 0.0102421 0.00195907 -0.0203617 0.0141093 -0.0242801 0.0140245 0.00815891 -0.0145887 0.00587777 0.0136075 -0.00225398 0.0151215 0.0157576 0.025151 -0.000572971 0.0169473 -0.0267639 -0.0184138 0.0234312 -0.00983786 0.020315 -0.0251754 -0.0108893 0.0211972
internal_weight=2790 1419 1371 558 972 861 399 233 354 840 126 228 691 281 72 664 40 103 81 325 748 340 92 308 88 130 94 104 207 190 118 81 140 45 101 95 222 72 47 63 40 209 39 186 43 592 51 157 408 53 402 48 45 66 35 36
internal_count=2790 1419 1371 558 972 861 399 233 354 840 126 228 691 281 72 664 40 103 81 325 748 340 92 308 88 130 94 104 207 190 118 81 140 45 101 95 222 72 47 63 40 209 39 186 43 592 51 157 408 53 402 48 45 66 35 36
is_linear=0
shrinkage=0.0300631


Tree=17
num_leaves=61
num_cat=0
split_feature=5 20 12 13 21 35 22 22 27 26 5 9 17 13 16 1 5 21 2 9 3 3 43 9 3 3 4 22 35 4 9 25 21 2 43 27 5 4 13 2 20 3 4 5 9 9 4 20 4 9 22 9 1 13 25 13 5 4 35 33
split_gain=679.209 81.5616 76.0379 41.2699 34.665 21.5401 20.79 20.0386 19.2436 18.6478 14.1944 12.3853 11.5034 10.4055 9.52756 13.7094 10.6895 9.54139 9.06126 7.68486 7.2936 7.0283 7.3284 7.2492 6.86541 7.14448 6.7632 16.4783 6.58192 6.24812 6.10662 6.28659 6.08213 5.86233 5.71096 5.68788 5.22761 8.70355 11.929 5.13623 4.89489 4.74547 4.34762 5.88394 4.20736 3.4454 3.41901 3.20329 3.01655 2.89848 2.82455 2.69647 2.44058 2.35246 1.77698 1.25457 0.719527 0.481748 0.285282 0.438012
threshold=21.383333333333336 22.063250000000004 16.500000000000004 146.50000000000003 24.725749000000004 2.1785714285714293 95.888720000000021 75.500490000000013 37.895834000000008 975.23212000000012 14.633333333333335 8.3195112408035374 0.68389408864483059 321.50000000000006 0.59125596962661842 48.500000000000007 28.166666666666668 25.577544500000002 24.300000000000004 2.9113897843107508 47.500000000000007 22.850000000000005 1.0000000180025095e-35 3.5456210417108749 16.950000000000003 33.500000000000007 16.850000000000005 98.783042500000008 0.10714285714285711 76.500000000000014 2.6992062325260568 7.2224522000000002 21.993459000000005 18.800000000000004 1.0000000180025095e-35 63.208334000000008 14.283333333333337 12.850000000000003 301.50000000000006 21.900000000000002 20.638250500000002 63.500000000000007 93.500000000000014 25.166666666666668 3.101458950083257 5.0284902590851415 25.200000000000003 17.913250000000001 18.800000000000004 4.0824829046378293 92.991655000000023 4.029651999625405 33.500000000000007 290.50000000000006 5.0271096500000008 358.50000000000006 12.283333333333337 20.800000000000004 3.535714285714286 14.810000000000002
decision_type=2 2 2 2 2 2 2 2 2 2 2 2 2 2 2 2 2 2 2 2 2 2 2 2 2 2 2 2 2 2 2 2 2 2 2 2 2 2 2 2 2 2 2 2 2 2 2 2 2 2 2 2 2 2 2 2 2 2 2 2
left_child=1 6 7 11 21 14 9 58 42 -1 26 34 36 -14 17 16 -16 44 -10 -15 32 23 28 47 35 45 51 33 48 -7 31 -11 -20 -28 -3 -12 53 -38 -39 -25 57 -22 43 -9 -6 -26 -45 -4 -23 -37 -19 54 -41 -8 -5 -30 -53 -32 59 -2
right_child=2 3 4 10 5 29 12 8 18 30 24 -13 13 19 15 -17 -18 50 20 -21 41 22 -24 39 25 -27 27 -29 55 -31 40 -33 -34 -35 -36 49 37 38 -40 52 -42 -43 -44 46 -46 -47 -48 -49 -50 -51 -52 56 -54 -55 -56 -57 -58 -59 -60 -61
leaf_value=-0.053086676728630287 0.66205882493360502 0.22389310270918417 0.04158499366890743 -0.15410691952709463 -0.023341626713958136 0.15899001055243381 -0.13610196653949611 0.070048822943173425 -0.018142586555704884 -0.0042615396946762809 -0.052450242364589603 -0.084330030210231721 0.05641758634850242 -0.059260151251586117 -0.015979935866134165 -0.14699147868412143 0.18836772627613768 -0.020970283787882796 0.053456063698571837 0.0297887863484078 -0.028824133123025973 0.03667683911572911 0.0053062932320872957 0.091618272575828941 -0.065289773810453852 -0.14032489441042678 -0.14188223955641649 0.0019793023892021901 0.20535965366708697 0.57286779866436222 0.09702730249324408 0.085264140255760582 0.35867919658971514 -0.11905212516120607 0.016419505284987583 -0.13557041242667336 -0.10740543592561044 0.018828257306370853 -0.076039225758482903 -0.012956510781494941 0.02509330986621558 0.37909127272947746 0.37379532400488652 0.39845869492572428 0.0277912305792079 0.0013674318791747409 0.58417145044011409 0.13198242286112938 0.13926696182146903 -0.097472429040061634 -0.098129331324536426 -0.15272062751797819 0.091363008346788496 -0.096855381891195802 -0.17166740586368354 0.14695242770795017 -0.17927955478497534 0.15935755681062519 1.2307448488094792 0.4527081491903166
leaf_weight=32 62 27 22 19 17 17 23 28 32 23 25 19 19 17 48 17 55 29 21 31 25 20 24 33 147 20 156 22 59 24 20 19 56 21 22 209 22 23 20 29 17 30 18 81 42 21 247 30 39 35 60 17 17 24 327 22 17 25 150 17
leaf_count=32 62 27 22 19 17 17 23 28 32 23 25 19 19 17 48 17 55 29 21 31 25 20 24 33 147 20 156 22 59 24 20 19 56 21 22 209 22 23 20 29 17 30 18 81 42 21 247 30 39 35 60 17 17 24 327 22 17 25 150 17
internal_value=-0.00073237 -0.0153081 0.0143535 -0.0191555 0.00636137 -0.000678026 -0.0018073 0.0206326 0.017406 0.00702676 -0.0206437 0.00348768 -0.00852265 0.00132393 -0.0038005 0.00248457 0.00665428 -0.0088838 0.00875103 -0.00614598 0.0122165 0.0137166 0.0178689 0.00843319 -0.0166113 -0.0120961 -0.0237965 -0.0191019 0.0204866 0.0193834 0.013185 0.00420057 0.0181435 -0.0221408 0.0114495 -0.0197171 -0.0143814 -0.00866786 -0.000677484 0.00263081 0.0191252 0.00376117 0.0211715 0.0219024 0.000496394 -0.00996803 0.0230359 0.0170559 0.0125501 -0.0211163 -0.0150514 -0.0262056 -0.00384199 -0.0219787 -0.0270408 0.0260711 -0.0172388 0.0242484 0.0281183 0.0252182
internal_weight=2790 1419 1371 1104 604 309 315 767 538 136 1036 68 179 67 268 120 103 148 164 48 132 295 164 131 457 188 579 199 140 41 104 42 77 177 49 269 112 65 43 79 62 55 374 356 59 168 328 52 59 244 89 380 46 47 346 81 34 45 229 79
internal_count=2790 1419 1371 1104 604 309 315 767 538 136 1036 68 179 67 268 120 103 148 164 48 132 295 164 131 457 188 579 199 140 41 104 42 77 177 49 269 112 65 43 79 62 55 374 356 59 168 328 52 59 244 89 380 46 47 346 81 34 45 229 79
is_linear=0
shrinkage=0.0300631


Tree=18
num_leaves=47
num_cat=0
split_feature=0 23 20 17 6 7 5 8 16 21 20 26 3 16 16 16 20 7 8 29 0 17 17 15 28 7 23 21 30 28 21 17 40 5 30 42 3 25 0 26 10 10 3 20 10 17
split_gain=652.606 95.7446 77.6244 43.8268 33.2767 26.5794 20.8202 16.8568 15.2037 13.8292 12.6486 12.2056 10.1865 9.73372 8.57342 8.562 7.89442 7.82185 9.49492 9.44924 7.37484 7.28818 6.90382 6.81723 8.6971 6.7721 5.97341 5.29715 5.721 5.27 7.75001 8.53569 5.04655 4.90173 4.57289 4.4097 4.38222 3.88098 3.66691 3.20989 3.17746 2.94701 2.72123 2.31939 2.0261 1.60497
threshold=20.550000000000004 50.617775000000002 21.463250500000004 -0.62538740722492581 14.500000000000002 16.250000000000004 27.500000000000004 23.873333333333338 0.45972848220565493 24.671875000000004 22.988250500000003 971.20985000000007 22.850000000000005 -0.7721494341254892 -0.8779519545588893 -0.90880922144842613 25.688250000000004 21.892857142857146 23.783333333333335 -0.22086936221576398 71.500000000000014 0.90515966073569354 -0.99626127116974506 1.0000000180025095e-35 5.3449398000000015 20.964285714285719 76.267795000000021 26.017420500000004 -0.86149897568914924 4.6234857000000007 26.352832500000002 0.29260033563334814 411.77225000000004 17.350000000000005 0.99645865222666485 22.357142857142858 20.550000000000004 5.0271096500000008 12.950000000000001 968.13062500000012 3.1666184688834207 14.599881630151224 22.850000000000005 24.238250500000003 4.3993629910479575 0.25118075958286762
decision_type=2 2 2 2 2 2 2 2 2 2 2 2 2 2 2 2 2 2 2 2 2 2 2 2 2 2 2 2 2 2 2 2 2 2 2 2 2 2 2 2 2 2 2 2 2 2
left_child=2 3 7 16 12 44 17 13 10 26 15 -10 37 14 -1 32 -2 -5 42 -20 23 33 -12 24 -8 -23 34 -13 -29 30 31 -11 -6 -15 35 -7 -32 -4 -24 -39 -17 -25 -19 -22 -3 -41
right_child=1 5 4 6 8 9 20 -9 11 29 22 27 -14 21 -16 40 -18 18 19 -21 43 25 38 41 -26 -27 -28 28 -30 -31 36 -33 -34 -35 -36 -37 -38 39 -40 45 -42 -43 -44 -45 -46 -47
leaf_value=-0.03112394283445644 0.027342886156996343 -0.16053460464654906 -0.14429106839695813 -0.019532784982554684 -0.097792521031862367 0.046778016677389067 0.22280408739659616 0.18635337438021057 0.054294432926157606 0.045930688195305311 -0.01256636024794852 -0.13072206438877237 -0.097994523355884086 0.00087002725203338006 -0.094639431199528279 -0.058362685414750697 -0.049380083551899608 0.14060813157215954 -0.022484554640914988 0.14524795858347525 1.3884753368176526 -0.086547156301216788 -0.15565108046887627 0.33841896218503698 0.52371337435059684 0.029160474117882099 -0.012261536635932829 0.0099888797062204771 -0.13706326552269107 0.055673744341477593 -0.052275742955662508 -0.028108068032507851 0.0042545295872951456 0.07375555054407866 0.1482269633270509 0.1445066364302714 -0.093164129448269281 -0.11563651928869849 -0.11470938443379851 -0.14115586174234854 -0.10542674385115001 0.71721469590079789 0.26350656940794459 1.0290439683436505 -0.13910086406839955 -0.083939648841330441
leaf_weight=33 25 23 25 23 25 202 67 31 29 62 20 23 24 28 29 39 32 17 38 27 158 18 55 342 74 24 26 25 21 19 28 65 50 26 26 19 36 29 209 472 64 87 33 27 17 18
leaf_count=33 25 23 25 23 25 202 67 31 29 62 20 23 24 28 29 39 32 17 38 27 158 18 55 342 74 24 26 25 21 19 28 65 50 26 26 19 36 29 209 472 64 87 33 27 17 18
internal_value=-0.000710826 0.0130338 -0.0160823 0.0187168 -0.0190678 0.00269656 0.0203476 0.00173995 -0.0138287 0.00465918 -0.0161071 -0.00303749 -0.0242038 -0.00226874 -0.0114729 -0.00974689 -0.00674875 0.00952358 0.0127116 0.005016 0.0223125 0.00372098 -0.0200508 0.020538 0.0146203 -0.00560348 0.00911015 -0.00989292 -0.00384199 -0.00113894 -0.00266198 0.00164316 -0.00197692 0.0109539 0.010551 0.00907732 -0.0111191 -0.0250493 -0.0213379 -0.0256178 -0.0153382 0.022449 0.0224556 0.0276579 -0.0205936 -0.0262126
internal_weight=2790 1473 1317 950 1128 523 893 189 560 483 462 98 568 158 62 178 57 138 115 65 755 96 284 570 141 42 273 69 46 210 191 127 75 54 247 221 64 544 264 519 103 429 50 185 40 490
internal_count=2790 1473 1317 950 1128 523 893 189 560 483 462 98 568 158 62 178 57 138 115 65 755 96 284 570 141 42 273 69 46 210 191 127 75 54 247 221 64 544 264 519 103 429 50 185 40 490
is_linear=0
shrinkage=0.0300631


Tree=19
num_leaves=64
num_cat=0
split_feature=5 6 32 27 27 13 20 20 6 13 41 21 1 41 13 13 10 3 6 29 21 4 22 4 4 10 27 10 32 17 20 4 21 6 21 29 16 13 20 27 10 3 41 23 29 22 3 11 20 41 22 22 13 32 31 17 28 5 10 23 5 29 22
split_gain=624.951 92.1522 80.0253 31.732 25.0101 22.7651 17.6723 17.4796 16.2188 14.4339 14.2902 16.947 13.1393 12.257 8.99283 8.78138 10.526 8.63954 8.17586 8.08041 7.96043 7.41202 7.18848 6.99379 6.86309 6.65033 7.27312 6.5885 6.528 6.57098 12.6595 6.40615 6.36563 6.30005 6.12715 6.10365 5.85393 5.61231 5.38572 9.35681 8.30565 5.00304 4.98616 4.65115 4.56592 4.30887 4.26229 4.1983 3.78119 4.34365 3.77696 3.72239 3.46711 3.74004 3.07422 2.12316 1.96695 1.86083 1.50603 1.34358 1.004 0.89875 0.0777193
threshold=21.383333333333336 16.292857142857148 1.5000000000000002 64.937500000000014 46.687500000000007 146.50000000000003 20.763250000000003 22.963250500000004 46.642857142857146 288.50000000000006 302.00577200000004 22.442417500000001 28.150000000000002 164.26546295000003 223.50000000000003 146.50000000000003 11.91833421797859 19.450000000000003 14.500000000000002 -0.3994235882429043 26.114294000000005 14.950000000000001 98.212080000000014 16.850000000000005 14.950000000000001 5.5992541814701129 33.437500000000007 5.1108588285239893 1.0000000180025095e-35 -0.32533003375364639 17.613250500000003 15.850000000000003 24.549417000000002 29.357142857142858 25.859082500000003 0.91520845340157098 -0.98211651112579557 48.500000000000007 20.963250500000004 52.062500000000007 4.5939520681429249 22.850000000000005 194.85363400000003 48.697175500000007 -0.507759241162416 90.923565000000011 21.900000000000002 8.5000000000000018 21.738250500000003 525.80241350000017 90.612875000000017 89.215775000000022 100.50000000000001 16.500000000000004 1.5000000000000002 -0.8520459593969173 3.2320763500000003 15.700000000000001 4.9213595905782492 65.354910000000004 26.833333333333339 0.24117835965004472 74.504830000000013
decision_type=2 2 2 2 2 2 2 2 2 2 2 2 2 2 2 2 2 2 2 2 2 2 2 2 2 2 2 2 2 2 2 2 2 2 2 2 2 2 2 2 2 2 2 2 2 2 2 2 2 2 2 2 2 2 2 2 2 2 2 2 2 2 2
left_child=1 5 4 28 10 -1 -5 24 17 18 11 19 46 20 42 16 33 -4 41 -2 21 -8 36 -24 -6 44 37 55 34 -30 -31 32 -11 -9 38 45 -20 -27 40 -40 -3 57 -15 -14 -19 -26 -13 -36 56 -50 52 -28 62 54 -54 -17 -12 -7 -22 -34 -46 -21 -10
right_child=2 3 8 6 7 9 13 15 50 31 48 12 43 14 -16 27 -18 25 22 61 58 -23 23 -25 35 26 51 -29 29 30 -32 -33 59 -35 47 -37 -38 -39 39 -41 -42 -43 -44 -45 60 -47 -48 -49 49 -51 -52 -53 53 -55 -56 -57 -58 -59 -60 -61 -62 -63 -64
leaf_value=0.1294220685437785 0.027109309023949774 -0.043242003995357735 -0.023807794756846665 0.081415081924702606 -0.064987337767155332 -0.13692333348793045 -0.12804622461384957 -0.0086859987563928792 1.2091284668582674 -0.00071807277273267574 0.14016231824582376 0.0027911250473575044 0.061253019534808377 0.025671684493556807 -0.13114296073720993 -0.003843201693323773 -0.16283111238469242 0.11381869313235983 -0.010973380246492692 0.22045343270506615 -0.17605861130595823 -0.037254619212290105 -0.11431628832016129 0.011241051596558143 0.24095486324418777 0.25188015024899374 0.16889385751392524 -0.1144983867518328 -0.013400446787456968 -0.014214203470641023 0.15474307919857577 0.001224826603984883 -0.092749567841956454 0.13372710193119569 0.006132217956877445 -0.0098562275185326009 -0.12159217965987175 0.59614891770671874 0.082674679733738626 -0.076064580465864173 0.054110397320609613 -0.10608268246596535 -0.046862344136963358 -0.041156453018505533 0.10312724117091207 0.087210060206442314 0.10142605956041664 -0.071230165608385243 0.28951447364572491 0.30456416921697976 0.62393114323590992 -0.034884546173842561 0.39147241065093608 0.75305194548115184 0.037472387856099271 -0.0388460281669636 0.38075251739885868 -0.063662789467826469 -0.077183999867915298 -0.11244139791923743 0.51032797098127747 0.26333064121038058 0.68811187228787862
leaf_weight=21 20 25 25 21 23 514 51 28 130 18 17 48 20 29 24 23 26 23 19 31 62 89 20 17 28 74 34 26 17 17 36 26 25 23 22 17 139 53 27 19 39 17 41 40 18 133 49 22 29 20 32 20 27 25 19 17 51 22 17 23 56 24 142
leaf_count=21 20 25 25 21 23 514 51 28 130 18 17 48 20 29 24 23 26 23 19 31 62 89 20 17 28 74 34 26 17 17 36 26 25 23 22 17 139 53 27 19 39 17 41 40 18 133 49 22 29 20 32 20 27 25 19 17 51 22 17 23 56 24 142
internal_value=-0.000818546 -0.0147999 0.0136523 -0.00527117 0.00645529 -0.0209635 -0.0111315 0.000696388 0.0209905 -0.0217373 0.012115 0.00774479 0.00209267 -0.0129299 -0.00379943 -0.00731178 -0.000381633 0.01573 -0.0231232 0.0194144 -0.0168173 -0.0123764 -0.0176501 -0.00554945 0.00640234 0.017248 0.0137189 -0.015283 0.00347459 0.0110261 0.016181 -0.0103563 -0.015283 0.00752959 0 0.00840222 -0.0204363 0.0176319 0.00379344 0.0115409 -0.00184869 -0.0250222 0.00169215 -0.00888601 0.0236517 0.0102134 0.00890554 -0.00937474 0.0206584 0.0138614 0.0251944 0.00437774 0.0261402 0.0196584 0.0141072 -0.00734936 0.0253174 -0.0255345 -0.0244653 -0.0209135 0.0273042 0.0252893 0.0277637
