tree
version=v4
num_class=1
num_tree_per_iteration=1
label_index=0
max_feature_idx=44
objective=regression_l1
feature_names=pm25_lag1 pm25_lag3 pm25_lag7 pm25_lag14 pm25_lag30 pm25_roll3_mean pm25_roll7_mean pm25_roll14_mean pm25_roll30_mean pm25_roll7_std pm25_roll14_std month week day_of_year sin_month cos_month sin_doy cos_doy is_haze_season temp_max temp_min temp_mean humidity_max humidity_min precipitation wind_speed pressure cloud_cover evapotranspiration wind_dir_sin wind_dir_cos hotspot_50km hotspot_100km mean_frp_50km hotspot_7d_roll hotspot_14d_roll fire_flag alert_lag1 alert_lag3 alert_lag7 lag1_x_temp lag1_x_wind roll7_x_fire precip_flag humidity_wind
feature_infos=[3:266] [3:266] [3:266] [3:266] [3:266] [6:232] [7.5714285714285712:186.42857142857144] [8.8571428571428577:169.21428571428572] [9.3333333333333339:124] [0.43094580367593538:73.209093892571971] [0.72373421144061201:88.014390681484315] [1:12] [1:53] [1:366] [-1:1] [-1:1] [-0.99999073973619002:0.99999073973619002] [-0.99996295911626565:1] [0:1] [12.9765:40.676501999999999] [8.6265000000000001:29.076499999999999] [11.622332999999999:34.403584000000002] [46.447315000000003:100] [10.397731:96.135369999999995] [0:122.59999999999999] [3.219938:28.802247999999999] [962.69560000000001:985.60720000000003] [0:100] [0.46755368000000003:7.5202622000000003] [-1:1] [-0.99999999999993905:1] [0:76] [0:341] [3.2999999999999998:123.55] [0:27.714285714285715] [0:21.214285714285715] [0:1] [0:1] [0:1] [0:1] [77.858999999999995:9742.6489999999994] [17.5811262:3642.7936559999998] [0:186.42857142857144] [0:1] [313.37161102049998:2307.4931354009282]
tree_sizes=3640 3770 3264 3862 3646 3981 4807 3560 3698 3824 3905 4341 4077 3920 4035 4319 3839 3650 3774 3816 3993 3970 3729 4197 4046 3381 4025 4056 3811 3440 3996 3266 3634 3931 3834 3856 3844 3728 3744 3948 4065 4378 3295 3971 3520 3083 3941 3582 3089 3981 4104 3430 4175 3987 3054 4011 3755 3559 3788 3629 3211 3134 3158 3195 3200 2508 3253 3410 2554 4026 3513 2897 3089 3301 2718 3543 4179 2323 2720 2125 2696 3399 2403 4044 3705 3558 1401 2596 1640 2204 2860 1774 2810 1748 1986 1888 1251 2484 2646 1648 2749 1240 1805 1530 1066 1796 2832 2829 2990 2509 2411 2083 2753 2572 3460 2247 4084 2660 2715 2559 3645 3890 2745 3013 3043 1774 2159 2067 1935 1677 1798 2838 2686 2904 2465 2879 4046 3195 1643 2953 3384 3176 2548 3217 3361 3113 2550 1966 2357 1897 2943 1318 1306 2292 2350 2571 3733 2620 1722 2347 2367 2104 3083 1448 3363 2928 2249 3020 1889 1680 2700 1707 2322 2076 1542 1164 1702 2031 2158 851 2041 1253 2756 1225 1992 1719 2770 2559 2195 3049 1076 1477 2137 1228 1236 2036 1711 2196 3078 2395 3192 3226 2336 2545 3304 2421 1575 1673 1138 1986 1776 3094 2368 1341 1174 2347 3181 4187 2646 3433 2665 2078 3541 1174 2052 2656 1596 2337 2359 2449 2577 2202 1723 3033 1432 2738 1562 1581 2831 1885 2187 2272 1899 2261 2214 2647 1959 2591 1814 2230 1644 2782 1425 2645 2747 1842 1681 2548 1509 1836 2556 3038 3103 3294 3379 3141 1869 1821 2551 2617 2539 3264 2678 2635 2113 1947 1790 1942 3034 2164 3227 2708 2717 1982 1815 2350 1532 2710 1273 2946 1358 3352 1638 1435 1227 1878 1416 1426 1908 1959 1338 3800 2403 2066 1995 3007 1689 2774 2797 1346 1979 2291 2697 2495 2098 1916 2778 1893 2358 2703 3018 2643 869 2008 1823 2026 1664 1641 1526 1627 2300 1178 2138 1153 2255 3136 3655 3629 2502 2765 3126 1906 2229 2676 1072 3384 2680 3126 2741 2928 2310 2135 3841 2694 2014 2191 1699

Tree=0
num_leaves=42
num_cat=0
split_feature=0 24 5 0 24 12 32 10 24 20 13 22 40 26 23 20 23 5 40 29 30 20 23 24 25 22 30 13 24 22 23 22 1 1 23 30 26 30 20 20 40
split_gain=1250.71 145.319 52.2426 32.5634 25.9436 18.776 16.2507 15.0788 14.1615 12.335 23.1469 9.69286 8.86344 7.96944 7.96024 7.78349 7.71738 7.65539 6.37788 6.28095 5.65168 5.30298 4.70282 4.64514 6.99833 4.30063 3.35518 3.02519 4.34928 3.01623 3.84019 2.94891 4.33258 2.49455 1.44196 1.34135 1.0509 1.00843 0.85222 0.664588 0.262255
threshold=20.550000000000004 1.3000001500000002 17.133333333333336 24.300000000000004 1.3000001500000002 21.500000000000004 1.5000000000000002 5.601216422470479 3.1000000500000007 21.313250000000004 148.50000000000003 94.604580000000013 520.43850000000009 975.14984000000015 62.992376500000006 23.138250500000002 58.238149500000006 22.81666666666667 462.90000000000003 -0.088809982543725532 0.66790804741389886 23.388250500000002 66.680275000000009 18.500001000000001 7.0314070000000006 92.253245000000007 -0.99513171168174996 136.50000000000003 1.0000000180025095e-35 94.145915000000016 51.668751500000006 95.534915000000012 20.550000000000004 21.900000000000002 50.782961000000007 -0.86807584407355487 976.28203500000006 -0.29206895733499555 20.863250500000003 24.413250000000001 753.72975000000008
decision_type=2 2 2 2 2 2 2 2 2 2 2 2 2 2 2 2 2 2 2 2 2 2 2 2 2 2 2 2 2 2 2 2 2 2 2 2 2 2 2 2 2
left_child=2 3 5 9 7 18 8 11 17 29 39 13 34 -4 27 -14 -9 -3 -1 -13 26 -12 -16 24 -10 -19 -6 40 -29 36 -31 -22 -33 -28 -7 -17 -2 -25 -36 -11 -5
right_child=1 6 4 14 20 12 -8 16 23 10 21 19 15 -15 22 35 -18 25 -20 -21 31 -23 -24 37 -26 -27 33 28 -30 30 -32 32 -34 -35 38 -37 -38 -39 -40 -41 -42
leaf_value=20.828849427838982 21.213938215201274 20.893030892399363 20.957212356959744 21.513451716483058 20.893030892399363 20.828849427838982 21.427876430402549 21.213938215201274 20.807455606318854 21.213938215201274 20.957212356959744 21 20.914424713919491 21.171150572161018 21 20.786061784798726 21 21.085575286080509 21.042787643040256 20.807455606318854 21 20.871637070879235 21.256725858241527 20.914424713919491 20.957212356959744 21.128362929120765 20.743274141758473 21.427876430402549 21.256725858241527 21.021393821520128 21.128362929120765 20.786061784798726 20.957212356959744 20.786061784798726 20.871637070879235 20.764667963278598 21.209659434575059 20.807455606318854 20.657698855677964 21.171150572161018 22.369204577288151
leaf_weight=25 12.999999999999998 18 31 12.999999999999998 18 22 22 24 30 17.000000000000004 25 13.999999999999998 21 21 16.000000000000004 23 20 12.999999999999998 12.999999999999998 32 12.999999999999998 17 13.999999999999998 13.000000000000002 63 21 85 164 37 13.999999999999998 33 15.000000000000002 12.999999999999998 42 25 20 38 13.999999999999998 680 13.999999999999998 619
leaf_count=25 13 18 31 13 18 22 22 24 30 17 25 14 21 21 16 23 20 13 13 32 13 17 14 13 63 21 85 164 37 14 33 15 13 42 25 20 38 14 680 14 619
internal_value=21.0004 21.0305 20.9685 21.0368 20.9829 20.9627 20.9965 20.9967 20.992 21.0198 21.0064 20.9873 20.9613 21 21.0402 20.9766 21.0175 21.0107 20.9921 20.973 20.9724 20.9857 21.0185 20.984 20.9885 21.0226 20.9684 21.041 21.0364 21.0297 21.0218 20.9864 20.9786 20.966 20.96 20.9662 21.0369 20.9683 20.9596 21.0345 21.0424
internal_weight=2385 1228 1157 1034 328 829 194 142 172 171 73 98 791 52 863 64 44 52 38 46 186 42 30 120 93 34 145 833 201 98 47 41 28 127 727 43 51 27 705 31 632
internal_count=2385 1228 1157 1034 328 829 194 142 172 171 73 98 791 52 863 64 44 52 38 46 186 42 30 120 93 34 145 833 201 98 47 41 28 127 727 43 51 27 705 31 632
is_linear=0
shrinkage=1


Tree=1
num_leaves=40
num_cat=0
split_feature=0 43 0 0 43 27 4 12 17 41 27 29 9 25 20 12 20 17 29 0 25 5 17 19 25 29 9 0 26 17 27 19 21 27 12 26 12 26 4
split_gain=1208.57 118.553 56.1073 32.2663 28.5929 21.0257 14.9383 14.5875 13.563 12.831 10.6203 9.01151 8.89179 8.61612 8.96153 8.22521 10.6471 9.73514 7.9761 7.96867 7.58126 7.42446 8.62088 7.28238 5.47091 4.70412 4.40503 3.37109 3.08002 3.01648 2.69812 2.54205 2.39158 2.3568 1.90148 1.66098 1.61086 0.60263 0.120207
threshold=20.550000000000004 1.0000000180025095e-35 16.250000000000004 24.300000000000004 1.0000000180025095e-35 47.250000000000007 16.850000000000005 20.500000000000004 -0.83352489619613901 166.28180100000003 59.916666000000006 0.14044269755300656 5.8431889532048933 9.5042725000000008 21.013250000000003 19.500000000000004 21.088250000000006 0.26780438508363441 -0.16470907603105758 22.850000000000005 5.5944941000000012 18.783333333333335 0.08167336996455922 30.538250000000001 5.9208555000000009 -0.20476307325072676 4.3969686527579217 18.800000000000004 970.35255000000018 0.63207999751838673 52.187500000000007 28.313250000000004 22.984083000000002 38.437500000000007 46.500000000000007 971.53612500000008 22.500000000000004 981.60342500000013 23.300000000000004
decision_type=2 2 2 2 2 2 2 2 2 2 2 2 2 2 2 2 2 2 2 2 2 2 2 2 2 2 2 2 2 2 2 2 2 2 2 2 2 2 2
left_child=2 3 7 8 6 33 24 23 -2 26 18 29 28 14 -11 37 32 -18 -6 -15 -10 34 35 31 -4 -22 -7 -26 -12 -8 -13 -1 -17 -3 36 -23 -9 38 -5
right_child=1 5 4 15 10 9 11 21 20 13 12 30 -14 19 -16 16 17 -19 -20 -21 25 22 -24 -25 27 -27 -28 -29 -30 -31 -32 -33 -34 -35 -36 -37 -38 -39 -40
leaf_value=-0.08374450368356906 -0.16565822497019794 0.5098816911582168 -0.16291205137478759 0.79716782410300557 0.046449207834135184 -0.077336765294278229 0.11920901713606274 -0.28486724210626085 -0.086490677278979536 -0.080540634488923638 -0.19929195602575145 -0.042787643040254689 -0.033633731055553374 -0.16931978976407844 0.093813806866740526 0.49514389251365365 0.23841803427212549 -0.042787643040254689 -0.074590591698867892 -0.039126078246374194 0.1857129101421586 -0.28852880690014132 0.035464513452493698 0.080082938889688551 -0.11829362593759267 0.12287058192994324 -0.24848733745529697 0 -0.2280089071336398 0.20661508561351244 0.042787643040254689 -0.1619966601763175 0.28120567731238016 0.29402115409096202 -0.080082938889688551 -0.31175341081720886 -0.32765488514651553 0.79716782410300557 1.3961948266665711
leaf_weight=12.999999999999998 12.999999999999998 22 14.999999999999998 82 13.000000000000002 24 29 14.999999999999998 15.999999999999998 13.999999999999998 45 19 19 14.999999999999998 53 102 39 12.999999999999998 14.999999999999998 52 62 12.999999999999998 17 13.999999999999998 15.999999999999998 74 17 21 112 14.999999999999998 14.999999999999998 20 74 17 12.999999999999998 20 698 12.999999999999998 526
leaf_count=13 13 22 15 82 13 24 29 15 16 14 45 19 19 15 53 102 39 13 15 52 62 13 17 14 16 74 17 21 112 15 15 20 74 17 13 20 698 13 526
internal_value=0.000573894 0.0301391 -0.0308051 0.0362466 -0.0160118 0.00119746 -0.000325547 -0.0368081 0.0189272 -0.00513178 -0.0260055 0.0115134 -0.0298996 0.00127374 0.0121264 0.0396119 0.0326513 0.0156242 -0.00151135 -0.00957199 0.0225163 -0.0382104 -0.0222391 -0.0136449 -0.0180926 0.0257945 -0.026077 -0.00923812 -0.0332455 0.0242991 -0.00501975 -0.0246192 0.0376791 0.0296082 -0.0393096 -0.0349911 -0.0396063 0.0421666 0.0423644
internal_weight=2385 1228 1157 1014 334 214 130 823 165 175 204 78 176 134 67 849 228 52 28 67 152 776 50 47 52 136 41 37 157 44 34 33 176 39 726 33 713 621 608
internal_count=2385 1228 1157 1014 334 214 130 823 165 175 204 78 176 134 67 849 228 52 28 67 152 776 50 47 52 136 41 37 157 44 34 33 176 39 726 33 713 621 608
is_linear=0
shrinkage=0.0427876


Tree=2
num_leaves=35
num_cat=0
split_feature=1 20 24 16 2 24 1 32 8 20 10 27 23 27 34 24 16 10 26 25 24 2 1 23 10 10 17 24 27 26 27 8 1 17
split_gain=947.504 139.153 123.761 93.7137 32.9248 30.8375 24.6438 18.1721 16.1037 15.8462 13.4062 11.7594 11.8999 8.41921 10.3842 7.97245 7.54806 8.859 10.8424 6.73092 5.2183 5.09378 4.94962 4.67168 4.5412 4.50654 3.66814 3.53841 4.77477 2.77933 2.25654 2.19314 0.801407 0.790172
threshold=22.150000000000002 19.913250000000001 2.4499999000000003 0.56314550935064711 15.950000000000001 1.3000001500000002 26.500000000000004 1.5000000000000002 24.083333333333336 21.013250000000003 5.2061882029369402 45.562500000000007 60.394760000000005 56.854166000000006 1.0000000180025095e-35 1.5000001500000002 -0.69016699705532225 4.8940701410054741 975.14984000000015 8.9711070000000017 4.200000150000001 16.950000000000003 14.550000000000002 47.323282500000012 3.7276796677282991 4.9564032157411146 0.99814856079753089 20.699999500000001 98.604168000000016 971.2066500000002 33.145834000000008 21.883333333333336 14.950000000000001 -0.65187484896379921
decision_type=2 2 2 2 2 2 2 2 2 2 2 2 2 2 2 2 2 2 2 2 2 2 2 2 2 2 2 2 2 2 2 2 2 2
left_child=1 8 6 4 13 29 9 21 16 24 31 12 -6 14 -3 23 -1 18 -18 -12 -7 -4 -13 33 -2 -15 -25 28 -23 -5 -26 -11 -31 -8
right_child=2 3 7 5 11 20 15 -9 -10 10 19 22 -14 25 -16 -17 17 -19 -20 -21 -22 27 -24 26 30 -27 -28 -29 -30 32 -32 -33 -34 -35
leaf_value=-0.11589995922876313 0.17444435110543441 -0.18741176607281471 -0.25741818908342357 0.18118857872163499 -0.14248473271945203 0.0031915556117725606 0.15588122486612824 0.4083986269276989 0.46693611801971557 -0.11578245693323622 0.040604353756733338 -0.27084766184021608 0.039047743382689536 -0.31363530488047081 0.028665839441566719 0.2633539599115437 -0.17732330595925577 -0.024260093442682068 0.16935895719592084 0.22606241783622699 -0.15323442251003955 -0.067894141020584151 -0.16207499504000208 0.39266134693292382 0.24597616845094047 -0.20971376609550382 0.16087194825080617 -0.1353454960564234 0.013104189067574573 0.10236418971413559 0.19594373068660945 -0.021186040126436417 0.66466812894301841 1.2936672977682568
leaf_weight=14.999999999999998 25 64 15.999999999999998 17 30 14.999999999999998 14.999999999999998 13.999999999999998 32 12.999999999999998 15.000000000000002 116 34 570 12.999999999999998 24 12.999999999999998 18 63 15.999999999999998 25 61 221 166 43 25 13.999999999999998 18 19 12.999999999999998 27 19 26 570
leaf_count=15 25 64 16 17 30 15 15 14 32 13 15 116 34 570 13 24 13 18 63 16 25 61 221 166 43 25 14 18 19 13 27 19 26 570
internal_value=0.000358611 -0.0240717 0.03013 -0.0289151 -0.0325388 0.0115831 0.0354675 -0.00935596 0.0160797 0.0200365 0.00338831 -0.022833 -0.00600948 -0.0383297 -0.0249988 0.038557 0.00823901 0.0127399 0.019135 0.0234471 -0.0171023 -0.0150088 -0.0260265 0.0393191 0.0310716 -0.040054 0.0332762 -0.0113468 -0.00748176 0.0320809 0.0366671 -0.0160295 0.0383846 0.0411775
internal_weight=2385 1310 1075 1169 1073 96 947 128 141 158 63 401 64 672 77 789 109 94 76 31 40 114 337 765 95 595 180 98 80 56 70 32 39 585
internal_count=2385 1310 1075 1169 1073 96 947 128 141 158 63 401 64 672 77 789 109 94 76 31 40 114 337 765 95 595 180 98 80 56 70 32 39 585
is_linear=0
shrinkage=0.0427876


Tree=3
num_leaves=43
num_cat=0
split_feature=6 23 6 6 26 13 26 14 26 14 29 13 25 23 21 7 13 23 13 4 10 25 30 7 7 19 6 25 25 23 25 29 8 25 19 19 1 29 26 4 19 19
split_gain=963.834 194.452 44.2341 38.263 33.0903 15.4369 19.5288 14.2558 12.2815 20.243 11.7662 10.1315 9.49086 12.0349 9.12223 8.62277 8.31718 12.9353 8.25593 8.09649 7.71145 6.0763 8.65972 5.59203 7.8984 4.61846 4.27563 3.54552 6.10993 3.52802 6.77753 3.62421 2.29789 1.99363 1.82955 1.18493 1.10653 0.797653 0.679165 0.327413 0.811732 0.160672
threshold=19.357142857142858 54.803024000000008 28.214285714285719 16.485714285714288 975.11101500000007 148.50000000000003 975.68976000000009 -0.93301270189221919 975.55857500000013 0.68301270189221941 -0.20476307325072676 148.50000000000003 9.5042725000000008 61.251582000000006 27.109372500000003 19.392857142857146 298.50000000000006 59.081743500000009 148.50000000000003 28.450000000000003 4.8940701410054741 7.186474500000001 0.94285541509481285 18.953571428571433 20.025000000000002 27.088250000000006 14.342857142857147 7.5385101000000008 9.3426755000000004 34.03369150000001 13.788513000000002 -0.9124340944096917 42.666666666666679 9.0466612500000014 28.088250000000006 32.763250000000006 12.65 -0.55907762859766941 968.28015000000016 27.500000000000004 34.388250000000006 29.563250000000004
decision_type=2 2 2 2 2 2 2 2 2 2 2 2 2 2 2 2 2 2 2 2 2 2 2 2 2 2 2 2 2 2 2 2 2 2 2 2 2 2 2 2 2 2
left_child=3 2 8 11 7 14 23 41 9 18 20 -1 13 -12 -5 -9 -8 -18 -2 -17 34 22 -10 37 -25 -22 35 36 -29 39 31 -31 -32 -23 -6 38 -28 -7 -13 40 -4 -3
right_child=1 4 29 5 10 6 16 15 21 -11 12 26 -14 -15 -16 19 17 -19 -20 -21 25 33 -24 24 -26 -27 27 28 -30 30 32 -33 -34 -35 -36 -37 -38 -39 -40 -41 -42 -43
leaf_value=-0.0021457977337714755 0.052573134419190141 -0.25925872876710937 1.4950401814600258 -0.051864215623112428 0.28391557425031549 -0.26757441960057399 0.14178264459081094 -0.2164710857268547 0.22282014211081222 0.95225751789087065 0.16445484806580804 -0.30570793660124457 -0.11235254496622479 -0.016400382590870177 0.19198821412985984 0.0029077941483343934 0.1660158705811304 -0.097262068590791798 -0.11082839849565328 -0.11511553292159696 -0.038688558312051646 0.25749405602934539 -0.00042507171736800203 0.0082953671885229591 -0.17368344268660002 0.18755976028201507 -0.2164710857268547 -0.1718526602896597 -0.26535312770166158 0.84598114567774763 0.19446970831806154 0.70898835560349815 0.46813674849391351 0.2264515047239255 0.060887702651746832 -0.23603412485004172 -0.22348087585987692 -0.22744933211294679 -0.3020463718073641 1.62340311058079 1.4350958489366805 -0.21898225473121108
leaf_weight=19 50 12.999999999999998 27 14.000000000000002 26 12.999999999999998 19 17 41 24 54 33 17 93 13.999999999999998 91 19 35 41 56 22 44 30 20 31 29 21 61 58 18 16.000000000000004 339 12.999999999999998 32 12.999999999999998 21 79 62 451 277 12.999999999999998 19
leaf_count=19 50 13 27 14 26 13 19 17 41 24 54 33 17 93 14 91 19 35 41 56 22 44 30 20 31 29 21 61 58 18 16 339 13 32 13 21 79 62 451 277 13 19
internal_value=-5.36256e-05 0.0224669 0.0332984 -0.0329062 -0.00075963 -0.0175275 -0.0217137 -0.0139689 0.0182889 0.00780916 0.00943156 -0.037604 0.00260612 0.00610924 0.0122072 -0.00886762 -0.00409639 -0.0126686 -0.00140542 -0.00552711 0.0218634 0.0264839 0.0174694 -0.0319166 -0.0209641 0.0108969 -0.0384135 -0.033407 -0.0284007 0.0388915 0.0361353 0.0377522 0.0162122 0.0348983 0.0361905 -0.0405836 -0.0393589 -0.039357 -0.0410184 0.0422459 0.0384946 -0.0400955
internal_weight=2385 1415 965 970 450 227 199 196 262 115 254 743 164 147 28 164 73 54 91 147 90 147 71 126 51 51 724 219 119 703 386 357 29 76 39 505 100 75 484 317 40 32
internal_count=2385 1415 965 970 450 227 199 196 262 115 254 743 164 147 28 164 73 54 91 147 90 147 71 126 51 51 724 219 119 703 386 357 29 76 39 505 100 75 484 317 40 32
is_linear=0
shrinkage=0.0427876


Tree=4
num_leaves=40
num_cat=0
split_feature=0 43 40 0 12 40 17 17 23 19 17 31 2 19 19 40 2 41 44 12 19 1 0 0 23 17 14 40 40 26 8 2 23 19 35 19 44 0 12
split_gain=1085.8 111.154 53.9362 38.7111 23.8822 20.2677 13.7263 13.5608 13.0556 12.3632 11.5139 9.811 8.59753 8.4282 8.11378 6.92885 5.52148 5.45862 9.31314 5.11736 8.38097 4.83958 4.5575 4.47244 4.27167 4.10268 3.83507 3.78065 3.36704 2.72447 2.31745 1.46533 0.984136 1.6759 0.376624 1.93465 0.298496 1.04117 0.110694
threshold=20.050000000000004 1.0000000180025095e-35 469.96075800000006 34.20000000000001 21.500000000000004 744.95000000000016 0.73246693938583607 -0.83352489619613901 60.394760000000005 28.263250000000003 0.78827585631460517 1.0000000180025095e-35 14.950000000000001 26.513250000000003 30.763250000000003 621.88301050000007 14.950000000000001 166.28180100000003 919.3210847027425 38.500000000000007 29.488250500000003 15.950000000000001 22.850000000000005 14.950000000000001 59.081743500000009 -0.86955717898714324 -0.5 642.45000000000016 584.3950000000001 976.97175000000004 23.596666666666668 20.550000000000004 72.612053000000017 28.788250000000001 0.24999999999999997 30.013250000000003 949.68393765647272 47.500000000000007 3.5000000000000004
decision_type=2 2 2 2 2 2 2 2 2 2 2 2 2 2 2 2 2 2 2 2 2 2 2 2 2 2 2 2 2 2 2 2 2 2 2 2 2 2 2
left_child=2 3 10 7 14 17 12 -2 27 -10 16 19 28 -12 -4 -16 32 29 26 20 -7 -14 -20 30 -8 -25 -19 -9 -6 31 -18 -3 33 -1 35 -5 38 -38 -36
right_child=1 5 4 34 6 11 24 8 9 -11 13 -13 21 -15 15 -17 23 18 22 -21 -22 -23 -24 25 -26 -27 -28 -29 -30 -31 -32 -33 -34 -35 36 -37 37 -39 -40
leaf_value=-0.24888506065731575 -0.10608631254209822 -0.22219634413533457 -0.0030611263415247273 0.57560709990589942 -0.20171645099141683 -0.11100378866979539 0.091524539072427608 0.10083282002119126 0.19734046414717929 -0.0052420550771499139 0.12267202430368671 0.54081392861952382 -0.1496077448268727 -0.11695316796028316 0.14497382875569093 0.00080551596047730622 -0.25418083397450036 0.11693659186316493 -0.21446344881352888 0.15631059140565864 0.077061624679822097 -0.082781691677600688 -0.0017083761445576126 -0.20977137685872496 -0.034158541045006569 -0.16167498154657256 -0.053177198886727131 0.236181948302393 -0.12963702829690546 -0.069698141640060288 -0.14455365635049697 -0.10518516157666886 -0.33007938011218091 -0.28729173707192623 0.91313882346961173 0.38029305477456282 0.69217484775678961 1.236355935811476 1.5111538747345656
leaf_weight=22 17 15.000000000000002 19 44 104 23 20 41 38 46 15.999999999999998 21 49 21 17 14.999999999999998 185 13.000000000000002 16.000000000000004 23 53 120 12.999999999999998 19 19 64 12.999999999999998 313 19 12.999999999999998 28 12.999999999999998 173 243 28 13.999999999999998 24 58 393
leaf_count=22 17 15 19 44 104 23 20 41 38 46 16 21 49 21 17 15 185 13 16 23 53 120 13 19 19 64 13 313 19 13 28 13 173 243 28 14 24 58 393
internal_value=0.00034067 0.02827 -0.0295018 0.0341959 -0.0163521 0.000394021 -0.020552 0.0249191 0.0263747 0.0112004 -0.0360164 0.012119 -0.0237365 -0.0127071 0.0108969 0.0240515 -0.0371907 -0.0142573 -0.00543697 0.0064781 0.00111982 -0.0174665 -0.0221134 -0.0326671 0.00327919 -0.0242227 0.0131462 0.029974 -0.0323471 -0.026077 -0.035955 -0.033599 -0.0402464 -0.0385875 0.0417188 0.0383515 0.042106 0.0396499 0.042583
internal_weight=2385 1232 1153 1016 382 216 331 455 438 84 771 120 292 37 51 32 734 96 55 99 76 169 29 296 39 83 26 354 123 41 213 28 438 265 561 58 503 82 421
internal_count=2385 1232 1153 1016 382 216 331 455 438 84 771 120 292 37 51 32 734 96 55 99 76 169 29 296 39 83 26 354 123 41 213 28 438 265 561 58 503 82 421
is_linear=0
shrinkage=0.0427876


Tree=5
num_leaves=43
num_cat=0
split_feature=5 27 20 23 5 6 23 41 22 20 6 27 22 10 27 9 12 30 15 9 19 4 41 41 19 30 9 5 27 19 6 30 5 9 22 22 34 27 30 19 20 27
split_gain=1030.61 113.079 67.0719 31.732 24.9673 22.2355 18.5471 18.1386 14.5496 13.3533 14.7618 10.4708 8.93543 8.806 8.31266 8.10337 7.77319 7.71611 7.67035 7.59997 6.71259 6.67435 6.42746 6.41775 5.80732 5.61146 5.55363 5.02759 9.30193 4.70699 5.25029 4.46058 3.8361 3.35064 3.14437 2.76633 2.15764 2.34665 1.60378 1.5903 1.47198 0.316212
threshold=20.800000000000008 74.562500000000014 21.213250500000004 42.962622000000003 17.600000000000005 22.207142857142859 65.375545000000017 118.14390010000001 91.899808000000021 21.563250000000004 22.785714285714288 26.145833000000003 92.361445000000018 3.5357199623360498 85.020832000000013 4.2370250120066792 21.500000000000004 -0.75257801831331694 -0.5 3.5989416433687409 33.563250000000004 15.850000000000003 118.14390010000001 121.69682670000002 35.838250000000009 -0.90105676679146529 4.5617456975943016 14.283333333333337 49.187500000000007 28.638250500000002 20.30714285714286 0.82838760941100753 19.750000000000004 4.4427503436646703 96.129170000000016 95.274890000000013 0.92857142857142871 29.750000000000004 -0.23005753007749188 28.313250000000004 22.238250500000003 47.854166000000006
decision_type=2 2 2 2 2 2 2 2 2 2 2 2 2 2 2 2 2 2 2 2 2 2 2 2 2 2 2 2 2 2 2 2 2 2 2 2 2 2 2 2 2 2
left_child=2 3 7 13 16 17 18 26 19 10 21 -11 -9 -2 33 -8 22 25 24 -6 -13 -5 -4 -12 -7 34 31 40 -29 30 -14 -1 -16 -10 -3 -20 37 -15 -17 -33 -18 -38
right_child=1 5 4 9 8 6 15 12 14 11 23 20 29 36 32 38 27 -19 35 -21 -22 -23 -24 -25 -26 -27 -28 28 -30 -31 -32 39 -34 -35 -36 -37 41 -39 -40 -41 -42 -43
leaf_value=-0.012348856403418934 0.10920247077465094 -0.037870581099751464 -0.31145934131584241 0.14316959685001648 0.13126454032401919 -0.006469817651760695 0.063837920052873504 0.24858592823689676 -0.097568796969828925 0.28529442481155665 0.0038858656563072113 0.014343150318800898 0.10220462869349597 0.61411652368056147 -0.21508194450518792 -0.10928514732905444 -0.19267143459658193 -0.20703578810547968 0.42925358617389325 -0.017013955146178057 0.31498171658518281 0.10398966334129753 0.028110116264753352 0.35093896433697763 0.44404694609329393 0.015474916551189809 0.033845830272621918 -0.061008872504371835 -0.21023000800867717 -0.071443560962423158 -0.015567670493646149 -0.17472633079549302 -0.10873629121971647 0.069298917185728476 -0.11962971962803014 0.0576681332879629 1.6430875384473187 0.33401644311690337 -0.2142547558154192 -0.16273445489793778 -0.30123065979711894 1.298955398668509
leaf_weight=20 13.999999999999998 15.999999999999998 14.000000000000002 14.999999999999998 13.999999999999998 30 15.999999999999998 23 38 18 12.999999999999998 91 23 111 78 13 51 25 31 21 12.999999999999998 59 17 311 13.999999999999998 15.999999999999998 13.999999999999998 20 251 15.999999999999998 12.999999999999998 13.000000000000002 18 15.999999999999998 21 12.999999999999998 334 69 15 18 439 42
leaf_count=20 14 16 14 15 14 30 16 23 38 18 13 91 23 111 78 13 51 25 31 21 13 59 17 311 14 16 14 20 251 16 13 13 18 16 21 13 334 69 15 18 439 42
internal_value=0.0012213 0.0271204 -0.0289204 0.0326594 -0.0328894 -0.00162777 0.00907245 -0.00121915 -0.0187313 0.0250133 0.0288104 0.0126218 0.0131149 0.0396339 -0.024528 -0.0136028 -0.0361959 -0.0197415 0.0204155 0.00609875 0.00740088 0.0115575 -0.0151664 0.0327493 0.00776851 -0.0104858 -0.0177654 -0.0370519 -0.032365 0.00328223 0.0118716 -0.0243198 -0.032085 -0.0110839 -0.0196452 0.0330506 0.0404779 0.0366041 -0.0274871 -0.0344881 -0.0396429 0.0423309
internal_weight=2417 1300 1117 1090 977 210 132 140 185 520 398 122 75 570 150 44 792 78 88 35 104 74 31 324 44 53 65 761 271 52 36 51 96 54 37 44 556 180 28 31 490 376
internal_count=2417 1300 1117 1090 977 210 132 140 185 520 398 122 75 570 150 44 792 78 88 35 104 74 31 324 44 53 65 761 271 52 36 51 96 54 37 44 556 180 28 31 490 376
is_linear=0
shrinkage=0.0427876


Tree=6
num_leaves=52
num_cat=0
split_feature=40 6 40 27 22 40 40 13 27 12 40 41 27 13 27 1 16 44 41 19 6 13 22 19 19 29 22 44 30 19 29 6 40 40 32 27 6 29 23 44 13 28 41 28 1 33 6 22 27 1 6
split_gain=971.726 109.72 83.6835 39.9121 38.3106 22.5972 19.2317 18.1256 17.6743 16.4365 15.47 12.692 10.9456 10.7698 8.92193 9.30751 8.15064 7.4486 8.63682 6.75752 9.26267 6.93488 5.8892 5.80802 4.65874 4.28074 4.00267 3.98214 3.6021 3.37982 5.42299 2.93917 2.79891 2.76633 2.56121 3.78901 4.85902 2.27512 2.10337 2.09935 2.81425 5.52483 2.00923 1.32623 0.49452 0.47162 0.617868 0.305177 0.216599 0.21944 0.17779
threshold=646.39326100000017 18.607142857142861 818.92101400000013 74.562500000000014 94.983747500000007 1174.0000000000002 434.22825000000006 148.50000000000003 89.729168000000016 41.500000000000007 444.67500000000007 113.67964720000002 57.604166000000006 321.50000000000006 28.062500000000004 42.500000000000007 0.098819223632316974 827.07188890854013 154.68859500000002 28.713250500000004 20.30714285714286 278.50000000000006 94.145915000000016 29.513250000000003 30.238250500000003 -0.1385623592587861 95.615652500000024 850.35853423825256 -0.73878940882492206 27.488250500000003 0.43327268590640472 20.30714285714286 906.85376500000018 520.43850000000009 1.0000000180025095e-35 38.437500000000007 44.428571428571438 -0.024888966254132797 67.028100000000009 723.17547210069768 288.50000000000006 3.3442061500000002 228.53195800000003 2.6791811000000005 20.550000000000004 31.810000000000006 58.785714285714292 91.073350000000019 99.979168000000016 8.9000000000000021 29.642857142857149
decision_type=2 2 2 2 2 2 2 2 2 2 2 2 2 2 2 2 2 2 2 2 2 2 2 2 2 2 2 2 2 2 2 2 2 2 2 2 2 2 2 2 2 2 2 2 2 2 2 2 2 2 2
left_child=1 6 3 13 9 8 39 -8 14 11 37 -3 23 17 42 -16 -13 18 -2 20 -12 -21 24 -9 -5 -19 -14 28 -24 50 -31 -11 -10 -33 35 -7 -37 38 -6 40 43 -42 -4 -1 -39 47 -47 -36 49 -41 -15
right_child=2 4 5 22 10 34 7 12 32 31 19 16 26 29 15 -17 -18 25 -20 21 -22 -23 27 -25 -26 -27 -28 -29 -30 30 -32 33 -34 -35 45 36 -38 44 -40 48 41 -43 -44 -45 -46 46 -48 -49 -50 -51 -52
leaf_value=-0.26553089628678278 -0.010093599686805961 -0.24300286870945559 0.2954241099938763 0.093022843652840428 -0.13730143950364262 0.90658901744206599 0.032059177539567663 -0.024889745964600057 0.007408674557161923 0.13233912054754748 0.092145326141783154 -0.094643581765797097 -0.15968874874485645 0.40826841070452397 0.23398272522707075 -0.0050307231190885229 0.087766277334962312 0.016098681381364447 0.22994996053534145 -0.13245210763646828 -0.054751106543955166 -0.021717322930994497 0.010402632136524087 -0.1412875197476221 -0.07137708946029489 -0.12407476053234184 -0.20481744184826373 -0.15136436427733199 -0.15711708887603287 0.12389004688978025 0.15273196793562729 0.065218631415217554 -0.048366030108291165 0.16690356515590943 1.4403922052815246 0.59149282469508813 0.27639335795352715 -0.28637478218541884 -0.090525572945709329 -0.30560626262498958 -0.16039187615806835 -0.080748912869943276 0.54760751923064155 -0.26027946843655808 -0.2347795219312761 1.2906160330040413 2.8291401869964381 0.67677358022834722 -0.39173324772936613 -0.30474122414638377 0.33070310888280968
leaf_weight=84 28 21 45 13.999999999999998 13.000000000000002 38 14.999999999999998 42 17.000000000000004 12.999999999999998 19 20 97 24 145 23 63 17.000000000000004 72 42 57 28 12.999999999999998 50 23 13.999999999999998 122 20 20 40 19 12.999999999999998 13.999999999999998 31 398 13.999999999999998 21 30 13.999999999999998 13.999999999999998 13.000000000000002 12.999999999999998 78 145 19 13.000000000000002 13.999999999999998 44 12.999999999999998 245 12.999999999999998
leaf_count=84 28 21 45 14 13 38 15 42 17 13 19 20 97 24 145 23 63 17 72 42 57 28 13 50 23 14 122 20 20 40 19 13 14 31 398 14 21 30 14 14 13 13 78 145 19 13 14 44 13 245 13
internal_value=0.000902649 -0.0256168 0.0286575 0.00985175 -0.00659005 0.0355567 -0.0341592 -0.0259859 0.0265745 0.00929861 -0.018115 -0.00081834 -0.0282023 0.0194124 0.0298465 0.0234282 0.00669585 0.011428 0.0171099 -0.00996087 -0.00111982 -0.0195527 -0.0142569 -0.0158073 -0.00114375 -0.00688561 -0.033407 -0.0234021 -0.0142473 0.0303022 0.0239231 0.027765 -0.00412536 0.0330506 0.0408919 0.0334019 0.0232125 -0.0337724 -0.0237513 -0.0392142 -0.0364092 -0.0230192 0.0386086 -0.0379272 -0.0392831 0.0420566 0.0364278 0.0423991 -0.0418417 -0.0421246 0.0404593
internal_weight=2417 1236 1181 317 383 864 853 326 322 161 222 104 311 227 291 168 83 131 100 146 76 70 90 92 37 31 219 53 33 96 59 57 31 44 542 73 35 76 27 527 255 26 123 229 49 469 27 442 272 259 37
internal_count=2417 1236 1181 317 383 864 853 326 322 161 222 104 311 227 291 168 83 131 100 146 76 70 90 92 37 31 219 53 33 96 59 57 31 44 542 73 35 76 27 527 255 26 123 229 49 469 27 442 272 259 37
is_linear=0
shrinkage=0.0427876


Tree=7
num_leaves=38
num_cat=0
split_feature=40 20 40 20 40 22 32 13 24 24 24 34 20 26 27 10 23 26 17 44 44 10 17 34 32 19 44 13 40 10 19 13 40 19 24 19 13
split_gain=928.794 103.813 82.3445 54.8788 34.2024 19.7499 16.8022 15.5133 14.4741 9.21224 8.53083 8.183 7.88314 7.84414 9.42987 7.47497 7.3985 6.26814 6.10158 4.9421 4.55215 4.51653 4.13028 4.0191 3.97958 3.96055 6.4319 3.71188 3.48791 3.78318 3.36777 3.04549 2.16243 2.2339 2.06416 1.41751 0.894378
threshold=646.39326100000017 21.213250500000004 1029.2505000000001 20.638250500000002 467.97525000000002 95.048063000000013 1.5000000000000002 148.50000000000003 2.5999998500000006 3.0000003500000005 0.65000000000000002 0.35714285714285715 20.963250500000004 975.59973000000014 98.270832000000013 4.5506906484106606 67.724118000000018 977.88330000000008 0.97308229207007246 830.14895297975011 535.69481726359516 12.214653822409415 -0.66483077113278999 1.0000000180025095e-35 2.5000000000000004 27.713250500000004 862.68417224088012 12.500000000000002 410.54550000000006 5.6473673235998429 32.313250000000004 14.500000000000002 1091.3335190000003 30.663250000000001 0.55000000000000016 33.788250000000005 110.50000000000001
decision_type=2 2 2 2 2 2 2 2 2 2 2 2 2 2 2 2 2 2 2 2 2 2 2 2 2 2 2 2 2 2 2 2 2 2 2 2 2
left_child=1 5 3 16 17 11 8 9 21 -6 22 20 18 14 -9 -15 25 28 23 -10 -1 -5 -4 -7 30 31 -27 -22 34 -30 -12 -2 33 -24 -3 -8 -34
right_child=2 4 10 6 7 12 35 13 19 -11 24 -13 -14 15 -16 -17 -18 -19 -20 -21 27 -23 32 -25 -26 26 -28 -29 29 -31 -32 -33 36 -35 -36 -37 -38
leaf_value=0.0052180839941986246 0.42406750519506115 -0.22562782742848972 0.19167207005775125 0.045189080461437804 0.10376019807924933 -0.089295518291010317 0.14295719144464636 -0.15868790697132362 -0.075018452211665226 -0.12229813583607822 0.1389971506966666 -0.036748298562518621 0.084759692086803007 -0.069772502784286095 -0.099923556387268755 0.041855980200813346 -0.023980836752199558 -0.17635445920196263 0.055268307800255788 -0.15802883133129292 0.01276962162454595 -0.082509685630336962 0.44618844474989683 -0.016374859237108606 0.56995541872952937 0.17599300725938655 -0.0033721359695533513 0.19146001417074607 -0.21164040515371996 -0.060564117931464621 0.22448849392634865 0.38843712055104385 1.3585875760456081 0.13628324468245789 -0.29002795275838705 0.24518582626449761 0.8174429360008475
leaf_weight=18 12.999999999999998 50 12.999999999999998 133 16.000000000000004 53 13.000000000000002 162 47 12.999999999999998 23 23 13.999999999999998 37 72 20 12.999999999999998 20 22 33 12.999999999999998 15.999999999999998 22 24 23 162 12.999999999999998 60 172 12.999999999999998 24 100 427 12.999999999999998 434 13.999999999999998 79
leaf_count=18 13 50 13 133 16 53 13 162 47 13 23 23 14 37 72 20 13 20 22 33 13 16 22 24 23 162 13 60 172 13 24 100 427 13 434 14 79
internal_value=0.000725621 -0.0252014 0.0278604 0.0159004 -0.031083 0.000940396 0.00133528 -0.0195202 -0.00242693 0.010311 0.0385354 0.0135075 -0.0117338 -0.0224948 -0.0259629 -0.0082487 0.0282864 -0.0364525 -0.0159862 -0.0171087 0.0192723 0.00545292 0.0403151 -0.0216649 0.0244425 0.0297117 0.0256695 0.0240241 -0.0371585 -0.0321456 0.0172862 0.0359669 0.0408884 0.0305469 -0.0390735 0.0332587 0.0416027
internal_weight=2417 1236 1181 557 1009 227 256 320 229 29 624 114 113 291 234 57 301 689 99 80 91 149 554 77 70 288 175 73 669 185 47 113 541 35 484 27 506
internal_count=2417 1236 1181 557 1009 227 256 320 229 29 624 114 113 291 234 57 301 689 99 80 91 149 554 77 70 288 175 73 669 185 47 113 541 35 484 27 506
is_linear=0
shrinkage=0.0427876


Tree=8
num_leaves=40
num_cat=0
split_feature=5 5 24 27 5 12 2 1 22 27 7 27 17 1 5 22 28 7 22 22 1 2 28 28 27 5 12 25 5 5 24 27 24 3 24 30 13 30 3
split_gain=886.81 122.555 72.0926 32.552 25.334 20.1609 20.0014 19.9479 14.5184 11.7768 11.2912 9.69926 9.08817 8.95869 9.24487 8.28071 7.4814 7.09635 8.40155 6.32211 6.12898 7.18489 8.91843 5.99079 5.87676 5.54421 9.15462 5.28073 4.82003 4.65979 5.34553 3.92153 3.91193 3.54045 3.80016 2.30716 1.6811 1.48489 0.643648
threshold=22.399999999999995 17.350000000000005 1.3000001500000002 64.937500000000014 30.81666666666667 21.500000000000004 15.950000000000001 63.500000000000007 91.899808000000021 20.645834000000004 26.607142857142861 90.604168000000016 -0.44437817810461328 51.500000000000007 27.766666666666669 99.103105000000014 2.3415988500000005 23.964285714285719 96.080959000000021 97.028327500000017 27.400000000000002 29.500000000000004 3.3135646500000004 3.4559668500000007 29.750000000000004 23.383333333333333 45.500000000000007 11.272656000000001 20.383333333333336 14.283333333333337 0.75000002500000018 99.895832000000013 0.55000000000000016 22.850000000000005 1.4000001500000001 -0.96168444966951239 144.50000000000003 -0.96952024717258845 11.350000000000003
decision_type=2 2 2 2 2 2 2 2 2 2 2 2 2 2 2 2 2 2 2 2 2 2 2 2 2 2 2 2 2 2 2 2 2 2 2 2 2 2 2
left_child=1 5 4 10 20 33 37 11 28 -7 17 13 24 14 -4 32 -10 18 -3 -13 25 22 -22 -23 -6 26 -2 -26 -8 30 -11 -31 -14 -1 -35 -27 -12 -5 -39
right_child=2 3 7 6 12 9 8 -9 16 29 36 19 15 -15 -16 -17 -18 -19 -20 -21 21 23 -24 -25 27 35 -28 -29 -30 31 -32 -33 -34 34 -36 -37 -38 38 -40
leaf_value=0.014474464318898053 -0.018150795394686281 0.10646653995210822 -0.013286369063310387 -0.16956335611327905 0.67618400297575509 0.0023517587324362876 0.13286353057203229 0.54556836972407141 0.012470740409044166 -0.17951445586578799 0.20954276434070049 -0.029499942942741643 0.999703713082707 -0.09448395583604656 0.21960719306146359 0.027477321035444421 -0.10417929037582743 -0.033824748949607103 -0.024318111641912121 -0.15887980032611229 0.11910411889073259 0.14787262118384559 -0.0057731759375914916 0.15289129108243898 -0.014162257492058954 0.26598544124656121 0.20815608142946143 0.62189972337932964 0.031420109305166165 -0.17021101372635886 -0.27924040529424277 -0.10204620131112456 0.21879552551332751 0.012453876113837033 -0.26942766287126357 0.19389153374666004 0.12657104370718833 -0.23876106618973805 -0.19235707958864084
leaf_weight=15.999999999999998 18 84 40 18 20 14.999999999999998 17 19 36 80 17.000000000000004 23 588 12.999999999999998 45 13.999999999999998 96 17 58 20 19 15.999999999999998 44 32 17 14.999999999999998 13.999999999999998 15.999999999999998 21 274 416 20 19 16.000000000000004 13.999999999999998 142 13.999999999999998 12.999999999999998 41
leaf_count=16 18 84 40 18 20 15 17 19 36 80 17 23 588 13 45 14 96 17 58 20 19 16 44 32 17 15 14 16 21 274 416 20 19 16 14 142 14 13 41
internal_value=0.00065481 -0.0237112 0.0282228 -0.00514925 0.0325954 -0.0331334 -0.015557 0.0016016 -0.0075479 -0.0347078 0.00810457 -0.00394158 0.0372003 0.00348802 0.00855178 0.0386527 -0.0142587 0.00349537 0.00662567 -0.0208842 0.0222478 0.014258 0.00474659 0.0267311 0.020173 0.0269375 0.0106815 0.00906131 0.0157505 -0.035421 -0.0379556 -0.0311429 0.0394032 -0.00557055 -0.0142457 0.0302477 0.0317279 -0.0344601 -0.0380229
internal_weight=2417 1283 1134 432 974 851 242 160 170 805 190 141 674 98 85 621 132 159 142 43 300 111 63 48 53 189 32 33 38 790 496 294 607 46 30 157 31 72 54
internal_count=2417 1283 1134 432 974 851 242 160 170 805 190 141 674 98 85 621 132 159 142 43 300 111 63 48 53 189 32 33 38 790 496 294 607 46 30 157 31 72 54
is_linear=0
shrinkage=0.0427876


Tree=9
num_leaves=42
num_cat=0
split_feature=5 23 5 20 5 22 20 12 17 44 5 13 4 44 43 32 20 29 16 29 3 17 19 10 23 5 17 3 5 44 5 4 3 5 44 44 13 1 23 5 23
split_gain=838.914 111.123 42.4516 40.3133 35.0403 16.6517 14.2992 13.545 13.3226 10.8559 12.0054 8.26797 10.9669 7.62588 7.51878 6.78981 6.5411 9.03479 6.50431 6.40889 7.31455 6.29796 7.18667 5.90902 4.95106 7.01958 4.7532 4.18557 5.03504 4.35935 3.89035 3.70102 3.60851 3.38227 3.24172 4.97066 2.03891 1.71718 1.65954 1.4965 1.11451
threshold=19.750000000000004 53.091927000000005 16.383333333333336 22.063250000000004 33.166666666666679 92.985910000000018 21.713250500000004 21.500000000000004 -0.83352489619613901 594.64444778043469 21.750000000000004 22.500000000000004 24.500000000000004 915.95836133788509 1.0000000180025095e-35 3.5000000000000004 21.863250500000003 0.636984278275604 0.45972848220565493 -0.094689778870237981 18.800000000000004 0.1839915361961291 32.488250000000008 4.3737884404103733 70.592292500000013 13.966666666666667 -0.67758968959607091 12.950000000000001 31.483333333333334 993.85228217860606 23.650000000000002 40.500000000000007 23.800000000000001 20.383333333333336 641.2456903259 949.68393765647272 297.50000000000006 20.550000000000004 83.613928000000016 60.833333333333336 36.669077000000009
decision_type=2 2 2 2 2 2 2 2 2 2 2 2 2 2 2 2 2 2 2 2 2 2 2 2 2 2 2 2 2 2 2 2 2 2 2 2 2 2 2 2 2
left_child=2 4 7 9 8 18 19 31 -2 23 33 12 -10 -13 -12 21 17 36 26 -7 -21 22 -6 -3 25 -18 -4 -5 29 -29 -25 -1 -23 -11 37 -36 -9 -8 -26 40 -17
right_child=1 3 5 27 15 6 34 16 11 10 14 13 -14 -15 -16 39 24 -19 -20 20 -22 32 -24 30 38 -27 -28 28 -30 -31 -32 -33 -34 -35 35 -37 -38 -39 -40 -41 -42
leaf_value=0.0063385346122426167 -0.21021356270546451 0.13482687860677894 -0.12449730499958843 -0.19531800205570957 -0.052636993670218936 0.061873648825563704 -0.1178314301294751 -0.12937488153529508 -0.083924384641806737 0.10823634954565291 0.24183454548096439 0.19978702347508745 0.33726781818637552 0.04842353040970325 0.076258930955637197 0.95692874746130685 -0.2262068182832333 0.0051899782152884447 0.1220666773429495 -0.14660877178304452 0.004138057680030784 0.18297058089252161 0.52652945316901356 -0.047356323951182541 -0.26734801897186722 -0.16353746342124828 0.071154664011280247 -0.032664270862789974 0.15653126177641305 -0.11023399650311891 0.010523406049385276 -0.19099483218981927 0.62710665576974234 -0.051616541126685643 -0.13841013328756149 -0.19291644602708766 -0.123835757052541 -0.10176857619871441 -0.24155881272976329 2.0592932646153397 0.61096561222572499
leaf_weight=20 17 18 23 15.999999999999998 13.999999999999998 20 29 31 17.000000000000004 12.999999999999998 102 223 12.999999999999998 50 51 121 232 15.999999999999998 20 18 29 18 77 19 263 110 14.999999999999998 127 12.999999999999998 20 45 13.999999999999998 111 24 85 32 27 13.999999999999998 42 197 71
leaf_count=20 17 18 23 16 14 20 29 31 17 13 102 223 13 50 51 121 232 16 20 18 29 18 77 19 263 110 15 127 13 20 45 14 111 24 85 32 27 14 42 197 71
internal_value=0.000371566 0.022279 -0.0286343 0.00477434 0.0307199 -0.014561 -0.0197894 -0.033946 0.0192528 0.0150997 0.0207155 0.0213215 0 0.0236645 0.0260047 0.0367445 -0.0351907 -0.0231213 0.00589344 -0.00318603 -0.0118243 0.0307268 0.0220933 0.00208145 -0.0365703 -0.0330274 -0.00449139 -0.0111803 -0.00908931 -0.0113484 -0.0040039 -0.00753647 0.0368129 -0.00114375 -0.0267389 -0.023035 -0.0309747 -0.0368041 -0.0405412 0.0401463 0.0374362
internal_weight=2417 1377 1040 448 929 285 227 755 320 272 190 303 30 273 153 609 721 74 58 67 47 220 91 82 647 342 38 176 160 147 64 34 129 37 160 117 58 43 305 389 192
internal_count=2417 1377 1040 448 929 285 227 755 320 272 190 303 30 273 153 609 721 74 58 67 47 220 91 82 647 342 38 176 160 147 64 34 129 37 160 117 58 43 305 389 192
is_linear=0
shrinkage=0.0427876


Tree=10
num_leaves=42
num_cat=0
split_feature=0 0 0 2 44 21 20 12 23 40 26 28 0 30 20 12 2 12 30 28 21 26 26 40 44 26 35 23 9 35 2 28 35 0 23 26 19 30 9 30 2
split_gain=936.926 100.858 58.5733 26.4277 18.7054 18.3512 13.7866 11.9247 9.26353 9.01515 7.7676 9.46519 7.48139 7.11288 7.07924 6.9454 6.82908 6.66762 6.36162 6.23225 6.19826 5.70124 5.66825 6.00164 5.49011 5.00843 4.78512 4.71116 4.12845 8.61577 3.48957 2.65304 2.59643 2.14032 1.43626 1.3058 0.79221 0.700388 1.46533 0.370008 0.154455
threshold=22.850000000000005 16.950000000000003 34.20000000000001 15.950000000000001 1289.7782801297151 24.394792500000005 19.838250000000006 22.500000000000004 68.161365000000018 811.69451300000003 973.34766500000012 4.053849200000001 12.950000000000001 0.528157744815826 21.988250500000003 37.500000000000007 16.050000000000004 2.5000000000000004 -0.7578813871327027 2.6295119500000004 23.542709500000004 971.50450000000012 973.03805000000011 371.83750000000003 744.64339780635999 977.26629500000013 0.67857142857142871 62.514879000000008 14.512714265745576 1.1785714285714286 15.950000000000001 3.3323782000000004 0.32142857142857145 56.500000000000007 56.249676000000008 969.66260000000011 29.988250500000003 0.94449615467043535 2.6726124191217804 -0.88700698716217685 25.900000000000002
decision_type=2 2 2 2 2 2 2 2 2 2 2 2 2 2 2 2 2 2 2 2 2 2 2 2 2 2 2 2 2 2 2 2 2 2 2 2 2 2 2 2 2
left_child=1 7 6 5 8 -3 13 22 33 14 16 24 37 27 19 35 -5 -15 -16 -8 -14 -18 23 -1 -12 -19 -13 36 29 -11 -22 -17 -24 34 -4 -7 -2 39 -39 -9 -35
right_child=2 3 4 10 -6 15 9 12 -10 28 11 26 20 17 18 31 21 25 -20 -21 30 -23 32 -25 -26 -27 -28 -29 -30 -31 -32 -33 -34 40 -36 -37 -38 38 -40 -41 -42
leaf_value=-0.16324710372133855 0.31044759790056009 0.019952030159626568 0.6285660076973778 -0.098224517536592143 -0.03288960258455504 -0.21517825832204121 -0.080218862747346895 -0.26480778220560452 0.021605209645449097 0.094727574961515057 0.01601494139466994 0.21067539434883023 -0.026923459542435434 -0.019346198895091152 0.0030303191938586874 -0.14260378293585488 0.0018583182226320257 0.12601555387158608 -0.10274848680558291 0.093145443379338957 -0.18684124766593982 -0.093351531057140058 -0.3000577171708661 0.024702113630690734 -0.032570510156922639 0.13704481225183554 0.070856896844558412 0.056708844695790649 0.503190239300353 -0.047309612742926957 -0.15514708207098699 -0.060565307712626096 -0.13844149616846294 1.6561340181272282 0.46968240964113034 -0.20897357334148869 0.1904365746004886 -0.17754248362516309 -0.1973072166992991 -0.25972464099513987 1.6568100221113968
leaf_weight=15.999999999999998 61 17 294 14.999999999999998 21 17 15.999999999999998 159 12.999999999999998 93 114 15.000000000000002 15.999999999999998 18 35 15.999999999999998 77 43 24 49 241 43 15.999999999999998 24 46 91 14.999999999999998 13.999999999999998 18 14.999999999999998 143 35 18 21 21 57 12.999999999999998 13.000000000000002 14.999999999999998 141 266
leaf_count=16 61 17 294 15 21 17 16 159 13 93 114 15 16 18 35 16 77 43 24 49 241 43 16 24 46 91 15 14 18 15 143 35 18 21 21 57 13 13 15 141 266
internal_value=0.000696556 -0.0245123 0.0291073 -0.00870308 0.0376738 -0.024102 0.0179872 -0.0337172 0.0390298 0.0109517 -0.00197337 0.00360067 -0.0353813 0.0253138 0.00275668 -0.0297758 -0.00982166 0.0197014 -0.0079691 0.0124995 -0.0314475 -0.00641412 -0.0173394 -0.00640607 -0.000531926 0.0229864 0.0256548 0.0350017 0.0190126 0.0158426 -0.032535 -0.0176084 -0.0301869 0.0398015 0.0373525 -0.0381543 0.0393106 -0.0401769 -0.033599 -0.040789 0.0424874
internal_weight=2395 1269 1126 467 636 142 490 802 615 250 325 190 728 240 124 125 135 152 59 65 400 120 74 40 160 134 30 88 126 108 384 51 34 602 315 74 74 328 28 300 287
internal_count=2395 1269 1126 467 636 142 490 802 615 250 325 190 728 240 124 125 135 152 59 65 400 120 74 40 160 134 30 88 126 108 384 51 34 602 315 74 74 328 28 300 287
is_linear=0
shrinkage=0.0427876


Tree=11
num_leaves=48
num_cat=0
split_feature=40 5 40 20 43 20 12 2 25 40 5 12 25 20 41 40 41 25 2 16 35 19 30 22 41 21 20 16 5 22 19 12 19 5 9 16 25 40 13 41 41 25 9 22 5 2 5
split_gain=875.125 77.0081 63.9708 31.6454 21.9316 19.3361 13.1713 12.1274 11.333 10.2912 9.67146 7.95302 7.68178 7.44749 7.55117 7.35059 7.18849 7.12456 6.87711 7.82478 7.3995 6.37699 5.95329 6.47416 5.8676 5.85759 5.78003 7.71024 5.28161 5.73994 3.78112 3.37828 3.17687 3.11786 3.04989 2.98189 2.88571 2.75874 5.57664 2.02066 1.83443 1.27571 2.98759 1.02457 0.733731 0.668039 0.64217
threshold=639.01801200000011 16.383333333333336 836.07500000000016 20.713250500000004 1.0000000180025095e-35 21.263250000000003 22.500000000000004 14.950000000000001 6.504934500000001 1563.4750000000001 13.033333333333337 47.500000000000007 7.6748125000000007 22.163250000000001 88.557440000000014 486.21200800000003 277.77037400000006 12.702424000000002 25.150000000000002 -0.038721922313638045 0.17857142857142852 28.438250000000004 0.96296346185786785 94.983747500000007 95.442779600000009 25.731999500000004 17.913250000000001 0.89001933454452098 18.783333333333335 96.471530000000016 27.238250500000003 20.500000000000004 30.163250000000001 21.750000000000004 8.8020560368693967 -0.98211651112579557 9.7366480000000024 1142.9702730000004 136.50000000000003 175.13176500000003 146.36751125000004 6.7445700000000004 1.7728105208551643 90.715723000000011 52.500000000000007 27.500000000000004 12.633333333333335
decision_type=2 2 2 2 2 2 2 2 2 2 2 2 2 2 2 2 2 2 2 2 2 2 2 2 2 2 2 2 2 2 2 2 2 2 2 2 2 2 2 2 2 2 2 2 2 2 2
left_child=1 6 3 18 9 8 25 35 11 26 41 15 24 14 -12 -3 28 37 19 21 -21 -2 23 -10 -9 -1 32 -28 -5 -30 -24 -27 -4 -14 39 -7 -15 38 -6 -20 -37 42 -8 45 -39 -11 -43
right_child=2 5 4 16 17 7 10 12 22 43 13 -13 33 36 -16 -17 -18 -19 34 20 -22 -23 30 -25 -26 31 27 -29 29 -31 -32 -33 -34 -35 -36 40 -38 44 -40 -41 -42 46 -44 -45 -46 -47 -48
leaf_value=-0.19579125089094992 0.13396611186021376 -0.15058539609355467 0.45515370116080683 -0.13614183805142926 -0.05516400920184774 -0.19022023711697308 -0.2058239927272269 -0.092740557964628545 0.20720938609104123 1.2366953536104806 -0.13997180252925129 -0.13852218973796926 -0.10478960910112872 -0.18069799673155038 -0.00032335025456143543 0.017587312959154701 -0.22850457977084673 -0.03404624967267933 0.12624790582365492 -0.11197367134367847 0.098408740848938012 0.045597305983485277 0.11722965134167308 -0.00066287432064700551 0.0013668878730647431 0.1043874780556298 0.17799117542585999 0.60802285476149598 0.05852619683539461 -0.039934059463123645 -0.047799808098445057 -0.10172343793830016 0.52348472291232473 -0.11834580801980576 0.15345226344674276 -0.16960364269381598 -0.19725315226843573 0.44215836211532217 0.18646270656989514 0.26442154794743317 -0.19545650249616842 -0.2499567419346399 -0.23480484564871737 0.61700132643505812 0.47049364725731824 1.4382848756927802 -0.23867068988338186
leaf_weight=15.999999999999998 34 13.999999999999998 149 21 12.999999999999998 14.999999999999998 35 23 45 39 21 18 85 208 31 33 17 22 19 14.000000000000002 17 36 15.000000000000002 30 92 13.000000000000002 138 45 87 48 15.999999999999998 17 25 17 15.999999999999998 43 88 15.000000000000002 24 52 26 189 81 25 12.999999999999998 311 44
leaf_count=16 34 14 149 21 13 15 35 23 45 39 21 18 85 208 31 33 17 22 19 14 17 36 15 30 92 13 138 45 87 48 16 17 25 17 16 43 88 15 24 52 26 189 81 25 13 311 44
internal_value=0.000732286 -0.0247565 0.0269775 0.0119697 0.0335921 -0.0112398 -0.0333425 -0.0177672 0.000247493 0.0360063 -0.0348064 -0.013816 -0.0124199 -0.0297531 -0.0148014 -0.00454171 -0.00123393 0.0132732 0.0241221 0.0165169 -0.00136511 0.0244425 0.00887584 0.0153968 -0.0048327 -0.0111512 0.0308008 0.0254826 0.00164267 0.00475064 -0.00688561 0 0.0363908 -0.0209692 0.032945 -0.0315748 -0.032378 0.0203984 0.0127071 0.0367533 -0.0353382 -0.0398436 -0.0361433 0.0409605 0.030543 0.0415635 -0.0416833
internal_weight=2395 1215 1180 361 819 472 743 301 171 732 697 65 217 348 52 47 173 87 188 101 31 70 106 75 115 46 357 183 156 135 31 30 174 102 87 84 296 65 37 71 69 349 116 375 28 350 233
internal_count=2395 1215 1180 361 819 472 743 301 171 732 697 65 217 348 52 47 173 87 188 101 31 70 106 75 115 46 357 183 156 135 31 30 174 102 87 84 296 65 37 71 69 349 116 375 28 350 233
is_linear=0
shrinkage=0.0427876


Tree=12
num_leaves=44
num_cat=0
split_feature=40 24 6 40 40 27 2 26 20 40 24 40 20 41 22 40 40 41 16 24 16 17 29 26 2 41 27 26 35 20 6 20 26 27 40 12 8 34 16 20 8 17 27
split_gain=848.553 75.1762 72.4283 36.6731 26.2555 17.1571 14.8518 14.7035 13.3054 11.5717 9.8574 12.1463 9.84368 9.03852 8.23175 10.5518 8.17499 7.99037 7.8614 7.63135 11.5243 9.70697 6.9921 6.55393 6.31738 6.1539 6.15311 6.03693 5.2094 4.88566 4.52226 2.75065 4.61926 2.14467 1.79544 1.73122 2.28806 4.27565 1.55466 2.9685 1.50986 0.740676 0.249285
threshold=639.01801200000011 1.9000000500000003 15.021428571428574 1360.32725 526.55025850000004 40.833334000000008 16.950000000000003 979.10902500000009 20.763250000000003 776.31100000000015 7.2999998500000007 782.29450000000008 22.938250000000004 105.70276260000001 93.31614500000002 1205.8750000000002 410.54550000000006 166.99576300000004 0.4900241286343337 6.1000002000000011 0.47494667389482614 -0.83352489619613901 -0.61685455064927852 975.01153500000009 28.950000000000003 199.72040641000001 36.520834000000008 970.17545000000007 0.8928571428571429 16.238250000000004 17.028571428571432 21.863250500000003 977.50390000000004 68.104168000000016 380.53550000000007 15.500000000000002 64.083333333333357 0.78571428571428581 0.60505046667002438 17.463250500000004 26.050000000000001 -0.65187484896379921 70.812500000000014
decision_type=2 2 2 2 2 2 2 2 2 2 2 2 2 2 2 2 2 2 2 2 2 2 2 2 2 2 2 2 2 2 2 2 2 2 2 2 2 2 2 2 2 2 2
left_child=2 3 18 5 7 17 12 16 23 -10 11 25 30 -9 15 -13 33 24 26 20 -8 -21 -18 -7 -2 -3 -1 -12 40 -19 -6 32 -28 -4 -33 38 37 -37 39 -5 -29 -14 -40
right_child=1 10 4 35 6 8 19 13 9 -11 27 14 41 -15 -16 -17 22 29 -20 21 -22 -23 -24 -25 -26 -27 31 28 -30 -31 -32 34 -34 -35 -36 36 -38 -39 42 -41 -42 -43 -44
leaf_value=-0.096154647955898176 0.055030543535387617 0.048139033784123673 -0.12409648868438287 0.64973498264978979 0.056000891780743113 -0.049496023995995155 0.0099189992964407586 -0.14707107668250402 -0.027450886981615026 0.086655771378501015 0.0059589270312084422 -0.10426013220386136 -0.19891132968981551 0.10341214019849151 0.13987683901616926 0.58112647588591171 0.0068155238745614705 0.44090805352877116 -0.17726798449468223 0.096523261628086804 0.10644524417535051 -0.12874035444399817 -0.1094083941112422 0.27369449852974065 0.34906510902083548 -0.11340992725820939 -0.10535825662160438 -0.18345851007395714 -0.030025575231577267 0.22991416045358826 -0.039987980665343023 -0.25226862742124556 -0.17078034351746374 -0.20656117446720715 -0.17255723101374831 0.45044786141813498 0.94319285386625518 0.48424078360715606 1.5065622014013706 0.26581107535536219 -0.19566250036619431 -0.15997896913291551 1.5157116522211329
leaf_weight=21 54 23 24 20 18 12.999999999999998 124 12.999999999999998 53 65 12.999999999999998 13.000000000000002 21 21 24 13.999999999999998 25 98 12.999999999999998 18 22 24 220 94 12.999999999999998 21 15.000000000000002 13.000000000000002 14.999999999999998 197 22 258 13.999999999999998 107 222 31 39 26 299 12.999999999999998 15.999999999999998 12.999999999999998 12.999999999999998
leaf_count=21 54 23 24 20 18 13 124 13 53 65 13 13 21 21 24 14 25 98 13 18 22 24 220 94 13 21 15 13 15 197 22 258 14 107 222 31 39 26 299 13 16 13 13
internal_value=0.000553632 0.0263973 -0.0245452 0.0305502 -0.0151532 0.0235432 -0.0045709 -0.0219143 0.0142603 0.00434724 -0.00168589 0.00675085 -0.0208086 0.00501975 0.0209641 0.00473646 -0.0243511 0.0293116 -0.0361675 0.00181825 0.00644414 -0.0142505 -0.0197326 0.0251877 0.0159579 -0.00971328 -0.0369739 -0.015755 -0.0233267 0.0323427 -0.00640607 -0.0379109 -0.025064 -0.0329847 -0.038686 0.0398756 0.0347591 0.0292662 0.0412977 0.0323981 -0.0339158 -0.0377371 0.0422372
internal_weight=2395 1180 1215 1028 672 587 262 410 225 118 152 95 74 34 51 27 376 362 543 188 146 42 245 107 67 44 530 57 44 295 40 509 29 131 480 441 96 57 345 33 29 34 312
internal_count=2395 1180 1215 1028 672 587 262 410 225 118 152 95 74 34 51 27 376 362 543 188 146 42 245 107 67 44 530 57 44 295 40 509 29 131 480 441 96 57 345 33 29 34 312
is_linear=0
shrinkage=0.0427876


Tree=13
num_leaves=42
num_cat=0
split_feature=6 6 41 14 43 43 41 20 41 6 8 20 25 41 17 17 16 29 7 1 41 16 23 7 8 16 8 31 1 22 22 10 29 8 16 22 25 41 10 23 1
split_gain=659.442 119.525 73.0048 35.2207 26.375 25.1855 23.0388 22.4484 14.6493 13.6411 12.53 10.2016 9.6309 8.45963 8.29798 7.45135 6.67515 6.41971 7.32714 8.47729 7.4877 6.09032 5.75747 5.54541 5.33652 5.27482 5.03179 4.28788 7.37494 4.24404 4.08841 3.22821 3.22197 2.28262 7.03444 2.14952 2.10507 2.51159 1.05798 0.968294 0.147569
threshold=21.967857142857145 16.485714285714288 262.68579950000009 0.68301270189221941 1.0000000180025095e-35 1.0000000180025095e-35 99.100504500000014 21.863250500000003 118.14390010000001 14.014285714285716 31.81666666666667 13.638250000000001 12.702424000000002 180.09318240000002 -0.44437817810461328 0.99903710851409044 0.64534213713577271 0.69469675975203027 23.464285714285719 31.900000000000002 147.13432900000001 0.45972848220565493 67.724118000000018 46.250000000000007 13.383333333333335 -0.63874350706337046 20.241666666666671 1.0000000180025095e-35 37.500000000000007 92.666115000000005 95.274890000000013 5.718199128617055 0.20165292923596781 53.600000000000009 0.7206604759859373 99.092030000000008 6.9713449500000015 85.673948300000021 7.5164638228819749 59.831060500000007 50.500000000000007
decision_type=2 2 2 2 2 2 2 2 2 2 2 2 2 2 2 2 2 2 2 2 2 2 2 2 2 2 2 2 2 2 2 2 2 2 2 2 2 2 2 2 2
left_child=1 9 4 6 8 14 22 13 32 31 -9 -10 33 -8 27 -13 23 18 20 -20 -6 24 30 -16 25 -11 -26 28 -4 -14 -3 36 -2 34 -7 -24 37 -1 -18 -38 -5
right_child=2 3 5 40 17 12 7 10 11 21 -12 15 29 -15 16 -17 38 -19 19 -21 -22 -23 35 -25 26 -27 -28 -29 -30 -31 -32 -33 -34 -35 -36 -37 39 -39 -40 -41 -42
leaf_value=-0.1963786535599015 -0.089082719341450123 -0.15919036916657758 0.10747909556094966 1.069196586192938 -0.10865426075579682 0.19673197741329371 0.020123507542977537 -0.09369373775634425 0.50173636274857591 -0.055769110417011249 0.092100950708263268 0.11238619464818818 0.16847346659491574 0.29066004436855408 0.37060578271130717 -0.014500341866147459 0.63413137338795245 0.10040309202137246 -0.17810681744193838 -0.0044082596820414471 0.046079277990265781 0.013558331112646023 -0.19943036337030653 0.11202170158618006 -0.15958520329321471 -0.2515596876399443 -0.11866049338117457 0.78494599767277506 -0.039108499941169383 -0.16125424433556021 -0.038175403825021881 -0.13438476757233267 -0.05296276166095891 0.56803121145229396 -0.033880211608743722 -0.17141698696009469 -0.19470104626273615 -0.12077784356198325 1.2290288218862846 -0.22822168697427744 2.1469167580475901
leaf_weight=108 13.000000000000002 15.999999999999998 26 16.000000000000004 12.999999999999998 23 102 254 29 30 12.999999999999998 304 13.000000000000002 38 134 22 39 13.999999999999998 31 21 21 12.999999999999998 42 12.999999999999998 172 17 42 18 13.999999999999998 17 27 12.999999999999998 13.999999999999998 13.999999999999998 15.999999999999998 17 39 37 338 239 12.999999999999998
leaf_count=108 13 16 26 16 13 23 102 254 29 30 13 304 13 38 134 22 39 14 31 21 21 13 42 13 172 17 42 18 14 17 27 13 14 14 16 17 39 37 338 239 13
internal_value=0.000267786 -0.0212563 0.0236876 -0.00604346 0.0110066 0.0328781 -0.00865744 -0.00409887 0.016128 -0.032783 -0.0113761 0.0184394 0.0108198 0.00977652 0.036023 0.0162735 0.0377239 -0.00855264 -0.01293 -0.0230293 0.00250303 -0.0252959 -0.0268419 0.0299767 -0.0267197 -0.0136449 -0.0295889 0.0206471 0.0128238 -0.00854124 -0.0149142 -0.037487 -0.0142439 0.0217876 0.0164437 -0.035526 -0.0381333 -0.0339312 0.0407432 -0.040323 0.039817
internal_weight=2395 1248 1147 538 482 665 509 407 382 710 267 355 83 140 582 326 524 100 86 52 34 274 102 147 261 47 214 58 40 30 43 436 27 53 39 59 423 145 377 278 29
internal_count=2395 1248 1147 538 482 665 509 407 382 710 267 355 83 140 582 326 524 100 86 52 34 274 102 147 261 47 214 58 40 30 43 436 27 53 39 59 423 145 377 278 29
is_linear=0
shrinkage=0.0427876


Tree=14
num_leaves=44
num_cat=0
split_feature=6 6 32 41 44 43 41 25 41 6 6 41 19 44 9 10 41 16 44 20 16 44 44 9 20 44 41 6 20 29 6 3 10 7 42 19 44 41 9 29 3 12 9
split_gain=631.807 116.314 78.4588 35.5519 32.6246 29.5196 20.4595 19.2571 29.8902 18.7189 14.6181 10.7035 9.74677 9.66562 9.50224 9.30217 9.24985 6.66771 6.20303 6.52665 5.82701 5.74986 5.23021 7.02909 5.10127 4.58556 6.52013 4.42453 4.34068 4.3041 4.27782 4.22339 3.16807 3.13519 2.40055 2.83759 2.05566 2.6896 1.46633 0.82096 0.526235 0.199224 0.152228
threshold=21.967857142857145 16.485714285714288 2.5000000000000004 221.41653740000001 1131.3330643479803 1.0000000180025095e-35 277.77037400000006 8.3617620000000006 96.031976650000004 26.135714285714286 14.014285714285716 166.28180100000003 28.113250500000003 844.60280194640256 9.1365305491848456 3.4736053411312047 118.14390010000001 0.53436760985011655 1187.3723970428503 26.138250500000002 0.45972848220565493 925.64967583417013 1039.6037175890453 9.3960478013743653 23.963250500000004 881.88843546491023 132.06603275000003 17.171428571428574 22.288250000000001 0.42351119715598912 18.150000000000002 18.800000000000004 5.718199128617055 16.860714285714291 38.500000000000007 29.888250500000002 691.75355316249011 85.673948300000021 2.5071326821093129 -0.032197068214391437 25.900000000000002 20.500000000000004 3.2071349029477032
decision_type=2 2 2 2 2 2 2 2 2 2 2 2 2 2 2 2 2 2 2 2 2 2 2 2 2 2 2 2 2 2 2 2 2 2 2 2 2 2 2 2 2 2 2
left_child=1 10 5 7 21 6 15 8 31 17 32 24 -10 29 -15 38 -17 -4 19 -8 25 41 34 -24 28 26 -12 42 -7 -13 -29 -3 36 -27 35 -11 37 -1 -2 -38 -36 -5 -9
right_child=2 3 9 4 -6 11 18 27 12 22 20 13 -14 14 -16 16 -18 -19 -20 -21 -22 -23 23 -25 -26 33 -28 30 -30 -31 -32 -33 -34 -35 40 -37 39 -39 -40 -41 -42 -43 -44
leaf_value=-0.18824824837485102 0.1523235849584765 -0.18283613269975382 -0.050512364458534041 1.3760329140209677 -0.12168138519221532 -0.020557966208306036 0.48204288233813181 -0.1302121235126541 0.03816057529523266 0.39992743313223705 -0.13976940821630232 0.085779690743695111 -0.024323387135949087 0.044107654292065611 -0.10941919085663833 -0.10614221539813201 0.085145343939021664 0.25808108257004608 0.11408830362552981 0.15494259661911258 0.012978202080776607 0.011047817906391972 -0.018160014668650724 0.87901571812220791 0.0022307969582714663 -0.21407992980999474 -0.06082645024414015 -0.097183819732027957 -0.19690648038905861 0.23016088404451676 -0.12430363119577886 -0.10789145324314173 -0.12863476010740016 -0.063382808061856602 1.308317359532279 0.7065410584329177 -0.22964015562558077 -0.10116866258627771 0.11080266816427228 -0.20983478681740153 1.2708604662918437 0.1326017849755057 -0.21921441478380413
leaf_weight=113 19 52 16.000000000000004 33 20 17 143 17.000000000000004 79 77 153 22 158 51 30 21 247 13.999999999999998 19 17 12.999999999999998 25 13.000000000000002 18 12.999999999999998 57 38 29 18 12.999999999999998 61 38 12.999999999999998 12.999999999999998 21 81 125 43 14.999999999999998 142 262 12.999999999999998 12.999999999999998
leaf_count=113 19 52 16 33 20 17 143 17 79 77 153 22 158 51 30 21 247 14 19 17 13 25 13 18 13 57 38 29 18 13 61 38 13 13 21 81 125 43 15 142 262 13 13
internal_value=1.76709e-05 -0.0210506 0.0229415 -0.00604346 0.0183319 0.0130677 0.0184127 -0.0110069 -0.00562504 0.0356268 -0.0324214 -0.00260612 0.00234501 0.00442219 -0.00369183 0.0116162 0.00893887 0.00283673 0.0298766 0.0326221 -0.0246712 0.0319323 0.0377099 0.0206869 -0.0196002 -0.026064 -0.0226232 -0.0256681 -0.0281021 0.0232125 -0.0209126 -0.0266175 -0.0372907 -0.0354446 0.0389054 0.0346599 -0.037931 -0.0340071 0.0327037 -0.0402214 0.0412737 0.0409148 -0.039916
internal_weight=2395 1248 1147 538 91 645 481 447 327 502 710 164 237 116 81 302 268 30 179 160 274 71 472 31 48 261 191 120 35 35 90 90 436 70 441 158 423 156 34 267 283 46 30
internal_count=2395 1248 1147 538 91 645 481 447 327 502 710 164 237 116 81 302 268 30 179 160 274 71 472 31 48 261 191 120 35 35 90 90 436 70 441 158 423 156 34 267 283 46 30
is_linear=0
shrinkage=0.0427876


Tree=15
num_leaves=47
num_cat=0
split_feature=40 6 12 24 24 40 40 26 24 24 40 19 41 40 7 17 29 30 13 7 19 29 13 24 30 24 26 6 6 8 8 13 24 6 16 29 4 8 24 17 9 4 6 30 9 3
split_gain=626.987 77.8527 73.0054 31.6575 23.2959 17.1701 16.3701 13.0169 12.6326 12.5235 12.4537 12.6595 10.5437 9.27962 9.12429 7.86541 7.21335 7.08347 6.85104 6.69979 6.62717 6.45282 5.86226 5.73491 5.46033 5.42942 6.0965 5.35258 4.92524 4.9001 4.85938 4.79482 4.46349 4.01182 3.90181 4.25168 3.35363 2.99476 2.95361 5.08192 2.81839 2.63182 2.5021 2.19884 1.68574 0.190832
threshold=642.45000000000016 17.028571428571432 17.500000000000004 1.0000000180025095e-35 0.90000002000000012 465.67500000000007 1417.1992500000003 975.25885000000005 2.7999998500000003 5.6000002000000011 526.55025850000004 26.513250000000003 167.99042700000004 744.95000000000016 16.250000000000004 0.99903710851409044 -0.65753809126297114 0.528157744815826 309.50000000000006 22.750000000000004 28.163250000000001 0.044864830446535754 24.500000000000004 18.500001000000001 0.97587447381646453 3.0000003500000005 969.78257000000019 20.642857142857149 22.492857142857144 13.783333333333337 24.27833333333334 282.50000000000006 0.25000000000000006 18.87857142857143 0.98046008095854964 -0.15663037633263396 101.50000000000001 20.383333333333336 1.0000000500000004 -0.8238924869212918 2.8199966227589184 119.50000000000001 13.77857142857143 -0.99366053942149868 2.1547219351050031 15.950000000000001
decision_type=2 2 2 2 2 2 2 2 2 2 2 2 2 2 2 2 2 2 2 2 2 2 2 2 2 2 2 2 2 2 2 2 2 2 2 2 2 2 2 2 2 2 2 2 2 2
left_child=1 5 6 12 10 18 8 25 34 14 11 -3 17 28 29 20 -12 -4 38 -18 -14 23 -8 24 -6 33 -27 -13 -9 -7 37 -15 -16 -5 35 -2 43 -23 39 -1 -19 -38 -40 -24 -11 -46
right_child=2 4 3 7 21 9 22 13 -10 44 16 27 15 31 32 -17 19 40 -20 -21 -22 30 36 -25 -26 26 -28 -29 -30 -31 -32 -33 -34 -35 -36 -37 41 -39 42 -41 -42 -43 -44 -45 45 -47
leaf_value=-0.13111722713733251 0.29551148938807648 0.18598959344985425 0.082730808811048828 0.12305286144234369 -0.0030986725407985793 -0.028841218878948395 0.28495464880982607 0.066792653604774252 -0.080238684012645584 -0.11720855306707839 0.17512140939791374 -0.015852685374452752 0.30179920205076594 0.36253796611273292 -0.024926794759753779 -0.047938996065799475 -0.032427409284465844 -0.064875361744186205 -0.005164801494268058 0.085240629850091787 0.15268487362929786 -0.18223318192417723 0.7587425018705356 -0.17973776051790966 -0.17946087313095618 0.0036777166337562716 -0.11651208833221684 -0.11217625360046277 -0.12056787656932968 -0.099275071639871454 0.0074819805584031623 0.11276884863500371 0.042492123492458712 -0.022095355039635386 0.26478320723235249 0.38319261409385902 0.45977620418709786 -0.11387525151768131 -0.20962380376631251 -0.097417305502671817 0.0067260296267476934 0.66531637161897728 -0.15174535134244715 1.2495554618944247 -0.19602756429957291 -0.13058265727945848
leaf_weight=35 91 20 17 13.999999999999998 81 35 17 18 22 12.999999999999998 17 27 68 14.999999999999998 18 13.999999999999998 55 14.999999999999998 12.999999999999998 42 113 33 20 12.999999999999998 13.999999999999998 17 45 49 17 66 13.999999999999998 39 19 69 12.999999999999998 137 13.000000000000002 79 309 55 28 13.999999999999998 173 316 29 12.999999999999998
leaf_count=35 91 20 17 14 81 35 17 18 22 13 17 27 68 15 18 14 55 15 13 42 113 33 20 13 14 17 45 49 17 66 14 39 19 69 13 137 13 79 309 55 28 14 173 316 29 13
internal_value=-0.000944983 -0.0221987 0.0219981 0.00953653 -0.00790113 -0.0303576 0.0314743 -0.00182652 0.0232628 -0.019285 0.00244276 -0.00890899 0.0199655 0.0110519 -0.0123986 0.0247922 0.0120062 0.00427081 -0.0340097 0.00749386 0.0271825 -0.017186 0.0371562 -0.00950382 -0.00585008 -0.00973448 -0.0193151 -0.0168831 -0.00609875 -0.0190587 -0.0237667 0.0221765 0.00576911 -0.00257187 0.0260965 0.0273967 0.0383069 -0.0267375 -0.0347079 -0.0275683 -0.00496417 0.0237513 -0.0360399 0.039475 -0.0365537 -0.0407364
internal_weight=2354 1222 1132 489 444 778 643 234 263 193 210 96 255 89 138 195 114 60 585 97 181 234 380 108 95 145 62 76 35 101 126 54 37 83 241 228 363 112 572 90 43 27 482 336 55 42
internal_count=2354 1222 1132 489 444 778 643 234 263 193 210 96 255 89 138 195 114 60 585 97 181 234 380 108 95 145 62 76 35 101 126 54 37 83 241 228 363 112 572 90 43 27 482 336 55 42
is_linear=0
shrinkage=0.0427876


Tree=16
num_leaves=42
num_cat=0
split_feature=0 6 0 24 24 24 27 5 13 2 27 3 16 12 15 16 27 32 0 0 27 27 3 13 8 8 3 11 23 5 24 5 3 12 0 6 16 6 6 13 3
split_gain=620.681 99.0933 46.7019 26.4196 25.2669 18.564 16.5126 13.4154 12.0554 11.3724 10.1222 9.98473 8.12405 7.31366 7.40212 8.4042 7.21395 6.57399 6.39082 6.29739 6.25478 7.03658 6.07891 5.55003 5.12529 5.04406 4.6643 3.91599 7.5487 3.87321 3.72418 3.44052 3.41746 3.33652 3.27873 2.63222 2.53614 1.88954 2.63863 1.53821 1.48197
threshold=24.300000000000004 17.028571428571432 41.500000000000007 2.6000000500000007 0.45000000000000007 2.6999999000000003 70.812500000000014 14.350000000000003 166.50000000000003 46.500000000000007 85.937500000000014 49.500000000000007 -0.63874350706337046 51.500000000000007 0.6830127018922193 0.87379901192678244 57.604166000000006 1.5000000000000002 32.500000000000007 18.800000000000004 99.770832000000013 59.208334000000008 29.500000000000004 40.500000000000007 28.678333333333338 34.783333333333339 18.800000000000004 8.5000000000000018 64.127750500000005 21.383333333333336 0.15000000000000005 23.650000000000002 44.500000000000007 24.500000000000004 53.500000000000007 35.642857142857146 0.63209755774300602 13.77857142857143 14.72857142857143 168.50000000000003 31.400000000000002
decision_type=2 2 2 2 2 2 2 2 2 2 2 2 2 2 2 2 2 2 2 2 2 2 2 2 2 2 2 2 2 2 2 2 2 2 2 2 2 2 2 2 2
left_child=1 5 3 13 10 7 23 27 -9 -8 19 20 -10 14 15 -2 -7 -16 31 26 21 -6 -15 25 -21 40 -3 33 -29 -12 35 -5 -27 -1 -32 -25 -33 39 -39 -18 -4
right_child=2 4 6 18 11 16 9 8 12 -11 29 -13 -14 22 17 -17 37 -19 -20 24 -22 -23 -24 30 -26 32 -28 28 -30 -31 34 36 -34 -35 -36 -37 -38 38 -40 -41 -42
leaf_value=-0.15409498218102527 0.082737471188833567 -0.1144840314560779 0.23459587605847071 -0.0082025795965965306 -0.010327093087683844 -0.10366538193214407 -0.1343267961511844 0.070573134506106902 -0.024319580451525626 0.66079562249980961 -0.02114994687535178 0.028902447198797847 -0.10923389441282262 -0.057919188309154018 0.14070288094677749 0.45363822353063599 -0.22197517798797564 0.28158673963715891 0.088289980510582802 0.060010773660541701 0.056566011407003722 -0.12768240455502389 0.1678276379286554 0.68770953714613725 0.18657124151526611 0.42209059827737749 0.0056282022015005494 -0.040128376393504743 -0.11233016339287072 -0.1086090177128782 0.45343459921646051 -0.099317556162237822 -0.049198674901832232 -0.13555552727264267 0.54033768456344211 1.1581685151742234 -0.039844853837803743 -0.13660753982255272 -0.13560398624939091 -0.20357418873723779 0.74329307788269194
leaf_weight=23 138 22 14.999999999999998 12.999999999999998 62 21 14.000000000000002 14.999999999999998 65 17 14.999999999999998 14.999999999999998 41 21 147 39 22 77 13.999999999999998 115 13.999999999999998 247 21 29 26 23 55 29 48 17 18 14.000000000000002 12.999999999999998 72 34 288 12.999999999999998 79 124 254 25
leaf_count=23 138 22 15 13 62 21 14 15 65 17 15 15 41 21 147 39 22 77 14 115 14 247 21 29 26 23 55 29 48 17 18 14 13 72 34 288 13 79 124 254 25
internal_value=-0.00141757 -0.0198598 0.0247574 0.0155816 -0.00654831 -0.0297294 0.0343368 -0.021173 -0.0102508 0.00412536 0.00376341 -0.0141767 -0.0153342 0.0190263 0.0208057 0.0142597 -0.0347424 0.0259758 -0.0126686 0.00706363 -0.0157623 -0.0170303 0.00202629 0.0364403 0.0124383 0.0258907 -0.00277227 -0.0288536 -0.0216649 -0.0187035 0.0386117 -0.0213807 0.0142485 -0.0346746 0.0279661 0.0403562 -0.0300896 -0.035819 -0.0326676 -0.0381348 0.0363554
internal_weight=2354 1381 973 497 588 793 476 293 121 31 250 338 106 443 401 177 500 224 54 218 323 309 42 445 141 76 77 172 77 32 369 40 36 95 52 317 27 479 203 276 40
internal_count=2354 1381 973 497 588 793 476 293 121 31 250 338 106 443 401 177 500 224 54 218 323 309 42 445 141 76 77 172 77 32 369 40 36 95 52 317 27 479 203 276 40
is_linear=0
shrinkage=0.0427876


Tree=17
num_leaves=39
num_cat=0
split_feature=5 5 43 27 35 13 27 20 22 27 22 21 5 5 22 5 43 9 27 20 1 26 26 43 5 4 22 9 5 16 9 22 27 20 9 1 42 5
split_gain=547.051 107.375 40.6216 38.5799 26.477 22.9906 15.0974 12.3146 14.8547 12.2283 11.8518 11.3405 11.5882 10.7832 7.37662 6.96607 5.8976 5.776 7.84043 5.59945 5.03288 5.00225 4.99283 6.0031 4.78841 4.28074 3.50161 3.39538 3.3342 2.76709 2.44178 1.97974 1.94486 1.46533 0.864117 0.567591 1.35339 0.262483
threshold=19.166666666666668 30.81666666666667 1.0000000180025095e-35 59.208334000000008 2.8928571428571432 148.50000000000003 90.604168000000016 16.238250000000004 90.057675000000017 77.562500000000014 85.888385000000014 21.779917500000003 17.600000000000005 14.350000000000003 96.615355000000008 24.166666666666668 1.0000000180025095e-35 2.9680841985210331 47.250000000000007 23.638250500000002 15.350000000000003 976.3796000000001 972.8512750000001 1.0000000180025095e-35 18.400000000000002 33.500000000000007 96.159805500000019 9.7614401747747994 16.033333333333335 -0.10738035228456488 5.4072262055592129 99.69480750000001 44.562500000000007 24.038250000000001 4.6624067349029898 112.50000000000001 107.35714285714288 43.166666666666679
decision_type=2 2 2 2 2 2 2 2 2 2 2 2 2 2 2 2 2 2 2 2 2 2 2 2 2 2 2 2 2 2 2 2 2 2 2 2 2 2
left_child=3 2 9 11 6 25 7 27 -9 10 32 -1 22 30 24 29 20 26 -19 -20 -15 -12 33 -24 -14 -5 -4 -3 -18 -11 31 -7 -2 -13 -6 37 -37 -36
right_child=1 4 17 5 34 13 -8 8 -10 15 21 12 14 16 -16 -17 28 18 19 -21 -22 -23 23 -25 -26 -27 -28 -29 -30 -31 -32 -33 -34 -35 35 36 -38 -39
leaf_value=0.082598928675754968 0.34507145919283472 0.43710855895440248 0.039624071360245684 0.066146756963959649 1.4052599003446495 -0.16883778030440441 -0.11293083575000643 0.48273933404406949 0.09349715427906688 -0.042594966973437724 0.0045669505335373482 -0.11780872721398762 0.083702786316341163 0.027799826467379714 -0.035156981754593537 0.048009437795543258 -0.16294739639078229 0.027205436482739553 -0.048178282987745895 -0.1005362896687045 -0.11336851355651012 0.089860657507302474 -0.065106839247116646 0.013672874930741112 0.11170497229786086 -0.16020844319087346 -0.044855683324288423 0.16548964251388312 -0.092911546708237466 -0.020320713279940745 -0.062753256844535921 -0.14318411123315516 0.15670118970433419 -0.15076919970050742 0.63416815525219972 1.2427218534522384 2.1959349402749471 1.2474752258516575
leaf_weight=15.999999999999998 45 89 17 14.000000000000002 12.999999999999998 442 12.999999999999998 252 126 20 95 15.000000000000002 15 22 15.999999999999998 14.999999999999998 118 12.999999999999998 86 67 37 206 68 30 15 17 18 12.999999999999998 137 32 12.999999999999998 14.999999999999998 27 12.999999999999998 12.999999999999998 15.999999999999998 25 150
leaf_count=16 45 89 17 14 13 442 13 252 126 20 95 15 15 22 16 15 118 13 86 67 37 206 68 30 15 17 18 13 137 32 13 15 27 13 13 16 25 150
internal_value=-0.00127216 0.0165003 0.00380409 -0.0252113 0.0279619 -0.0292419 0.0224776 0.0237104 0.0201473 0.0110848 0.0141082 -0.0077356 -0.0109428 -0.0306711 0.00743077 -0.00574041 -0.0245263 -0.0121313 -0.0154624 -0.0181744 -0.0123202 0.0103754 -0.0176543 -0.0130931 0.0199502 0.00688561 0.00365393 0.0369093 -0.0273484 -0.0131558 -0.0347751 -0.0352962 0.0297061 -0.033599 0.0404189 0.0411069 0.0365123 0.0422591
internal_weight=2354 1351 641 1003 710 815 493 480 378 440 373 188 172 784 46 67 314 201 166 153 59 301 126 98 30 31 35 102 255 52 470 457 72 28 217 204 41 163
internal_count=2354 1351 641 1003 710 815 493 480 378 440 373 188 172 784 46 67 314 201 166 153 59 301 126 98 30 31 35 102 255 52 470 457 72 28 217 204 41 163
is_linear=0
shrinkage=0.0427876


Tree=18
num_leaves=41
num_cat=0
split_feature=0 0 6 42 20 20 29 20 7 0 10 28 23 23 1 30 5 3 28 26 26 20 26 40 29 25 3 16 0 23 2 29 29 25 16 2 6 28 7 0
split_gain=568.577 86.4366 47.8036 19.4042 17.4842 15.3975 14.5318 12.4654 13.9673 12.3354 11.3908 10.7254 10.4331 9.55389 9.75419 9.06207 8.55808 7.9769 7.86705 8.21934 6.70289 6.65067 9.60625 7.91544 5.68298 4.84547 4.73725 4.55144 4.3864 4.02231 3.79435 2.42989 3.47296 2.18821 1.83249 1.50986 0.866861 0.821088 0.406583 0.225929
threshold=20.550000000000004 31.900000000000002 17.028571428571432 45.928571428571438 19.838250000000006 20.763250000000003 -0.58064551275659959 16.713250500000004 56.964285714285722 15.100000000000001 21.943796825481112 6.0967572000000008 71.986992500000028 61.251582000000006 15.950000000000001 -0.99513171168174996 13.616666666666669 16.950000000000003 5.6304245000000011 976.3796000000001 969.05636500000014 14.163249500000001 978.70605500000011 661.10326050000015 -0.18705607957162598 7.0314070000000006 18.800000000000004 -0.98211651112579557 44.500000000000007 52.196215000000002 21.900000000000002 -0.15663037633263396 -0.34310465794235673 8.5457275000000017 -0.45972848220565504 27.500000000000004 13.871428571428574 3.8036487500000002 62.750000000000007 33.500000000000007
decision_type=2 2 2 2 2 2 2 2 2 2 2 2 2 2 2 2 2 2 2 2 2 2 2 2 2 2 2 2 2 2 2 2 2 2 2 2 2 2 2 2
left_child=2 4 5 7 21 17 9 31 11 -4 18 -9 16 14 -8 -15 25 -1 19 -6 34 35 29 -24 -17 -7 -16 -18 -5 -23 -11 32 -3 -10 -14 -2 -22 -30 -39 -33
right_child=1 3 6 28 10 12 13 8 33 30 -12 -13 20 15 26 24 27 -19 -20 -21 36 22 23 -25 -26 -27 -28 -29 37 -31 -32 39 -34 -35 -36 -37 -38 38 -40 -41
leaf_value=0.023757762018167226 0.16486524843272132 0.42173919227013817 -0.096419857618200266 0.69141256811066654 -0.042864591215185426 -0.11662699787376808 0.071683684761393585 0.26154009381532312 0.38695100974344754 0.023430534944295256 0.33860144509090717 -0.033158253370506291 -0.17645539943234739 0.056825320443735991 -0.10169688257468712 -0.074384191577394704 -0.04326560208446753 -0.13666647083513211 0.092428692192102258 0.026618120739945947 -0.21931077676152641 0.11177977455495317 -0.020937760897123781 0.058883446924465822 -0.136701644217461 -0.1513264302784447 -0.0065141812477806215 -0.082395642063578411 0.71785909700873718 0.10511829167288514 0.19291490114971721 0.38987345769356191 0.12181848076401827 0.61353420031222705 -0.17950997025682638 0.26455124600700802 -0.14516520078843176 0.99962124587632573 1.831183016909353 0.51791046936290874
leaf_weight=15.999999999999998 13.000000000000002 28 21 17 185 79 21 255 18 14.000000000000002 13.999999999999998 14.999999999999998 21 18 34 36 29 15.999999999999998 12.999999999999998 81 148 71 30 46 144 158 62 191 12.999999999999998 53 15.999999999999998 12.999999999999998 12.999999999999998 52 23 15.999999999999998 92 104 112 53
leaf_count=16 13 28 21 17 185 79 21 255 18 14 14 15 21 18 34 36 29 16 13 81 148 71 30 46 144 158 62 191 13 53 16 13 13 52 23 16 92 104 112 53
internal_value=-0.00130851 0.0190515 -0.0230275 0.0289565 0.00590082 -0.0290595 -0.0102864 0.0236421 0.0196305 0.0108969 -0.00102063 0.0152115 -0.0303144 -0.0137176 -0.0040187 -0.0194463 -0.0263081 0 -0.00291216 -0.00450217 -0.0367592 0.0147586 0.0119781 0 -0.0223417 -0.031953 -0.00980038 -0.0202245 0.0386109 0.0193193 0.028507 0.0363842 0.028164 0.0366671 -0.0213819 0.0339158 -0.0395762 0.0401693 0.0408041 0.0414823
internal_weight=2354 1215 1139 693 522 773 366 447 340 51 293 270 741 315 117 198 457 32 279 266 284 229 200 76 180 237 96 220 246 124 30 107 41 70 44 29 240 229 216 66
internal_count=2354 1215 1139 693 522 773 366 447 340 51 293 270 741 315 117 198 457 32 279 266 284 229 200 76 180 237 96 220 246 124 30 107 41 70 44 29 240 229 216 66
is_linear=0
shrinkage=0.0427876


Tree=19
num_leaves=41
num_cat=0
split_feature=5 32 27 27 13 6 41 37 17 41 23 21 5 22 23 17 27 29 28 28 3 22 22 29 27 29 23 17 29 5 6 41 41 23 22 4 32 29 22 27
split_gain=494.918 104.133 40.1046 38.1045 21.804 17.9156 12.8883 12.5286 12.256 12.1909 12.0861 11.963 11.166 9.17853 7.66541 7.55305 7.36457 7.35784 13.8607 7.34741 6.96065 6.62132 5.92544 5.5775 5.39976 5.20777 5.07328 7.62959 5.83446 3.78396 3.65755 3.98862 2.98864 2.98717 2.78438 2.38113 3.41319 2.89446 0.790539 0.52734
threshold=19.166666666666668 1.5000000000000002 59.208334000000008 75.229168000000016 148.50000000000003 49.071428571428577 154.68859500000002 1.0000000180025095e-35 -0.05591491888587425 151.47273010000004 42.041228000000011 21.779917500000003 14.350000000000003 93.863088000000019 71.003590000000017 -0.8238924869212918 97.145832000000013 0.56407625869156974 3.7624025500000005 6.0967572000000008 25.900000000000002 96.202910000000017 80.495153000000016 -0.10583071723631589 90.604168000000016 -0.76890540336301316 75.29770000000002 -0.88603780069526494 -0.68141818926675835 50.500000000000007 14.342857142857147 135.09043900000003 139.11489022000004 27.970745000000004 99.69480750000001 68.500000000000014 24.500000000000004 -0.14993448559957076 82.899605000000022 36.020834000000008
decision_type=2 2 2 2 2 2 2 2 2 2 2 2 2 2 2 2 2 2 2 2 2 2 2 2 2 2 2 2 2 2 2 2 2 2 2 2 2 2 2 2
left_child=2 3 6 7 23 9 11 8 25 -3 -10 -1 30 15 32 16 -5 21 -19 22 -16 -13 -11 -4 -17 -2 28 -28 -14 -9 34 -32 -15 39 -6 36 -35 -37 -31 -7
right_child=1 5 4 13 12 33 -8 29 10 19 -12 17 26 14 20 24 -18 18 -20 -21 -22 -23 -24 -25 -26 -27 27 -29 -30 38 31 -33 -34 35 -36 37 -38 -39 -40 -41
leaf_value=0.070819536973230943 -0.15621149938422621 -0.042987824925220984 -0.15910361409823642 -0.13090893350572519 -0.16859793065262416 1.8540866867706076 0.0321370771743218 0.16476152001308439 0.38410231038362752 0.38749171334293114 0.060953381700238569 -0.054575340009136816 -0.015168022306383255 -0.04365347361171254 0.012736928750237844 0.28467156106848873 0.038158056689820724 0.066453308102597433 -0.063768924981126587 -0.014942841526452413 -0.14359297930272905 -0.10979952836374576 0.22053862800219939 0.074035351465904078 -0.0063550874021632286 -0.0018275641004631938 -0.039289323272439669 -0.16161587789528478 -0.10266860091065737 0.47645330748818515 -0.12842328812980602 -0.071759879875023691 -0.11003734683938071 0.67368952998981735 -0.12767380936172168 0.80386842614975473 0.60597467778571767 0.54925488406929523 0.48817227257387003 1.1459071955929396
leaf_weight=14.999999999999998 12.999999999999998 19 16.000000000000004 15.000000000000002 349 111 25 13.999999999999998 37 87 351 53 27 27 49 22 13.999999999999998 15.999999999999998 20 13.999999999999998 18 59 188 14.999999999999998 34 85 17 61 209 12.999999999999998 87 21 48 98 12.999999999999998 13.000000000000002 17 14.999999999999998 25 24
leaf_count=15 13 19 16 15 349 111 25 14 37 87 351 53 27 27 49 22 14 16 20 14 18 59 188 15 34 85 17 61 209 13 87 21 48 98 13 13 17 15 25 24
internal_value=-0.00141757 0.0154868 -0.0241875 0.00508915 -0.0282969 0.0290596 -0.00637006 0.0112925 0.00915519 0.0219478 0.0125703 -0.0107595 -0.0296887 -0.00961092 -0.0162678 0.00150463 -0.0162122 -0.0144519 0.00236398 0.024131 -0.00574041 -0.0198611 0.0256706 0.00688561 0.0106881 -0.00436121 -0.0234361 -0.0329065 -0.0203038 0.0312573 -0.0338648 -0.0269354 -0.0256655 0.0369369 -0.0359306 0.0326105 0.0353414 0.0213751 0.0382687 0.0415156
internal_weight=2354 1351 1003 765 815 586 188 538 486 308 388 163 784 227 142 85 29 148 36 289 67 112 275 31 56 98 314 78 236 52 470 108 75 278 362 143 115 28 38 135
internal_count=2354 1351 1003 765 815 586 188 538 486 308 388 163 784 227 142 85 29 148 36 289 67 112 275 31 56 98 314 78 236 52 470 108 75 278 362 143 115 28 38 135
is_linear=0
shrinkage=0.0427876


Tree=20
num_leaves=43
num_cat=0
split_feature=0 0 24 0 24 16 16 8 16 25 17 25 44 35 26 1 29 0 26 17 35 25 24 25 3 6 44 25 16 24 29 44 1 23 29 29 16 6 0 17 6 0
split_gain=620.076 91.7245 60.7779 41.0306 24.1651 10.6259 10.2669 8.51283 8.26132 8.24349 8.4817 8.08656 13.2071 8.07432 7.65862 7.25255 13.1957 8.97904 6.43525 6.02163 8.33123 6.35058 5.87147 5.7991 5.5803 4.9301 4.88584 8.34318 3.97246 3.91032 4.76944 3.57803 4.39015 2.23627 4.63555 2.12377 2.09796 2.07445 1.27566 0.703663 0.156586 0.147569
threshold=23.050000000000004 14.950000000000001 6.700000150000001 50.500000000000007 3.1000000500000007 -0.70252096857941215 -0.95747632178960107 20.116666666666671 -0.97505550290239429 8.4312260000000023 -0.66483077113278999 10.648936500000001 900.98966573365522 1.0000000180025095e-35 977.00290000000007 58.500000000000007 -0.068632911313205799 28.950000000000003 971.95381500000019 -0.23449138957041013 2.8928571428571432 9.8950840000000024 1.0000000500000004 8.9276975000000025 22.850000000000005 24.642857142857149 608.19122669805017 6.8352593500000003 0.54883787585413535 9.0000005000000005 -0.17465247588056584 1078.2163588328201 22.650000000000002 33.735489000000008 0.36056721018319232 0.3087972000019405 -0.99865756837029884 19.642857142857149 10.950000000000001 -0.098820138732871737 13.15 75.500000000000014
decision_type=2 2 2 2 2 2 2 2 2 2 2 2 2 2 2 2 2 2 2 2 2 2 2 2 2 2 2 2 2 2 2 2 2 2 2 2 2 2 2 2 2 2
left_child=1 22 3 5 7 6 -2 8 -3 10 18 12 -9 -8 -12 17 -17 -7 -6 20 21 -5 23 26 -10 -13 35 -28 36 30 -11 32 -4 39 -35 -1 -24 -31 -38 -21 -25 -22
right_child=2 4 31 19 9 15 13 11 24 29 14 25 -14 -15 -16 16 -18 -19 -20 33 41 -23 28 40 -26 -27 27 -29 -30 37 -32 -33 -34 34 -36 -37 38 -39 -40 -41 -42 -43
leaf_value=-0.10447886862827103 0.36229098327282383 0.031851074498538232 -0.12491616709177865 0.56790301271478116 -0.037756641075271637 0.082333095868163536 -0.042620834059162956 -0.0032018502465713718 -0.051479944669821809 -0.11821939257343982 -0.12147433551244748 -0.040914176811161163 0.12045566629047838 0.099206347629998443 -0.0074658642515039774 0.48283369901682555 -0.12553341266866758 0.27468212476112458 0.11041289749731695 1.3557105128677258 0.68892098488531484 -0.093460031420982706 -0.11879934318863802 -0.16424236830166952 0.082003499936872462 -0.073884101346526163 0.034785135447802304 -0.1192358796502702 -0.23777867752149506 -0.20708984921445156 -0.06654195886796857 -0.19379133724530351 -0.020059477951794878 0.73148942002872008 0.45498920684640048 -0.13613969472316609 -0.24666848058199639 -0.070295873294602615 -0.15693001894638364 1.5066799127524055 -0.22868192244135849 1.3545970261986449
leaf_weight=20 21 18 14.999999999999998 13.000000000000002 70 192 25 262 115 13.999999999999998 73 18 21 17 20 19 22 370 12.999999999999998 17 16.000000000000004 15.999999999999998 14.999999999999998 13.000000000000002 12.999999999999998 15.999999999999998 13.999999999999998 35 19 40 38 18 18 71 42 14.999999999999998 107 12.999999999999998 340 196 18 12.999999999999998
leaf_count=20 21 18 15 13 70 192 25 262 115 14 73 18 21 17 20 19 22 370 13 17 16 16 15 13 13 16 14 35 19 40 38 18 18 71 42 15 107 13 340 196 18 13
internal_value=-0.000823659 -0.0203716 0.0229673 0.0251831 -0.0103512 0.018759 0.00203003 -0.00434242 -0.0128915 -0.02025 -0.0145838 -0.000403458 0.00196385 -0.0101758 -0.0234585 0.020506 0.00311924 0.0217736 -0.00463386 0.0363235 0.0235978 0.00736044 -0.0328795 -0.0241797 -0.0167099 -0.0201201 -0.0183314 -0.00959536 -0.0349584 -0.0297424 -0.0213838 -0.022642 -0.0142473 0.0385859 0.0336951 -0.0305469 -0.0357478 -0.037933 -0.0362773 0.0411779 -0.0400086 0.039817
internal_weight=2441 1340 1101 1050 744 666 63 463 146 281 176 317 283 42 93 603 41 562 83 384 58 29 596 115 128 34 84 49 481 105 52 51 33 326 113 35 462 53 447 213 31 29
internal_count=2441 1340 1101 1050 744 666 63 463 146 281 176 317 283 42 93 603 41 562 83 384 58 29 596 115 128 34 84 49 481 105 52 51 33 326 113 35 462 53 447 213 31 29
is_linear=0
shrinkage=0.0427876


Tree=21
num_leaves=43
num_cat=0
split_feature=0 0 24 0 27 7 22 24 21 27 22 44 0 17 7 22 0 29 41 41 24 23 1 21 21 21 29 22 22 41 21 11 23 22 17 22 0 21 21 27 17 17
split_gain=601.784 117.43 42.9461 29.3134 25.5392 15.7348 13.9227 11.8899 11.599 10.1022 8.21159 7.54051 7.82104 7.26983 9.10479 6.95994 6.30559 6.26174 5.79549 6.28642 5.7034 5.54695 5.05426 4.81497 7.42198 6.7518 4.77194 4.59227 3.76789 3.44483 3.08157 3.05615 5.04721 2.70611 4.62908 2.38304 2.51907 2.16248 2.01881 1.60378 0.75421 0.262483
threshold=25.900000000000002 15.100000000000001 6.700000150000001 50.500000000000007 74.229168000000016 19.392857142857146 99.383638000000005 1.0000000500000004 22.922918000000006 98.354168000000016 91.073350000000019 630.92772051825102 22.850000000000005 -0.23449138957041013 52.607142857142868 93.897438000000008 12.950000000000001 -0.20476307325072676 137.20577300000002 129.60124650000003 6.8999998000000007 67.724118000000018 11.950000000000001 23.798956000000004 25.668459000000002 22.156251000000001 -0.15663037633263396 97.891867000000005 95.020415000000014 181.44638700000004 27.000751500000003 5.5000000000000009 69.601455000000016 98.50491000000001 -0.92910699518418149 76.657125000000022 69.500000000000014 24.904166000000004 30.770250000000001 85.020832000000013 -0.93533330245768853 -0.15855351192338588
decision_type=2 2 2 2 2 2 2 2 2 2 2 2 2 2 2 2 2 2 2 2 2 2 2 2 2 2 2 2 2 2 2 2 2 2 2 2 2 2 2 2 2 2
left_child=1 7 3 6 11 18 8 10 26 17 40 23 21 14 -5 -10 30 -7 19 -6 -11 -13 -18 25 -25 -3 -2 39 -20 -14 -12 32 -9 37 -35 41 -37 -33 -16 -4 -1 -15
right_child=2 4 27 13 5 9 -8 31 15 20 16 12 29 35 38 -17 22 -19 28 -21 -22 -23 -24 24 -26 -27 -28 -29 -30 -31 -32 33 -34 34 -36 36 -38 -39 -40 -41 -42 -43
leaf_value=-0.15921362306456599 0.17325931457732466 -0.012351929468310603 -0.18821409133247735 -0.039775886906984484 -0.069948691732396095 -0.00024425552101352608 -0.034802566965710324 -0.092559427973040356 0.23104495448590995 0.070219593909039549 -0.086757371465837549 -0.0096991497931780378 0.18626723443736681 1.297702855377221 0.45042600761634749 0.045324328897253102 0.071800380033111344 -0.075728586470249326 -0.071969725091077227 0.018968008970023785 -0.050140531248315572 0.01831605748580285 -0.059182289006266563 0.015349792146142464 -0.049277239173557405 -0.089790246976251264 0.30521788190037574 0.0031240050624806149 -0.15217433401478786 0.069853439830996747 -0.11413405739420372 -0.2317120761701362 -0.21780325663827077 -0.09998986873079127 -0.20512935605086138 0.50117084272698831 1.2401440328644144 -0.14924081693898222 0.85417155783635246 -0.10470484423416011 -0.2005497007950891 1.4616457452017775
leaf_weight=12.999999999999998 74 31 15.000000000000002 15.999999999999998 72 45 12.999999999999998 15.000000000000002 294 34 39 138 18 12.999999999999998 14.999999999999998 65 13.999999999999998 65 39 17 24 25 41 63 47 32 113 12.999999999999998 56 58 12.999999999999998 71 15.999999999999998 17 67 98 65 365 27 12.999999999999998 22 150
leaf_count=13 74 31 15 16 72 45 13 15 294 34 39 138 18 13 15 65 14 65 39 17 24 25 41 63 47 32 113 13 56 58 13 71 16 17 67 98 65 365 27 13 22 150
internal_value=-0.000718487 -0.0181778 0.0251328 0.0269969 -0.00660793 -0.0150715 0.0207423 -0.0309323 0.0217847 -0.00560028 -0.0198836 0.000621987 0.00554785 0.0361006 0.0221225 0.0172805 -0.0139913 -0.0132207 -0.0237164 -0.0158594 0.00884418 0.00025964 -0.00388113 -0.0061804 -0.000773705 -0.0156128 0.0304289 -0.0177287 -0.0310716 0.0168831 -0.0246749 -0.0337787 -0.0206869 -0.0345582 -0.0274999 0.0385859 0.0349092 -0.0359168 0.0325869 -0.0274871 -0.0378814 0.0422591
internal_weight=2441 1457 984 943 764 352 559 693 546 168 142 412 239 384 58 359 107 110 184 89 58 163 55 173 110 63 187 41 95 76 52 551 31 520 84 326 163 436 42 28 35 163
internal_count=2441 1457 984 943 764 352 559 693 546 168 142 412 239 384 58 359 107 110 184 89 58 163 55 173 110 63 187 41 95 76 52 551 31 520 84 326 163 436 42 28 35 163
is_linear=0
shrinkage=0.0427876


Tree=22
num_leaves=40
num_cat=0
split_feature=5 5 37 24 24 24 20 10 24 13 32 44 23 28 17 5 7 1 7 10 7 29 44 44 13 5 30 26 5 23 23 13 34 44 24 30 5 5 10
split_gain=484.249 103.266 53.1906 32.4899 26.8367 20.1126 16.652 14.7406 13.1215 10.5719 9.0151 8.40275 8.23419 8.09457 9.78773 7.89204 6.02826 7.90929 5.98118 8.99409 5.56968 5.86539 5.37886 4.74316 4.55876 4.42108 4.41851 5.93096 4.37064 4.62199 4.00035 3.18194 2.89105 2.82703 2.78867 2.53936 2.26157 0.21228 0.160672
threshold=24.833333333333339 16.300000000000001 1.0000000180025095e-35 6.5999997000000006 3.1999999000000003 1.0000000500000004 15.58825 8.7763729587239805 0.15000000000000005 356.50000000000006 2.5000000000000004 594.64444778043469 33.464240000000011 2.3833942500000007 -0.89388548498445497 54.833333333333336 11.378571428571432 9.9500000000000011 15.721428571428573 4.1221060309883377 52.071428571428577 -0.28053235683316619 676.59506332736953 1078.2163588328201 148.50000000000003 14.716666666666667 0.90434118376358852 978.14921500000003 13.033333333333337 74.695377500000021 45.098881500000012 150.50000000000003 6.0714285714285721 949.68393765647272 35.049998000000009 0.86021097816626479 21.383333333333336 30.81666666666667 2.9668446090209755
decision_type=2 2 2 2 2 2 2 2 2 2 2 2 2 2 2 2 2 2 2 2 2 2 2 2 2 2 2 2 2 2 2 2 2 2 2 2 2 2 2
left_child=1 5 3 6 7 16 26 9 32 12 11 -8 -3 14 -6 -12 -1 -18 38 -20 -10 -22 -9 31 -7 -19 37 -28 34 -30 -24 -5 33 35 -26 -4 -16 -2 -15
right_child=2 4 8 23 13 24 10 22 20 -11 15 -13 -14 18 36 -17 17 25 19 -21 21 -23 30 -25 28 -27 27 -29 29 -31 -32 -33 -34 -35 -36 -37 -38 -39 -40
leaf_value=-0.15233129716817262 0.25111246047892311 0.14864413835937121 0.69358270264346755 0.070782557394597448 0.077500223854942291 -0.088599028208919767 -0.028337090947848115 0.32642341836389038 -0.04416162915644771 0.18820067618300212 0.31887593847578138 0.087791370694675686 -0.017764567918278296 -0.041871589499552643 -0.073567566654580002 -0.13129754507714431 0.040139094240700557 -0.071440284429326109 -0.022752552396010352 -0.10767191649152213 0.62119312723850417 0.1396240597009554 0.17465429527526063 -0.21923542582984534 -0.16530904237182162 -0.034194340952228806 0.0068590405597416162 0.30747792016758263 -0.10333140599824971 -0.16265492380741295 -0.0076470713806352734 -0.12184572392178629 2.1038585244496431 0.44675932614734543 -0.11518651390597993 0.54023487872283427 -0.13870121189977799 0.40587684803162355 -0.14005669541947824
leaf_weight=12.999999999999998 12.999999999999998 15.999999999999998 163 13.000000000000002 19 14.999999999999998 65 17 18 19 163 250 401 12.999999999999998 34 14.999999999999998 18 94 38 70 17 20 13.000000000000002 13.999999999999998 297 37 13.999999999999998 23 171 83 14.999999999999998 14.999999999999998 117 17 12.999999999999998 34 13.999999999999998 41 19
leaf_count=13 13 16 163 13 19 15 65 17 18 19 163 250 401 13 34 15 18 94 38 70 17 20 13 14 297 37 14 23 171 83 15 15 117 17 13 34 14 41 19
internal_value=-0.000998946 -0.0170368 0.021647 0.0139428 -0.00509899 -0.0281202 0.0165574 0.000443807 0.03414 -0.00196166 0.0134515 0.00909931 -0.00338493 -0.0179807 -0.00574041 0.0211505 -0.0147877 -0.0123448 -0.023835 -0.0190119 0.014772 0.0242705 0.0237591 -0.0224 -0.0318496 -0.0160007 0.0333777 0.0219578 -0.0324691 -0.0282984 0.0122072 -0.0122072 0.0373567 0.0343875 -0.0358846 0.0358345 -0.0160348 0.0411922 -0.0400955
internal_weight=2441 1429 1012 626 688 741 584 481 386 436 493 315 417 207 67 178 162 149 140 108 55 37 45 42 579 131 91 37 564 254 28 28 331 214 310 197 48 54 32
internal_count=2441 1429 1012 626 688 741 584 481 386 436 493 315 417 207 67 178 162 149 140 108 55 37 45 42 579 131 91 37 564 254 28 28 331 214 310 197 48 54 32
is_linear=0
shrinkage=0.0427876


Tree=23
num_leaves=46
num_cat=0
split_feature=0 0 0 24 7 27 24 24 0 41 44 1 4 25 25 27 10 19 15 25 41 7 27 1 41 19 29 25 21 29 44 44 26 21 24 3 44 26 0 33 25 27 0 44 13
split_gain=554.531 99.3054 45.1412 24.1175 21.4936 15.9803 14.4244 11.6189 12.431 10.8307 11.5411 9.41598 9.40557 9.15756 7.55871 8.46741 7.45895 7.18072 6.6145 6.45885 6.08013 6.88583 5.34431 5.2841 4.88616 4.28884 7.04075 6.70209 4.21527 4.20928 3.87536 5.74466 3.83865 3.99174 3.49886 3.24889 2.99239 2.68753 2.49115 2.98594 2.59867 1.95199 1.57729 1.46533 1.11182
threshold=24.300000000000004 15.100000000000001 51.500000000000007 2.3000001000000005 19.607142857142861 69.479168000000016 0.15000000000000005 3.1999999000000003 12.950000000000001 180.09318240000002 496.66442757796608 59.500000000000007 23.300000000000004 10.587917500000001 5.7880321500000003 99.604168000000016 13.152086243448826 25.563250000000004 1.0000000180025095e-35 9.6932957500000025 135.09043900000003 13.389285714285718 55.854166000000006 22.650000000000002 233.09727310000002 30.963250500000004 0.33121231883242058 7.9607993000000006 23.105956000000003 -0.4892134800201281 891.11190984427515 655.72822083045014 969.05636500000014 25.571584500000004 1.6500000000000001 47.500000000000007 493.96765014632803 969.66260000000011 72.500000000000014 9.1050000000000022 11.191886000000002 97.312500000000014 33.500000000000007 857.02426662587857 104.50000000000001
decision_type=2 2 2 2 2 2 2 2 2 2 2 2 2 2 2 2 2 2 2 2 2 2 2 2 2 2 2 2 2 2 2 2 2 2 2 2 2 2 2 2 2 2 2 2 2
left_child=1 7 3 9 5 12 38 8 30 10 -2 17 22 14 28 -16 -13 -11 34 24 21 -7 -3 -12 -5 26 -10 -27 -6 -8 31 -1 33 -9 -15 -31 -34 -22 39 -4 -41 -38 -21 -35 -40
right_child=2 4 6 19 13 20 29 32 25 11 23 16 -14 18 15 -17 -18 -19 -20 42 37 -23 -24 -25 -26 27 -28 -29 -30 35 -32 -33 36 43 -36 -37 41 -39 44 40 -42 -43 -44 -45 -46
leaf_value=-0.11149374250146188 0.190799417616698 -0.02402968601884143 0.30026139870229063 -0.099915870787587568 -0.11066316518461522 0.029353337146905436 0.5970074048201961 -0.045451002576879194 -0.0085547668717263579 0.34791647558305333 0.1236711158257512 -0.18777100081017314 0.1065202719168417 -0.025547778745940383 0.010127191194099057 0.12201989123396249 0.28054652391911133 0.20875497948590713 0.057922164775359775 -0.13138209906619613 -0.11367108329376077 -0.068183977133319112 0.028054972889228983 -0.079467420378447867 0.11989762765406078 -0.040233792782569305 -0.097206953434763238 -0.13217369244833729 -0.029876731844938186 0.46010711737198823 -0.19346634610004709 -0.10128966795871031 -0.15953054653371318 -0.15401362960581122 -0.091327509283613564 -0.023712850992523002 -0.15185928564361989 -0.11557469178466095 1.7024989081016131 0.60780875110137234 0.42764354757524814 -0.1748604110878636 -0.093569329431045123 -0.18384887994656512 1.3628002044988305
leaf_weight=50 24 64 22 25 14.999999999999998 13.999999999999998 15.999999999999998 20 75 45 14.999999999999998 13.999999999999998 19 27 264 18 22 432 14.999999999999998 19 30 80 21 38 19 12.999999999999998 25 20 48 12.999999999999998 43 50 18 15.000000000000002 19 24 197 69 144 126 21 154 12.999999999999998 12.999999999999998 12.999999999999998
leaf_count=50 24 64 22 25 15 14 16 20 75 45 15 14 19 27 264 18 22 432 15 19 30 80 21 38 19 13 25 20 48 13 43 50 18 15 19 24 197 69 144 126 21 154 13 13 13
internal_value=-0.000928831 -0.0185736 0.0226421 0.0159322 -0.00724217 -0.0159896 0.0344319 -0.0300679 -0.0232522 0.0188547 0.0038836 0.0211009 -0.00246398 -0.000841954 0.00185897 0.00485364 0 0.0226934 -0.0161247 -0.00674958 -0.0232755 -0.015471 -0.00855178 -0.00725667 0.00387896 -0.0138298 -0.00940837 -0.0272122 -0.011538 0.0137149 -0.0320121 -0.0273787 -0.0345776 -0.0231656 -0.0241728 0.00576911 -0.0360607 -0.0306805 0.0377984 0.0341762 0.0363802 -0.0369347 -0.0213775 -0.033599 0.0416938
internal_weight=2441 1396 1045 666 703 297 379 693 276 590 77 513 104 406 345 282 36 477 61 76 193 94 85 53 44 133 100 33 63 53 143 100 417 48 46 37 369 99 326 169 147 351 32 28 157
internal_count=2441 1396 1045 666 703 297 379 693 276 590 77 513 104 406 345 282 36 477 61 76 193 94 85 53 44 133 100 33 63 53 143 100 417 48 46 37 369 99 326 169 147 351 32 28 157
is_linear=0
shrinkage=0.0427876


Tree=24
num_leaves=44
num_cat=0
split_feature=5 23 24 24 41 9 9 5 20 35 31 16 41 44 20 7 10 29 13 16 10 13 16 9 9 29 44 30 16 5 23 23 29 20 9 24 9 29 24 8 10 9 37
split_gain=446.793 96.0452 39.8737 31.6623 31.783 25.1323 17.7748 17.2452 13.2896 11.3634 10.0953 9.51558 9.01109 8.4546 8.93764 8.0954 8.48435 11.4376 7.90934 6.97153 6.72353 11.0056 7.37528 6.60606 6.44792 5.71454 5.32705 4.96876 4.72865 4.45071 5.0984 4.85021 4.37501 4.26277 3.94107 3.92488 3.84185 1.65927 1.58902 1.44356 3.12064 0.610105 0.274717
threshold=19.750000000000004 38.138225500000011 1.0000000500000004 3.1999999000000003 230.56979420000002 9.8826447202486012 4.6162232570374133 16.300000000000001 23.238250500000003 0.67857142857142871 3.5000000000000004 -0.72660079619119988 141.87561550000001 523.04869769247205 26.451500500000005 16.750000000000004 4.8932280538360482 0.13183081728202109 326.50000000000006 -0.65189295912203338 3.3516418183099654 269.50000000000006 0.47494667389482614 6.5501726622095147 2.1124887525020122 0.19611516006411508 1004.7104679240075 0.89748067682921773 0.68391308835034159 13.033333333333337 75.29770000000002 84.441875000000024 -0.74549337393158599 21.563250000000004 8.2346538366537985 35.049998000000009 1.676163419691526 0.30310479152383402 3.1999999000000003 81.850000000000009 30.205614062275192 6.3994047342214211 1.0000000180025095e-35
decision_type=2 2 2 2 2 2 2 2 2 2 2 2 2 2 2 2 2 2 2 2 2 2 2 2 2 2 2 2 2 2 2 2 2 2 2 2 2 2 2 2 2 2 2
left_child=2 5 6 4 11 10 18 29 27 -10 13 33 34 -2 -15 -5 17 -17 20 -13 21 -1 -22 24 36 -26 -18 -6 -7 35 32 -32 -31 -3 41 38 -9 -12 -4 42 -41 -8 -30
right_child=1 3 7 15 8 28 12 23 9 -11 37 19 -14 14 -16 16 26 -19 -20 -21 22 -23 -24 -25 25 -27 -28 -29 39 30 31 -33 -34 -35 -36 -37 -38 -39 -40 40 -42 -43 -44
leaf_value=-0.067111136250634223 0.56064836384696215 -0.0021041390191339263 -0.11912528075616786 -0.21300933428204402 0.31703327082019628 0.22786405778042937 0.046252744487968379 -0.081985850903667487 0.050338642621601121 -0.1217031536160432 0.96854304030375882 0.077200014655876961 0.15706894410902617 0.14875754732137927 -0.061019818656542484 0.10580074076475013 -0.085975121970008769 -0.057199464568349331 0.021758193410498648 0.017350975223240896 -0.098354575707401179 0.021720218039529157 0.033412431087899583 0.060179605272257235 -0.077523922976264065 -0.092290799557531333 -0.15255471637158091 0.074316408618173915 0.43905075963194418 -0.00027030743721236826 -0.14900665425132764 -0.12487464161270695 -0.10006443787543665 -0.077049216115217437 -0.1073626712185341 -0.099142586404298183 0.021093930238418077 0.6818877073254962 -0.15622390303830758 0.44594887007598766 1.8424373847270448 0.07338564354844701 1.1360954842547564
