tree
version=v4
num_class=1
num_tree_per_iteration=1
label_index=0
max_feature_idx=44
objective=regression_l1
feature_names=pm25_lag1 pm25_lag3 pm25_lag7 pm25_lag14 pm25_lag30 pm25_roll3_mean pm25_roll7_mean pm25_roll14_mean pm25_roll30_mean pm25_roll7_std pm25_roll14_std month week day_of_year sin_month cos_month sin_doy cos_doy is_haze_season temp_max temp_min temp_mean humidity_max humidity_min precipitation wind_speed pressure cloud_cover evapotranspiration wind_dir_sin wind_dir_cos hotspot_50km hotspot_100km mean_frp_50km hotspot_7d_roll hotspot_14d_roll fire_flag alert_lag1 alert_lag3 alert_lag7 lag1_x_temp lag1_x_wind roll7_x_fire precip_flag humidity_wind
feature_infos=[3:266] [3:266] [3:266] [3:266] [3:266] [6:232] [7.5714285714285712:186.42857142857144] [8.8571428571428577:169.21428571428572] [9.3333333333333339:124] [0.43094580367593538:73.209093892571971] [0.72373421144061201:88.014390681484315] [1:12] [1:53] [1:366] [-1:1] [-1:1] [-0.99999073973619002:0.99999073973619002] [-0.99996295911626565:1] [0:1] [12.9765:40.676501999999999] [8.6265000000000001:29.076499999999999] [11.622332999999999:34.403584000000002] [46.447315000000003:100] [10.397731:96.135369999999995] [0:122.59999999999999] [3.219938:28.802247999999999] [962.69560000000001:985.60720000000003] [0:100] [0.46755368000000003:7.5202622000000003] [-1:0.99999999999998479] [-0.99999999999993905:1] [0:76] [0:341] [3.2999999999999998:123.55] [0:27.714285714285715] [0:21.214285714285715] [0:1] [0:1] [0:1] [0:1] [77.858999999999995:9742.6489999999994] [17.5811262:3642.7936559999998] [0:186.42857142857144] [0:1] [313.37161102049998:2307.4931354009282]
tree_sizes=3647 3511 3940 3430 4187 3334 3673 3609 3510 3526 3524 3615 3349 3283 3193 3790 3368 3675 3543 3719 4041 3790 3806 4036 3876 3845 3532 3536 4046 3373 4136 3202 3959 3704 3617 3794 3978 3608 4202 3703 3545 3634 4217 3716 4059 4045 3551 3809 3463 3714 3808 3555 3745 3618 3776 3806 3122 4126 4050 4218 3890 3206 4162 3558 3306 3246 3821 3820 3893 4151 3625 3628 3422 3982 4062 3485 3780 3727 3305 3230 3920 3551 3551 4031 3615 3549 2802 3135 3966 3426 2993 3478 3201 3476 2971 2715 3131 3581 3396 3822 3152 2974 3093 2791 3238 3194 3728 3132 2976 3803 3665 3930 3070 3995 3221 3405 3044 3253 3196 2866 2724 3571 2382 3306 2802 3995 2808 3387 3477 3224 3244 3208 3328 2804 3073 2216 2217 2558 1695 3292 2803 3325 3400 2371 2625 2894 3324 3332 2302 2552 2709 2893 2805 2290 2719 2701 2371 1684 2222 1627 2634 3319 3577 2967 3340 1624 3387 2284 2479 2384 2464 1805 1364 2455 2119 1794 2368 2183 1341 1785 2046 2121 1615 1785 1188 2888 1967 2732 3576 2480 2446 2530 1833 1458 1878 2974 1354 1790 1607 1891 2023 1769 1698 2202 1863 1782 1699 1810 1793 1607 3392 1957 1530 2036 1354 1529 1947 3139 1452 1701 2306 2064 2385 2139 2573 2196 1944 1537 1865 1529 2980 2896 1336 2788 1097 2298 1866 2479 2121 3557 2296 1888 1791 1615 953 2898 2471 2395 1513 1452 1945 1510 1951 1614 1762 2763 2983 1950 2927 2489 2361 3250 3226 2231 1279 1529 3249 1800 2067 1615 2078 2120 1804 1569 3525 1415 1612 1615 1447 1853 2063 1519 3080 1688 2813 1782 2452 3280 2473 3648 2536 3306 2810 2806 3253 2713 2287 2970 2632 2582 1956 1447 1882 2103 1359 3336 1947 2571 2638 2823 2299 2033 2111 1701 1281 2282 1299 2230 1635 1639 1635 1970 1880 1466 2030 2399 2228 2731 1792 2582 2474 3172 2638 2394 2130 3011 2303 3407 2043 2388 2892 3173 2309 2213 1706 3068 1623 1812 2827 3256 1530 3037 1956 1446 1034 2470 2576 3410 1972 2967 2314 1711 2641 2888 2114 3141 3172 2736 1886 1805 1543 1372 1771 1725 1607 1105 1186 1270 1351 2237 2408 1373 1377 1633 2054 2979 2484 1462 1903 2227 2558 2127 2129 3251 1720 2051 2128 2979 2921 1453 1541 1437 2282 1276 2223 2069 1766 2482 2044 2590 2202 2237 2472 2737 1643 2944 2407 1460 1960 860 2470 1700 2408 1534 1789 2482 1966 2108 1111 2202 1683 2881 2543 1866 1888 1882 2033 2656 1802 2046 3152 3256 2408 2720 3011 2388 1558 860 1626 1882 2928 2464 3172 2285 1971 1874 1541 2407 1728 1899 2921 1125 1117 2057 1123 1765 2998 2569 1810 2467 1327 2713 1349 1804 2465 1618 1799 2484 1774 2915 2312 2616 2133 2732 2209 2740 1955 2214 2552 2321 2650 2568 1943 2994 2869 1898 1452 1872 1961 2807 2926 2667 2883 2548 2816 2212 2478 1611 1896 2138 2297 2389 2480 2218 2757 2972 1943 2400 2473 2727 2124 1544 1783 2321 3333 1625 2301 2380 2118 1528 2201 1782 1985 1535 2140 2731 1619 1617 2149 1533 1701 1610 2712 2623 1871 2363 1618 2036 1700 1705 2533 2824 1264 2130 1365 2576 2293 1615 2323 2750 2492 2531 2682 1881 2042 1629 1359 1796 2137 2483 2385 2230 2647 1613 1766 2334 3017 3148 1461 2466 2029 2493 2208 1978 1635 2119 1359 2383 2061 2041 2057 2982 3128 2145 1455 2676 2571 3182 2138 2571 1286 1453 1023 1626 1459 2289 2964 2057 2048 2192 2286 2410 2300 2330 2737 2901 2143 1795 1791 1885 3322 2466 2572 1692 2046 1799 2980 2239 2389 1701 1353 2315 2903 1959 2145 2559 2217 2502 1684 2149 2815 2134 2295 1877 1279 1119 1969 2490 2050 2292 1459 2805 2812 1808 2543 1271 1642 1368 1273 1806 2636 2545 2298 2133 2025 2758 1695 1972 2051 1547 2812 2363 2035 2642 1781 1035 1806 1373 1981 1297 1966 1628 1877 1966 1707 2844 2213 2685 2388 1887 2243 1717 1701 1889 3538 1540 2142 2574 1965 3425 1022 1864 2663 1460 937 2132 2332 1958 1366 1551 1542 2491 2311 2630 2023 1904 1117 2382 1617 1196 2311 2903 1811 1896 1974 1961 1726 1807 1866 1293 1528 1961 1963 2377 942 2346 2315 1734 1628 2109 1959 2482 1103 1717 1725 1364 2641 2653 3079 2167 1718 2898 1787 2911 2806 1818 2050 2931 2735 2062 2060 1881 1620 1714 1632 2401 2480 1957 2598 2049 2042 1982 2740 1703 1990 1717 2664 2566 1814 2327 2042 2077 1274 2206 2384 2844 3267 2224 2662 2409 2485 945 1968 1272 3256 1034 2210 2049 1194 2286 2389 1881 1886 1282 1718 1883 2037 2401 2346 1297 2734 1808 1545 2047 2134 2899 2069 2043 2234 2749 2489 2712 1542 1033 1379 2921 2043 1377 1287 1461 2051 1443 1440 1789 1538 2053 2139 1441 1992 2566 1284 2668 2551 2177 2055 2643 2732 1469 1889 1450 1374 1803 1802 1797 1970 2591 2741 1892 1965 2148 1536 1725 2757 1541 2035 1119 1537 1618 1703 1378 1269 1964 1446 2285 2225 2832 2214 3291 2215 2143 2579 2312 2835 2141 2299 1891 2664 2999 1895 2507 2828 2199 2751 2421 2563 2763 2411 2063 3063 2477 1969 2308 2043 2917 1615 2388 2743 1736 1620 1372 1625 2740 1375 1717 1377 2578 2242 2406 2317 2567 1455 947 1805 2161 1795 3013 1978 2046 3244 2476 2205 1540 1790 1612 2595 1632 2945 2945 1545 2161 2054 1706 2755 2587 3200 1975 3342 1725 2335 1715 2083 1632 1551 1906 1375 1622 2077 1204 1395 1960 2132 1551 2889 1544 2155 2395 3415 2847 3086 3106 2067 2316 2334 1470 1553 1462 1735 1637 1452 1113 1209 1717 1364 1461 1277 1622 2411 936 2317 941 1627 2376 2478 2530 3365 3074 1624 3415 3523 2667 2678 1798 2289 2075 2235 1790 2217 2412 1805 1813 2057 1973 2730 2225 1627 3788 1445 3440 2496 2226 2490 2571 1878 2049 1987 2770 3354 1464 1969 1715 2235 1541 2405 3194 1993 1986 2685 1729 1871 3074 1874 2056 1819 2236 1961 1211 2330 1810 3508 1904 3024 1546 2758 1778 1797 2220 2394 2584 2033 1951 1736 2673 1635 2582 2389 2853 1800 1543 1635 2833 2472 2325 2052 2064 2496 2130 1861 2421 2482 2054 2312 2235 1880 2315 2460 2844 2469 1899 1563 1780 2225 2110 3594 2574 2054 2652 2519 2316 2055 1724 2301 2302 2570 2499 2573 1722 2158 1207 2236 1954 1372 863 1036 1542 1553 2049 3594 1958 2558 1968 1982 2428 1547 1963 1721 2391 2230 1956 2494 2130 1809 2083 1972 2330 1808 1437 2730 2154 1467 1632 1623 1898 1798 1559 1787 2561 1720 2049 1965 1966 2308 2488 1807 2307 1825 2835 1295 2470 1717 2589 3355 1977 2243 2327 2432 2392 2225 2038 2308 2070 1901 2669 2392 2137 3090 2147 2133 1813 2827 1890 2059 2411 2164 2334 2055 1972 2073 2136 2483 2333 2492 2916 1974 2763 3018 2075 2469 1703 1714 1619 2308 2582 3367 3025 2134 1891 2215 2231 1872 1622 2309 2216 1612 2037 2144 2405 2499 2503 1792 1389 2234 2488 1795 1963 1798 2156 1700 1714 1723 1530 2318 1795 1556 2246 2510 2487 2750 2074 1807 2421 1982 1283 1452 1721 2466 1804 2148 1444 1208 2085 1541 1960 2323 2683 1711 2573 2245 1027 2833 2488 2060 1194 3778 1880 1290 1967 2770 1811 1900 1642 1115 1549 1697 2745 2051 1963 1028 1715 852 1193 2057 1875 2058 2390 2467 1622 1553 1617 1027 1795 1730 2322 2562 1884 2485 1041 1038 1120 2151 1536 3015 2489 3121 2066 2135 2159 2580 2398 2950 1732 2146 1898 2294 2055 2237 2434 1547 1540 1808 951 1988 2072 2525 2328 2974 2133 1522 2147 2211 1541 1978 2062 2125 1646 1698 2220 1660 1026 1312 1791 2657 1653 1883 2403 2318 1199 1276 2593 935 1623 1372 2749 2160 1017 3100 2150 2040 3003 1958 1803 2384 2572 1981 1477 1975 2337 1214 1995 2162 1555 1735 2315 2348 1132 1294 1112 2501 1888 1286 2850 1286 1303 1548 1464 1628 1384 1547 2252 1298 1122 2825 2489 2309 2325 2753 2040 2227 2399 1634 2147 2408 1704 2128 1265 1114 1542 1723 1618 2161 1393 1458 1820 1374 1372 1294 2921 1204 1457 1555 1875 1902 1629 2062 3177 1799 2740 1625 2138 2920 2159 2834 1731 2396 2570 1883 1558 1993 2142 2573 1975 2570 2218 2767 2397 2832 3198 2406 3209 2582 2235 2749 1807 2842 2849 2933 2700 2678 3023 3196 1452 1983 1748 1565 2088 2339 1892 2419 1902 2375 2421 2059 2159 2339 1563 1994 1633 2130 2238 1630 2066 1549 1388 1471 3170 2332 3590 1190 2560 3526 2678 1475 1557 1556 1302 1640 1128 2229 1373 1544 1979 3011 2255 2310 2142 1638 1725 1620 1037 1179 2428 1463 1207 1467 2485 1892 1522 1468 1453 2244 1984 2049 3025 2054 2412 1359 854 1542 1023 1114 1191 2545 1819 3523 2224 2606 1813 2195 1099 1791 2161 2350 2007 2312 2774 2900 1876 1719 1805 1722 2946 2236 1214 1198 872 1122 1291 2837 2944 2506 3885 2917 1616 2568 1775 1216 2249 2164 2155 2947 1630 2070 2138 2305 1465 1897 1721 1621 1632 2241 1628 2413 2680 2325 1456 2238 1202 2252 1809 2168 2074 1725 1613 1884 1879 1548 2753 3253 2075 1468 2502 1967 2493 1123 1294 1372 2594 2222 1960 1985 2227 1525 1622 942 1547 1461 1980 1555 2070 1630 1979 2072 1812 1654 1892 1640 2245 2229 2246 2150 1998 2313 2926 1893 2338 2154 2076 1832 3392 3200 1307 2309 2660 2517 2732 3083 2233 1884 1463 2053 1105 1889 2153 2321 2510 1885 1815 2481 1883 2235 1808 2238 2824 2510 2170 3169 2078 3282 2563 2589 873 1823 1900 2594 2495 2155 1817 1554 2401 1034 1376 1208 2838 1578 1200 1387 1825 1903 2224 2325 2343 2167 1985 2656 1548 2847 2327 2071 1900 3171 2921 2214 1557 1478 784 1540 2169 2779 1380 1631 1371 3963 2251 1796 1987 2151 1632 1383 1558 1039 1385

Tree=0
num_leaves=44
num_cat=0
split_feature=0 12 26 13 13 13 14 5 27 5 20 10 10 29 26 10 20 10 22 3 13 30 10 22 42 27 0 29 25 29 40 23 13 5 13 23 13 30 1 3 26 34 5
split_gain=1161.52 175.845 150.751 110.208 65.1865 50.6583 50.5345 24.6097 21.598 19.6483 16.9736 11.7384 13.9273 10.2023 8.69022 7.82319 6.96091 6.48103 6.0865 8.47493 5.70225 7.7431 4.98388 4.93527 4.59884 4.52494 4.47821 10.8225 3.97718 4.67534 3.20762 3.55452 2.7812 4.62625 2.51205 2.16418 1.66569 0.734757 0.533112 0.447717 0.088087 0.0413297 0.0273851
threshold=20.050000000000004 16.500000000000004 974.33690000000013 319.50000000000006 142.50000000000003 140.50000000000003 -0.24999999999999997 12.633333333333335 60.437500000000007 16.383333333333336 22.863250500000003 22.519404805509303 7.0582339270485681 0.61107802893320262 977.48206000000016 3.1574956083073276 21.863250500000003 3.221237874565261 97.903440000000018 20.550000000000004 22.500000000000004 0.9399989078230816 5.9200255752954023 95.03704500000002 40.642857142857146 99.354168000000016 26.500000000000004 0.44221233538671734 11.723514000000002 -0.41291810309344068 652.14151100000015 34.758314000000006 256.50000000000006 14.283333333333337 166.50000000000003 51.946101500000005 291.50000000000006 0.98184742652130386 10.950000000000001 40.500000000000007 978.20377000000019 0.6428571428571429 35.166666666666679
decision_type=2 2 2 2 2 2 2 2 2 2 2 2 2 2 2 2 2 2 2 2 2 2 2 2 2 2 2 2 2 2 2 2 2 2 2 2 2 2 2 2 2 2 2
left_child=2 24 4 5 23 11 7 36 15 32 13 12 -3 -7 -10 -9 20 -12 25 -20 -8 -22 26 -1 28 -11 27 -5 30 -30 -2 -32 34 -34 -6 -28 38 40 -4 -31 41 -26 -24
right_child=1 3 6 22 9 10 16 8 14 18 17 -13 -14 -15 -16 -17 -18 -19 19 -21 21 -23 42 -25 37 -27 35 -29 29 39 31 -33 33 -35 -36 -37 -38 -39 -40 -41 -42 -43 -44
leaf_value=20.979449979337137 21.092475092982891 21.133575134308618 20.856149855359948 21.102750103314321 20.835599834697085 21.020550020662863 21.020550020662863 21.082200082651458 20.907524907017109 20.876699876022812 21 21.400725402925858 21.020550020662863 20.928074927679972 20.994862494834283 20.979449979337137 20.979449979337137 20.917799917348542 20.917799917348542 21.020550020662863 21.184950185965782 21.010275010331434 21.184950185965782 21.05137505165716 21.411000413257291 20.907524907017109 21.246600247954373 20.958899958674269 21.041100041325731 21.462375464914452 21.575400578560206 21.472650475245885 20.856149855359948 20.897249896685679 20.835599834697085 21.123300123977188 20.903414887206115 21.842550847177446 20.835599834697085 21.6370506405488 21.832275836846012 21.945300950491767 21.308250309942967
leaf_weight=25 36 58 34 99 80 102 24 41 84 153 24 26 108 36 36 79 25 152 34 21 56 20 41 28 19 30 73 20 20 20 134 275 86 53 595 63 19 19 19 19 34 318 19
leaf_count=25 36 58 34 99 80 102 24 41 84 153 24 26 108 36 36 79 25 152 34 21 56 20 41 28 19 30 73 20 20 20 134 275 86 53 595 63 19 19 19 19 34 318 19
internal_value=21.0006 21.0122 20.9876 21.0053 20.9836 20.9994 20.9978 20.9934 20.9966 20.9825 20.9943 21.0077 21.0057 20.9997 20.9904 21.0027 21.0089 20.9901 20.9877 20.9936 21.0113 21.0141 21.0149 21.0058 21.0185 20.9859 21.0136 21.0107 21.0172 21.0122 21.0179 21.0184 20.9809 20.9836 20.9804 21.0162 20.9829 21.0202 20.981 21.0163 21.0204 21.0205 21.0202
internal_weight=3257 1715 1542 821 1105 506 437 312 240 1052 314 192 166 138 120 120 125 176 238 55 100 76 315 53 894 183 255 119 504 59 445 409 814 139 675 136 72 390 53 39 371 337 60
internal_count=3257 1715 1542 821 1105 506 437 312 240 1052 314 192 166 138 120 120 125 176 238 55 100 76 315 53 894 183 255 119 504 59 445 409 814 139 675 136 72 390 53 39 371 337 60
is_linear=0
shrinkage=1


Tree=1
num_leaves=40
num_cat=0
split_feature=5 12 17 17 35 35 5 9 21 17 1 17 4 35 8 9 8 21 1 8 8 25 20 8 5 17 4 8 12 5 21 17 9 19 26 35 17 5 0
split_gain=1117.93 203.96 121.34 112.197 72.6336 56.5503 40.7039 17.6048 15.2453 14.061 12.0546 10.724 14.4611 10.3234 10.5155 9.47637 8.4261 15.9008 8.03918 6.65713 6.42821 6.19322 7.63566 7.32947 6.10727 7.3322 6.41058 5.07672 4.64314 4.30946 4.10139 3.90261 3.83631 3.20324 1.81468 1.20656 0.981084 1.00963 0.413456
threshold=20.083333333333336 16.500000000000004 0.64532420896511999 0.708600430106059 0.17857142857142852 0.39285714285714285 16.683333333333337 2.5727509827108022 25.557000500000004 -0.69637622559687229 26.500000000000004 -0.2925894974583354 18.800000000000004 2.6071428571428577 51.20000000000001 3.6709931185144562 15.183333333333335 25.990627500000006 30.250000000000004 20.650000000000002 21.150000000000002 11.723514000000002 16.463250000000006 27.216666666666672 25.166666666666668 0.98662138620987927 13.850000000000003 22.133333333333336 22.500000000000004 17.966666666666672 26.235125000000004 -0.12447465306484824 4.3861253103493096 25.563250000000004 971.1337000000002 0.32142857142857145 -0.26781430516217447 44.500000000000007 52.500000000000007
decision_type=2 2 2 2 2 2 2 2 2 2 2 2 2 2 2 2 2 2 2 2 2 2 2 2 2 2 2 2 2 2 2 2 2 2 2 2 2 2 2
left_child=2 18 4 5 6 8 11 20 10 -6 -3 28 -13 14 -7 -10 31 -18 21 -9 -4 22 23 -2 25 26 -5 -26 -1 30 -11 -8 -21 -29 -20 -24 -36 -38 -15
right_child=1 3 7 24 9 13 16 19 15 29 -12 12 -14 38 -16 -17 17 -19 34 32 -22 -23 35 -25 27 -27 -28 33 -30 -31 -32 -33 -34 -35 36 -37 37 -39 -40
leaf_value=-0.1610217385089629 0.018649655591265791 0.020127717313620383 0.020338868988242415 0.023364857407737784 -0.089941272887425358 0.12055515220710011 -0.13557361777536611 0.096950870106351547 -0.03919967625413031 0.14279438626694124 -0.041522344674973177 -0.12139975890558838 -0.03919967625413031 0.41057810990804622 -0.041522344674973177 -0.084945054421545083 0.001689213396976623 -0.12076630388172215 0.31866505022397251 0.031247334343540916 -0.059432969405061709 0.020127717313620383 0.20043256643771529 0.2446998828827755 0.078399352508260661 0.0082690694225224792 0.10063858656810183 0.21070757676914759 -0.1610217385089629 0.019810989801687259 0.082622386000702208 -0.082358446407424624 0.090785879585913679 0.20043256643771531 0.46293749821326824 0.54302606411850562 0.47307277859512809 0.7917378288191006 0.28495531751001624
leaf_weight=31 22 92 19 20 24 74 46 33 73 21 56 233 43 19 39 163 84 87 34 36 22 19 42 27 20 24 88 30 697 26 19 26 26 148 23 76 171 505 19
leaf_count=31 22 92 19 20 24 74 46 33 73 21 56 233 43 19 39 163 84 87 34 36 22 19 42 27 20 24 88 30 697 26 19 26 26 148 23 76 171 505 19
internal_value=0.000498448 0.0114384 -0.0127513 0.00427626 -0.0146324 -0.00153642 -0.0159191 0.00574152 -0.00572604 0.00319632 -0.000555352 -0.0177457 -0.0142952 0.00911766 0.00600083 -0.00896851 -0.00837191 -0.00588828 0.0181795 0.0105985 -0.00551215 0.0143622 0.015627 0.00880549 0.0136996 0.0102743 0.0125573 0.0159826 -0.0190537 0.00809432 0.0123272 -0.014269 0.00662804 0.0170857 0.019148 0.0184588 0.0193738 0.0195162 0.0183825
internal_weight=3257 1784 1473 865 1337 535 1247 136 384 90 148 1004 276 151 113 236 243 171 919 95 41 186 167 49 330 132 108 198 728 66 40 72 62 178 733 118 699 676 38
internal_count=3257 1784 1473 865 1337 535 1247 136 384 90 148 1004 276 151 113 236 243 171 919 95 41 186 167 49 330 132 108 198 728 66 40 72 62 178 733 118 699 676 38
is_linear=0
shrinkage=0.02055


Tree=2
num_leaves=45
num_cat=0
split_feature=0 12 26 12 16 16 13 0 20 26 1 27 20 10 8 1 8 27 17 24 12 34 23 42 2 20 8 10 2 26 23 16 24 10 17 13 20 8 23 13 0 12 1 0
split_gain=1123.44 174.335 140.098 95.6567 64.0949 51.3175 36.8889 18.8152 17.2179 16.7499 16.2774 14.2107 15.5211 12.9949 14.8217 11.763 10.7808 11.4977 10.6921 9.40844 5.98098 5.6273 6.3779 5.76166 6.20167 5.59938 5.00785 5.00294 4.54459 5.1834 4.40466 5.38172 3.03067 1.94839 3.66965 1.56755 0.974257 0.47922 0.169679 0.131061 0.11345 0.096935 0.0610609 0.120769
threshold=20.050000000000004 16.500000000000004 974.33690000000013 46.500000000000007 0.63209755774300602 -0.74981945761428159 140.50000000000003 15.950000000000001 22.563250000000004 975.4073350000001 10.950000000000001 63.416666000000006 21.313250000000004 22.519404805509303 24.828333333333337 23.950000000000003 19.993333333333336 99.354168000000016 -0.88603780069526494 5.8000003500000004 37.500000000000007 2.5000000000000004 32.523088500000007 40.642857142857146 36.500000000000007 15.363250000000003 20.650000000000002 5.9200255752954023 31.400000000000002 975.21833000000004 44.356170500000005 -0.15855791680139866 2.1000000500000007 2.7305757554141579 -0.31719128858910595 170.50000000000003 22.988250500000003 44.150000000000006 46.482332000000007 346.50000000000006 11.350000000000003 50.500000000000007 113.00000000000001 102.50000000000001
decision_type=2 2 2 2 2 2 2 2 2 2 2 2 2 2 2 2 2 2 2 2 2 2 2 2 2 2 2 2 2 2 2 2 2 2 2 2 2 2 2 2 2 2 2 2
left_child=2 21 4 6 7 10 13 33 15 -7 40 12 -12 14 -3 -8 20 -18 -10 -13 -9 22 23 24 -2 -11 -27 30 29 -24 41 -32 -6 35 -35 -1 -30 -25 42 -29 -4 -5 -23 -44
right_child=1 3 5 27 32 9 8 16 18 25 11 19 -14 -15 -16 -17 17 -19 -20 -21 -22 38 28 37 -26 26 -28 39 36 -31 31 -33 -34 34 -36 -37 -38 -39 -40 -41 -42 -43 43 -45
leaf_value=-0.11661269712970429 0.38801672264034465 0.15006410654294763 -0.12860989200046846 0.19836444140425932 0.03006213469109888 -0.031757856844990225 0.040488282158245258 -0.13716271779256881 -0.017115184642316979 0.22583039727433465 -0.05117962947841645 -0.099574149852438398 0.042752371766855576 0.38869843581495261 0.02098100235466167 -0.031027504326365869 -0.10296993333149763 0.02203676072777205 -0.080924494261172653 -0.056440696863465249 -0.03655927215383048 0.91471579958842719 0.23472658756482101 0.37530423045025507 0.30085712987784402 0.087598030588848241 0.039962572557328248 0.17449674234531229 0.52886735212292235 0.24534201624919469 0.12149376895137054 0.057313605789380107 0.062339926239054093 -0.15771273845543332 -0.15771273845543332 -0.15771273845543332 0.27262554886098206 0.83067897171659222 1.2830292813136974 0.29779686632249941 -0.076749191652772331 0.38126385902168997 0.95070480901046173 1.5877554495592618
leaf_weight=20 39 34 26 19 22 36 68 154 62 21 32 60 60 26 126 68 125 23 130 51 24 285 28 19 39 36 96 19 241 121 162 51 25 295 72 345 28 26 19 37 19 19 19 30
leaf_count=20 39 34 26 19 22 36 68 154 62 21 32 60 60 26 126 68 125 23 130 51 24 285 28 19 39 36 96 19 241 121 162 51 25 295 72 345 28 26 19 37 19 19 19 30
internal_value=0.000574161 0.0120184 -0.012154 0.00518125 -0.0160493 -0.00230418 -0.000239873 -0.0170925 -0.00438555 0.00576242 -0.00845171 -0.00597239 0 0.00707062 0.00488034 0.00120872 -0.0129852 -0.00888594 -0.00834804 -0.0109221 -0.016393 0.0182971 0.0169791 0.0128637 0.0094835 0.00872987 0.00716086 0.0142574 0.0181898 0.0153081 0.0130173 0.0118664 0.00743151 -0.0189215 -0.0178618 -0.0199865 0.0197854 0.0187196 0.0203166 0.0198129 -0.0196327 0.0194638 0.0204264 0.0197076
internal_weight=3257 1715 1542 821 1105 437 514 1058 328 189 248 203 92 186 160 136 326 148 192 111 178 894 541 123 78 153 132 307 418 149 251 213 47 732 367 365 269 45 353 56 45 38 334 49
internal_count=3257 1715 1542 821 1105 437 514 1058 328 189 248 203 92 186 160 136 326 148 192 111 178 894 541 123 78 153 132 307 418 149 251 213 47 732 367 365 269 45 353 56 45 38 334 49
is_linear=0
shrinkage=0.02055


Tree=3
num_leaves=39
num_cat=0
split_feature=6 13 13 26 35 13 6 10 6 6 13 4 35 21 1 25 26 19 4 10 13 4 25 35 6 23 10 13 34 23 10 10 10 30 8 7 26 30
split_gain=1132.27 221.722 126.776 79.3044 55.0367 40.6878 36.466 26.201 22.134 21.7209 15.2989 14.3391 12.7946 12.25 10.878 10.7671 9.63214 8.00467 7.94473 7.66076 9.152 4.62908 4.52768 4.43672 6.23009 4.38256 3.54802 6.62354 2.30681 9.38005 2.12486 2.00606 1.65176 1.17497 1.10574 1.0508 0.592826 0.228479
threshold=20.028571428571432 110.50000000000001 321.50000000000006 974.33690000000013 0.39285714285714285 148.50000000000003 14.578571428571431 3.2037066444583835 21.785714285714288 18.87857142857143 279.50000000000006 12.850000000000003 3.3214285714285716 25.990627500000006 16.950000000000003 5.4059930000000014 977.12211500000001 29.513250000000003 104.50000000000001 4.0708019567926472 6.5000000000000009 37.500000000000007 7.5385101000000008 0.10714285714285711 13.871428571428574 49.624018000000014 5.9200255752954023 355.50000000000006 2.5000000000000004 32.523088500000007 4.0164496924362814 2.7148347395845298 4.365197023612839 0.95518706842934764 14.746666666666668 28.321428571428573 976.92617500000017 0.79999873441644254
decision_type=2 2 2 2 2 2 2 2 2 2 2 2 2 2 2 2 2 2 2 2 2 2 2 2 2 2 2 2 2 2 2 2 2 2 2 2 2 2
left_child=3 19 4 5 8 21 15 16 13 23 -10 34 18 -3 -13 -5 -8 -11 -6 -2 22 -1 -21 31 -25 32 27 -27 29 -22 36 -7 -4 -34 -9 -28 -17 -30
right_child=1 2 25 6 12 9 7 11 10 17 -12 14 -14 -15 -16 30 -18 -19 -20 20 28 -23 -24 24 -26 26 35 -29 37 -31 -32 -33 33 -35 -36 -37 -38 -39
leaf_value=0.046934004792051794 0.16036192529596255 0.021618618209685636 0.10313798320997083 -0.012630575477979899 0.05998453569351879 -0.13510246857113126 0.053336729439254806 -0.12291927181340163 -0.097473481034408838 0.02054554773649896 -0.017430403976901394 0.038580454006930984 0.43418272668525637 -0.035610029113983165 -0.02803448137967306 -0.11617759442151263 0.10014761442393878 -0.077677401816285893 0.22271935304147897 0.13373623695309902 0.48195603489324784 -0.018263328745171416 0.16428590738394575 -0.17502175908424172 -0.11337169709564818 0.099058807993629872 0.12083307060118094 0.016350681827331463 0.96217037812375084 0.47780360200632382 -0.094830658129437972 -0.15447173842137721 0.24154046892114103 0.1744700349541535 -0.038820441376185705 0.26085210357193894 -0.11677427952261629 0.85642633972584947
leaf_weight=23 34 63 26 21 128 438 36 22 222 20 126 48 30 56 56 47 37 23 23 26 120 28 24 27 23 140 19 29 299 363 32 438 69 30 19 24 19 49
leaf_count=23 34 63 26 21 128 438 36 22 222 20 126 48 30 56 56 47 37 23 23 26 120 28 24 27 23 140 19 29 299 363 32 438 69 30 19 24 19 49
internal_value=0.000511067 0.0107509 0.00398479 -0.0138261 -0.00133192 -0.0166816 -0.00518309 -0.000188511 -0.00506039 -0.0176232 -0.00767653 -0.00524345 0.0082877 0.00259012 -0.00118545 -0.0143321 0.0098515 -0.00334459 0.00585163 0.0180344 0.0184039 0.00120855 0.00986219 -0.0182862 -0.0123278 0.0142078 0.012407 0.0110648 0.0189177 0.0179969 -0.0171933 -0.0186262 0.0172608 0.0184726 -0.0155344 0.0176788 -0.0193019 0.0201952
internal_weight=3257 1900 985 1357 648 1020 337 218 467 969 348 145 181 119 104 119 73 43 151 915 881 51 50 926 50 337 212 169 831 483 98 876 125 99 41 43 66 348
internal_count=3257 1900 985 1357 648 1020 337 218 467 969 348 145 181 119 104 119 73 43 151 915 881 51 50 926 50 337 212 169 831 483 98 876 125 99 41 43 66 348
is_linear=0
shrinkage=0.02055


Tree=4
num_leaves=48
num_cat=0
split_feature=0 12 26 12 4 12 35 12 0 35 8 23 19 19 9 26 35 8 14 8 4 42 17 25 12 8 9 40 29 19 26 25 40 8 23 41 0 34 9 19 12 17 8 2 34 1 1
split_gain=1103.23 167.186 136.685 96.7148 56.342 48.6451 39.5174 22.5593 21.3939 15.3336 14.2228 14.2579 13.203 10.7025 10.6981 10.4478 9.97688 11.2765 9.64586 7.58383 7.35188 6.86037 6.51403 6.25791 5.98098 5.47538 4.65067 7.74742 4.63577 3.8725 5.10069 3.4333 3.33834 4.59456 3.36084 2.67311 2.56823 2.24165 1.93784 2.58746 1.7657 1.15916 0.331422 0.617779 0.798964 0.0825657 0.096935
threshold=20.050000000000004 16.500000000000004 974.33690000000013 46.500000000000007 17.950000000000003 20.500000000000004 0.39285714285714285 44.500000000000007 15.950000000000001 0.17857142857142852 19.993333333333336 73.64096050000002 26.563250000000004 29.113250500000003 2.4102953780628726 976.92617500000017 3.3214285714285716 38.033333333333339 -0.24999999999999997 21.783333333333335 24.500000000000004 40.642857142857146 0.93225468035816139 11.723514000000002 37.500000000000007 16.283333333333335 2.4299715851735804 694.54775000000006 -0.41291810309344068 28.063250000000004 976.92617500000017 7.1593725000000008 683.92825000000016 24.083333333333336 35.387069500000003 143.49374050000003 24.300000000000004 1.0000000180025095e-35 3.5321651258371065 30.713250500000004 10.500000000000002 -0.2925894974583354 43.083333333333343 54.500000000000007 2.5000000000000004 113.00000000000001 130.00000000000003
decision_type=2 2 2 2 2 2 2 2 2 2 2 2 2 2 2 2 2 2 2 2 2 2 2 2 2 2 2 2 2 2 2 2 2 2 2 2 2 2 2 2 2 2 2 2 2 2 2
left_child=2 21 5 6 7 35 12 9 38 25 24 -12 -3 31 -14 18 17 -8 19 -6 -20 23 37 32 -10 -4 27 -5 -25 30 -28 -9 33 -2 -34 -1 -31 -17 41 -40 -30 -7 43 -23 -45 -44 -47
right_child=1 3 4 26 15 8 16 13 10 -11 11 -13 14 -15 -16 22 -18 -19 20 -21 -22 42 -24 28 -26 -27 29 -29 40 36 -32 -33 34 -35 -36 -37 -38 -39 39 -41 -42 -43 45 44 -46 46 -48
leaf_value=0.0091747938313181086 0.030398563151627228 0.01843779422106169 -0.11097893963807563 0.10427119828511869 0.03693703182535283 -0.15169537990063647 0.15851027737578324 0.019540123876330834 -0.1315676625870161 0.030055897219894136 -0.094886712086996838 0.0094986770785541724 0.034738621456588278 -0.041782907872810984 -0.047767771639191929 0.05411032932327315 0.40054945605460862 0.015986462964879603 -0.0018479442938358417 -0.062010096518420849 0.12694747224027433 0.58299001725454602 0.036047568037008502 0.020046798459435831 -0.033254903736329819 -0.069733921520103243 0.084523514744704181 -0.0078904738317687427 0.58700189907236555 0.10651382595304083 0.16099472877834484 0.061499262100332068 0.52942789789612155 0.19207144520023314 0.43273701415130922 0.063061921516058508 0.18932438640737681 0.38058545643152247 -0.13074732034212477 -0.17657090436639739 0.52727934203360927 -0.13198385619092184 0.8769686606967031 0.31356591274238332 0.79097691475958065 0.89830378056280391 1.8847047723803008
leaf_weight=32 21 20 104 26 19 492 46 25 154 22 113 31 28 23 320 29 25 75 19 21 36 57 36 20 24 60 19 21 20 26 132 19 141 28 255 19 83 24 102 52 19 86 242 19 34 19 19
leaf_count=32 21 20 104 26 19 492 46 25 154 22 113 31 28 23 320 29 25 75 19 21 36 57 36 20 24 60 19 21 20 26 132 19 141 28 255 19 83 24 102 52 19 86 242 19 34 19 19
internal_value=0.000485829 0.0118267 -0.0121274 0.00513119 -0.00239823 -0.015975 -0.000319833 -0.0086908 -0.0169234 -0.0123736 -0.0125084 -0.00770576 -0.00390887 0.00153333 -0.00484211 0.00625403 0.00872617 0.0062834 0.00151404 -0.00616356 0.00709789 0.0179753 0.0113129 0.0163908 -0.016393 -0.0145346 0.0142574 0.00830581 0.0100993 0.0153329 0.0132002 0.00747115 0.0172247 0.01216 0.0178511 0.00362578 0.0182861 0.0158945 -0.0188654 -0.0168127 0.0142236 -0.019412 0.0200226 0.0190539 0.0174451 0.0204026 0.0194638
internal_weight=3257 1715 1542 821 437 1105 514 253 1054 186 322 144 368 67 348 184 146 121 95 40 55 894 89 504 178 164 307 47 59 260 151 44 445 49 396 51 109 53 732 154 39 578 390 110 53 280 38
internal_count=3257 1715 1542 821 437 1105 514 253 1054 186 322 144 368 67 348 184 146 121 95 40 55 894 89 504 178 164 307 47 59 260 151 44 445 49 396 51 109 53 732 154 39 578 390 110 53 280 38
is_linear=0
shrinkage=0.02055


Tree=5
num_leaves=38
num_cat=0
split_feature=6 12 12 26 12 16 11 5 10 9 6 44 34 6 16 10 10 5 10 43 9 26 6 10 16 8 12 5 5 26 26 34 27 5 30 4 8
split_gain=1124.1 229.29 104.681 85.6724 46.3827 39.9419 30.3187 25.1496 20.9266 20.6762 15.1566 11.451 10.7783 10.4275 9.03241 8.67343 14.3663 8.32133 7.89666 12.0941 6.8975 6.00675 9.95028 5.69294 7.18167 5.17696 4.93978 4.52249 4.23175 3.69577 2.9317 2.82661 2.369 2.16003 1.38302 3.20894 0.562253
threshold=19.928571428571434 16.500000000000004 46.500000000000007 976.88590000000011 20.500000000000004 0.64534213713577271 9.5000000000000018 15.700000000000001 4.0328322880745882 3.6968455021352002 14.578571428571431 887.93702184538756 0.21428571428571427 18.721428571428579 -0.7721494341254892 23.153868817640411 14.875674883346901 26.166666666666668 3.1574956083073276 1.0000000180025095e-35 1.999999999999541 971.32020000000011 71.357142857142875 4.0471126595559292 0.11593352601052391 34.416666666666671 36.500000000000007 21.383333333333336 13.616666666666669 977.34252000000004 978.05255000000011 0.5 99.979168000000016 23.100000000000005 -0.72631664230934401 88.500000000000014 24.083333333333336
decision_type=2 2 2 2 2 2 2 2 2 2 2 2 2 2 2 2 2 2 2 2 2 2 2 2 2 2 2 2 2 2 2 2 2 2 2 2 2
left_child=3 17 5 4 25 6 9 26 10 -3 -5 -8 13 -9 -10 16 -7 23 30 -20 -4 22 -19 -2 -25 -1 32 29 -28 -22 -12 -29 -6 -26 36 -36 -23
right_child=1 2 20 8 7 15 11 12 14 -11 18 -13 -14 -15 -16 -17 -18 21 19 -21 27 34 -24 24 33 -27 28 31 -30 -31 -32 -33 -34 -35 35 -37 -38
leaf_value=-0.00060710557429396756 0.051138233272882125 0.00056218307732067618 0.071489854623485657 -0.091418253927477294 -0.14857803670921729 0.06940380659898561 0.015968178139530071 -0.11532699733087483 -0.056004655321815415 -0.10868175491166492 0.078377261286600622 -0.038691619922816146 0.12859837072507205 -0.039764744707267166 0.016178169774165599 0.43083664680241002 -0.040188051352679194 0.09800873075034322 -0.02794968504583405 0.07012624632620014 0.036439826339963795 0.57250955867853381 0.51338429795937235 0.027491060398277332 0.26534949530121116 0.1212380703485979 -0.13333594504811311 0.16503634046298415 -0.091103402884417026 0.11443827395781361 0.096204313626142554 0.080180915347020223 -0.10707995648784108 0.25860121764619237 0.55603578079828864 0.24497061012555807 0.70782930929430099
leaf_weight=26 25 67 32 20 569 151 163 259 36 181 19 21 19 50 21 21 46 21 20 20 19 52 23 20 49 20 144 230 77 31 24 28 21 29 463 20 242
leaf_count=26 25 67 32 20 569 151 163 259 36 181 19 21 19 50 21 21 46 21 20 20 19 52 23 20 49 20 144 230 77 31 24 28 21 29 463 20 242
internal_value=0.000570309 0.0106044 0.00369482 -0.0138578 -0.0157636 -0.00113813 -0.00475684 -0.0165806 0.000256842 -0.00944603 0.0057854 0.0015635 -0.0117783 -0.0127021 -0.00973264 0.00603277 0.00469394 0.0178505 0.00965496 0.00308174 0.0129341 0.0185974 0.0112068 0.0128637 0.0150966 0.00446646 -0.0185227 0.0138775 -0.0159 0.00821848 0.0157676 0.0149739 -0.0195048 0.0179133 0.0190158 0.0183373 0.02013
internal_weight=3279 1934 990 1345 1185 650 432 1139 160 248 103 184 328 309 57 218 197 944 83 40 340 821 44 123 98 46 811 308 221 50 43 258 590 78 777 483 294
internal_count=3279 1934 990 1345 1185 650 432 1139 160 248 103 184 328 309 57 218 197 944 83 40 340 821 44 123 98 46 811 308 221 50 43 258 590 78 777 483 294
is_linear=0
shrinkage=0.02055


Tree=6
num_leaves=42
num_cat=0
split_feature=6 12 12 27 16 6 11 19 3 6 13 44 23 28 6 27 19 12 1 41 3 6 23 13 21 27 21 6 23 3 40 40 23 23 13 42 41 28 44 40 6
split_gain=1109.62 223.619 102.89 71.0906 39.9419 30.3908 30.3187 20.9289 20.2289 16.7567 12.4533 11.451 10.3664 9.12352 8.83102 10.4707 9.79309 7.97418 7.95172 7.86378 7.26863 7.08298 5.62387 5.47866 5.38912 5.09501 4.70715 4.48241 4.228 5.77126 3.98664 3.78961 3.78638 3.42526 2.1425 3.7337 3.90492 2.00047 1.45006 1.31928 1.43876
threshold=19.928571428571434 16.500000000000004 46.500000000000007 47.520832000000006 0.64534213713577271 16.485714285714288 9.5000000000000018 29.113250500000003 20.550000000000004 21.642857142857149 148.50000000000003 887.93702184538756 49.624018000000014 3.8040507500000005 18.721428571428579 77.562500000000014 29.363250500000003 36.500000000000007 32.500000000000007 136.82368250000005 71.500000000000014 14.578571428571431 70.171247500000007 4.5000000000000009 24.729165000000005 99.395832000000013 24.034085500000003 21.071428571428573 47.998825000000004 29.500000000000004 514.61526000000003 512.12525850000009 61.834755000000008 47.36654450000001 88.500000000000014 74.071428571428584 862.96683400000018 2.4652529000000003 892.33950051688009 4695.1035000000002 40.500000000000007
decision_type=2 2 2 2 2 2 2 2 2 2 2 2 2 2 2 2 2 2 2 2 2 2 2 2 2 2 2 2 2 2 2 2 2 2 2 2 2 2 2 2 2
left_child=3 18 4 7 6 10 9 19 -6 -3 -5 -8 -9 31 15 16 -7 37 23 26 -10 -19 32 -2 27 -17 -1 -4 29 -25 -15 -14 -16 -29 39 36 -36 -12 -30 40 -20
right_child=1 2 24 5 8 14 11 12 20 -11 17 -13 13 30 22 25 -18 21 34 -21 -22 -23 -24 28 -26 -27 -28 33 38 -31 -32 -33 -34 -35 35 -37 -38 -39 -40 -41 -42
leaf_value=-0.031173718076794255 0.035124848775742387 -0.01346099179498096 0.0078661433387483565 -0.0041330319510317036 -0.077646623921527186 0.062074777710037575 0.015640031748814415 0.051387706598667121 0.083710634511150225 -0.10644834260255383 -0.12497473432193053 -0.037896506333922587 -0.082903602871251439 -0.12497473432193053 -0.0071176454122582273 -0.12555155590578151 -0.15335148617901609 -0.11387944334892854 0.43275945322581 0.05734058009515592 0.01647029815716694 -0.09475537476450123 0.019550803509022264 0.13279183468012773 0.023339527077743588 -0.06916721170665352 0.042337658695857525 0.22325340808238586 0.22149311904765639 0.4358301210798653 -0.04342172316230003 0.036020485004617055 -0.074282334584331408 0.11775032803078438 0.39212368451627544 0.88337550918668328 0.27650521587201288 -0.14552475498479503 0.329757446376996 1.1847965443570438 0.71516696294393445
leaf_weight=23 20 81 20 19 28 23 163 25 151 167 138 21 19 33 19 110 25 192 106 34 39 69 24 51 24 22 19 85 63 88 27 21 19 211 86 67 20 484 19 19 405
leaf_count=23 20 81 20 19 28 23 163 25 151 167 138 21 19 33 19 110 25 192 106 34 39 69 24 51 24 22 19 85 63 88 27 21 19 211 86 67 20 484 19 19 405
internal_value=0.000507638 0.0104768 0.0036533 -0.0138272 -0.00113813 -0.0158076 -0.00475684 -0.00255584 0.00603277 -0.00944603 -0.0175425 0.0015635 -0.00772623 -0.010685 -0.00934056 -0.0116444 -0.0034243 -0.0178967 0.0176328 0.00594795 0.00843591 -0.0148805 -0.00265118 0.01441 0.0128132 -0.0146331 0 0.0135262 0.0153421 0.0131571 -0.0157526 -0.00308174 -0.0075692 0.0141624 0.0187374 0.016748 0.014345 -0.0191621 0.0190443 0.0193865 0.0195845
internal_weight=3279 1934 990 1345 650 1144 432 201 218 248 902 184 125 100 242 180 48 883 944 76 190 261 62 241 340 132 42 316 221 139 60 40 38 296 703 173 106 622 82 530 511
internal_count=3279 1934 990 1345 650 1144 432 201 218 248 902 184 125 100 242 180 48 883 944 76 190 261 62 241 340 132 42 316 221 139 60 40 38 296 703 173 106 622 82 530 511
is_linear=0
shrinkage=0.02055


Tree=7
num_leaves=41
num_cat=0
split_feature=40 13 26 13 13 35 40 21 17 35 35 21 13 3 3 38 40 10 40 13 23 3 13 20 27 13 26 26 40 40 13 21 26 24 26 21 20 30 23 22
split_gain=948.096 192.705 158.598 87.9041 72.8702 51.7529 25.5891 19.4479 15.2129 15.8357 13.9945 13.5933 12.4209 11.7989 10.7808 10.7217 10.002 10.5918 9.2452 8.82606 7.89134 6.61453 7.21851 8.21178 5.62245 4.9953 4.80251 4.74764 5.80958 4.19991 3.83257 3.07625 2.63647 2.20412 2.08081 3.93998 1.74681 1.64686 1.39705 1.38185
threshold=595.80326050000008 110.50000000000001 976.9837500000001 319.50000000000006 142.50000000000003 0.39285714285714285 461.41200000000009 25.595541500000003 0.64532420896511999 0.10714285714285711 3.2500000000000004 26.022623000000003 140.50000000000003 21.900000000000002 20.550000000000004 1.0000000180025095e-35 319.42075000000006 4.0328322880745882 683.92825000000016 285.50000000000006 68.465520000000012 24.300000000000004 358.50000000000006 20.063250000000004 60.437500000000007 124.50000000000001 973.86725000000013 978.05255000000011 414.5625 512.12525850000009 321.50000000000006 25.960124000000004 971.32020000000011 2.4499999000000003 978.05255000000011 22.778125500000005 16.113250500000003 -0.50694302543326353 49.409715000000013 90.783940000000015
decision_type=2 2 2 2 2 2 2 2 2 2 2 2 2 2 2 2 2 2 2 2 2 2 2 2 2 2 2 2 2 2 2 2 2 2 2 2 2 2 2 2
left_child=2 18 4 5 13 7 19 20 9 16 15 14 -9 -1 -8 -7 -4 -18 38 31 -3 22 23 -5 -21 -15 -13 30 -29 -30 -10 -6 -20 36 35 -23 -34 -35 -2 -36
right_child=1 3 8 21 6 10 11 12 27 -11 -12 26 -14 25 -16 -17 17 -19 32 24 -22 34 -24 -25 -26 -27 -28 28 29 -31 -32 -33 33 37 39 -37 -38 -39 -40 -41
leaf_value=-0.035293172435615153 0.057843098009933584 0.022308892699455796 -0.096032081428155877 0.10945023774424312 -0.12419130387929661 0.10581691062376786 -0.074185375577878104 0.0013226555739016103 -0.0082102905103928238 0.12135964253411326 0.42018666560682782 -0.12452691799617752 -0.076992532873968081 0.15186151038994408 -0.0010437919702037388 -0.025257909523788046 0.041467618934840363 -0.035742126556652133 0.44534794589157684 -0.038401059777381397 -0.02015167437269804 0.13252668506376253 -0.017497384668268428 0.034158926094914555 -0.073647354267519727 0.020026269758760564 -0.040451289915079361 0.10926459105314687 0.012872919865706808 0.075811534596928534 0.047657850600832982 -0.14253421826289922 0.31354254753539867 0.55882801529920878 0.14135040315835362 0.1475659693317305 0.63580923925127841 0.53936414670719546 0.17983279169740229 0.24332300845924193
leaf_weight=21 20 81 19 117 391 98 135 58 21 21 35 148 218 27 65 31 37 37 37 21 49 20 21 39 34 23 19 23 21 40 22 402 117 19 19 39 639 24 19 52
leaf_count=21 20 81 19 117 391 98 135 58 21 21 35 148 218 27 65 31 37 37 37 21 49 20 21 39 34 23 19 23 21 40 22 402 117 19 19 39 639 24 19 52
internal_value=0.000545241 0.0108614 -0.011291 0.00405372 -0.014158 -0.000721037 -0.0153405 -0.00465655 0.00400752 -0.00144197 0.00902145 -0.0108067 -0.00774322 0.00607737 -0.00719217 0.00589376 -0.00508174 -0.00166598 0.0176846 -0.0173025 0.00189677 0.0129187 0.0103325 0.0118551 -0.00933935 0.0115059 -0.0151348 0.00889897 0.0117416 0.00842086 0.00334459 -0.0178547 0.0181408 0.0183894 0.0164389 0.0135818 0.018647 0.0138564 0.00790197 0.018811
internal_weight=3279 1752 1527 877 1286 570 1215 406 241 114 164 367 276 71 200 129 93 74 875 848 130 307 177 156 55 50 167 127 84 61 43 793 836 799 130 59 756 43 39 71
internal_count=3279 1752 1527 877 1286 570 1215 406 241 114 164 367 276 71 200 129 93 74 875 848 130 307 177 156 55 50 167 127 84 61 43 793 836 799 130 59 756 43 39 71
is_linear=0
shrinkage=0.02055


Tree=8
num_leaves=40
num_cat=0
split_feature=0 12 5 17 17 27 13 6 35 35 21 3 6 12 8 6 6 30 8 4 2 13 8 7 20 8 8 8 22 20 22 28 5 13 5 5 3 3 1
split_gain=1043.77 167.935 106.6 75.7438 39.9008 37.0189 33.2715 32.2673 27.6078 26.052 18.8121 10.8444 10.2653 10.1659 9.43886 8.39956 7.5795 6.42843 6.19606 15.2071 5.77438 10.194 4.64674 13.5098 7.59056 3.65747 3.08488 2.47493 2.3813 2.15827 3.86659 3.81838 1.9401 1.90264 1.66522 0.795681 0.964708 0.572864 0.157264
threshold=20.550000000000004 16.500000000000004 16.300000000000001 0.708600430106059 0.62541057298524605 60.437500000000007 142.50000000000003 17.028571428571432 0.17857142857142852 3.2500000000000004 26.007000000000005 12.950000000000001 19.071428571428573 36.500000000000007 18.81666666666667 30.500000000000004 41.214285714285722 0.99589333699893634 20.516666666666669 13.850000000000003 29.500000000000004 354.50000000000006 23.31666666666667 25.178571428571434 23.638250500000002 21.716666666666672 32.850000000000009 22.133333333333336 92.730485000000016 20.813250000000004 75.136907500000021 4.9470367500000014 18.083333333333339 164.50000000000003 21.166666666666668 42.833333333333336 45.500000000000007 49.500000000000007 41.500000000000007
decision_type=2 2 2 2 2 2 2 2 2 2 2 2 2 2 2 2 2 2 2 2 2 2 2 2 2 2 2 2 2 2 2 2 2 2 2 2 2 2 2
left_child=2 16 4 7 8 15 26 32 13 11 12 -9 -8 33 -5 18 22 -15 19 -4 21 -16 27 -24 -25 -20 -7 -2 -22 35 37 -32 -3 -1 -12 36 -18 -31 -29
right_child=1 3 5 14 -6 6 10 9 -10 -11 34 -13 -14 17 20 -17 29 -19 25 -21 28 -23 23 24 -26 -27 -28 38 -30 30 31 -33 -34 -35 -36 -37 -38 -39 -40
leaf_value=-0.14223108468206053 0.095042837021989693 -0.12910281956182376 -0.051842683531414524 -0.0038316681935165026 0.019925673353621519 0.013631896149301282 -0.080970574227330089 -0.068474381502644496 0.057397508432538984 0.39302148289024608 -0.11667957489582258 0.0021633350276546739 -0.00094842597758614065 -0.10708531858121006 0.087363805872193986 0.45108924785836746 0.389175551406027 -0.051220766036825072 -0.035690475658234168 0.090452359677381522 0.18179095733523468 0.020723639425472545 -0.0049793483676971503 0.28484002375809997 0.20567735403757514 0.0077094130551895066 0.098102765816810308 0.45136317091934691 0.2470693452931578 0.62887367223227308 0.56523037663252162 0.5910737953934917 -0.094303561144262332 -0.13960513713243142 -0.10524806830242768 0.69277158951831386 0.59397779285692642 0.8072478089500128 0.84415272734851299
leaf_weight=75 19 19 26 21 34 19 84 29 33 28 106 405 87 267 166 22 20 25 19 31 52 43 25 187 26 85 21 69 49 23 76 49 26 569 31 260 19 115 19
leaf_count=75 19 19 26 21 34 19 84 29 33 28 106 405 87 267 166 22 20 25 19 31 52 43 25 187 26 85 21 69 49 23 76 49 26 569 31 260 19 115 19
internal_value=0.000470035 0.0113407 -0.0118959 0.0047083 -0.0158375 -0.00445049 -0.00838513 -0.000283717 -0.0166053 0.00133438 -0.010675 9.46916e-05 -0.00612862 -0.0172566 0.0123545 0.00303181 0.0174685 -0.0140749 0.00140394 0.00684888 0.0132577 0.0113069 0.0150696 0.0134692 0.0151465 -0.00158061 0.00924537 0.0186279 0.017293 0.0189408 0.0175802 0.0149593 -0.0168933 -0.018699 -0.0163489 0.020137 0.0173844 0.0199531 0.0200809
internal_weight=3279 1745 1534 838 1003 531 348 507 969 462 308 434 171 936 331 183 907 292 161 57 310 209 345 238 213 104 40 107 101 562 263 125 45 644 137 299 39 138 88
internal_count=3279 1745 1534 838 1003 531 348 507 969 462 308 434 171 936 331 183 907 292 161 57 310 209 345 238 213 104 40 107 101 562 263 125 45 644 137 299 39 138 88
is_linear=0
shrinkage=0.02055


Tree=9
num_leaves=40
num_cat=0
split_feature=5 12 5 17 17 16 20 35 21 16 3 22 35 12 29 9 4 5 21 13 40 10 10 21 13 28 19 40 44 35 20 35 23 28 1 5 13 10 17
split_gain=1028.76 181.888 92.9196 76.075 42.3201 33.7555 28.14 26.2833 23.3604 23.1123 20.9024 15.2845 12.0745 11.4181 10.4624 9.29919 9.28458 8.70058 9.16479 8.52203 7.2866 6.93924 6.59514 6.29759 6.75934 5.8586 10.9814 5.3117 5.14156 5.03782 4.64006 7.93799 3.77038 4.29803 1.91642 4.21074 1.91212 1.88373 1.08904
threshold=20.383333333333336 16.500000000000004 16.300000000000001 0.708600430106059 0.62541057298524605 0.64534213713577271 22.913250000000001 0.17857142857142852 25.595541500000003 0.64534213713577271 20.550000000000004 97.907540000000012 3.2500000000000004 36.500000000000007 -0.067912813011885537 2.3704530408865989 28.450000000000003 26.166666666666668 21.264290000000003 223.50000000000003 836.07500000000016 6.7938628026644627 2.7305757554141579 24.729165000000005 355.50000000000006 3.0295828000000005 29.188250000000004 505.56350000000003 588.78246984709119 0.10714285714285711 23.638250500000002 1.6071428571428574 47.998825000000004 4.5234287500000008 36.500000000000007 32.166666666666679 164.50000000000003 25.058501202829486 0.030119189164198052
decision_type=2 2 2 2 2 2 2 2 2 2 2 2 2 2 2 2 2 2 2 2 2 2 2 2 2 2 2 2 2 2 2 2 2 2 2 2 2 2 2
left_child=2 17 4 5 7 8 14 13 16 11 -7 29 -12 36 15 -4 -3 18 -2 -13 -10 23 -15 24 -5 28 -27 -17 -16 -8 34 -32 33 -20 35 -19 -1 -33 -36
right_child=1 3 6 21 -6 10 9 -9 20 -11 12 19 -14 22 25 27 -18 30 32 -21 -22 -23 -24 -25 -26 26 -28 -29 -30 -31 31 37 -34 -35 38 -37 -38 -39 -40
leaf_value=-0.13930823295294259 0.010149503386249113 0.0040356907740210371 -0.027340497221691778 0.1351096946435473 0.020457097268420488 -0.13782522475971115 -0.10418737703782466 0.031073207232680831 -0.090311517405899072 0.023377905705295066 0.051392480938440149 0.046459920826192332 0.38494488329590187 -0.10787986377930835 -0.016339599689343863 0.012574850047202577 -0.029094555860763534 0.31796751386429539 0.065895941806415781 -0.081837558659724585 -0.027058825021391106 0.23458067137857228 -0.098888543846031185 0.0057115887703241778 0.053375153661606473 0.058698958300475328 -0.041103816517029462 0.084022822147124462 -0.042267431713197308 -0.083444494001111813 0.18463145114440543 0.70147178143716804 0.16178063716461077 0.46587466738589534 0.70375824885132887 0.3462226357432876 -0.1367362486797179 0.30325551200611711 0.63650032593643291
leaf_weight=75 25 126 31 198 35 22 158 34 128 23 151 19 28 93 24 20 22 81 29 19 47 34 200 28 76 42 59 38 28 21 33 54 32 21 80 88 572 28 457
leaf_count=75 25 126 31 198 35 22 158 34 128 23 151 19 28 93 24 20 22 81 29 19 47 34 200 28 76 42 59 38 28 21 33 54 32 21 80 88 572 28 457
internal_value=0.000407363 0.0109186 -0.0121976 0.00410996 -0.0157433 -0.000784333 -0.00477501 -0.0165411 -0.00489878 -0.00976088 0.00582734 -0.0118371 0.0081507 -0.0171831 0.000169816 0.00577187 0.00111072 0.0172282 0.0117144 0 -0.00998091 0.0117425 -0.0138165 0.010751 0.0116996 -0.00308902 -0.000203417 0.0106276 -0.00869269 -0.0143498 0.0179467 0.0141158 0.0150349 0.0115059 0.0185705 0.016658 -0.0187076 0.0175408 0.019172
internal_weight=3279 1788 1491 860 1009 524 482 974 323 240 201 217 179 940 242 89 148 928 107 38 175 336 293 302 274 153 101 58 52 179 821 115 82 50 706 169 647 82 537
internal_count=3279 1788 1491 860 1009 524 482 974 323 240 201 217 179 940 242 89 148 928 107 38 175 336 293 302 274 153 101 58 52 179 821 115 82 50 706 169 647 82 537
is_linear=0
shrinkage=0.02055


Tree=10
num_leaves=40
num_cat=0
split_feature=0 26 12 16 12 8 35 26 0 20 8 14 12 26 34 19 4 2 30 13 8 8 23 30 13 35 26 9 13 16 35 40 20 13 20 9 8 44 4
split_gain=990.106 148.988 148.322 76.7357 63.2643 47.249 35.6215 25.7994 19.8764 19.0906 16.9663 13.646 11.6696 11.2692 9.7051 12.547 7.49979 7.37381 7.33372 7.18691 7.16727 6.82901 5.54265 5.43621 5.76104 3.97846 5.44728 3.91011 3.87949 3.74603 3.41825 3.036 2.71683 2.37479 5.35868 1.87694 1.36805 1.33217 0.44439
threshold=20.550000000000004 974.45675000000017 16.500000000000004 0.64534213713577271 46.500000000000007 14.868333333333334 0.4642857142857143 977.96452500000009 15.950000000000001 17.263250000000003 15.250000000000002 -0.93301270189221919 24.500000000000004 974.90910000000008 0.5 34.988250000000008 15.850000000000003 27.500000000000004 -0.98456270020642422 357.50000000000006 33.083333333333343 19.383333333333336 63.414831500000005 -0.11043002133301223 293.50000000000006 0.39285714285714285 979.09955000000002 3.0332223354001582 4.5000000000000009 0.99906486341235878 0.17857142857142852 517.70000000000016 14.113250000000003 166.50000000000003 23.613250500000003 1.8898223650430526 28.250000000000004 1078.3319614167142 13.850000000000003
decision_type=2 2 2 2 2 2 2 2 2 2 2 2 2 2 2 2 2 2 2 2 2 2 2 2 2 2 2 2 2 2 2 2 2 2 2 2 2 2 2
left_child=1 3 14 8 6 23 10 9 33 -7 -4 -11 -12 20 15 28 31 19 -18 21 -8 -6 -5 38 -25 26 -9 -19 -2 32 -30 -10 -16 34 -1 -35 -29 -34 -3
right_child=2 5 4 22 17 7 13 25 16 11 12 -13 -14 -15 29 -17 18 27 -20 -21 -22 -23 -24 24 -26 -27 -28 36 30 -31 -32 -33 37 35 -36 -37 -38 -39 -40
leaf_value=-0.11422090197961096 0.077920976386149976 -0.13854776054236881 -0.13427392560800572 0.070622188396390242 0.0045501737891024095 0.080122237338315208 0.17168886582787687 0.063305749979280027 -0.10285255145232029 -0.12485113704505676 -0.042796180052594453 -0.0061047173947494544 0.0054498290152308407 -0.039767914468451904 0.19512538647749592 -0.010667137286659465 -0.10506678374843506 0.13079256083353122 -0.060828482269793184 -0.0075080220898910187 0.1343520131103931 0.09824428147427379 0.065212838684105823 -0.048038391815354423 -0.099854872948220319 0.62459597122267363 0.039083371678618285 0.23378024654894031 0.22217518735705608 0.67830847573775477 0.34977537122522606 -0.12114091918362509 0.63668128947119451 -0.13390177587942179 -0.14024939255314273 -0.13430326321358732 0.22886109581466088 0.59783078492215613 -0.079432952842346097
leaf_weight=29 25 22 32 25 20 26 29 39 77 21 130 175 231 19 24 20 32 31 137 23 103 158 21 36 32 19 35 53 74 32 108 75 560 272 61 392 41 40 19
leaf_count=29 25 22 32 25 20 26 29 39 77 21 130 175 231 19 24 20 32 31 137 23 103 158 21 36 32 19 35 53 74 32 108 75 560 272 61 392 41 40 19
internal_value=0.000648027 -0.0113457 0.0112186 -0.0152703 0.0051965 -0.000969313 0.000906598 0.0030661 -0.0163825 -0.000740498 -0.00235299 -0.00293557 -0.00108154 0.00938983 0.017152 0.0134882 -0.0120992 0.0123549 -0.00911933 0.00991672 0.0115197 0.0113135 0.0107196 -0.0126306 -0.00906495 0.012152 0.00999606 0.0162744 0.0149899 0.0184196 0.0160327 -0.0154116 0.0187714 -0.0182059 -0.0150685 -0.0186309 0.0183621 0.0190427 -0.018541
internal_weight=3298 1545 1753 1121 870 424 544 315 1075 222 393 196 361 151 883 227 321 326 169 201 132 178 46 109 68 93 74 125 207 656 182 152 624 754 90 664 94 600 41
internal_count=3298 1545 1753 1121 870 424 544 315 1075 222 393 196 361 151 883 227 321 326 169 201 132 178 46 109 68 93 74 125 207 656 182 152 624 754 90 664 94 600 41
is_linear=0
shrinkage=0.02055


Tree=11
num_leaves=41
num_cat=0
split_feature=5 12 20 12 35 16 16 20 7 13 5 35 34 10 19 7 5 22 7 34 2 13 41 21 13 9 2 22 16 5 16 20 22 41 13 20 16 10 42 20
split_gain=963.565 197.94 106.969 76.8604 49.0378 48.6307 37.8763 22.9995 17.2828 15.9353 13.4449 12.8962 12.2499 11.5318 11.3856 10.6652 10.5906 9.23127 8.80279 9.82302 7.61345 7.2041 6.95744 6.07948 6.6399 6.07165 5.65931 5.46655 7.84421 5.24713 5.2043 5.06056 4.03628 7.48483 3.42626 3.32586 3.23549 2.65084 2.19801 1.81086
threshold=19.166666666666668 16.500000000000004 21.813250000000004 46.500000000000007 0.17857142857142852 0.64534213713577271 -0.7721494341254892 22.738250500000003 18.250000000000004 274.50000000000006 16.300000000000001 3.3214285714285716 0.5 5.9798195422807021 34.988250000000008 21.678571428571434 11.633333333333335 96.390662500000005 25.178571428571434 1.0000000180025095e-35 27.500000000000004 299.50000000000006 96.102120500000012 24.729165000000005 355.50000000000006 3.9618700715150825 21.900000000000002 93.612300000000019 -0.14153898451656974 14.716666666666667 0.99965739133362408 22.588250000000006 95.731920000000017 123.09393695000001 4.5000000000000009 14.113250000000003 0.53436760985011655 3.6359012550001597 139.78571428571431 20.163250000000001
decision_type=2 2 2 2 2 2 2 2 2 2 2 2 2 2 2 2 2 2 2 2 2 2 2 2 2 2 2 2 2 2 2 2 2 2 2 2 2 2 2 2
left_child=2 12 6 5 9 7 16 15 -9 10 36 13 14 -7 18 -3 -1 -18 19 -2 23 -19 37 24 -5 -6 -12 28 -22 -8 35 -24 33 -31 -20 -14 -4 -11 -37 -34
right_child=1 3 4 20 25 11 29 8 -10 22 26 -13 30 -15 -16 -17 17 21 34 -21 27 -23 31 -25 -26 -27 -28 -29 -30 32 -32 -33 39 -35 -36 38 -38 -39 -40 -41
leaf_value=-0.13962484727182056 0.1427723170697742 0.021302179423202051 -0.13117463168287075 0.099632668411926459 0.13478010565166948 0.090164464046398662 0.099763843517437376 -0.13267859723142911 -0.04667477137603656 -0.095826688652664707 -0.10488381986749364 0.35574298328848974 0.18972093671912982 0.025168305042497136 -0.010447927395004988 -0.018611590874192997 0.060415899261792319 -0.00061173078908891986 0.10987846907115675 -0.015878380572057021 0.18706399515010691 -0.053960154570368284 0.012613216017840248 -0.01701985692748139 0.0010064746559538288 -0.070739650071373422 -0.018849477322425163 0.24784480292993907 0.093573368589824776 -0.035152443464814505 0.56643410809021477 -0.067669243844381957 0.071041395479204003 0.075684329830208466 0.31421560207282545 0.60967986567195587 -0.097275815169868551 -0.093714357988627983 1.2454426896732442 0.0392696937695367
leaf_weight=22 34 64 792 163 29 50 22 48 200 27 142 27 27 151 20 128 27 23 21 25 43 29 32 23 33 36 19 52 33 20 19 32 20 22 144 610 19 32 19 19
leaf_count=22 34 64 792 163 29 50 22 48 200 27 142 27 27 151 20 128 27 23 21 25 43 29 32 23 33 36 19 52 33 20 19 32 20 22 144 610 19 32 19 19
internal_value=0.000510944 0.00983931 -0.0127156 0.00358357 -0.0151289 -0.000492205 0.00100729 -0.00448354 -0.00861743 -0.0161584 -0.0170403 0.00721024 0.0167484 0.00541841 0.0128012 0.000856195 -0.00793443 -0.00442162 0.0141276 0.00731326 0.0114295 -0.00948294 -0.00918834 0.00910168 0.0102745 0.00221273 -0.0116146 0.0154114 0.0118959 0.00977535 0.0181751 -0.00449464 0.00735657 0.00293502 0.0165636 0.0184822 -0.0181173 -0.0142783 0.0187855 0.0121164
internal_weight=3298 1934 1364 1015 1160 668 204 440 248 1095 972 228 919 201 244 192 101 79 224 59 347 52 123 219 196 65 161 128 76 103 675 64 81 42 165 656 811 59 629 39
internal_count=3298 1934 1364 1015 1160 668 204 440 248 1095 972 228 919 201 244 192 101 79 224 59 347 52 123 219 196 65 161 128 76 103 675 64 81 42 165 656 811 59 629 39
is_linear=0
shrinkage=0.02055


Tree=12
num_leaves=38
num_cat=0
split_feature=6 12 12 26 16 35 5 27 13 6 16 35 8 29 34 6 24 16 8 22 13 12 13 27 13 16 26 5 29 34 35 1 1 1 3 6 26
split_gain=993.512 201.883 87.6421 81.2766 48.1388 42.8808 38.4034 25.0038 24.557 25.8387 14.7046 13.2941 13.6682 13.131 11.7985 10.7156 9.40287 8.36729 7.57214 6.47098 8.56131 6.29435 8.57724 5.74029 5.6186 4.92036 4.34872 3.80644 4.17418 3.00816 8.99167 2.90144 2.83291 2.79825 2.50138 1.68312 0.544136
threshold=18.87857142857143 16.500000000000004 46.500000000000007 974.45675000000017 0.64534213713577271 0.17857142857142852 12.91666666666667 52.833334000000008 273.50000000000006 21.785714285714288 -0.9523687564627995 3.3214285714285716 31.050000000000001 0.62666430414581098 0.5 21.071428571428573 0.45000000000000007 0.56314550935064711 20.116666666666671 86.199628000000004 4.5000000000000009 45.500000000000007 292.50000000000006 65.666668000000016 359.50000000000006 0.99965739133362408 973.93023500000015 14.716666666666667 -0.25663604137360724 2.5000000000000004 2.4642857142857149 12.950000000000001 15.100000000000001 142.00000000000003 16.250000000000004 25.357142857142858 975.36340000000007
decision_type=2 2 2 2 2 2 2 2 2 2 2 2 2 2 2 2 2 2 2 2 2 2 2 2 2 2 2 2 2 2 2 2 2 2 2 2 2
left_child=3 14 4 5 8 17 31 21 9 -3 -9 12 -6 -10 16 -4 19 27 -17 26 -21 22 -8 -12 -20 29 -2 32 -29 30 -16 36 -1 -31 -23 -18 -5
right_child=1 2 15 6 11 -7 7 10 13 -11 23 -13 -14 -15 25 18 35 -19 24 20 -22 34 -24 -25 -26 -27 -28 28 -30 33 -32 -33 -34 -35 -36 -37 -38
leaf_value=-0.1284789902913441 0.13110016602887536 -0.0012128714855519939 0.00026283780807121723 -0.1499135446964894 0.098701138832043456 0.09180324344656407 0.074933034268580737 0.027796916807211663 0.018436739121307083 -0.090385822052775636 -0.06873576369347742 0.34843245763124225 0.020289365362625617 -0.059045169903737107 0.435827950414725 0.010602581963638233 0.049182773552560864 -0.054928738622986507 0.13804901157380406 0.074061693901527864 0.29021864216301013 0.041488361643577346 -0.023564080779140757 -0.068124342978312089 0.075836246436450677 0.55479387546480963 0.23435574126893827 -0.095644172440453562 -0.11277637233475137 0.81630878879543622 0.32932391864969585 -0.10302522399573082 -0.10752268015981939 1.4427796838104732 0.083046588048395459 -0.0039508824415613458 -0.1117927943929362
leaf_weight=585 25 105 30 19 56 31 28 36 157 176 20 27 156 59 279 24 19 20 256 21 117 19 36 41 50 19 49 84 217 313 48 19 57 19 26 19 36
leaf_count=585 25 105 30 19 56 31 28 36 157 176 20 27 156 59 279 24 19 20 256 21 117 19 36 41 50 19 49 84 217 313 48 19 57 19 26 19 36
internal_value=0.000473558 0.0094221 0.00344997 -0.0137429 -0.000614255 -0.0164978 -0.00396308 0.000598504 -0.00425877 -0.00826361 -0.00699057 0.00696438 0.0052342 0.000951336 0.0164753 0.0117589 0.0126583 -0.0172636 0.0128278 0.0143456 0.016975 0.00735213 0.00321045 -0.0131366 0.0136996 0.0178825 0.00944072 -0.0175425 -0.0156339 0.0181798 0.0167789 -0.0166601 -0.0184371 0.0195591 0.0132407 0.0032439 -0.0190523
internal_weight=3298 2024 1096 1274 736 994 280 206 497 281 97 239 212 216 928 360 250 963 330 212 138 109 64 61 306 678 74 943 301 659 327 74 642 332 45 38 55
internal_count=3298 2024 1096 1274 736 994 280 206 497 281 97 239 212 216 928 360 250 963 330 212 138 109 64 61 306 678 74 943 301 659 327 74 642 332 45 38 55
is_linear=0
shrinkage=0.02055


Tree=13
num_leaves=37
num_cat=0
split_feature=6 11 17 26 16 16 6 7 17 34 7 17 8 6 1 16 29 8 8 26 10 3 23 25 16 10 34 29 26 1 1 28 1 3 25 6
split_gain=971.706 181.691 90.2896 78.3278 42.5832 35.4445 31.6955 22.9009 19.9144 17.879 17.1389 16.1627 13.5628 10.5512 10.4917 10.861 10.1911 9.94894 9.92522 9.47594 8.34678 7.9517 6.81429 6.60781 6.42433 6.20682 5.86517 5.28835 5.2606 5.15377 4.72757 5.62925 2.92121 1.71975 0.525676 0.508366
threshold=18.87857142857143 4.5000000000000009 0.708600430106059 974.45675000000017 0.61866567420209762 0.64534213713577271 13.871428571428574 21.392857142857146 0.20088311396693917 3.5000000000000004 19.392857142857146 -0.32533003375364639 14.868333333333334 21.071428571428573 22.850000000000005 0.99466160899732492 0.062903541315420961 41.483333333333341 18.936666666666671 976.88590000000011 17.134967477688424 22.850000000000005 47.36654450000001 9.5076805000000011 -0.92913280730858772 4.1224392651077801 0.21428571428571427 0.062903541315420961 977.91208000000017 11.950000000000001 14.950000000000001 2.5573584000000005 144.50000000000003 8.1000000000000014 6.9387464500000009 12.007142857142858
decision_type=2 2 2 2 2 2 2 2 2 2 2 2 2 2 2 2 2 2 2 2 2 2 2 2 2 2 2 2 2 2 2 2 2 2 2 2
left_child=3 9 5 4 26 7 27 10 -9 11 -3 17 24 -4 28 -16 19 -2 -15 -14 -19 -7 -20 -23 -8 -18 30 35 -13 -29 33 -32 34 -1 -11 -5
right_child=1 2 13 6 -6 21 12 8 -10 32 -12 14 16 18 15 -17 25 20 22 -21 -22 23 -24 -25 -26 -27 -28 29 -30 -31 31 -33 -34 -35 -36 -37
leaf_value=-0.10711842348648627 0.24052297302964831 -0.06620641039535663 0.00025743648568433709 -0.11585227118164503 0.07006482366790899 -0.018160654728800674 -0.033702746512666998 -0.077172049082647756 -0.012982821391744033 0.81181071208605649 0.028703831591637769 0.053645982466239764 0.001647658798284184 -0.0090416192741912434 0.38463071281885963 0.099752455519162425 0.031042743687979754 -0.065674607712235197 0.1791366853075177 0.078471844702590623 0.092076497419167652 0.1050330310391704 0.09169083792455629 0.054436728334026907 -0.085373708093176626 -0.029014350670682153 -0.081198142089997205 -0.13407510000047707 0.15950468649812097 -0.052367029932063061 -0.07504631262216728 -0.11523709746964866 1.7218539608999011 -0.12583874438611298 0.86858084108789413 -0.095413434320325563
leaf_weight=21 19 57 34 30 31 30 23 202 120 27 94 38 25 20 527 41 61 37 88 24 30 54 238 71 26 34 20 19 38 19 79 261 19 582 240 19
leaf_count=21 19 57 34 30 31 30 23 202 120 27 94 38 25 20 527 41 61 37 88 24 30 54 238 71 26 34 20 19 38 19 79 261 19 582 240 19
internal_value=0.000348937 0.00919873 0.00301724 -0.0137107 -0.0164151 -0.00176701 -0.00410986 -0.00456175 -0.00765817 0.0153315 0.00204125 0.0136248 0.000532343 0.0109237 0.0147422 0.0157017 0.00371017 0.0052564 0.0119971 0.0113214 0.00153333 0.00676121 0.0128592 0.00904134 -0.00880549 -0.000216263 -0.0171782 -0.0144071 0.00757013 -0.00865053 -0.0174118 -0.0154725 0.0196872 -0.018505 0.0202415 -0.018869
internal_weight=3298 2024 1008 1274 994 628 280 473 322 1016 151 730 193 380 644 568 144 86 346 49 67 155 326 125 49 95 963 87 76 38 943 340 286 603 267 49
internal_count=3298 2024 1008 1274 994 628 280 473 322 1016 151 730 193 380 644 568 144 86 346 49 67 155 326 125 49 95 963 87 76 38 943 340 286 603 267 49
is_linear=0
shrinkage=0.02055


Tree=14
num_leaves=36
num_cat=0
split_feature=6 12 12 17 35 16 15 9 15 34 35 43 29 41 7 10 6 16 19 20 29 21 21 22 7 10 25 34 16 1 16 1 1 29 34
split_gain=950.54 191.361 77.4613 74.5701 62.6067 45.2883 24.7922 32.7803 20.6507 13.6642 13.633 13.2159 11.5716 11.3588 10.7378 10.0597 9.50353 8.26089 7.60529 7.33162 6.96595 7.49162 7.16123 6.03794 9.72189 5.99779 4.72825 4.71305 12.0573 9.99603 3.77423 2.88279 2.3137 1.13482 0.728189
threshold=18.87857142857143 16.500000000000004 46.500000000000007 0.61864848712698517 0.17857142857142852 0.64534213713577271 0.25000000000000017 3.7796447300926315 0.25000000000000017 0.5 3.3214285714285716 1.0000000180025095e-35 0.62666430414581098 92.262565750000007 16.860714285714291 5.9798195422807021 21.071428571428573 0.56314550935064711 34.713250000000009 21.463250500000004 -0.29609841704310419 23.505207000000002 24.729165000000005 95.888720000000021 18.953571428571433 9.595099481814831 7.7796608000000012 3.785714285714286 0.99466160899732492 62.500000000000007 0.36571913681022039 144.50000000000003 15.100000000000001 -0.06210184795420249 16.500000000000004
decision_type=2 2 2 2 2 2 2 2 2 2 2 2 2 2 2 2 2 2 2 2 2 2 2 2 2 2 2 2 2 2 2 2 2 2 2
left_child=3 9 5 4 8 6 7 -3 17 11 15 18 -8 33 -15 -7 -4 32 25 23 21 -18 -22 24 -5 -2 -6 28 30 -30 -11 34 -1 -10 -29
right_child=1 2 16 19 26 10 12 -9 13 27 -12 -13 -14 14 -16 -17 20 -19 -20 -21 22 -23 -24 -25 -26 -27 -28 31 29 -31 -32 -33 -34 -35 -36
leaf_value=-0.12346022513749354 0.16783910306536645 0.017994033818229616 0.00025214616058418318 0.068822164029718719 0.13179243664357548 0.076970983579520855 0.017874380166517618 -0.078280754544471073 -0.086909222831137514 0.35174717164272057 0.33739703567648577 -0.0015820452606842359 -0.057564993194310334 -0.074964731009454319 0.077514773230751552 0.028457110710308216 0.044871909123936946 -0.053335806329291878 0.042011399533375862 -0.01642406955046475 0.15178357872551612 0.12043835020446982 0.018683311138054555 0.06703931597235771 -0.011272255397709841 0.37848715352471418 0.05371556474031406 0.87615265373864715 0.56181028417164658 -0.021817110616939018 0.47301044611762194 1.6864698264249731 -0.10448814097032726 -0.09266763685585877 1.1893341504395605
leaf_weight=680 149 83 30 21 19 53 157 198 39 47 27 28 59 92 29 159 66 20 19 22 225 19 20 26 19 54 28 224 22 19 327 19 238 41 20
leaf_count=680 149 83 30 21 19 53 157 198 39 47 27 28 59 92 29 159 66 20 19 22 225 19 20 26 19 54 28 224 22 19 327 19 238 41 20
internal_value=0.000324013 0.00907689 0.00326247 -0.0135816 -0.0149359 -0.000558414 -0.00409339 -0.00811736 -0.015895 0.0159438 0.00679242 0.0118364 0.00114161 -0.00991672 -0.00594376 0.00504034 0.0110739 -0.017176 0.0135143 0.00466995 0.0120806 0.00701041 0.0138393 0.00809432 0.00308174 0.0146779 0.00830581 0.0174582 0.016093 0.00551215 0.0172528 0.0196117 -0.0174606 -0.0159245 0.0202124
internal_weight=3298 2024 1096 1274 1186 736 497 281 1139 928 239 250 216 201 121 212 360 938 222 88 330 85 245 66 40 203 47 678 415 41 374 263 918 80 244
internal_count=3298 2024 1096 1274 1186 736 497 281 1139 928 239 250 216 201 121 212 360 938 222 88 330 85 245 66 40 203 47 678 415 41 374 263 918 80 244
is_linear=0
shrinkage=0.02055


Tree=15
num_leaves=43
num_cat=0
split_feature=6 12 12 26 16 16 41 13 9 4 6 26 29 7 8 3 24 34 26 8 7 9 13 29 24 30 16 13 34 42 8 3 7 24 28 29 6 28 24 30 16 41
split_gain=940.24 188.12 88.7597 83.6918 42.0885 31.6248 29.9059 25.1725 18.8215 16.1262 14.2053 13.4455 11.7233 11.0552 11.0026 10.4295 12.0282 10.0347 13.0357 9.2684 8.88533 8.7062 8.26891 7.10611 6.9897 5.99944 5.48075 6.83431 5.34307 5.29659 5.23894 6.00182 4.50188 3.2003 4.76806 1.82785 3.72082 1.46348 1.41968 0.676277 0.544136 0.267525
threshold=19.928571428571434 16.500000000000004 46.500000000000007 974.45675000000017 0.64534213713577271 0.63209755774300602 101.04167200000002 275.50000000000006 3.6968455021352002 19.450000000000003 18.721428571428579 976.92617500000017 0.5055189066869038 23.51071428571429 14.80666666666667 30.500000000000004 0.15000000000000005 3.3571428571428572 971.25098000000014 38.033333333333339 19.892857142857146 3.9787522237014925 356.50000000000006 -0.26037214087424781 1.6500000000000001 -0.22960019970547066 -0.96683886033945943 313.50000000000006 0.35714285714285715 44.214285714285722 14.516666666666667 16.950000000000003 28.928571428571434 13.850000500000002 2.5753666000000002 -0.77875335441220639 79.500000000000014 3.3105999000000002 36.899999000000001 0.78236697881064232 -0.98521098335796131 1331.4857865000004
decision_type=2 2 2 2 2 2 2 2 2 2 2 2 2 2 2 2 2 2 2 2 2 2 2 2 2 2 2 2 2 2 2 2 2 2 2 2 2 2 2 2 2 2
left_child=3 17 4 5 7 10 9 8 -3 30 33 26 14 22 -13 16 -6 18 -2 -17 -12 -9 25 32 29 -4 -8 -28 -26 -20 40 -32 -15 34 -1 36 -19 -25 -35 41 -5 -37
right_child=1 2 13 6 15 -7 11 21 -10 -11 20 12 -14 23 -16 19 -18 35 24 -21 -22 -23 -24 37 28 -27 27 -29 -30 -31 31 -33 -34 38 -36 39 -38 -39 -40 -41 -42 -43
leaf_value=-0.080414854704287358 -0.020966192769326205 -0.0043925542335132807 0.030377072563764863 -0.12937230284350629 -0.14610216707123413 0.044956963406716829 0.065141472067191494 -0.040005045943640731 -0.081273647354312764 0.031186374475430011 -0.10715892931397614 -0.0013400393200135561 -0.028425998202501593 0.10145555178655355 0.080151720802735901 0.12596698095941816 0.030819775278241417 1.1161491684965761 0.27006471346043515 0.084998087836100827 0.020637575660389373 0.035881228225443061 -0.012447790352051753 0.24502011273160759 0.011144520404669497 0.070917677679919397 -0.045286703222152259 0.0056078280352317529 0.31604956492444858 0.50672653051178562 -0.044036235398114604 -0.10381833964772007 0.052073422743131863 -0.12031760651552488 -0.11960083591198353 0.74222077232741412 0.37171523182693 0.14620032967191271 -0.082311426632572071 0.70463152518473016 -0.0930874849738621 1.1672193448191439
leaf_weight=112 23 67 32 19 20 34 23 80 181 28 27 21 30 41 46 39 40 25 461 111 19 102 19 76 22 104 44 29 33 126 37 28 25 205 628 155 21 42 29 35 36 45
leaf_count=112 23 67 32 19 20 34 23 80 181 28 27 21 30 41 46 39 40 25 461 111 19 102 19 76 22 104 44 29 33 126 37 28 25 205 628 155 21 42 29 35 36 45
internal_value=-0.000160933 0.00914872 0.00283373 -0.0130076 -0.00166966 -0.0158706 -0.0041581 -0.00535245 -0.00961175 -0.0111074 -0.0165205 0.00117117 0.0065669 0.0113355 0.011347 0.00587117 -0.00136975 0.0156839 0.0143076 0.00876747 -0.00535977 0.00045161 0.0072915 0.0147417 0.0148521 0.00906557 -0.00428082 -0.00703678 0.00784504 0.0155085 -0.0143839 -0.0104316 0.00933961 -0.0170475 -0.0163843 0.0189405 0.0151861 0.0177622 -0.0191441 0.0196748 -0.0190523 0.0201381
internal_weight=3320 1925 979 1395 640 1054 341 430 248 148 1020 193 97 339 67 210 60 946 665 150 46 182 155 184 642 136 96 73 55 587 120 65 66 974 740 281 46 118 234 235 55 200
internal_count=3320 1925 979 1395 640 1054 341 430 248 148 1020 193 97 339 67 210 60 946 665 150 46 182 155 184 642 136 96 73 55 587 120 65 66 974 740 281 46 118 234 235 55 200
is_linear=0
shrinkage=0.02055


Tree=16
num_leaves=38
num_cat=0
split_feature=6 12 12 15 0 12 13 6 3 8 6 19 13 11 34 16 6 10 13 19 13 27 10 27 19 8 10 29 27 29 2 5 29 10 27 19 16
split_gain=914.542 180.566 86.2463 66.6735 44.5053 30.3258 21.1944 23.012 19.5396 16.6626 15.8607 15.1038 14.1045 16.7586 11.7064 11.4234 9.4488 8.47281 7.77983 9.49284 7.38232 7.28336 7.22429 7.0858 6.79132 15.9007 5.91575 5.34301 5.19402 4.48295 3.96964 2.64827 1.82785 4.44307 0.521224 0.379113 0.220017
threshold=19.928571428571434 16.500000000000004 46.500000000000007 0.6830127018922193 20.550000000000004 20.500000000000004 256.50000000000006 14.185714285714287 28.950000000000003 20.650000000000002 18.721428571428579 29.438250000000004 136.50000000000003 9.5000000000000018 3.3571428571428572 0.99906486341235878 21.071428571428573 6.1791033881406312 6.5000000000000009 34.638250000000006 359.50000000000006 47.520832000000006 2.8937218894777952 62.708334000000008 29.013250000000003 18.083333333333336 22.8160901292467 0.65829310132230079 96.895832000000013 -0.23215365368250954 31.400000000000002 16.383333333333336 -0.77875335441220639 15.513286856358006 21.312500000000004 31.613250500000003 0.98046008095854964
decision_type=2 2 2 2 2 2 2 2 2 2 2 2 2 2 2 2 2 2 2 2 2 2 2 2 2 2 2 2 2 2 2 2 2 2 2 2 2
left_child=3 14 4 5 12 -1 10 22 16 24 31 -9 -3 -14 15 18 -6 20 30 -20 21 -4 -8 27 29 -26 -10 -11 -12 -5 -2 -7 33 -16 -19 -34 -37
right_child=1 2 17 9 8 6 7 11 26 23 28 -13 13 -15 32 -17 -18 34 19 -21 -22 -23 -24 -25 25 -27 -28 -29 -30 -31 -32 -33 35 -35 -36 36 -38
leaf_value=0.058949778555275813 -0.005515232426844761 0.015180196530287951 0.11509806798416428 0.059401421756744115 0.015759801098875825 -0.11825784576188492 -0.10684579068005658 0.0011164930185583301 0.050699344681083662 -0.055365019891092257 -0.1049568111023635 -0.087139158650655316 -0.085757765608615297 -0.0025613361569803705 1.0932122800211324 -0.0088646919114094853 -0.018538240339008083 0.13833867999230279 0.34736082098617344 0.23953621540932876 0.0065809901193101625 0.064828737143120943 -0.068076842417809091 -0.066067164796822703 -0.033310516079550913 0.05941786034931168 0.36921825133292524 0.0375375224438333 0.020213473054136979 0.016545111278090285 0.13216150181522063 -0.08852453584001041 0.75204448741967156 0.36998873081179168 0.22825097906189246 0.73588172029057319 0.93796515482552956
leaf_weight=37 19 23 154 20 41 679 88 90 158 24 19 80 143 58 27 21 198 19 520 82 36 98 89 20 24 29 19 20 21 21 23 134 25 19 32 120 90
leaf_count=37 19 23 154 20 41 679 88 90 158 24 19 80 143 58 27 21 198 19 520 82 36 98 89 20 24 29 19 20 21 21 23 134 25 19 32 120 90
internal_value=-0.000160933 0.00902062 0.00283373 -0.0128308 -0.00160544 -0.0144364 -0.0150014 -0.0107189 0.0023711 -0.000260093 -0.0167434 -0.00531853 -0.00899026 -0.0107346 0.0154232 0.0139367 -0.00146165 0.0112143 0.0144231 0.0150197 0.00984657 0.0110901 -0.0159051 -0.00834724 0.00524628 0.000387613 0.00754622 -0.00373554 -0.00410901 0.0115255 0.00587012 -0.017365 0.0189405 0.0151861 0.0189349 0.0196748 0.019962
internal_weight=3320 1925 979 1395 640 1237 1200 347 416 158 853 170 224 201 946 665 239 339 644 602 288 252 177 64 94 53 177 44 40 41 42 813 281 46 51 235 210
internal_count=3320 1925 979 1395 640 1237 1200 347 416 158 853 170 224 201 946 665 239 339 644 602 288 252 177 64 94 53 177 44 40 41 42 813 281 46 51 235 210
is_linear=0
shrinkage=0.02055


Tree=17
num_leaves=42
num_cat=0
split_feature=5 12 26 12 16 35 5 27 21 3 4 5 34 35 2 26 2 43 4 35 16 1 22 22 25 30 4 13 21 9 11 30 9 9 16 16 9 12 20 1 1
split_gain=875.255 159.212 99.8072 62.6603 41.4221 32.7645 31.26 22.6657 19.7981 15.4486 15.355 14.8973 13.844 11.3657 12.3392 10.2236 9.55951 9.13773 8.49079 11.0688 16.8252 8.26383 8.19377 7.01788 6.60841 6.02891 5.70278 5.47464 5.31453 5.0924 4.9584 4.72825 4.49738 4.16079 3.62135 3.42908 6.30499 3.20684 2.87463 1.84056 0.494413
threshold=19.400000000000002 16.500000000000004 974.45675000000017 46.500000000000007 0.7086201161944764 0.39285714285714285 12.91666666666667 91.812500000000014 25.528582500000002 15.950000000000001 12.750000000000002 16.383333333333336 0.5 3.2500000000000004 38.500000000000007 976.92617500000017 25.150000000000002 1.0000000180025095e-35 71.500000000000014 4.1071428571428585 0.99466160899732492 20.550000000000004 85.055945000000023 98.50337500000002 7.262704750000001 0.98587671017350453 22.150000000000002 4.5000000000000009 28.203582500000003 3.4641016151361037 5.5000000000000009 0.89669918870947163 3.5321651258371065 4.9593580565436328 -0.15855791680139866 0.45972848220565493 6.9624845045560795 36.500000000000007 15.96325 10.950000000000001 102.50000000000001
decision_type=2 2 2 2 2 2 2 2 2 2 2 2 2 2 2 2 2 2 2 2 2 2 2 2 2 2 2 2 2 2 2 2 2 2 2 2 2 2 2 2 2
left_child=2 12 4 5 11 8 32 10 21 -10 24 30 17 14 -7 -12 25 22 35 20 -20 -3 28 26 -8 33 -13 -24 -2 31 -1 -18 39 -5 -31 36 -14 -32 -37 -4 -21
right_child=1 3 6 16 -6 13 7 -9 9 -11 15 23 18 -15 -16 -17 29 -19 19 40 -22 -23 27 -25 -26 -27 -28 -29 -30 34 37 -33 -34 -35 -36 38 -38 -39 -40 -41 -42
leaf_value=-0.096250778437750234 0.20551421948245474 0.026406840963473788 -0.098242730720888419 0.040396685509035614 0.15804838222702053 0.10619628640263036 -0.059560962698850146 -0.065278670896667695 -0.10975052886635216 -0.024671714984643357 0.0061474439442802068 -0.082227434236340088 0.33908226269576813 0.32767493457961888 -0.0099127930683165447 0.056287736040057136 0.021204073002515103 -0.023903828736418185 0.38378422064063777 0.54450082507305331 -0.033120576727601443 -0.0012369255324851921 0.074891216454785109 0.03024077659089295 0.004062024879531459 0.12574240161928935 -0.045909244594961783 0.17717571091463816 -0.069271231534454192 0.2260184649820059 -0.11581939401491935 0.13925845852971538 -0.06541631013021959 -0.0024826417354158032 0.15933432214785526 0.3301856424444819 0.10446380388722112 -0.10313959224530152 0.58580123762607383 -0.11027499042269329 1.4338479314233918
leaf_weight=27 39 49 30 116 27 58 40 33 60 206 101 131 35 23 76 87 28 25 35 28 25 125 21 19 21 31 48 140 19 59 658 19 27 32 50 21 33 182 489 28 19
leaf_count=27 39 49 30 116 27 58 40 33 60 206 101 131 35 23 76 87 28 25 35 28 25 125 21 19 21 31 48 140 19 59 658 19 27 32 50 21 33 182 489 28 19
internal_value=-0.000210451 0.00913207 -0.0121271 0.00313098 -0.015243 -0.000860536 -0.00285565 0.00043721 -0.00373628 -0.00726178 0.00255833 -0.0158803 0.0151524 0.00719862 0.00490712 0.00546516 0.0102441 0.0109484 0.0166498 0.0113303 0.00547914 0.00165335 0.012292 -0.0107934 -0.00639984 0.00700271 -0.0120539 0.0146778 0.00566805 0.0139627 -0.0170419 0.00830581 -0.0137791 0.00527602 0.0164009 0.0176343 0.0132953 -0.0173205 0.0182126 -0.0170042 0.0187975
internal_weight=3320 1861 1459 932 1092 597 367 282 440 266 249 1065 929 157 134 188 335 244 685 107 60 174 219 198 61 179 179 161 58 156 867 47 85 148 109 578 68 840 510 58 47
internal_count=3320 1861 1459 932 1092 597 367 282 440 266 249 1065 929 157 134 188 335 244 685 107 60 174 219 198 61 179 179 161 58 156 867 47 85 148 109 578 68 840 510 58 47
is_linear=0
shrinkage=0.02055


Tree=18
num_leaves=40
num_cat=0
split_feature=0 26 13 16 13 6 3 27 3 5 21 40 7 40 29 25 28 21 21 29 26 21 27 23 16 7 26 14 7 42 26 30 25 30 21 28 10 28 16
split_gain=880.143 123.623 122.089 56.9267 48.2428 43.1017 32.142 20.9678 19.072 18.3242 17.1724 16.2535 15.4214 15.4053 12.5686 9.91607 9.22866 8.63449 8.51861 8.50302 8.449 8.30958 6.92193 8.75309 6.64663 9.63521 6.33327 5.32677 5.11618 4.77882 4.38533 4.21673 4.07055 3.8241 3.03103 2.89667 2.75285 2.10229 2.00073
threshold=20.550000000000004 974.45675000000017 110.50000000000001 0.7086201161944764 319.50000000000006 14.185714285714287 43.500000000000007 82.979164000000011 13.850000000000003 16.383333333333336 25.680668000000001 630.07500000000016 23.51071428571429 645.56500000000005 0.053270666547656408 9.5076805000000011 2.5753666000000002 26.077083500000004 23.902836500000003 -0.22107490060711557 974.86770000000013 29.069501000000006 7.3958332500000008 66.372700000000009 0.99906486341235878 77.821428571428598 970.84705000000008 0.25000000000000006 28.928571428571434 44.214285714285722 972.80465000000015 0.11773157157776332 5.5010510000000012 0.67012142495656069 21.434085000000003 4.0026350000000006 3.3463113276828058 3.3105999000000002 0.82876241254485883
decision_type=2 2 2 2 2 2 2 2 2 2 2 2 2 2 2 2 2 2 2 2 2 2 2 2 2 2 2 2 2 2 2 2 2 2 2 2 2 2 2
left_child=1 3 13 9 6 32 8 10 20 27 14 -10 22 34 -7 38 -15 30 -9 28 -4 -17 -6 -24 29 -26 -19 35 -14 -18 -11 -12 -3 -20 -2 -1 -34 -21 -8
right_child=2 5 4 -5 12 7 15 18 11 17 31 -13 19 16 -16 21 24 26 33 37 -22 -23 23 -25 25 -27 -28 -29 -30 -31 -32 -33 36 -35 -36 -37 -38 -39 -40
leaf_value=-0.10115010230391221 -0.0069409103321254684 -0.064244756979572118 -0.13659965102950217 0.096394894975603898 0.096274553731619666 0.055131021901368073 0.08427326324868073 0.014184502596724253 0.042380761983810376 -0.035981722601530181 -0.085831173840303671 -0.016455694001324957 0.096569626287308627 0.03169951266463749 0.017149944501313165 -0.05610618671005458 0.33804756069359243 -0.052064414604724732 -0.079483202250006588 0.23495825274438265 -0.017725233894259125 0.13323993283570712 0.015195224120081143 0.061850924619690752 -0.020220920982412582 0.88405954095870232 -0.11188792318871342 -0.093848894563380789 0.037331303846282742 0.61018835369249491 -0.081141470651302963 -0.027469630632890804 -0.072977713240800421 -0.02224550015917395 0.056187290461292297 -0.1202802158769453 -0.072375940873644684 0.13001929827591671 0.42215988452311087
leaf_weight=636 19 24 32 31 21 97 19 19 33 79 25 316 43 20 118 22 446 63 34 75 19 55 111 20 20 19 74 26 23 334 36 34 37 19 20 199 36 38 28
leaf_count=636 19 24 32 31 21 97 19 19 33 79 25 316 43 20 118 22 446 63 34 75 19 55 111 20 20 19 74 26 23 334 36 34 37 19 20 199 36 38 28
internal_value=-0.000247589 -0.0113044 0.00987771 -0.0148735 0.00435031 -0.00208742 0.000470597 0.00130661 -0.00236319 -0.0156386 0.00389987 -0.000647683 0.010492 0.0152602 0.00659484 0.00961139 0.0158471 -0.0107639 -0.00856141 0.0145794 -0.0141004 0.00507016 0.00567794 0.00392147 0.0161839 0.00790197 -0.0142491 -0.0170652 0.00871697 0.0165979 -0.00661121 -0.00592025 -0.014193 -0.0127931 0.00263394 -0.0173504 -0.0166069 0.0180026 0.0170488
internal_weight=3320 1587 1733 1144 855 443 524 346 400 1113 274 349 331 878 215 124 839 252 72 179 51 77 152 131 819 39 137 861 66 780 115 59 97 53 39 835 73 113 47
internal_count=3320 1587 1733 1144 855 443 524 346 400 1113 274 349 331 878 215 124 839 252 72 179 51 77 152 131 819 39 137 861 66 780 115 59 97 53 39 835 73 113 47
is_linear=0
shrinkage=0.02055


Tree=19
num_leaves=42
num_cat=0
split_feature=6 13 13 20 3 13 5 17 16 3 29 13 27 10 10 10 6 7 28 6 6 13 27 6 4 16 10 7 16 21 29 13 27 6 7 3 4 21 32 13 32
split_gain=864.04 167.275 74.8985 64.1817 42.3915 29.2493 28.5427 26.7102 18.0401 16.076 14.1349 13.9559 12.3201 12.0948 17.1181 13.4018 11.4731 11.0151 13.6421 10.5033 9.70646 9.33894 9.23056 10.0825 9.21265 11.009 13.708 8.40231 8.48867 7.70862 6.74865 4.5931 7.92494 3.46266 3.32071 3.07979 2.46843 2.31613 5.66849 1.32233 1.31052
threshold=19.928571428571434 110.50000000000001 328.50000000000006 22.213250500000004 16.950000000000003 142.50000000000003 12.91666666666667 -0.76107606668641947 0.31718835131409573 30.500000000000004 -0.024734377788668147 34.500000000000007 66.354164000000011 9.2956624542211372 5.6183568831053758 3.4731188733487319 15.328571428571431 19.607142857142861 3.2735097500000006 31.928571428571434 21.071428571428573 259.50000000000006 67.208332000000013 18.721428571428579 71.500000000000014 0.99466160899732492 26.689607650328124 15.507142857142858 -0.65189295912203338 24.729165000000005 -0.29609841704310419 256.50000000000006 94.562500000000014 50.785714285714292 12.303571428571431 14.950000000000001 16.850000000000005 26.878124500000002 4.5000000000000009 288.50000000000006 52.500000000000007
decision_type=2 2 2 2 2 2 2 2 2 2 2 2 2 2 2 2 2 2 2 2 2 2 2 2 2 2 2 2 2 2 2 2 2 2 2 2 2 2 2 2 2
left_child=3 11 4 6 12 -5 39 8 -6 -9 27 13 36 14 15 -2 31 21 -19 -16 -4 -18 23 -12 37 33 -27 -8 -29 30 -22 34 -33 -26 -7 -14 -3 40 -39 -1 -13
right_child=1 2 20 5 7 16 10 9 -10 -11 22 24 35 -15 19 -17 17 18 -20 -21 29 -23 -24 -25 25 26 -28 28 -30 -31 -32 32 -34 -35 -36 -37 -38 38 -40 -41 -42
leaf_value=-0.11136891695536903 0.0011199941447134403 -0.0023076796292135515 -0.0089180306693740288 0.037747060783973517 0.011878727259145459 -0.11136066638235605 -0.019909092684638519 0.0010758589264705787 -0.064877136572547039 0.093963708309409713 0.0048956210332867364 0.56929589555719529 -0.11259091071769133 0.26178606740215266 -0.015967515666239624 0.23245312146009314 -0.09758149809669793 0.041462582890013887 -0.091632439181532688 0.14111404966114072 0.063917307704532716 -0.056121000346475179 -0.082766133265149408 -0.082139142494530581 0.23022267869012689 -0.036830098067663339 1.2189730238589191 0.063875646161750524 -0.00067931131867912252 0.0099868372818623305 0.15087488101122135 -0.062583964116899121 -0.10207381628993992 0.52530333389398109 -0.11136066638235605 -0.063469805700475598 -0.061798888343676556 0.3560584813163053 0.65780224232539009 -0.083238429128838498 0.63643304267265255
leaf_weight=27 22 36 22 36 68 147 19 205 88 192 84 275 42 48 36 101 201 23 45 77 71 61 35 23 23 21 21 41 19 20 193 105 58 45 446 28 38 58 167 25 28
leaf_count=27 22 36 22 36 68 147 19 205 88 192 84 275 42 48 36 101 201 23 45 77 71 61 35 23 23 21 21 41 19 20 193 105 58 45 446 28 38 58 167 25 28
internal_value=-0.000309487 0.00861495 0.0028069 -0.0126246 -0.000913973 -0.0147988 -0.00368833 0.00167221 -0.00553236 0.0045033 -0.0004649 0.0149332 -0.0108452 0.011143 0.00922973 0.0145343 -0.0154029 -0.0122051 -0.00483462 0.00345501 0.011282 -0.0141178 -0.00434126 -0.00134425 0.0166202 0.0112082 0.00293502 0.0065024 0.0102734 0.0123007 0.0132325 -0.0167986 -0.0137413 0.0163169 -0.0176388 -0.0170249 -0.00499801 0.0177474 0.0161654 -0.0173854 0.0189217
internal_weight=3320 1925 1003 1395 697 1122 273 553 156 397 221 922 144 284 236 123 1086 330 68 113 306 262 142 107 638 110 42 79 60 284 264 756 163 68 593 70 74 528 225 52 303
internal_count=3320 1925 1003 1395 697 1122 273 553 156 397 221 922 144 284 236 123 1086 330 68 113 306 262 142 107 638 110 42 79 60 284 264 756 163 68 593 70 74 528 225 52 303
is_linear=0
shrinkage=0.02055


Tree=20
num_leaves=46
num_cat=0
split_feature=0 11 26 17 16 6 0 35 34 17 0 34 6 6 2 10 8 25 11 29 44 10 28 29 0 26 25 44 10 16 3 26 23 10 10 28 24 6 26 9 16 0 8 9 0
split_gain=826.818 112.016 107.047 54.9411 50.542 36.3974 25.5824 25.553 18.9645 16.8545 17.6053 16.8378 16.3376 15.6385 11.6448 10.5683 23.2044 9.57584 9.63197 9.19028 9.43926 8.17217 11.0449 8.09105 7.40871 7.11992 6.64496 6.4267 6.11582 10.0571 5.64379 4.66821 4.65289 4.55834 4.44535 3.30068 6.90914 2.11289 2.13799 2.33725 1.92073 1.73691 1.54876 0.147724 0.122415
threshold=20.550000000000004 4.5000000000000009 974.33690000000013 0.65837719692149965 0.63209755774300602 14.185714285714287 15.950000000000001 0.39285714285714285 3.785714285714286 0.047319635496388707 45.500000000000007 0.6428571428571429 19.928571428571434 21.785714285714288 27.500000000000004 19.526883209759884 45.250000000000007 5.7880321500000003 10.500000000000002 0.25719301760815799 633.96014887178012 2.5634797778470948 4.2016943500000012 -0.44342304825800044 24.300000000000004 973.82434000000012 5.5010510000000012 648.24891357307013 10.994982862292515 0.80900950266415306 23.950000000000003 980.91612000000009 49.624018000000014 3.7276796677282991 7.63900477942083 3.8532963000000007 4.0000002500000003 140.71428571428575 972.38827500000014 14.703417071153249 -0.95747632178960107 17.850000000000005 42.216666666666676 7.1929180855109287 10.450000000000001
decision_type=2 2 2 2 2 2 2 2 2 2 2 2 2 2 2 2 2 2 2 2 2 2 2 2 2 2 2 2 2 2 2 2 2 2 2 2 2 2 2 2 2 2 2 2 2
left_child=2 8 4 7 6 26 35 12 9 15 24 17 25 -14 19 16 -2 30 -19 32 -21 41 -23 -16 -11 -3 -4 -17 -9 -30 -7 -25 -5 44 -6 36 -1 38 39 -10 -37 -8 -12 -40 -28
right_child=1 3 5 14 34 11 21 28 37 10 42 -13 13 -15 23 27 -18 18 -20 20 -22 22 -24 31 -26 -27 33 -29 29 -31 -32 -33 -34 -35 -36 40 -38 -39 43 -41 -42 -43 -44 -45 -46
leaf_value=-0.095098097416662294 0.1673288238368689 -0.085310811825187918 -0.020926146784433226 0.10957075597539538 0.054521978358493775 -0.040520964943443628 -0.097545370091757885 0.19427068203062614 0.78364472091929616 0.034537173034612519 0.37163728121448969 0.19207412063695045 0.026511589309363631 -0.023187163395279559 0.085201450615819282 0.065902406130396607 -0.066413409495289122 -0.020772951229102742 0.026652339664011124 -0.024695285309359088 0.15196164535537646 -0.050300949344587585 -0.097214442091742667 0.19440118026319611 0.22767620501094088 -0.004312469830332219 -0.14453645737330847 0.38016329517126862 -0.03209492669794288 0.11769683537008351 0.015001428480436094 0.082958216804027068 0.049714079837269554 -0.096491003956272511 0.0038977633124163079 -0.10940247100955128 -0.1044924623739508 1.0988047643977865 1.2197233703246961 0.40504986596303311 -0.10993778183412692 -0.078215467410764405 0.57949445916070808 0.7601041288909719 -0.064083703913002651
leaf_weight=168 53 64 21 33 21 69 45 31 19 46 106 34 60 205 21 20 48 119 114 50 29 193 58 92 261 21 19 70 25 22 21 19 108 30 33 34 356 20 19 28 212 30 110 191 31
leaf_count=168 53 64 21 33 21 69 45 31 19 46 106 34 60 205 21 20 48 119 114 50 29 193 58 92 261 21 19 70 25 22 21 19 108 30 33 34 356 20 19 28 212 30 110 191 31
internal_value=-6.68975e-05 0.00961936 -0.010735 0.0037938 -0.0140811 -0.00233314 -0.0150374 -0.00115231 0.0142045 0.0124335 0.0143415 0.000748293 -0.00352276 -0.00100807 0.00980771 0.00720829 0.00264479 -0.000699817 0.00149929 0.00691199 0.00130045 -0.0102117 -0.00843257 0.0146331 0.0111783 -0.0113617 -0.0132241 0.0123288 0.0094835 0.0048086 -0.00639267 0.0168459 0.0100557 -0.0159245 0.00532685 -0.0170803 -0.0161574 0.0187689 0.01927 0.0153002 -0.0190457 -0.0161641 0.0188367 0.0201577 -0.0197244
internal_weight=3379 1771 1608 780 1150 458 1096 428 991 714 523 357 350 265 352 191 101 323 233 220 79 326 251 132 307 85 101 90 78 47 90 111 141 80 54 770 524 277 257 47 246 75 216 210 50
internal_count=3379 1771 1608 780 1150 458 1096 428 991 714 523 357 350 265 352 191 101 323 233 220 79 326 251 132 307 85 101 90 78 47 90 111 141 80 54 770 524 277 257 47 246 75 216 210 50
is_linear=0
shrinkage=0.02055


Tree=21
num_leaves=43
num_cat=0
split_feature=0 11 17 17 5 11 35 35 34 17 0 17 35 21 8 7 5 8 0 0 2 27 41 17 8 7 7 29 41 21 17 5 8 29 2 35 9 5 27 41 34 9
split_gain=793.953 110.311 106.511 55.4596 46.8319 26.1277 25.2212 21.8709 20.1627 17.4899 17.7903 16.4047 15.2826 14.5928 14.4651 13.5609 15.8656 12.9395 10.2325 10.0492 9.16504 9.03349 8.9902 12.0745 10.712 7.49684 7.39586 8.84732 7.89963 7.18585 7.11909 7.9647 5.53405 5.49834 5.35038 8.09564 4.50655 3.55277 3.44522 2.23926 1.94059 1.37527
threshold=20.550000000000004 4.5000000000000009 0.13300977955191609 0.708600430106059 16.383333333333336 5.5000000000000009 0.60714285714285732 0.60714285714285732 3.785714285714286 0.098816478347602058 45.500000000000007 0.61864848712698517 0.10714285714285711 25.315333500000005 18.083333333333336 80.250000000000014 74.166666666666671 14.80666666666667 15.950000000000001 24.300000000000004 15.950000000000001 72.895832000000013 90.86916410000002 0.36570897681179726 14.983333333333336 22.367857142857144 23.51071428571429 -0.22107490060711557 243.78949700000001 26.121290500000004 -0.2925894974583354 12.283333333333337 22.383333333333336 0.57647729347479182 35.500000000000007 2.8928571428571432 3.9787522237014925 144.00000000000003 99.770832000000013 458.0015805000001 17.785714285714288 5.7569833370315591
decision_type=2 2 2 2 2 2 2 2 2 2 2 2 2 2 2 2 2 2 2 2 2 2 2 2 2 2 2 2 2 2 2 2 2 2 2 2 2 2 2 2 2 2
left_child=2 8 4 7 5 29 11 17 9 15 19 22 32 20 -5 16 -2 -3 36 -11 -6 -20 23 -4 -24 -14 28 -28 -16 -1 38 -32 -13 -19 -9 -36 -15 40 -7 -12 41 -10
right_child=1 3 6 14 13 30 -8 34 37 10 39 12 25 18 26 -17 -18 33 21 -21 -22 -23 24 -25 -26 -27 27 -29 -30 -31 31 -33 -34 -35 35 -37 -38 -39 -40 -41 -42 -43
leaf_value=0.083000284628374069 0.16413344362593341 -0.10154760293655944 -0.023251748404809251 -0.058040066947003074 -0.065394251778278595 -0.10715099476247665 0.2344046863522295 0.12567266054330622 1.1627724616028163 0.022106046670119152 0.36210552729659373 0.031302227688864599 -0.035360578343225167 -0.15497731744768015 0.035027352197875811 0.35639716014184947 -0.098735692050885004 -0.0042238484862109236 0.016944510324487842 0.22456813534881676 0.10599191563269283 -0.058800852093800586 -0.066293947663260896 -0.090545910880517291 0.0049331716764836765 0.015285589370656463 0.093443425534240565 0.16436195478061247 0.24363513389835675 -0.11481710604946435 -0.11263892850694907 -0.07136084476654192 0.012143088495630967 -0.070378091754069672 -0.035980662754692846 0.31214157821168526 -0.055566085349066936 1.3252948349576725 -0.089806344295356791 0.51415554447985778 0.93090061532356472 0.69485118448927941
leaf_weight=20 156 29 39 19 20 605 28 25 22 44 85 44 30 43 107 27 20 285 44 260 36 140 48 42 64 24 70 121 21 29 71 102 67 63 20 20 19 20 93 122 24 211
leaf_count=20 156 29 39 19 20 605 28 25 22 44 85 44 30 43 107 27 20 285 44 260 36 140 48 42 64 24 70 121 21 29 71 102 67 63 20 20 19 20 93 122 24 211
internal_value=-0.000127714 0.00936408 -0.0105817 0.00358304 -0.0135542 -0.0158591 -0.00117121 -0.00120879 0.0139142 0.0120881 0.0141153 -0.00264043 0.00211714 -0.00653225 0.00984915 0.00698466 0.00490372 -0.00310695 -0.00868749 0.0109507 0.0029352 -0.00625403 -0.00670771 -0.0119227 -0.00293546 -0.00684882 0.0108867 0.0134483 0.00706355 -0.00125787 -0.0166805 -0.012947 0.00647919 -0.0020077 0.00979939 0.00513628 -0.0159074 0.0186205 -0.0176057 0.0187622 0.01927 0.0198437
internal_weight=3379 1771 1608 780 1222 920 386 442 991 714 511 358 165 302 338 203 176 377 246 304 56 184 193 81 112 54 319 191 128 49 871 173 111 348 65 40 62 277 698 207 257 233
internal_count=3379 1771 1608 780 1222 920 386 442 991 714 511 358 165 302 338 203 176 377 246 304 56 184 193 81 112 54 319 191 128 49 871 173 111 348 65 40 62 277 698 207 257 233
is_linear=0
shrinkage=0.02055


Tree=22
num_leaves=43
num_cat=0
split_feature=0 13 26 13 13 5 0 35 34 30 34 3 7 26 5 13 10 28 21 29 29 35 10 10 23 23 20 13 17 21 20 35 21 24 44 28 44 10 5 20 26 26
split_gain=782.348 127.885 110.358 52.4031 51.0312 28.8225 28.4266 27.7554 14.7542 15.8984 14.4591 14.1942 13.4718 10.6826 10.0026 9.87657 9.4018 12.8143 9.02414 8.8854 8.84732 8.55168 8.10067 8.33618 8.05901 10.3761 7.46904 7.24024 6.94004 6.62643 5.38436 5.22014 3.53955 4.13811 3.32206 3.08857 2.49445 2.21389 2.13935 1.80345 1.69871 1.15358
threshold=20.550000000000004 110.50000000000001 974.33690000000013 142.50000000000003 319.50000000000006 12.383333333333335 15.950000000000001 0.39285714285714285 0.6428571428571429 -0.46009224174617513 2.6428571428571437 13.850000000000003 23.51071428571429 971.35672000000011 26.166666666666668 307.50000000000006 2.5634797778470948 4.2016943500000012 22.278124500000001 -0.24910479618354306 -0.22107490060711557 2.4642857142857149 10.994982862292515 12.829074432375227 62.801482500000006 46.312469500000006 24.563250000000004 355.50000000000006 0.23448270380211192 25.595541500000003 22.063250000000004 0.82142857142857151 26.643458500000005 2.6000000500000007 1132.7740616844324 3.7011535000000007 582.4908261569816 3.8832538153616514 144.00000000000003 23.888250500000002 972.19142000000011 975.12233000000015
decision_type=2 2 2 2 2 2 2 2 2 2 2 2 2 2 2 2 2 2 2 2 2 2 2 2 2 2 2 2 2 2 2 2 2 2 2 2 2 2 2 2 2 2
left_child=2 10 3 26 7 28 32 11 9 15 13 30 24 -2 18 -7 39 -18 -15 -11 27 -16 31 -24 25 -6 35 -14 41 -13 -3 -9 33 -5 38 -1 -34 -22 40 -8 -12 -4
right_child=1 4 5 6 12 8 16 22 -10 19 34 29 20 14 21 -17 17 -19 -20 -21 37 -23 23 -25 -26 -27 -28 -29 -30 -31 -32 -33 36 -35 -36 -37 -38 -39 -40 -41 -42 -43
leaf_value=0.067890520304720967 -0.037285716316341616 -0.014483937569223995 -0.19192122612618648 -0.090588193765112346 0.15129447320984404 -0.061522152774986717 -0.086385822785184377 0.053478696303557283 0.16776413217562 0.030658966263064729 0.51375118851286217 0.0028808809613336899 0.13257903439772206 0.0081567532582573887 0.32847234305113621 0.041734276478984061 -0.046530813296826901 -0.093511526357059976 0.20066351227517862 -0.0039897508187232526 0.12859113632928615 0.31240252773059574 -0.028419575369344207 0.10177494304294524 0.053505254470176379 -0.0033677331285249072 0.039922855909357464 0.00084058851749815291 -0.02234247563215359 -0.033425422055522042 -0.10762991187831573 0.25700365389380198 -0.11797265905672544 -0.089614097537623866 0.72420827113711328 -0.058397885600435476 -0.12385868853866962 0.18802663468561537 1.3113496672879601 -0.094215332718416395 0.67618814955931716 -0.11402000813506979
leaf_weight=19 20 21 19 123 29 52 49 19 34 80 49 118 40 45 420 24 188 58 46 189 28 45 20 85 29 89 21 30 30 197 34 30 20 423 19 20 203 93 19 26 246 30
leaf_count=19 20 21 19 123 29 52 49 19 34 80 49 118 40 45 420 24 188 58 46 189 28 45 20 85 29 89 21 30 30 197 34 30 20 423 19 20 203 93 19 26 246 30
internal_value=-0.000127714 0.00929446 -0.010505 -0.0139024 0.00362363 -0.00197419 -0.0149316 -0.000392163 0.000379535 -0.000893447 0.014672 -0.00344343 0.00984915 0.0127009 0.0132316 -0.00919231 -0.00979459 -0.00785215 0.00699984 0.00145143 0.0134483 0.014451 0.00693855 0.00371823 0.00517212 0.00278621 0.00479424 0.00763185 -0.0132649 -0.00176137 -0.0130751 0.0138372 -0.0170758 -0.0161838 0.0180811 -0.000526725 -0.0192591 0.0168124 0.0185861 -0.0161641 0.0190169 -0.0180303
internal_weight=3379 1771 1608 1150 862 458 1090 524 379 345 909 370 338 576 556 76 321 246 91 269 191 465 154 105 147 118 60 70 79 315 55 49 769 546 333 39 223 121 314 75 295 49
internal_count=3379 1771 1608 1150 862 458 1090 524 379 345 909 370 338 576 556 76 321 246 91 269 191 465 154 105 147 118 60 70 79 315 55 49 769 546 333 39 223 121 314 75 295 49
is_linear=0
shrinkage=0.02055


Tree=23
num_leaves=46
num_cat=0
split_feature=0 26 13 13 13 4 0 35 41 7 13 19 35 26 30 41 29 10 29 13 13 19 4 10 27 29 19 10 13 29 24 27 13 35 4 29 42 19 19 10 44 13 13 7 3
split_gain=762.234 121.275 110.449 50.2288 42.4918 42.3332 32.8291 26.3433 21.483 16.0139 12.5296 12.1146 11.9706 14.111 11.45 11.0712 9.94776 9.40498 8.99062 8.67932 12.5694 10.0956 8.58544 8.23566 10.7193 7.94201 7.63611 7.31837 7.25474 6.93177 6.87004 6.23255 6.18719 5.62429 5.28495 4.82754 3.72334 3.5034 2.88266 3.63885 2.78071 2.11924 1.41849 0.30891 0.17993
threshold=21.200000000000003 974.33690000000013 110.50000000000001 142.50000000000003 319.50000000000006 19.050000000000004 15.950000000000001 0.39285714285714285 89.940623900000006 23.51071428571429 313.50000000000006 26.563250000000004 4.6071428571428585 971.99682000000018 0.72657323137927954 243.78949700000001 0.57647729347479182 2.5634797778470948 -0.54632392517188777 36.500000000000007 84.500000000000014 29.863250500000003 30.500000000000004 10.994982862292515 47.520832000000006 -0.35580860422853916 31.163250000000001 3.2037066444583835 355.50000000000006 -0.55674935638357359 0.25000000000000006 31.437500000000004 22.500000000000004 0.8928571428571429 34.500000000000007 0.84799870368940744 139.78571428571431 28.913250000000001 31.513250000000003 5.0208357082050199 854.14011001483505 245.50000000000003 66.500000000000014 13.15 43.500000000000007
decision_type=2 2 2 2 2 2 2 2 2 2 2 2 2 2 2 2 2 2 2 2 2 2 2 2 2 2 2 2 2 2 2 2 2 2 2 2 2 2 2 2 2 2 2 2 2
left_child=1 3 12 29 7 8 38 11 10 15 37 -4 13 -2 35 31 -13 41 -7 21 -21 -15 32 33 -25 28 -19 -16 -11 -1 -24 -6 -20 -9 -31 -10 42 -3 39 -5 -27 -8 -14 -40 -44
right_child=2 5 4 6 9 18 17 23 14 25 -12 16 36 19 27 -17 -18 26 22 20 -22 -23 30 24 -26 40 -28 -29 -30 34 -32 -33 -34 -35 -36 -37 -38 -39 43 -41 -42 -43 44 -45 -46
leaf_value=0.079014227735865236 0.013396990668925165 -0.077891097575298565 0.016042357942235734 -0.10206572493368712 0.039664594973923717 0.091873792159202328 -0.085893606305958728 0.081428161878364352 -0.05443126648255784 0.11827232973212119 0.011975537237899179 -0.014019204024422929 0.97531033964095681 0.20226637931478422 0.06364253056073356 0.20559715173747325 -0.097245495493181497 -0.0418008861737574 -0.028446524903215538 0.4989518127918533 0.23433898949176515 -0.0010142809624694089 0.1578501513603579 0.095608901619754591 -0.059291477189533114 0.17400070355829184 -0.091317528837422335 -0.0034269194679723545 -0.013166742762124805 0.092000582078190465 0.010575001253660333 -0.008328247218737329 0.028201932732674972 0.25092079889069935 -0.02863106986821972 0.0027105312898590868 1.1316359828168665 -0.0920771341429691 -0.13661588248475562 -0.061289994432901181 0.11988528112966432 -0.11125021517319589 1.2578220673828413 -0.12159557178454 0.70932577620102821
leaf_weight=22 35 57 20 615 54 35 57 20 70 28 19 245 34 244 42 20 54 197 19 258 95 30 29 69 33 114 84 62 19 23 20 56 81 27 25 20 20 57 35 40 23 19 19 79 155
leaf_count=22 35 57 20 615 54 35 57 20 70 28 19 245 34 244 42 20 54 197 19 258 95 30 29 69 33 114 84 62 19 23 20 56 81 27 25 20 20 57 35 40 23 19 19 79 155
internal_value=-0.000127714 -0.00978739 0.00973417 -0.0133677 0.00409944 -0.00140751 -0.0144177 0.000175631 -0.00584433 0.00994749 -0.0122056 -0.00315649 0.014685 0.0132859 -0.00148291 0.00442583 -0.00419234 -0.00926742 0.00647739 0.0139948 0.0161252 0.0112496 0.00427523 0.00730928 0.00402903 0.0138482 -0.00753232 0.00316124 0.00655721 0.00352237 0.0113214 0.001868 0.000821897 0.0144259 -0.000856028 -0.00684929 0.0187466 -0.0147804 -0.0168086 -0.0162829 0.0163489 -0.015681 0.0195612 -0.0198274 0.0203128
internal_weight=3379 1707 1672 1196 782 511 1126 468 327 314 133 319 890 662 194 130 299 357 184 627 353 274 149 149 102 184 281 104 47 70 49 110 100 47 48 90 228 114 769 655 137 76 208 114 174
internal_count=3379 1707 1672 1196 782 511 1126 468 327 314 133 319 890 662 194 130 299 357 184 627 353 274 149 149 102 184 281 104 47 70 49 110 100 47 48 90 228 114 769 655 137 76 208 114 174
is_linear=0
shrinkage=0.02055


Tree=24
num_leaves=44
num_cat=0
split_feature=0 13 20 13 13 0 4 3 13 34 13 29 35 35 5 12 3 16 5 41 20 13 41 23 3 30 13 8 16 0 35 23 13 5 9 20 13 7 23 9 2 41 35
split_gain=724.892 118.693 83.981 50.9241 48.7354 36.7097 29.8098 27.0451 18.1465 16.4759 14.9925 14.8225 14.0511 12.1748 11.8947 11.7331 11.7242 11.5432 18.6413 14.1699 11.1426 10.3362 10.2804 10.4328 14.1095 10.2371 9.56649 8.76403 8.70499 8.33113 6.90666 6.27696 5.99383 5.11033 4.79844 4.66936 4.01951 3.78454 3.51622 2.04296 1.10574 1.07268 0.241097
threshold=20.550000000000004 110.50000000000001 21.813250000000004 142.50000000000003 315.50000000000006 15.950000000000001 13.850000000000003 24.300000000000004 257.50000000000006 3.785714285714286 275.50000000000006 -0.54632392517188777 2.4642857142857149 0.60714285714285732 16.383333333333336 5.5000000000000009 13.850000000000003 0.99466160899732492 65.833333333333357 458.0015805000001 23.738250500000003 313.50000000000006 201.98788800000003 58.695915500000005 25.900000000000002 -0.85086759185387317 293.50000000000006 41.483333333333341 -0.97109105924028405 24.300000000000004 0.10714285714285711 49.152423000000006 355.50000000000006 15.016666666666667 50.146143163694809 22.463250500000004 329.50000000000006 31.964285714285719 62.175177500000011 8.4501327824869907 68.500000000000014 256.9565310000001 11.964285714285717
decision_type=2 2 2 2 2 2 2 2 2 2 2 2 2 2 2 2 2 2 2 2 2 2 2 2 2 2 2 2 2 2 2 2 2 2 2 2 2 2 2 2 2 2 2
left_child=2 9 6 25 7 10 21 16 14 17 38 -8 27 15 -7 -13 35 19 -19 29 -21 26 23 24 -6 -4 -1 -9 -18 -2 -10 41 -33 -12 39 -3 -25 -27 -5 -11 -14 -24 -41
right_child=1 4 3 5 22 8 11 12 30 34 33 13 40 -15 -16 -17 28 18 -20 20 -22 -23 31 36 -26 37 -28 -29 -30 -31 -32 32 -34 -35 -36 -37 -38 -39 -40 42 -42 -43 -44
