{"learner":{"attributes":{"scikit_learn":"{\"_estimator_type\": \"regressor\"}"},"feature_names":["pm25_lag1","pm25_lag3","pm25_lag7","pm25_lag14","pm25_lag30","pm25_roll3_mean","pm25_roll7_mean","pm25_roll14_mean","pm25_roll30_mean","pm25_roll7_std","pm25_roll14_std","month","week","day_of_year","sin_month","cos_month","sin_doy","cos_doy","is_haze_season","temp_max","temp_min","temp_mean","humidity_max","humidity_min","precipitation","wind_speed","pressure","cloud_cover","evapotranspiration","wind_dir_sin","wind_dir_cos","hotspot_50km","hotspot_100km","mean_frp_50km","hotspot_7d_roll","hotspot_14d_roll","fire_flag","alert_lag1","alert_lag3","alert_lag7","lag1_x_temp","lag1_x_wind","roll7_x_fire","precip_flag","humidity_wind"],"feature_types":["float","float","float","float","float","float","float","float","float","float","float","int","int","int","float","float","float","float","int","float","float","float","float","float","float","float","float","float","float","float","float","int","int","float","float","float","int","int","int","int","float","float","float","int","float"],"gradient_booster":{"model":{"gbtree_model_param":{"num_parallel_tree":"1","num_trees":"533"},"iteration_indptr":[0,1,2,3,4,5,6,7,8,9,10,11,12,13,14,15,16,17,18,19,20,21,22,23,24,25,26,27,28,29,30,31,32,33,34,35,36,37,38,39,40,41,42,43,44,45,46,47,48,49,50,51,52,53,54,55,56,57,58,59,60,61,62,63,64,65,66,67,68,69,70,71,72,73,74,75,76,77,78,79,80,81,82,83,84,85,86,87,88,89,90,91,92,93,94,95,96,97,98,99,100,101,102,103,104,105,106,107,108,109,110,111,112,113,114,115,116,117,118,119,120,121,122,123,124,125,126,127,128,129,130,131,132,133,134,135,136,137,138,139,140,141,142,143,144,145,146,147,148,149,150,151,152,153,154,155,156,157,158,159,160,161,162,163,164,165,166,167,168,169,170,171,172,173,174,175,176,177,178,179,180,181,182,183,184,185,186,187,188,189,190,191,192,193,194,195,196,197,198,199,200,201,202,203,204,205,206,207,208,209,210,211,212,213,214,215,216,217,218,219,220,221,222,223,224,225,226,227,228,229,230,231,232,233,234,235,236,237,238,239,240,241,242,243,244,245,246,247,248,249,250,251,252,253,254,255,256,257,258,259,260,261,262,263,264,265,266,267,268,269,270,271,272,273,274,275,276,277,278,279,280,281,282,283,284,285,286,287,288,289,290,291,292,293,294,295,296,297,298,299,300,301,302,303,304,305,306,307,308,309,310,311,312,313,314,315,316,317,318,319,320,321,322,323,324,325,326,327,328,329,330,331,332,333,334,335,336,337,338,339,340,341,342,343,344,345,346,347,348,349,350,351,352,353,354,355,356,357,358,359,360,361,362,363,364,365,366,367,368,369,370,371,372,373,374,375,376,377,378,379,380,381,382,383,384,385,386,387,388,389,390,391,392,393,394,395,396,397,398,399,400,401,402,403,404,405,406,407,408,409,410,411,412,413,414,415,416,417,418,419,420,421,422,423,424,425,426,427,428,429,430,431,432,433,434,435,436,437,438,439,440,441,442,443,444,445,446,447,448,449,450,451,452,453,454,455,456,457,458,459,460,461,462,463,464,465,466,467,468,469,470,471,472,473,474,475,476,477,478,479,480,481,482,483,484,485,486,487,488,489,490,491,492,493,494,495,496,497,498,499,500,501,502,503,504,505,506,507,508,509,510,511,512,513,514,515,516,517,518,519,520,521,522,523,524,525,526,527,528,529,530,531,532,533],"tree_info":[0,0,0,0,0,0,0,0,0,0,0,0,0,0,0,0,0,0,0,0,0,0,0,0,0,0,0,0,0,0,0,0,0,0,0,0,0,0,0,0,0,0,0,0,0,0,0,0,0,0,0,0,0,0,0,0,0,0,0,0,0,0,0,0,0,0,0,0,0,0,0,0,0,0,0,0,0,0,0,0,0,0,0,0,0,0,0,0,0,0,0,0,0,0,0,0,0,0,0,0,0,0,0,0,0,0,0,0,0,0,0,0,0,0,0,0,0,0,0,0,0,0,0,0,0,0,0,0,0,0,0,0,0,0,0,0,0,0,0,0,0,0,0,0,0,0,0,0,0,0,0,0,0,0,0,0,0,0,0,0,0,0,0,0,0,0,0,0,0,0,0,0,0,0,0,0,0,0,0,0,0,0,0,0,0,0,0,0,0,0,0,0,0,0,0,0,0,0,0,0,0,0,0,0,0,0,0,0,0,0,0,0,0,0,0,0,0,0,0,0,0,0,0,0,0,0,0,0,0,0,0,0,0,0,0,0,0,0,0,0,0,0,0,0,0,0,0,0,0,0,0,0,0,0,0,0,0,0,0,0,0,0,0,0,0,0,0,0,0,0,0,0,0,0,0,0,0,0,0,0,0,0,0,0,0,0,0,0,0,0,0,0,0,0,0,0,0,0,0,0,0,0,0,0,0,0,0,0,0,0,0,0,0,0,0,0,0,0,0,0,0,0,0,0,0,0,0,0,0,0,0,0,0,0,0,0,0,0,0,0,0,0,0,0,0,0,0,0,0,0,0,0,0,0,0,0,0,0,0,0,0,0,0,0,0,0,0,0,0,0,0,0,0,0,0,0,0,0,0,0,0,0,0,0,0,0,0,0,0,0,0,0,0,0,0,0,0,0,0,0,0,0,0,0,0,0,0,0,0,0,0,0,0,0,0,0,0,0,0,0,0,0,0,0,0,0,0,0,0,0,0,0,0,0,0,0,0,0,0,0,0,0,0,0,0,0,0,0,0,0,0,0,0,0,0,0,0,0,0,0,0,0,0,0,0,0,0,0,0,0,0,0,0,0,0,0,0,0,0,0,0,0,0,0,0,0,0,0,0,0,0,0,0,0,0,0,0,0,0,0,0,0,0,0,0,0,0,0,0,0,0,0,0,0,0,0,0,0,0,0,0,0,0,0,0,0,0,0,0,0,0,0,0],"trees":[{"base_weights":[-1.5884029E-2,-9.421362E0,3.17652E1,-1.2836121E1,2.569373E0,2.1225538E1,5.2555016E1,-1.5598903E1,-9.679585E0,-1.2184323E0,1.0038595E1,1.6064285E1,3.9142834E1,8.662785E1,4.8520477E1,1.4351431E1,-1.5708167E1,-1.0118871E1,1.2933313E1,-4.4181976E0,1.5530801E0,1.1038565E1,-2.723845E0,2.235317E1,3.2581415E0,3.4355827E1,7.5381516E1,1.04327034E2,4.225178E1,1.3941318E1,5.3306187E1,5.672973E0,2.2481856E0,-4.137924E0,-2.7507732E0,-2.054804E0,-3.1296303E0,1.6984411E0,7.751973E0,1.6910271E-1,-1.4417659E0,2.7513642E-2,2.5549529E0,3.6535647E0,1.5277364E0,1.4253206E0,-2.8143747E0,4.5535386E-1,5.986332E0,-1.01824574E-1,2.8833573E0,1.1258306E1,6.1508446E0,2.5210022E1,1.6581598E1,2.3699066E1,5.817342E1,6.359068E0,1.721914E1,1.6583977E0,1.0104406E1,1.1483035E1,1.6934908E1],"categories":[],"categories_nodes":[],"categories_segments":[],"categories_sizes":[],"default_left":[0,0,0,0,0,0,0,0,0,0,0,0,0,0,0,0,0,0,0,0,0,0,0,0,0,0,0,0,0,0,0,0,0,0,0,0,0,0,0,0,0,0,0,0,0,0,0,0,0,0,0,0,0,0,0,0,0,0,0,0,0,0,0],"id":0,"left_children":[1,3,5,7,9,11,13,15,17,19,21,23,25,27,29,31,33,35,37,39,41,43,45,47,49,51,53,55,57,59,61,-1,-1,-1,-1,-1,-1,-1,-1,-1,-1,-1,-1,-1,-1,-1,-1,-1,-1,-1,-1,-1,-1,-1,-1,-1,-1,-1,-1,-1,-1,-1,-1],"loss_changes":[1.2880352E6,1.3614744E5,2.1557856E5,2.2560938E4,2.0853986E4,6.0364125E4,4.5399062E4,4.520375E3,1.2001445E4,4.337503E3,3.1677207E3,4.0825953E4,2.5259094E4,2.7391688E4,4.895775E4,2.0943066E2,3.9044688E3,5.2896953E3,2.5161633E3,1.4535176E3,3.2175837E3,3.8601543E3,1.2574626E3,8.494531E3,4.949217E3,1.3006734E4,3.9502344E3,3.393247E4,4.353176E3,6.8830034E3,2.8063188E4,0E0,0E0,0E0,0E0,0E0,0E0,0E0,0E0,0E0,0E0,0E0,0E0,0E0,0E0,0E0,0E0,0E0,0E0,0E0,0E0,0E0,0E0,0E0,0E0,0E0,0E0,0E0,0E0,0E0,0E0,0E0,0E0],"parents":[2147483647,0,0,1,1,2,2,3,3,4,4,5,5,6,6,7,7,8,8,9,9,10,10,11,11,12,12,13,13,14,14,15,15,16,16,17,17,18,18,19,19,20,20,21,21,22,22,23,23,24,24,25,25,26,26,27,27,28,28,29,29,30,30],"right_children":[2,4,6,8,10,12,14,16,18,20,22,24,26,28,30,32,34,36,38,40,42,44,46,48,50,52,54,56,58,60,62,-1,-1,-1,-1,-1,-1,-1,-1,-1,-1,-1,-1,-1,-1,-1,-1,-1,-1,-1,-1,-1,-1,-1,-1,-1,-1,-1,-1,-1,-1,-1,-1],"split_conditions":[8.660254E-1,8.60961E-1,1E0,1.6666666E1,3.1428572E1,4.071429E0,2.2428572E1,3.4494267E1,3E0,6.7505E2,2.98E1,2.255E1,1.2842857E2,9.611298E-1,4.792857E1,8.5E1,9.7604297E2,7.8916664E1,7.6166664E1,7.1428575E-2,3.5731075E0,5E0,1.6641118E-1,4.454902E0,6.2533333E1,1.5E1,9.6833336E1,1.2357142E1,9.7601056E-1,1.4366666E1,2.4076344E1,5.672973E0,2.2481856E0,-4.137924E0,-2.7507732E0,-2.054804E0,-3.1296303E0,1.6984411E0,7.751973E0,1.6910271E-1,-1.4417659E0,2.7513642E-2,2.5549529E0,3.6535647E0,1.5277364E0,1.4253206E0,-2.8143747E0,4.5535386E-1,5.986332E0,-1.01824574E-1,2.8833573E0,1.1258306E1,6.1508446E0,2.5210022E1,1.6581598E1,2.3699066E1,5.817342E1,6.359068E0,1.721914E1,1.6583977E0,1.0104406E1,1.1483035E1,1.6934908E1],"split_indices":[14,17,14,5,7,35,7,23,35,40,19,20,6,16,7,4,26,27,8,35,28,12,29,10,8,12,8,35,16,10,10,0,0,0,0,0,0,0,0,0,0,0,0,0,0,0,0,0,0,0,0,0,0,0,0,0,0,0,0,0,0,0,0],"split_type":[0,0,0,0,0,0,0,0,0,0,0,0,0,0,0,0,0,0,0,0,0,0,0,0,0,0,0,0,0,0,0,0,0,0,0,0,0,0,0,0,0,0,0,0,0,0,0,0,0,0,0,0,0,0,0,0,0,0,0,0,0,0,0],"sum_hessian":[4.309E3,3.325E3,9.84E2,2.588E3,7.37E2,6.53E2,3.31E2,1.38E3,1.208E3,4.89E2,2.48E2,5.07E2,1.46E2,3.5E1,2.96E2,5E0,1.375E3,1.185E3,2.3E1,2.27E2,2.62E2,2.3E2,1.8E1,3.4E2,1.67E2,1.29E2,1.7E1,2.5E1,1E1,3.6E1,2.6E2,2E0,3E0,1.228E3,1.47E2,6.17E2,5.68E2,1.7E1,6E0,4.5E1,1.82E2,2.24E2,3.8E1,1.38E2,9.2E1,9E0,9E0,1.9E1,3.21E2,1.15E2,5.2E1,6.5E1,6.4E1,5E0,1.2E1,2.3E1,2E0,6E0,4E0,2.8E1,8E0,1.62E2,9.8E1],"tree_param":{"num_deleted":"0","num_feature":"45","num_nodes":"63","size_leaf_vector":"1"}},{"base_weights":[-4.5623112E-2,-7.0451374E0,2.3617496E1,-9.891739E0,7.8036416E-1,1.4998284E1,4.0058357E1,-1.0475745E1,-7.190211E-1,-1.8936003E0,6.930099E0,5.4902005E0,2.1402042E1,3.1389484E1,4.872166E1,-1.1503341E1,-7.419186E0,-1.9520077E0,2.3498985E1,-3.7723157E0,7.152813E-1,9.282758E0,2.803495E0,-3.061236E0,1.0151231E1,1.76117E1,4.3063972E1,2.8938099E1,5.4606056E1,9.8747505E1,4.52046E1,-3.196858E0,-2.5152662E0,-2.8114016E0,-1.614824E0,-5.745811E-2,-2.5737844E0,7.0083733E0,5.146515E0,-1.0103103E0,2.6941981E0,-1.6078396E0,4.1854578E-1,2.4982271E0,-5.4130063E0,-1.1131946E0,2.2283747E0,-2.0758073E0,1.7330886E0,4.001607E0,6.524739E-1,3.813446E0,1.0527259E1,2.4672361E1,9.005826E0,9.824622E0,6.371759E0,6.343076E0,1.5590733E1,1.5965573E1,4.087925E1,1.2010917E1,-4.587049E0],"categories":[],"categories_nodes":[],"categories_segments":[],"categories_sizes":[],"default_left":[0,0,0,0,0,0,0,0,0,0,0,0,0,0,0,0,0,0,0,0,0,0,0,0,0,0,0,0,0,0,0,0,0,0,0,0,0,0,0,0,0,0,0,0,0,0,0,0,0,0,0,0,0,0,0,0,0,0,0,0,0,0,0],"id":1,"left_children":[1,3,5,7,9,11,13,15,17,19,21,23,25,27,29,31,33,35,37,39,41,43,45,47,49,51,53,55,57,59,61,-1,-1,-1,-1,-1,-1,-1,-1,-1,-1,-1,-1,-1,-1,-1,-1,-1,-1,-1,-1,-1,-1,-1,-1,-1,-1,-1,-1,-1,-1,-1,-1],"loss_changes":[7.088996E5,7.3580625E4,1.3842688E5,1.2971766E4,1.4489032E4,3.902147E4,2.5189562E4,7.1458906E3,4.325935E3,3.0102893E3,2.588995E3,1.0286422E4,3.142039E4,9.514906E3,2.9449625E4,2.9464062E3,2.214295E3,1.9462048E3,7.1821045E1,1.0539087E3,1.6878707E3,2.8784307E3,4.1640015E3,4.6000786E3,7.091449E3,2.016068E4,2.3360969E4,5.6722656E3,3.169461E3,2.4364656E4,2.072825E4,0E0,0E0,0E0,0E0,0E0,0E0,0E0,0E0,0E0,0E0,0E0,0E0,0E0,0E0,0E0,0E0,0E0,0E0,0E0,0E0,0E0,0E0,0E0,0E0,0E0,0E0,0E0,0E0,0E0,0E0,0E0,0E0],"parents":[2147483647,0,0,1,1,2,2,3,3,4,4,5,5,6,6,7,7,8,8,9,9,10,10,11,11,12,12,13,13,14,14,15,15,16,16,17,17,18,18,19,19,20,20,21,21,22,22,23,23,24,24,25,25,26,26,27,27,28,28,29,29,30,30],"right_children":[2,4,6,8,10,12,14,16,18,20,22,24,26,28,30,32,34,36,38,40,42,44,46,48,50,52,54,56,58,60,62,-1,-1,-1,-1,-1,-1,-1,-1,-1,-1,-1,-1,-1,-1,-1,-1,-1,-1,-1,-1,-1,-1,-1,-1,-1,-1,-1,-1,-1,-1,-1,-1],"split_conditions":[8.660254E-1,7.383264E-1,4.142857E0,4.2857143E-1,3.0571428E1,5.591699E-2,8E0,4E1,6.0785713E1,2.5333334E1,9.880227E-1,-3.3346877E-1,1.9875437E1,1.6E1,4.3E1,4.6202402E2,1.4333333E1,6.5E1,2.50265E1,4.2E1,2.24E1,2.7142856E0,3.65E1,1.6428572E0,2.9009836E1,3E0,8.5714287E-1,-5.38389E-1,4.794873E0,8.1E1,1.7014285E2,-3.196858E0,-2.5152662E0,-2.8114016E0,-1.614824E0,-5.745811E-2,-2.5737844E0,7.0083733E0,5.146515E0,-1.0103103E0,2.6941981E0,-1.6078396E0,4.1854578E-1,2.4982271E0,-5.4130063E0,-1.1131946E0,2.2283747E0,-2.0758073E0,1.7330886E0,4.001607E0,6.524739E-1,3.813446E0,1.0527259E1,2.4672361E1,9.005826E0,9.824622E0,6.371759E0,6.343076E0,1.5590733E1,1.5965573E1,4.087925E1,1.2010917E1,-4.587049E0],"split_indices":[14,17,34,35,7,17,34,12,7,5,17,17,10,31,2,40,8,3,20,2,8,35,7,35,21,34,35,29,28,1,42,0,0,0,0,0,0,0,0,0,0,0,0,0,0,0,0,0,0,0,0,0,0,0,0,0,0,0,0,0,0,0,0],"split_type":[0,0,0,0,0,0,0,0,0,0,0,0,0,0,0,0,0,0,0,0,0,0,0,0,0,0,0,0,0,0,0,0,0,0,0,0,0,0,0,0,0,0,0,0,0,0,0,0,0,0,0,0,0,0,0,0,0,0,0,0,0,0,0],"sum_hessian":[4.28E3,3.303E3,9.77E2,2.422E3,8.81E2,6.41E2,3.36E2,2.277E3,1.45E2,6.14E2,2.67E2,2.58E2,3.83E2,1.68E2,1.68E2,1.704E3,5.73E2,1.38E2,7E0,3.57E2,2.57E2,1.7E2,9.7E1,9.1E1,1.67E2,3.26E2,5.7E1,1.52E2,1.6E1,1.1E1,1.57E2,1.016E3,6.88E2,1.29E2,4.44E2,1.14E2,2.4E1,3E0,4E0,3.52E2,5E0,3E1,2.27E2,1.67E2,3E0,4.4E1,5.3E1,6E1,3.1E1,9.6E1,7.1E1,2.94E2,3.2E1,7E0,5E1,4.3E1,1.09E2,3E0,1.3E1,7E0,4E0,1.52E2,5E0],"tree_param":{"num_deleted":"0","num_feature":"45","num_nodes":"63","size_leaf_vector":"1"}},{"base_weights":[1.3115646E-2,1.5316836E1,-6.118333E0,8.918917E0,2.998057E1,-8.000712E0,-2.6878116E0,6.483763E0,1.9575079E1,2.2193586E1,3.708485E1,-8.602637E0,-4.7713084E0,-3.6262474E0,1.5988334E0,4.6354504E0,1.402213E1,2.3700438E1,4.9481826E0,3.893332E1,1.8377996E1,3.9616245E1,-5.2324476E0,-2.4556754E0,-8.936614E0,-7.477397E0,-3.4296122E0,-5.284364E0,-1.2906549E0,-1.5136433E-1,1.2976807E1,-2.104045E0,1.3834001E0,4.8132825E0,-8.551153E-2,5.504098E0,2.1380577E1,-3.1977016E-1,4.27966E0,2.7561579E0,1.1803473E1,4.21835E0,1.1431761E1,8.818094E0,1.6699749E1,4.885885E0,-4.8922977E0,2.268762E0,-1.0940086E0,-2.2855992E0,1.8635815E0,2.3658745E0,-1.9846288E0,1.0928979E-1,-1.0176603E0,-2.256918E0,-1.2427032E0,1.0859011E0,-4.2609864E-1,-4.0907112E-1,2.8820584E0,7.2761188E0,2.7690792E0],"categories":[],"categories_nodes":[],"categories_segments":[],"categories_sizes":[],"default_left":[0,0,0,0,0,0,0,0,0,0,0,0,0,0,0,0,0,0,0,0,0,0,0,0,0,0,0,0,0,0,0,0,0,0,0,0,0,0,0,0,0,0,0,0,0,0,0,0,0,0,0,0,0,0,0,0,0,0,0,0,0,0,0],"id":2,"left_children":[1,3,5,7,9,11,13,15,17,19,21,23,25,27,29,31,33,35,37,39,41,43,45,47,49,51,53,55,57,59,61,-1,-1,-1,-1,-1,-1,-1,-1,-1,-1,-1,-1,-1,-1,-1,-1,-1,-1,-1,-1,-1,-1,-1,-1,-1,-1,-1,-1,-1,-1,-1,-1],"loss_changes":[4.0283475E5,1.1519541E5,1.9789547E4,2.2178742E4,2.0607219E4,3.8430234E3,4.369352E3,9.692203E3,9.586422E3,1.13441875E4,2.0902406E4,3.4212344E3,1.1261733E3,3.4489395E3,3.8866184E3,5.8590146E3,9.701121E3,1.5167633E4,2.5910117E3,6.967617E3,6.806426E3,2.3490344E4,3.7885522E3,1.8133832E3,1.6026094E3,5.8289795E2,4.6424902E2,7.308164E2,7.9647943E2,2.833913E3,8.308877E2,0E0,0E0,0E0,0E0,0E0,0E0,0E0,0E0,0E0,0E0,0E0,0E0,0E0,0E0,0E0,0E0,0E0,0E0,0E0,0E0,0E0,0E0,0E0,0E0,0E0,0E0,0E0,0E0,0E0,0E0,0E0,0E0],"parents":[2147483647,0,0,1,1,2,2,3,3,4,4,5,5,6,6,7,7,8,8,9,9,10,10,11,11,12,12,13,13,14,14,15,15,16,16,17,17,18,18,19,19,20,20,21,21,22,22,23,23,24,24,25,25,26,26,27,27,28,28,29,29,30,30],"right_children":[2,4,6,8,10,12,14,16,18,20,22,24,26,28,30,32,34,36,38,40,42,44,46,48,50,52,54,56,58,60,62,-1,-1,-1,-1,-1,-1,-1,-1,-1,-1,-1,-1,-1,-1,-1,-1,-1,-1,-1,-1,-1,-1,-1,-1,-1,-1,-1,-1,-1,-1,-1,-1],"split_conditions":[1.12E2,3.4285715E0,2.04E1,4.6857143E1,6.714286E0,4.3E1,3.6142857E1,1.6372887E1,2.8641665E1,3E1,5.289202E1,1.43E2,1.39E1,4.7E1,4.4E1,2.2357143E1,2.8470833E1,1.01E2,7.342857E1,2.1347692E1,3.1752083E1,1.41E2,1.3657143E2,3.592755E1,7.1428573E-1,2.94E2,2.710379E0,1.6285715E1,4.1446056E1,9.8E1,2.87E1,-2.104045E0,1.3834001E0,4.8132825E0,-8.551153E-2,5.504098E0,2.1380577E1,-3.1977016E-1,4.27966E0,2.7561579E0,1.1803473E1,4.21835E0,1.1431761E1,8.818094E0,1.6699749E1,4.885885E0,-4.8922977E0,2.268762E0,-1.0940086E0,-2.2855992E0,1.8635815E0,2.3658745E0,-1.9846288E0,1.0928979E-1,-1.0176603E0,-2.256918E0,-1.2427032E0,1.0859011E0,-4.2609864E-1,-4.0907112E-1,2.8820584E0,7.2761188E0,2.7690792E0],"split_indices":[13,34,0,42,34,12,7,10,21,4,10,13,4,12,12,7,21,3,42,23,21,0,7,23,34,13,10,7,23,3,2,0,0,0,0,0,0,0,0,0,0,0,0,0,0,0,0,0,0,0,0,0,0,0,0,0,0,0,0,0,0,0,0],"split_type":[0,0,0,0,0,0,0,0,0,0,0,0,0,0,0,0,0,0,0,0,0,0,0,0,0,0,0,0,0,0,0,0,0,0,0,0,0,0,0,0,0,0,0,0,0,0,0,0,0,0,0,0,0,0,0,0,0,0,0,0,0,0,0],"sum_hessian":[4.293E3,1.228E3,3.065E3,8.55E2,3.73E2,1.979E3,1.086E3,6.96E2,1.59E2,1.78E2,1.95E2,1.668E3,3.11E2,8.91E2,1.95E2,5.59E2,1.37E2,1.24E2,3.5E1,3.3E1,1.45E2,1.84E2,1.1E1,8.6E1,1.582E3,1.03E2,2.08E2,5.21E2,3.7E2,1.69E2,2.6E1,3.3E1,5.26E2,1.02E2,3.5E1,1.2E2,4E0,2.3E1,1.2E1,7E0,2.6E1,1.36E2,9E0,1.55E2,2.9E1,4E0,7E0,1.2E1,7.4E1,1.576E3,6E0,2E0,1.01E2,2.7E1,1.81E2,5.1E1,4.7E2,2.4E1,3.46E2,1.5E2,1.9E1,3E0,2.3E1],"tree_param":{"num_deleted":"0","num_feature":"45","num_nodes":"63","size_leaf_vector":"1"}},{"base_weights":[2.8568504E-2,-3.9739313E0,1.3468787E1,-5.3324947E0,6.430845E-1,8.409783E0,2.3254887E1,-6.796841E0,-3.908413E0,-8.7073565E-1,3.8142369E0,7.6214824E0,3.612809E1,1.6938765E1,3.202988E1,-2.0028423E-1,-7.017603E0,-4.099745E0,9.706804E0,-1.3833814E0,7.3367624E0,-1.2972596E0,6.3556395E0,9.850339E0,-3.004002E-2,5.4235653E1,2.6989058E1,1.9039501E1,1.6028942E1,4.99327E1,2.4929914E1,-2.860555E-1,2.8925104E0,-1.8667676E0,-1.3019819E0,-6.465272E-1,-1.2724929E0,-1.375653E0,2.9503214E0,-6.846903E-1,7.490072E-2,2.7075882E0,-9.012932E-1,5.979302E-1,-1.3296278E0,7.422705E-1,2.3564575E0,1.8141428E0,3.3555677E0,-1.6514829E0,1.0192119E0,1.7884298E1,1.1637154E1,1.1002831E1,5.4470196E0,6.1015453E0,2.69282E0,7.429965E0,1.8472372E1,1.5421639E1,5.32964E0],"categories":[],"categories_nodes":[],"categories_segments":[],"categories_sizes":[],"default_left":[0,0,0,0,0,0,0,0,0,0,0,0,0,0,0,0,0,0,0,0,0,0,0,0,0,0,0,0,0,0,0,0,0,0,0,0,0,0,0,0,0,0,0,0,0,0,0,0,0,0,0,0,0,0,0,0,0,0,0,0,0],"id":3,"left_children":[1,3,5,7,9,11,13,15,17,19,21,23,25,27,29,31,33,35,37,39,41,43,45,47,49,51,53,-1,55,57,59,-1,-1,-1,-1,-1,-1,-1,-1,-1,-1,-1,-1,-1,-1,-1,-1,-1,-1,-1,-1,-1,-1,-1,-1,-1,-1,-1,-1,-1,-1],"loss_changes":[2.3185833E5,2.083229E4,4.895322E4,5.3480234E3,3.6252634E3,1.423157E4,1.8657703E4,1.8404531E3,3.3885273E3,2.148879E3,3.1712283E3,1.0814977E4,2.9367559E3,1.0305238E4,1.788511E4,4.3791324E2,7.654414E2,1.8131953E3,5.227676E2,1.0600339E3,1.088301E3,1.1657897E3,1.6320493E3,4.4622617E3,3.7432278E3,7.3563477E2,1.0562539E3,0E0,8.360711E3,1.8803547E4,1.4224543E4,0E0,0E0,0E0,0E0,0E0,0E0,0E0,0E0,0E0,0E0,0E0,0E0,0E0,0E0,0E0,0E0,0E0,0E0,0E0,0E0,0E0,0E0,0E0,0E0,0E0,0E0,0E0,0E0,0E0,0E0],"parents":[2147483647,0,0,1,1,2,2,3,3,4,4,5,5,6,6,7,7,8,8,9,9,10,10,11,11,12,12,13,13,14,14,15,15,16,16,17,17,18,18,19,19,20,20,21,21,22,22,23,23,24,24,25,25,26,26,28,28,29,29,30,30],"right_children":[2,4,6,8,10,12,14,16,18,20,22,24,26,28,30,32,34,36,38,40,42,44,46,48,50,52,54,-1,56,58,60,-1,-1,-1,-1,-1,-1,-1,-1,-1,-1,-1,-1,-1,-1,-1,-1,-1,-1,-1,-1,-1,-1,-1,-1,-1,-1,-1,-1,-1,-1],"split_conditions":[8.660254E-1,8.5207754E-1,1E0,1.6E1,2.8733334E1,1.27E2,6.857143E0,1.43E2,3.357143E0,4E1,9.708333E0,1.09E2,2.165E1,6.4285713E-1,8.285714E0,3.515E1,2.79E2,2.5410418E1,4.2E1,2.7E1,5.936168E0,2.84265E1,7.386582E0,2E0,5.1788306E0,2.8206253E1,-9.891318E-1,1.9039501E1,2.6439003E1,1.6710419E1,1E0,-2.860555E-1,2.8925104E0,-1.8667676E0,-1.3019819E0,-6.465272E-1,-1.2724929E0,-1.375653E0,2.9503214E0,-6.846903E-1,7.490072E-2,2.7075882E0,-9.012932E-1,5.979302E-1,-1.3296278E0,7.422705E-1,2.3564575E0,1.8141428E0,3.3555677E0,-1.6514829E0,1.0192119E0,1.7884298E1,1.1637154E1,1.1002831E1,5.4470196E0,6.1015453E0,2.69282E0,7.429965E0,1.8472372E1,1.5421639E1,5.32964E0],"split_indices":[14,17,14,0,8,42,34,13,35,1,27,13,20,35,35,19,13,21,3,0,9,19,25,31,28,21,30,0,21,9,39,0,0,0,0,0,0,0,0,0,0,0,0,0,0,0,0,0,0,0,0,0,0,0,0,0,0,0,0,0,0],"split_type":[0,0,0,0,0,0,0,0,0,0,0,0,0,0,0,0,0,0,0,0,0,0,0,0,0,0,0,0,0,0,0,0,0,0,0,0,0,0,0,0,0,0,0,0,0,0,0,0,0,0,0,0,0,0,0,0,0,0,0,0,0],"sum_hessian":[4.31E3,3.321E3,9.89E2,2.566E3,7.55E2,6.52E2,3.37E2,1.265E3,1.301E3,5.11E2,2.44E2,6.34E2,1.8E1,1.96E2,1.41E2,4.1E1,1.224E3,1.283E3,1.8E1,4.81E2,3E1,8.1E1,1.63E2,4.91E2,1.43E2,6E0,1.2E1,3E0,1.93E2,4E1,1.01E2,3.8E1,3E0,1.041E3,1.83E2,4.74E2,8.09E2,2E0,1.6E1,2.7E2,2.11E2,2.3E1,7E0,4.2E1,3.9E1,7.5E1,8.8E1,2.72E2,2.19E2,5.5E1,8.8E1,2E0,4E0,3E0,9E0,7.8E1,1.15E2,2.1E1,1.9E1,1E1,9.1E1],"tree_param":{"num_deleted":"0","num_feature":"45","num_nodes":"61","size_leaf_vector":"1"}},{"base_weights":[4.7346193E-2,-2.9743018E0,1.0229834E1,-4.178531E0,2.2745912E-1,6.441282E0,1.756873E1,-4.5866003E0,-4.587474E-1,-8.331402E-1,3.825197E0,3.7725425E0,1.0920553E1,3.6267704E1,1.5322083E1,-5.119577E0,-2.7005806E0,-8.8979286E-1,1.3760081E1,-1.8106817E0,8.5856795E-1,-5.3876154E-2,5.895547E0,2.2454896E0,1.7428957E1,1.0131555E1,4.1926968E1,4.8606194E1,4.135092E0,1.3344034E1,3.803358E1,-1.4113218E0,-1.0379242E0,-1.2234367E0,-4.530288E-1,1.03465654E-1,-1.0915811E0,4.67527E0,2.5781336E0,-6.9322324E-1,8.702837E-2,6.000129E-1,-8.216064E-1,-3.7121516E-1,3.8987806E0,4.68426E0,1.2686766E0,2.092133E0,1.113149E-1,3.7832363E0,8.14884E0,3.3225992E0,9.216238E-1,1.2798805E1,6.246061E0,8.23502E0,2.0072027E1,-1.1924858E0,9.984357E0,5.6321287E0,2.2112725E0,2.275598E1,7.0204296E0],"categories":[],"categories_nodes":[],"categories_segments":[],"categories_sizes":[],"default_left":[0,0,0,0,0,0,0,0,0,0,0,0,0,0,0,0,0,0,0,0,0,0,0,0,0,0,0,0,0,0,0,0,0,0,0,0,0,0,0,0,0,0,0,0,0,0,0,0,0,0,0,0,0,0,0,0,0,0,0,0,0,0,0],"id":4,"left_children":[1,3,5,7,9,11,13,15,17,19,21,23,25,27,29,31,33,35,37,39,41,43,45,47,49,51,53,55,57,59,61,-1,-1,-1,-1,-1,-1,-1,-1,-1,-1,-1,-1,-1,-1,-1,-1,-1,-1,-1,-1,-1,-1,-1,-1,-1,-1,-1,-1,-1,-1,-1,-1],"loss_changes":[1.3270472E5,1.2824939E4,2.743511E4,3.6676172E3,3.469361E3,7.778039E3,1.4094094E4,2.1872422E3,1.4620646E3,1.1611912E3,1.6639663E3,8.503439E3,5.9253516E3,1.4263633E4,1.3457016E4,7.6396484E2,9.297446E2,1.0266263E3,1.07638306E2,8.809082E2,1.582012E3,1.5586742E3,1.5184023E3,3.9719885E3,1.5034346E3,4.542209E3,8.4344824E2,1.2737586E4,3.1228804E3,1.1293648E4,1.2799031E4,0E0,0E0,0E0,0E0,0E0,0E0,0E0,0E0,0E0,0E0,0E0,0E0,0E0,0E0,0E0,0E0,0E0,0E0,0E0,0E0,0E0,0E0,0E0,0E0,0E0,0E0,0E0,0E0,0E0,0E0,0E0,0E0],"parents":[2147483647,0,0,1,1,2,2,3,3,4,4,5,5,6,6,7,7,8,8,9,9,10,10,11,11,12,12,13,13,14,14,15,15,16,16,17,17,18,18,19,19,20,20,21,21,22,22,23,23,24,24,25,25,26,26,27,27,28,28,29,29,30,30],"right_children":[2,4,6,8,10,12,14,16,18,20,22,24,26,28,30,32,34,36,38,40,42,44,46,48,50,52,54,56,58,60,62,-1,-1,-1,-1,-1,-1,-1,-1,-1,-1,-1,-1,-1,-1,-1,-1,-1,-1,-1,-1,-1,-1,-1,-1,-1,-1,-1,-1,-1,-1,-1,-1],"split_conditions":[8.660254E-1,7.146734E-1,1E0,6.4862955E-1,3.2714287E1,4.6285713E1,2.2428572E1,9.750449E2,6.0785713E1,2.0146109E2,9.708333E0,9.791346E2,1.9857143E1,7.5E1,8.2066666E1,1.8571428E1,9.0859886E1,9.322272E0,2.50265E1,2.3571428E1,5.7175064E1,4.8044406E2,-7.841251E-1,2.33E1,2.0846905E1,2.37E1,-8.1167746E-1,9.3E1,1.3714286E1,2.01765E1,1.03E1,-1.4113218E0,-1.0379242E0,-1.2234367E0,-4.530288E-1,1.03465654E-1,-1.0915811E0,4.67527E0,2.5781336E0,-6.9322324E-1,8.702837E-2,6.000129E-1,-8.216064E-1,-3.7121516E-1,3.8987806E0,4.68426E0,1.2686766E0,2.092133E0,1.113149E-1,3.7832363E0,8.14884E0,3.3225992E0,9.216238E-1,1.2798805E1,6.246061E0,8.23502E0,2.0072027E1,-1.1924858E0,9.984357E0,5.6321287E0,2.2112725E0,2.275598E1,7.0204296E0],"split_indices":[14,17,14,16,7,42,7,26,7,41,27,26,34,13,8,7,41,9,20,7,23,41,29,8,10,20,30,0,35,20,33,0,0,0,0,0,0,0,0,0,0,0,0,0,0,0,0,0,0,0,0,0,0,0,0,0,0,0,0,0,0,0,0],"split_type":[0,0,0,0,0,0,0,0,0,0,0,0,0,0,0,0,0,0,0,0,0,0,0,0,0,0,0,0,0,0,0,0,0,0,0,0,0,0,0,0,0,0,0,0,0,0,0,0,0,0,0,0,0,0,0,0,0,0,0,0,0,0,0],"sum_hessian":[4.313E3,3.326E3,9.87E2,2.417E3,9.09E2,6.51E2,3.36E2,2.178E3,2.39E2,7.02E2,2.07E2,4.08E2,2.43E2,3.6E1,3E2,1.698E3,4.8E2,2.32E2,7E0,4.45E2,2.57E2,7.2E1,1.35E2,3.67E2,4.1E1,2.37E2,6E0,2.6E1,1E1,2.76E2,2.4E1,1.193E3,5.05E2,1.45E2,3.35E2,1.68E2,6.4E1,3E0,4E0,3.12E2,1.33E2,1.88E2,6.9E1,6.6E1,6E0,9E0,1.26E2,8.5E1,2.82E2,3.5E1,6E0,1.63E2,7.4E1,4E0,2E0,1.7E1,9E0,8E0,2E0,9.5E1,1.81E2,4E0,2E1],"tree_param":{"num_deleted":"0","num_feature":"45","num_nodes":"63","size_leaf_vector":"1"}},{"base_weights":[3.0600136E-2,6.5662804E0,-2.5980554E0,4.0161533E0,1.366944E1,-3.7546186E0,-1.5850949E0,1.7380903E0,7.376644E0,1.4151022E1,-9.662765E0,-3.8570602E0,5.9341607E0,-1.7429645E0,7.177831E0,1.9465376E0,-2.6177576E1,1.624463E1,4.24505E0,1.1026096E1,2.179112E1,-4.1289907E0,-1.1975563E0,-2.8289206E0,8.590368E0,-6.455193E-1,-2.8078823E0,-1.0439137E-1,1.61471E1,1.1343809E-1,1.6451964E0,-8.124877E0,-5.0853844E0,4.871893E0,-6.3199955E-1,-6.6111743E-1,1.6582732E0,2.0428286E0,4.94505E0,1.9400848E1,4.5849576E0,-1.0559652E0,3.556429E0,-5.865496E-1,1.6011528E0,3.912803E0,1.3997614E0,-2.300248E-1,1.5157595E0,-7.4305016E-1,1.4709988E0,-1.9390163E0,1.8784727E0,5.0861588E0,2.930597E0],"categories":[],"categories_nodes":[],"categories_segments":[],"categories_sizes":[],"default_left":[0,0,0,0,0,0,0,0,0,0,0,0,0,0,0,0,0,0,0,0,0,0,0,0,0,0,0,0,0,0,0,0,0,0,0,0,0,0,0,0,0,0,0,0,0,0,0,0,0,0,0,0,0,0,0],"id":5,"left_children":[1,3,5,7,9,11,13,15,17,19,-1,21,23,25,27,29,31,33,35,37,39,41,43,-1,45,47,49,51,53,-1,-1,-1,-1,-1,-1,-1,-1,-1,-1,-1,-1,-1,-1,-1,-1,-1,-1,-1,-1,-1,-1,-1,-1,-1,-1],"loss_changes":[7.415065E4,2.242021E4,3.6046816E3,6.9718086E3,8.147758E3,1.4261934E3,2.269102E3,3.1548828E3,1.0214094E4,7.7238125E3,0E0,1.027043E3,6.820488E2,1.8830903E3,1.8991697E3,3.6614202E3,1.2014697E2,5.2873047E3,4.2555425E3,5.784332E3,1.9146488E4,6.659258E2,1.1003477E3,0E0,2.6669727E2,1.3648436E3,8.271162E2,9.056346E2,2.2109863E2,0E0,0E0,0E0,0E0,0E0,0E0,0E0,0E0,0E0,0E0,0E0,0E0,0E0,0E0,0E0,0E0,0E0,0E0,0E0,0E0,0E0,0E0,0E0,0E0,0E0,0E0],"parents":[2147483647,0,0,1,1,2,2,3,3,4,4,5,5,6,6,7,7,8,8,9,9,11,11,12,12,13,13,14,14,15,15,16,16,17,17,18,18,19,19,20,20,21,21,22,22,24,24,25,25,26,26,27,27,28,28],"right_children":[2,4,6,8,10,12,14,16,18,20,-1,22,24,26,28,30,32,34,36,38,40,42,44,-1,46,48,50,52,54,-1,-1,-1,-1,-1,-1,-1,-1,-1,-1,-1,-1,-1,-1,-1,-1,-1,-1,-1,-1,-1,-1,-1,-1,-1,-1],"split_conditions":[1.7E1,4.142857E0,1.8E1,8E0,2.5E1,4.2857143E-1,1.24E2,6.407143E1,2.5297915E1,1.2E1,-9.662765E0,9.769073E2,3.7E1,2.5393166E1,1.6428572E0,3.888E2,6E1,7.042857E1,4.4191146E0,2.9439203E1,9.58E0,3.5E1,1.4285715E-1,-2.8289206E0,1.3928572E1,3.65E1,2.227854E1,4.7E1,3.0422915E1,1.1343809E-1,1.6451964E0,-8.124877E0,-5.0853844E0,4.871893E0,-6.3199955E-1,-6.6111743E-1,1.6582732E0,2.0428286E0,4.94505E0,1.9400848E1,4.5849576E0,-1.0559652E0,3.556429E0,-5.865496E-1,1.6011528E0,3.912803E0,1.3997614E0,-2.300248E-1,1.5157595E0,-7.4305016E-1,1.4709988E0,-1.9390163E0,1.8784727E0,5.0861588E0,2.930597E0],"split_indices":[12,34,7,12,34,34,4,7,21,31,0,26,12,21,35,41,0,7,28,9,33,0,34,0,7,7,9,27,21,0,0,0,0,0,0,0,0,0,0,0,0,0,0,0,0,0,0,0,0,0,0,0,0,0,0],"split_type":[0,0,0,0,0,0,0,0,0,0,0,0,0,0,0,0,0,0,0,0,0,0,0,0,0,0,0,0,0,0,0,0,0,0,0,0,0,0,0,0,0,0,0,0,0,0,0,0,0,0,0,0,0,0,0],"sum_hessian":[4.316E3,1.238E3,3.078E3,9.11E2,3.27E2,1.437E3,1.641E3,5.43E2,3.68E2,3.24E2,3E0,1.422E3,1.5E1,1.612E3,2.9E1,5.39E2,4E0,9.6E1,2.72E2,2.3E2,9.4E1,1.29E3,1.32E2,2E0,1.3E1,7.94E2,8.18E2,1.6E1,1.3E1,4.05E2,1.34E2,2E0,2E0,8.3E1,1.3E1,6.8E1,2.04E2,1.7E2,6E1,6E0,8.8E1,1.288E3,2E0,1.15E2,1.7E1,4E0,9E0,7.64E2,3E1,8.07E2,1.1E1,8E0,8E0,7E0,6E0],"tree_param":{"num_deleted":"0","num_feature":"45","num_nodes":"55","size_leaf_vector":"1"}},{"base_weights":[3.3497926E-2,-1.9176593E0,5.0047626E0,-1.9455992E0,1.0360133E1,3.1385033E0,9.941084E0,-2.7917666E0,-6.788675E-1,4.719381E0,2.2575723E-1,-2.2887495E1,1.0854905E1,-3.1095364E0,-1.3717903E0,5.055679E0,-9.05439E-1,4.3072853E0,2.776646E1,4.4099275E-2,7.0713553E0,-3.2757927E1,2.9272563E0,1.1588746E1,-2.792003E1,-1.4398935E0,-7.520225E-1,-4.2979228E-1,8.8023615E-1,5.4777956E0,1.0943093E0,-2.714463E-1,1.0264032E0,7.789647E-1,2.3017406E0,1.3101877E1,2.9830992E0,-1.3802754E0,2.7476233E-1,-1.0046396E1,-7.585154E0,2.5789783E0,8.667739E0,-9.641905E0,-5.7648153E0],"categories":[],"categories_nodes":[],"categories_segments":[],"categories_sizes":[],"default_left":[0,0,0,0,0,0,0,0,0,0,0,0,0,0,0,0,0,0,0,0,0,0,0,0,0,0,0,0,0,0,0,0,0,0,0,0,0,0,0,0,0,0,0,0,0],"id":6,"left_children":[1,3,5,7,-1,9,11,13,15,17,19,21,23,25,27,29,31,33,35,37,-1,39,-1,41,43,-1,-1,-1,-1,-1,-1,-1,-1,-1,-1,-1,-1,-1,-1,-1,-1,-1,-1,-1,-1],"loss_changes":[4.1777766E4,3.6827998E3,1.1180406E4,3.312296E3,0E0,4.0556162E3,9.991785E3,8.349844E2,1.6076249E3,5.413543E3,1.5485331E3,3.0745498E3,9.221508E3,5.738672E2,5.2508746E2,5.722606E2,9.6139246E2,3.3055107E3,3.7969443E3,1.750127E3,0E0,1.00890625E2,0E0,1.0267547E4,2.8612207E2,0E0,0E0,0E0,0E0,0E0,0E0,0E0,0E0,0E0,0E0,0E0,0E0,0E0,0E0,0E0,0E0,0E0,0E0,0E0,0E0],"parents":[2147483647,0,0,1,1,2,2,3,3,5,5,6,6,7,7,8,8,9,9,10,10,11,11,12,12,13,13,14,14,15,15,16,16,17,17,18,18,19,19,21,21,23,23,24,24],"right_children":[2,4,6,8,-1,10,12,14,16,18,20,22,24,26,28,30,32,34,36,38,-1,40,-1,42,44,-1,-1,-1,-1,-1,-1,-1,-1,-1,-1,-1,-1,-1,-1,-1,-1,-1,-1,-1,-1],"split_conditions":[5E-1,1E0,1E0,9.7485455E2,1.0360133E1,1.06E2,9.711003E2,2.3E1,3.9673763E1,3.2007755E1,1.15E2,2.9766083E1,1.5771428E2,1.0285714E1,5.1E1,2.8055738E1,1.0891237E1,2.0846905E1,7.4E1,6.824836E1,7.0713553E0,6.2605732E1,2.9272563E0,1.3433333E2,2.0686012E1,-1.4398935E0,-7.520225E-1,-4.2979228E-1,8.8023615E-1,5.4777956E0,1.0943093E0,-2.714463E-1,1.0264032E0,7.789647E-1,2.3017406E0,1.3101877E1,2.9830992E0,-1.3802754E0,2.7476233E-1,-1.0046396E1,-7.585154E0,2.5789783E0,8.667739E0,-9.641905E0,-5.7648153E0],"split_indices":[35,14,14,26,0,13,26,3,23,21,5,21,42,6,3,23,9,10,0,22,0,22,0,5,23,0,0,0,0,0,0,0,0,0,0,0,0,0,0,0,0,0,0,0,0],"split_type":[0,0,0,0,0,0,0,0,0,0,0,0,0,0,0,0,0,0,0,0,0,0,0,0,0,0,0,0,0,0,0,0,0,0,0,0,0,0,0,0,0,0,0,0,0],"sum_hessian":[4.307E3,3.093E3,1.214E3,3.091E3,2E0,8.81E2,3.33E2,1.853E3,1.238E3,5.71E2,3.1E2,9E0,3.24E2,1.514E3,3.39E2,4.7E1,1.191E3,5.61E2,1E1,3.08E2,2E0,7E0,2E0,3.18E2,6E0,8.3E1,1.431E3,3.18E2,2.1E1,2E0,4.5E1,1.153E3,3.8E1,4.45E2,1.16E2,4E0,6E0,4.9E1,2.59E2,2E0,5E0,2.99E2,1.9E1,2E0,4E0],"tree_param":{"num_deleted":"0","num_feature":"45","num_nodes":"45","size_leaf_vector":"1"}},{"base_weights":[7.3014004E-3,4.05077E0,-1.3375456E0,2.4018703E0,1.1405968E1,-1.525075E0,1.862575E0,3.171181E0,-1.0080253E1,3.053652E1,9.240187E0,-1.8448389E0,3.75589E-2,-7.054525E0,3.5182815E0,1.1748554E0,9.5636215E0,-1.4755889E1,9.058334E0,2.4260801E1,2.189483E1,2.9372044E0,1.7806389E1,-6.156509E0,-1.8269104E0,-2.9062486E-1,7.825379E0,-1.0534201E1,5.658135E0,5.8132577E0,-4.0802093E0,-1.7378223E0,4.2538545E-1,2.2665524E0,1.808712E1,-1.6832944E0,-4.934666E0,9.144328E0,-6.389902E-1,9.084703E0,5.3123584E0,5.2463765E0,-6.387893E-1,5.6583447E0,-3.7940466E0,-4.486659E-1,-2.1362343E0,7.655599E-2,-7.292042E-1,1.0614413E0,3.479372E0,-3.653811E0,-5.668416E-1,-8.2835174E-1,2.5836296E0,4.256652E-1,2.9632378E0,-1.6501572E0,2.6274948E0],"categories":[],"categories_nodes":[],"categories_segments":[],"categories_sizes":[],"default_left":[0,0,0,0,0,0,0,0,0,0,0,0,0,0,0,0,0,0,0,0,0,0,0,0,0,0,0,0,0,0,0,0,0,0,0,0,0,0,0,0,0,0,0,0,0,0,0,0,0,0,0,0,0,0,0,0,0,0,0],"id":7,"left_children":[1,3,5,7,9,11,13,15,17,19,21,23,25,27,29,31,33,35,37,39,-1,41,43,-1,45,47,49,51,53,55,57,-1,-1,-1,-1,-1,-1,-1,-1,-1,-1,-1,-1,-1,-1,-1,-1,-1,-1,-1,-1,-1,-1,-1,-1,-1,-1,-1,-1],"loss_changes":[2.3443393E4,1.3046145E4,1.941356E3,8.439781E3,8.1485273E3,1.5274458E3,2.6426167E3,1.0563895E4,4.5689805E3,6.9303535E3,9.551766E3,1.0116113E3,1.328364E3,1.2415768E3,2.6343218E3,2.5281895E3,7.7408164E3,1.5494678E3,3.1335947E3,6.669912E2,0E0,9.860769E3,1.0991264E4,0E0,1.00596875E3,7.614431E2,4.4485217E2,6.995149E2,2.4450775E2,2.806182E3,1.2210194E3,0E0,0E0,0E0,0E0,0E0,0E0,0E0,0E0,0E0,0E0,0E0,0E0,0E0,0E0,0E0,0E0,0E0,0E0,0E0,0E0,0E0,0E0,0E0,0E0,0E0,0E0,0E0,0E0],"parents":[2147483647,0,0,1,1,2,2,3,3,4,4,5,5,6,6,7,7,8,8,9,9,10,10,11,11,12,12,13,13,14,14,15,15,16,16,17,17,18,18,19,19,21,21,22,22,24,24,25,25,26,26,27,27,28,28,29,29,30,30],"right_children":[2,4,6,8,10,12,14,16,18,20,22,24,26,28,30,32,34,36,38,40,-1,42,44,-1,46,48,50,52,54,56,58,-1,-1,-1,-1,-1,-1,-1,-1,-1,-1,-1,-1,-1,-1,-1,-1,-1,-1,-1,-1,-1,-1,-1,-1,-1,-1,-1,-1],"split_conditions":[1.5E1,2.1953497E1,5.7633335E1,7.164286E1,1.5E0,4.7E1,1.02E2,2.5714285E0,7.4166664E1,8.121122E-2,9.114286E1,2.1676702E1,3.65E1,1.1214286E2,2.6883244E1,2.1733334E1,1.52E2,2.7142856E0,9.899325E-1,-9.0618336E-1,2.189483E1,6.2E1,5.289202E1,-6.156509E0,5.3714287E1,3.57E2,2.857143E-1,8.443905E1,2.4889278E1,9.3383723E-1,1.7453293E-7,-1.7378223E0,4.2538545E-1,2.2665524E0,1.808712E1,-1.6832944E0,-4.934666E0,9.144328E0,-6.389902E-1,9.084703E0,5.3123584E0,5.2463765E0,-6.387893E-1,5.6583447E0,-3.7940466E0,-4.486659E-1,-2.1362343E0,7.655599E-2,-7.292042E-1,1.0614413E0,3.479372E0,-3.653811E0,-5.668416E-1,-8.2835174E-1,2.5836296E0,4.256652E-1,2.9632378E0,-1.6501572E0,2.6274948E0],"split_indices":[12,10,8,7,35,12,13,34,8,29,42,23,7,7,10,8,32,35,16,30,0,13,10,0,6,13,34,22,9,16,30,0,0,0,0,0,0,0,0,0,0,0,0,0,0,0,0,0,0,0,0,0,0,0,0,0,0,0,0],"split_type":[0,0,0,0,0,0,0,0,0,0,0,0,0,0,0,0,0,0,0,0,0,0,0,0,0,0,0,0,0,0,0,0,0,0,0,0,0,0,0,0,0,0,0,0,0,0,0,0,0,0,0,0,0,0,0,0,0,0,0],"sum_hessian":[4.311E3,1.076E3,3.235E3,8.79E2,1.97E2,3.056E3,1.79E2,8.28E2,5.1E1,2E1,1.77E2,2.537E3,5.19E2,2.8E1,1.51E2,6.31E2,1.97E2,4.1E1,1E1,1.8E1,2E0,1.02E2,7.5E1,2E0,2.535E3,4.98E2,2.1E1,2.2E1,6E0,1.16E2,3.5E1,3.7E1,5.94E2,1.95E2,2E0,1.5E1,2.6E1,3E0,7E0,4E0,1.4E1,2.4E1,7.8E1,6.6E1,9E0,2.512E3,2.3E1,4.05E2,9.3E1,1.3E1,8E0,1.5E1,7E0,2E0,4E0,6.8E1,4.8E1,3E1,5E0],"tree_param":{"num_deleted":"0","num_feature":"45","num_nodes":"59","size_leaf_vector":"1"}},{"base_weights":[-5.0029114E-2,-8.0692035E-1,4.133669E0,-8.3695066E-1,1.3532772E1,8.578215E0,5.30739E-1,-1.1024376E0,3.6578586E0,2.4610155E0,1.2007218E1,1.0857374E1,-6.024588E-1,-1.0194606E0,-1.6838621E1,2.8919077E0,1.3799541E1,1.0638583E1,1.3035219E0,1.6549976E1,7.6939654E0,1.747305E0,2.5136225E1,-3.585581E0,1.7022425E0,-4.2477876E-1,-1.9882496E-2,-5.1155596E0,2.3891826E0,1.5038491E0,-8.9934075E-1,8.8329864E-1,-2.1056879E0,3.3361566E0,1.2173923E1,-2.2896602E0,2.6710749E0,-3.6961773E-1,5.587993E0,4.5021305E0,1.3199917E1,-2.8045803E-1,-3.0084105E0,8.3027476E-1,-2.366286E0],"categories":[],"categories_nodes":[],"categories_segments":[],"categories_sizes":[],"default_left":[0,0,0,0,0,0,0,0,0,0,0,0,0,0,0,0,0,0,0,0,0,0,0,0,0,0,0,0,0,0,0,0,0,0,0,0,0,0,0,0,0,0,0,0,0],"id":8,"left_children":[1,3,5,7,-1,9,11,13,15,17,19,21,23,25,27,29,-1,-1,31,33,35,37,39,41,43,-1,-1,-1,-1,-1,-1,-1,-1,-1,-1,-1,-1,-1,-1,-1,-1,-1,-1,-1,-1],"loss_changes":[1.3622051E4,5.9054937E3,1.0550843E4,4.344334E3,0E0,6.184287E3,4.26234E3,4.4845986E3,7.8633633E3,4.8267363E3,3.6956094E3,4.6779985E3,2.2557432E3,2.1013843E3,1.5673853E3,3.898254E3,0E0,0E0,2.1481936E3,9.835414E3,4.5774253E3,1.4335867E3,2.7547656E3,2.927642E3,3.1930322E3,0E0,0E0,0E0,0E0,0E0,0E0,0E0,0E0,0E0,0E0,0E0,0E0,0E0,0E0,0E0,0E0,0E0,0E0,0E0,0E0],"parents":[2147483647,0,0,1,1,2,2,3,3,5,5,6,6,7,7,8,8,9,9,10,10,11,11,12,12,13,13,14,14,15,15,18,18,19,19,20,20,21,21,22,22,23,23,24,24],"right_children":[2,4,6,8,-1,10,12,14,16,18,20,22,24,26,28,30,-1,-1,32,34,36,38,40,42,44,-1,-1,-1,-1,-1,-1,-1,-1,-1,-1,-1,-1,-1,-1,-1,-1,-1,-1,-1,-1],"split_conditions":[1.1165422E1,1.52E2,2.15265E1,5.6E1,1.3532772E1,1.835E1,1.2E1,6.242857E1,1.3285714E1,2.2428572E1,2.01765E1,7.5E1,6.2533333E1,9.751968E2,3.70265E1,5.5E1,1.3799541E1,1.0638583E1,5.3466667E1,3.48765E1,5.4583335E0,1.1298495E1,5.5742064E0,7.331283E2,9.764532E2,-4.2477876E-1,-1.9882496E-2,-5.1155596E0,2.3891826E0,1.5038491E0,-8.9934075E-1,8.8329864E-1,-2.1056879E0,3.3361566E0,1.2173923E1,-2.2896602E0,2.6710749E0,-3.6961773E-1,5.587993E0,4.5021305E0,1.3199917E1,-2.8045803E-1,-3.0084105E0,8.3027476E-1,-2.366286E0],"split_indices":[9,32,20,3,0,20,12,7,34,7,20,1,8,26,19,1,0,0,8,19,27,25,28,41,26,0,0,0,0,0,0,0,0,0,0,0,0,0,0,0,0,0,0,0,0],"split_type":[0,0,0,0,0,0,0,0,0,0,0,0,0,0,0,0,0,0,0,0,0,0,0,0,0,0,0,0,0,0,0,0,0,0,0,0,0,0,0,0,0,0,0,0,0],"sum_hessian":[4.302E3,3.643E3,6.59E2,3.641E3,2E0,2.95E2,3.64E2,3.438E3,2.03E2,1.06E2,1.89E2,3.6E1,3.28E2,3.42E3,1.8E1,2E2,3E0,3E0,1.03E2,9.2E1,9.7E1,2.2E1,1.4E1,1.43E2,1.85E2,2.019E3,1.401E3,1.6E1,2E0,1.36E2,6.4E1,8.4E1,1.9E1,8.3E1,9E0,1.4E1,8.3E1,1.9E1,3E0,1.1E1,3E0,1.1E2,3.3E1,1.62E2,2.3E1],"tree_param":{"num_deleted":"0","num_feature":"45","num_nodes":"45","size_leaf_vector":"1"}},{"base_weights":[-4.3970935E-2,-4.28317E-1,5.0834174E0,-3.805927E-1,-2.7569574E1,4.5942273E0,3.37821E1,-5.234903E-1,7.628647E0,-1.4606127E0,-3.619933E1,2.3225742E1,3.870365E0,1.3184096E1,5.4326954E0,1.1393458E0,-9.136563E-1,-1.9858565E0,1.527455E1,-6.9782815E0,-1.2399314E1,1.2243084E1,1.3256807E1,-3.6135242E0,6.508764E0,1.2137609E-1,1.8138463E0,-5.0632304E-1,-1.5729216E-1,2.9569604E0,-1.9243659E0,1.2020206E1,2.0913527E0,-0E0,4.1442885E0,3.5656863E-1,-3.1371849E0,4.3439507E0,1.2213233E0],"categories":[],"categories_nodes":[],"categories_segments":[],"categories_sizes":[],"default_left":[0,0,0,0,0,0,0,0,0,0,0,0,0,0,0,0,0,0,0,0,0,0,0,0,0,0,0,0,0,0,0,0,0,0,0,0,0,0,0],"id":9,"left_children":[1,3,5,7,9,11,13,15,17,-1,19,21,23,-1,-1,25,27,29,31,-1,-1,33,-1,35,37,-1,-1,-1,-1,-1,-1,-1,-1,-1,-1,-1,-1,-1,-1],"loss_changes":[8.478846E3,5.178234E3,4.20011E3,4.5718174E3,1.307668E3,3.9707568E3,1.090227E3,2.5470938E3,5.1507915E3,0E0,5.108379E2,3.4786968E3,5.609162E3,0E0,0E0,2.9599424E3,1.01017944E3,2.3637673E3,8.784481E3,0E0,0E0,4.0030286E2,0E0,3.2480332E3,3.7761973E3,0E0,0E0,0E0,0E0,0E0,0E0,0E0,0E0,0E0,0E0,0E0,0E0,0E0,0E0],"parents":[2147483647,0,0,1,1,2,2,3,3,4,4,5,5,6,6,7,7,8,8,10,10,11,11,12,12,15,15,16,16,17,17,18,18,21,21,23,23,24,24],"right_children":[2,4,6,8,10,12,14,16,18,-1,20,22,24,-1,-1,26,28,30,32,-1,-1,34,-1,36,38,-1,-1,-1,-1,-1,-1,-1,-1,-1,-1,-1,-1,-1,-1],"split_conditions":[2.47435E3,1.2E1,4E1,7E0,-8.4330213E-1,9.285714E-1,2.253788E1,9.3E1,4.7E1,-1.4606127E0,9.740169E2,9.1E1,4.142857E0,1.3184096E1,5.4326954E0,6.5E1,1.3E1,2.5242437E1,3.1E1,-6.9782815E0,-1.2399314E1,4.41E1,1.3256807E1,9.844738E-1,1E0,1.2137609E-1,1.8138463E0,-5.0632304E-1,-1.5729216E-1,2.9569604E0,-1.9243659E0,1.2020206E1,2.0913527E0,-0E0,4.1442885E0,3.5656863E-1,-3.1371849E0,4.3439507E0,1.2213233E0],"split_indices":[40,34,31,31,29,35,10,13,3,0,26,3,34,0,0,3,4,23,4,0,0,8,0,16,39,0,0,0,0,0,0,0,0,0,0,0,0,0,0],"split_type":[0,0,0,0,0,0,0,0,0,0,0,0,0,0,0,0,0,0,0,0,0,0,0,0,0,0,0,0,0,0,0,0,0,0,0,0,0,0,0],"sum_hessian":[4.303E3,4.003E3,3E2,3.996E3,7E0,2.95E2,5E0,3.926E3,7E1,2E0,5E0,1.1E1,2.84E2,2E0,3E0,7.46E2,3.18E3,3.1E1,3.9E1,3E0,2E0,8E0,3E0,7.4E1,2.1E2,6.72E2,7.4E1,6.81E2,2.499E3,9E0,2.2E1,7E0,3.2E1,2E0,6E0,4.7E1,2.7E1,2.9E1,1.81E2],"tree_param":{"num_deleted":"0","num_feature":"45","num_nodes":"39","size_leaf_vector":"1"}},{"base_weights":[1.941787E-2,-6.7222196E-1,1.9511995E0,-7.661712E-1,6.8538494E0,1.8239923E0,2.2342258E1,-6.639342E-1,-7.1830225E0,1.4478946E1,3.0010918E-1,1.7188686E0,2.5278412E1,1.7275685E0,1.25930395E1,6.4819126E0,-7.225448E-1,4.2471685E0,-8.784561E0,7.924661E0,2.2607042E1,4.729321E0,-1.8403553E1,4.940524E0,1.1110625E0,9.864331E0,4.060799E0,1.6481853E0,-7.4430364E-1,-1.9739113E0,2.1439328E0,-4.0935498E-1,-1.131889E-1,-1.0139335E0,2.1400418E0,-1.7248274E0,-5.3296266E0,-2.1248918E0,3.0571337E0,9.467275E0,4.4663186E0,3.4227877E0,5.093086E-1,-6.1518917E0,-3.1263459E0,-4.0014562E-1,2.3534622E0,3.5226026E-1,-1.5904356E0],"categories":[],"categories_nodes":[],"categories_segments":[],"categories_sizes":[],"default_left":[0,0,0,0,0,0,0,0,0,0,0,0,0,0,0,0,0,0,0,0,0,0,0,0,0,0,0,0,0,0,0,0,0,0,0,0,0,0,0,0,0,0,0,0,0,0,0,0,0],"id":10,"left_children":[1,3,5,7,9,11,13,15,17,19,21,23,25,27,-1,29,31,33,35,37,39,41,43,45,47,-1,-1,-1,-1,-1,-1,-1,-1,-1,-1,-1,-1,-1,-1,-1,-1,-1,-1,-1,-1,-1,-1,-1,-1],"loss_changes":[5.746906E3,2.2379355E3,2.9350327E3,2.0501455E3,1.9462036E3,2.7715813E3,3.9266335E3,1.2882671E3,8.9904004E2,9.494429E2,1.7393765E3,2.195527E3,6.0813745E2,9.0285774E1,0E0,6.998971E2,7.5141895E2,2.0881041E2,1.0370806E3,6.736355E2,5.6608887E2,4.013027E2,1.285232E2,5.0194395E3,1.9189197E3,0E0,0E0,0E0,0E0,0E0,0E0,0E0,0E0,0E0,0E0,0E0,0E0,0E0,0E0,0E0,0E0,0E0,0E0,0E0,0E0,0E0,0E0,0E0,0E0],"parents":[2147483647,0,0,1,1,2,2,3,3,4,4,5,5,6,6,7,7,8,8,9,9,10,10,11,11,12,12,13,13,15,15,16,16,17,17,18,18,19,19,20,20,21,21,22,22,23,23,24,24],"right_children":[2,4,6,8,10,12,14,16,18,20,22,24,26,28,-1,30,32,34,36,38,40,42,44,46,48,-1,-1,-1,-1,-1,-1,-1,-1,-1,-1,-1,-1,-1,-1,-1,-1,-1,-1,-1,-1,-1,-1,-1,-1],"split_conditions":[5.714286E-1,2.0846905E1,9.995677E-1,8.9198136E-1,2.255E1,4.9E1,4.4E1,1.8414001E1,2.08E1,2.63515E1,5.7633335E1,4.9530764E0,2.253788E1,4.9285713E1,1.25930395E1,-5.38389E-1,1.3333333E1,-8.781691E-1,7.309513E-2,1.6083334E1,2.6827085E1,1.0715187E2,2.2E1,9.28207E2,8.8E1,9.864331E0,4.060799E0,1.6481853E0,-7.4430364E-1,-1.9739113E0,2.1439328E0,-4.0935498E-1,-1.131889E-1,-1.0139335E0,2.1400418E0,-1.7248274E0,-5.3296266E0,-2.1248918E0,3.0571337E0,9.467275E0,4.4663186E0,3.4227877E0,5.093086E-1,-6.1518917E0,-3.1263459E0,-4.0014562E-1,2.3534622E0,3.5226026E-1,-1.5904356E0],"split_indices":[34,10,29,16,20,31,4,21,20,21,8,10,10,6,0,29,5,29,17,27,21,41,1,40,32,0,0,0,0,0,0,0,0,0,0,0,0,0,0,0,0,0,0,0,0,0,0,0,0],"split_type":[0,0,0,0,0,0,0,0,0,0,0,0,0,0,0,0,0,0,0,0,0,0,0,0,0,0,0,0,0,0,0,0,0,0,0,0,0,0,0,0,0,0,0,0,0,0,0,0,0],"sum_hessian":[4.301E3,3.167E3,1.134E3,3.128E3,3.9E1,1.127E3,7E0,3.079E3,4.9E1,1.8E1,2.1E1,1.122E3,5E0,4E0,3E0,2.5E1,3.054E3,6E0,4.3E1,1E1,8E0,1.7E1,4E0,1.78E2,9.44E2,2E0,3E0,2E0,2E0,3E0,2.2E1,7.25E2,2.329E3,2E0,4E0,3.7E1,6E0,2E0,8E0,2E0,6E0,4E0,1.3E1,2E0,2E0,7.1E1,1.07E2,9.1E2,3.4E1],"tree_param":{"num_deleted":"0","num_feature":"45","num_nodes":"49","size_leaf_vector":"1"}},{"base_weights":[3.2882873E-2,-1.4952736E-1,5.4105077E0,1.4917872E0,-5.2106667E-1,3.2569305E1,3.552916E0,1.3206196E0,1.6831701E1,-3.883453E-1,-6.7184753E0,6.5764275E0,6.4831856E1,-3.9471025E0,5.7614436E0,-1.1912661E-1,5.8352976E0,-4.526745E-1,8.424822E0,-1.6446365E1,-3.1551507E0,4.9032454E0,-3.1493828E0,2.0095112E1,1.2666097E1,1.3070522E1,-8.217842E0,1.2961517E1,2.1555002E0,4.209221E-2,-4.153133E0,6.403772E0,1.109154E0,-1.0836858E-1,-5.509225E0,2.8744469E0,-5.8661838E0,-1.4804189E0,-5.1329756E0,-5.2051415E0,-1.1324999E-1,6.272767E0,3.2753205E-1,-3.7884126E0,2.9077283E-1,-6.501678E-1,5.44398E0,4.0699296E0,2.0456693E-1],"categories":[],"categories_nodes":[],"categories_segments":[],"categories_sizes":[],"default_left":[0,0,0,0,0,0,0,0,0,0,0,0,0,0,0,0,0,0,0,0,0,0,0,0,0,0,0,0,0,0,0,0,0,0,0,0,0,0,0,0,0,0,0,0,0,0,0,0,0],"id":11,"left_children":[1,3,5,7,9,11,13,15,-1,17,19,21,23,25,27,29,31,33,35,37,39,-1,-1,-1,-1,41,43,45,47,-1,-1,-1,-1,-1,-1,-1,-1,-1,-1,-1,-1,-1,-1,-1,-1,-1,-1,-1,-1],"loss_changes":[4.216361E3,2.5341743E3,7.1036743E3,8.486869E3,2.7858198E3,7.537464E3,2.1875647E3,4.9739844E3,0E0,1.8792909E3,2.4561323E3,1.2176971E3,7.593633E2,2.182306E3,2.6445842E3,2.6858223E3,5.2553535E3,1.8140742E3,2.1914072E3,7.515669E2,2.4383171E3,0E0,0E0,0E0,0E0,8.174413E2,1.5097002E3,4.478843E3,1.2692882E3,0E0,0E0,0E0,0E0,0E0,0E0,0E0,0E0,0E0,0E0,0E0,0E0,0E0,0E0,0E0,0E0,0E0,0E0,0E0,0E0],"parents":[2147483647,0,0,1,1,2,2,3,3,4,4,5,5,6,6,7,7,9,9,10,10,11,11,12,12,13,13,14,14,15,15,16,16,17,17,18,18,19,19,20,20,25,25,26,26,27,27,28,28],"right_children":[2,4,6,8,10,12,14,16,-1,18,20,22,24,26,28,30,32,34,36,38,40,-1,-1,-1,-1,42,44,46,48,-1,-1,-1,-1,-1,-1,-1,-1,-1,-1,-1,-1,-1,-1,-1,-1,-1,-1,-1,-1],"split_conditions":[1E1,1.2E1,9.8E0,4.2144768E1,9.1333336E1,5.9333332E1,5.5285016E2,1.1165422E1,1.6831701E1,3.480495E1,6.496667E1,9.7E1,4.2E1,6.2E1,1.325E1,5.3E1,2.3E1,1.3857142E1,1.3657143E2,1.9251032E1,1.9582033E1,4.9032454E0,-3.1493828E0,2.0095112E1,1.2666097E1,5.547008E-1,3.75765E1,5.4E1,-9.5676607E-1,4.209221E-2,-4.153133E0,6.403772E0,1.109154E0,-1.0836858E-1,-5.509225E0,2.8744469E0,-5.8661838E0,-1.4804189E0,-5.1329756E0,-5.2051415E0,-1.1324999E-1,6.272767E0,3.2753205E-1,-3.7884126E0,2.9077283E-1,-6.501678E-1,5.44398E0,4.0699296E0,2.0456693E-1],"split_indices":[31,12,33,10,5,8,44,9,0,10,8,2,3,13,33,32,3,34,7,23,10,0,0,0,0,29,19,3,29,0,0,0,0,0,0,0,0,0,0,0,0,0,0,0,0,0,0,0,0],"split_type":[0,0,0,0,0,0,0,0,0,0,0,0,0,0,0,0,0,0,0,0,0,0,0,0,0,0,0,0,0,0,0,0,0,0,0,0,0,0,0,0,0,0,0,0,0,0,0,0,0],"sum_hessian":[4.297E3,4.156E3,1.41E2,7.67E2,3.389E3,9E0,1.32E2,7.65E2,2E0,3.318E3,7.1E1,5E0,4E0,3E1,1.02E2,5.8E2,1.85E2,3.294E3,2.4E1,1.9E1,5.2E1,3E0,2E0,2E0,2E0,6E0,2.4E1,3.4E1,6.8E1,5.7E2,1E1,1.3E1,1.72E2,3.29E3,4E0,2.2E1,2E0,5E0,1.4E1,7E0,4.5E1,3E0,3E0,1.4E1,1E1,1.2E1,2.2E1,6E0,6.2E1],"tree_param":{"num_deleted":"0","num_feature":"45","num_nodes":"49","size_leaf_vector":"1"}},{"base_weights":[1.447668E-2,3.9389758E0,-1.2908395E-1,1.5309317E1,1.697049E0,-1.869456E-1,9.411282E0,1.1739071E1,1.4171007E1,-1.2236402E1,3.289671E0,-4.366493E0,-9.161945E-2,1.6232141E1,4.6172986E0,1.8531966E0,2.2482023E1,-2.0524729E1,-5.064813E0,2.4794636E1,1.8767716E0,-2.0933342E0,-1.3077744E1,-1.3142139E-1,1.5885177E1,1.0496142E1,1.0786521E0,2.1255798E0,-2.8188472E0,7.173809E0,1.7682526E0,-6.375948E0,-2.8222938E0,-2.093719E0,-6.593731E-1,1.0476155E0,1.0198356E1,-1.8977069E0,9.261294E-1,-7.7911556E-1,8.1530485E0,-1.9582909E0,-3.8011415E0,-4.3318707E-2,2.3051567E0,-2.7690742E0,6.9588404E0,-2.6923232E0,2.1051967E0],"categories":[],"categories_nodes":[],"categories_segments":[],"categories_sizes":[],"default_left":[0,0,0,0,0,0,0,0,0,0,0,0,0,0,0,0,0,0,0,0,0,0,0,0,0,0,0,0,0,0,0,0,0,0,0,0,0,0,0,0,0,0,0,0,0,0,0,0,0],"id":12,"left_children":[1,3,5,7,9,11,13,15,-1,17,19,21,23,-1,25,27,29,31,33,35,37,39,41,43,45,-1,47,-1,-1,-1,-1,-1,-1,-1,-1,-1,-1,-1,-1,-1,-1,-1,-1,-1,-1,-1,-1,-1,-1],"loss_changes":[2.426945E3,3.8706304E3,2.290932E3,3.5884673E3,2.8171685E3,1.6440114E3,6.5145337E3,2.437985E3,0E0,7.658356E2,3.4571606E3,1.818031E3,2.5634404E3,0E0,2.9789565E3,1.0150668E3,9.735034E2,2.4582349E2,5.2102173E1,2.214213E3,1.7698965E3,2.4270107E3,1.8529834E2,1.4488173E3,3.0985393E3,0E0,1.7706942E3,0E0,0E0,0E0,0E0,0E0,0E0,0E0,0E0,0E0,0E0,0E0,0E0,0E0,0E0,0E0,0E0,0E0,0E0,0E0,0E0,0E0,0E0],"parents":[2147483647,0,0,1,1,2,2,3,3,4,4,5,5,6,6,7,7,9,9,10,10,11,11,12,12,14,14,15,15,16,16,17,17,18,18,19,19,20,20,21,21,22,22,23,23,24,24,26,26],"right_children":[2,4,6,8,10,12,14,16,-1,18,20,22,24,-1,26,28,30,32,34,36,38,40,42,44,46,-1,48,-1,-1,-1,-1,-1,-1,-1,-1,-1,-1,-1,-1,-1,-1,-1,-1,-1,-1,-1,-1,-1,-1],"split_conditions":[2.2594883E1,1.9476501E1,4.959E3,8.842857E1,4.36502E2,6.700871E1,6.928571E0,4.0416665E0,1.4171007E1,1.1E1,5.833333E-1,8.571428E0,2E1,1.6232141E1,2.641248E1,9.333444E-1,9.468815E-1,5.8E1,3.125E0,5.9357594E1,-9.728061E-1,8E0,2.36404E1,4.561117E1,3.42765E1,1.0496142E1,6E1,2.1255798E0,-2.8188472E0,7.173809E0,1.7682526E0,-6.375948E0,-2.8222938E0,-2.093719E0,-6.593731E-1,1.0476155E0,1.0198356E1,-1.8977069E0,9.261294E-1,-7.7911556E-1,8.1530485E0,-1.9582909E0,-3.8011415E0,-4.3318707E-2,2.3051567E0,-2.7690742E0,6.9588404E0,-2.6923232E0,2.1051967E0],"split_indices":[23,20,40,42,44,22,35,27,0,12,27,34,31,0,9,30,30,32,27,22,30,34,23,10,19,0,4,0,0,0,0,0,0,0,0,0,0,0,0,0,0,0,0,0,0,0,0,0,0],"split_type":[0,0,0,0,0,0,0,0,0,0,0,0,0,0,0,0,0,0,0,0,0,0,0,0,0,0,0,0,0,0,0,0,0,0,0,0,0,0,0,0,0,0,0,0,0,0,0,0,0],"sum_hessian":[4.306E3,1.52E2,4.154E3,2.5E1,1.27E2,4.129E3,2.5E1,2.3E1,2E0,1.3E1,1.14E2,9.2E1,4.037E3,2E0,2.3E1,1.2E1,1.1E1,6E0,7E0,7E0,1.07E2,7.3E1,1.9E1,4.027E3,1E1,2E0,2.1E1,8E0,4E0,8E0,3E0,4E0,2E0,3E0,4E0,3E0,4E0,1.7E1,9E1,7.1E1,2E0,5E0,1.4E1,4.01E3,1.7E1,3E0,7E0,8E0,1.3E1],"tree_param":{"num_deleted":"0","num_feature":"45","num_nodes":"49","size_leaf_vector":"1"}},{"base_weights":[3.14092E-3,1.4170624E0,-3.3612046E-1,3.0345172E-1,3.7254193E0,-1.988589E1,-3.1339666E-1,-1.2239594E0,3.2248209E0,2.975714E0,2.1391376E1,-2.99263E0,-7.035359E0,-2.3385619E-1,-4.9828663E0,1.3026775E0,-3.9958596E0,1.3442648E1,1.7016548E0,1.6562554E0,9.62546E0,-3.3217663E-1,4.7418114E1,-2.6270673E-1,8.192349E0,-6.638976E-1,-1.3826838E1,-3.0238363E-1,2.9144127E0,1.22434296E-1,-1.7664485E0,-2.3009796E0,5.222756E0,2.595932E0,5.3233523E-2,1.3101668E0,-4.1276297E-1,4.437604E0,5.37748E-1,1.6228709E0,-9.5643044E-1,8.500429E0,1.720945E1,-7.965252E-2,2.232604E0,-1.3876321E0,2.2633293E0,-4.500244E0,1.8286376E-1],"categories":[],"categories_nodes":[],"categories_segments":[],"categories_sizes":[],"default_left":[0,0,0,0,0,0,0,0,0,0,0,0,0,0,0,0,0,0,0,0,0,0,0,0,0,0,0,0,0,0,0,0,0,0,0,0,0,0,0,0,0,0,0,0,0,0,0,0,0],"id":13,"left_children":[1,3,5,7,9,11,13,15,17,19,21,-1,-1,23,25,27,29,31,33,35,37,39,41,43,-1,45,47,-1,-1,-1,-1,-1,-1,-1,-1,-1,-1,-1,-1,-1,-1,-1,-1,-1,-1,-1,-1,-1,-1],"loss_changes":[2.0648562E3,2.1403804E3,1.5370453E3,2.5083425E3,3.5824941E3,2.3925427E2,1.2864241E3,2.585179E3,2.9999985E3,2.2784355E3,6.2406826E3,0E0,0E0,3.1878147E3,2.2124568E3,4.8977437E3,2.333822E3,4.0142715E3,2.1331177E3,2.4948892E3,2.5288691E3,1.3866428E2,1.3599717E3,1.5674541E3,0E0,1.7930599E3,1.0808125E3,0E0,0E0,0E0,0E0,0E0,0E0,0E0,0E0,0E0,0E0,0E0,0E0,0E0,0E0,0E0,0E0,0E0,0E0,0E0,0E0,0E0,0E0],"parents":[2147483647,0,0,1,1,2,2,3,3,4,4,5,5,6,6,7,7,8,8,9,9,10,10,13,13,14,14,15,15,16,16,17,17,18,18,19,19,20,20,21,21,22,22,23,23,25,25,26,26],"right_children":[2,4,6,8,10,12,14,16,18,20,22,-1,-1,24,26,28,30,32,34,36,38,40,42,44,-1,46,48,-1,-1,-1,-1,-1,-1,-1,-1,-1,-1,-1,-1,-1,-1,-1,-1,-1,-1,-1,-1,-1,-1],"split_conditions":[8.261317E1,9.751968E2,1.9904745E1,6.6E1,3.035E1,1.225E1,7.2E1,5.6E1,2.852917E1,7E0,3.5E1,-2.99263E0,-7.035359E0,7.1E1,9.951053E-1,2.7857144E0,2.2594883E1,8.089993E0,-9.325677E-1,4.2E1,5E1,3.78E1,7.695086E1,9.951053E-1,8.192349E0,7.4166664E1,2.8432781E1,-3.0238363E-1,2.9144127E0,1.22434296E-1,-1.7664485E0,-2.3009796E0,5.222756E0,2.595932E0,5.3233523E-2,1.3101668E0,-4.1276297E-1,4.437604E0,5.37748E-1,1.6228709E0,-9.5643044E-1,8.500429E0,1.720945E1,-7.965252E-2,2.232604E0,-1.3876321E0,2.2633293E0,-4.500244E0,1.8286376E-1],"split_indices":[22,26,23,4,33,27,6,1,21,31,4,0,0,42,16,35,23,25,29,2,32,33,22,16,0,8,10,0,0,0,0,0,0,0,0,0,0,0,0,0,0,0,0,0,0,0,0,0,0],"split_type":[0,0,0,0,0,0,0,0,0,0,0,0,0,0,0,0,0,0,0,0,0,0,0,0,0,0,0,0,0,0,0,0,0,0,0,0,0,0,0,0,0,0,0,0,0,0,0,0,0],"sum_hessian":[4.304E3,8.33E2,3.471E3,5.62E2,2.71E2,4E0,3.467E3,3.69E2,1.93E2,2.6E2,1.1E1,2E0,2E0,3.409E3,5.8E1,1.93E2,1.76E2,2.5E1,1.68E2,2.17E2,4.3E1,6E0,5E0,3.406E3,3E0,3.9E1,1.9E1,1.55E2,3.8E1,7E1,1.06E2,6E0,1.9E1,2.5E1,1.43E2,1.05E2,1.12E2,2.1E1,2.2E1,2E0,4E0,3E0,2E0,3.387E3,1.9E1,2.6E1,1.3E1,1.5E1,4E0],"tree_param":{"num_deleted":"0","num_feature":"45","num_nodes":"49","size_leaf_vector":"1"}},{"base_weights":[3.0412681E-2,9.274143E-1,-3.426715E-1,2.724106E-1,2.4373312E0,-4.3372047E-1,3.4553936E0,1.221965E0,-5.161586E0,1.0648948E1,9.9591196E-1,-3.7669948E-1,-1.4424902E1,7.1654015E0,-8.1102043E-1,1.6177944E0,-3.7744648E0,-1.0112868E1,-1.5737838E0,7.0448965E-1,1.7869864E1,5.511352E-1,1.16372E1,-3.3569938E-1,-7.4360337E0,-1.9237543E1,-9.530865E0,1.7786427E1,3.852303E0,4.3266144E0,-9.815025E0,1.324977E-1,1.6088903E0,-2.307004E0,-5.7206515E-2,-7.6615486E0,-2.3727775E0,1.671817E0,-7.1487135E-1,1.2321069E0,-7.137791E0,-1.8262804E-1,6.0511E0,3.3610287E-1,-1.3155026E0,8.378528E0,5.273509E-1,-9.5417395E-2,2.1900923E0,-2.6511638E0,1.6442707E0,-3.8790288E0,-5.8449597E0,-3.962986E0,-1.6206896E0,5.2758E0,1.8110405E0,1.5747172E0,-1.295128E0,4.9060443E-1,6.7937336E0,1.6687468E-1,-3.3848522E0],"categories":[],"categories_nodes":[],"categories_segments":[],"categories_sizes":[],"default_left":[0,0,0,0,0,0,0,0,0,0,0,0,0,0,0,0,0,0,0,0,0,0,0,0,0,0,0,0,0,0,0,0,0,0,0,0,0,0,0,0,0,0,0,0,0,0,0,0,0,0,0,0,0,0,0,0,0,0,0,0,0,0,0],"id":14,"left_children":[1,3,5,7,9,11,13,15,17,19,21,23,25,27,29,31,33,35,37,39,41,43,45,47,49,51,53,55,57,59,61,-1,-1,-1,-1,-1,-1,-1,-1,-1,-1,-1,-1,-1,-1,-1,-1,-1,-1,-1,-1,-1,-1,-1,-1,-1,-1,-1,-1,-1,-1,-1,-1],"loss_changes":[1.4388422E3,1.2484663E3,1.0491886E3,4.5451084E3,4.5187354E3,2.3618315E3,1.1257136E3,1.4829253E3,2.3243508E3,4.0896504E3,1.5352817E3,8.5280066E2,2.7298413E2,1.3314111E3,1.5294109E3,3.5916077E3,1.0343494E3,8.3604297E2,7.687096E2,2.865688E3,3.6603564E3,1.3798317E3,2.6476765E3,1.04953E3,7.1273553E2,7.481152E1,1.0810693E2,2.77614E2,6.106045E2,1.1208784E3,4.4511926E2,0E0,0E0,0E0,0E0,0E0,0E0,0E0,0E0,0E0,0E0,0E0,0E0,0E0,0E0,0E0,0E0,0E0,0E0,0E0,0E0,0E0,0E0,0E0,0E0,0E0,0E0,0E0,0E0,0E0,0E0,0E0,0E0],"parents":[2147483647,0,0,1,1,2,2,3,3,4,4,5,5,6,6,7,7,8,8,9,9,10,10,11,11,12,12,13,13,14,14,15,15,16,16,17,17,18,18,19,19,20,20,21,21,22,22,23,23,24,24,25,25,26,26,27,27,28,28,29,29,30,30],"right_children":[2,4,6,8,10,12,14,16,18,20,22,24,26,28,30,32,34,36,38,40,42,44,46,48,50,52,54,56,58,60,62,-1,-1,-1,-1,-1,-1,-1,-1,-1,-1,-1,-1,-1,-1,-1,-1,-1,-1,-1,-1,-1,-1,-1,-1,-1,-1,-1,-1,-1,-1,-1,-1],"split_conditions":[3.0166666E1,4.51E1,2.227854E1,3.9333332E1,4.9533333E1,1.03E2,9.75514E2,2.9097336E1,3.4494267E1,9.677492E0,1.41E2,6.235418E0,3.5515182E1,6.6E1,5.8E1,4.2268314E0,2.43E1,2.5E1,5.43493E0,5.8333332E1,5.2E1,1.04E2,8.2E1,3.035E1,2.9848335E1,1.7185E1,-7.215819E-1,6.8E1,8.415159E-1,1.59E2,2.6267517E2,1.324977E-1,1.6088903E0,-2.307004E0,-5.7206515E-2,-7.6615486E0,-2.3727775E0,1.671817E0,-7.1487135E-1,1.2321069E0,-7.137791E0,-1.8262804E-1,6.0511E0,3.3610287E-1,-1.3155026E0,8.378528E0,5.273509E-1,-9.5417395E-2,2.1900923E0,-2.6511638E0,1.6442707E0,-3.8790288E0,-5.8449597E0,-3.962986E0,-1.6206896E0,5.2758E0,1.8110405E0,1.5747172E0,-1.295128E0,4.9060443E-1,6.7937336E0,1.6687468E-1,-3.3848522E0],"split_indices":[27,8,9,8,8,1,26,21,23,10,0,28,23,1,4,28,20,1,10,5,13,0,13,33,10,10,29,4,29,1,41,0,0,0,0,0,0,0,0,0,0,0,0,0,0,0,0,0,0,0,0,0,0,0,0,0,0,0,0,0,0,0,0],"split_type":[0,0,0,0,0,0,0,0,0,0,0,0,0,0,0,0,0,0,0,0,0,0,0,0,0,0,0,0,0,0,0,0,0,0,0,0,0,0,0,0,0,0,0,0,0,0,0,0,0,0,0,0,0,0,0,0,0,0,0,0,0,0,0],"sum_hessian":[4.299E3,1.263E3,3.036E3,8.81E2,3.82E2,2.965E3,7.1E1,7.5E2,1.31E2,5.7E1,3.25E2,2.953E3,1.2E1,3.8E1,3.3E1,6.95E2,5.5E1,5.5E1,7.6E1,2.4E1,3.3E1,3.12E2,1.3E1,2.936E3,1.7E1,6E0,6E0,9E0,2.9E1,2.1E1,1.2E1,5.64E2,1.31E2,2.2E1,3.3E1,2E0,5.3E1,1E1,6.6E1,2.1E1,3E0,8E0,2.5E1,2.75E2,3.7E1,4E0,9E0,2.923E3,1.3E1,1.4E1,3E0,3E0,3E0,2E0,4E0,7E0,2E0,2.3E1,6E0,1.9E1,2E0,3E0,9E0],"tree_param":{"num_deleted":"0","num_feature":"45","num_nodes":"63","size_leaf_vector":"1"}},{"base_weights":[-2.9216265E-2,-9.832326E-2,4.8328557E0,-1.0843559E-1,5.3229384E0,3.7940018E1,2.4527514E0,2.6208445E-1,-6.3186824E-1,1.0709158E1,8.450428E0,9.710639E0,-5.335142E0,1.5109967E-1,5.6337056E0,-9.746755E-1,8.8870025E-1,3.2836395E1,4.8625402E0,-1.5852774E1,-5.2837916E-2,5.6924693E-2,-2.9316099E0,2.7253668E0,-8.6741173E-1,-1.6492483E-1,-1.4475021E0,-1.9179577E-1,1.2860702E0,5.939933E0,1.18280325E1,1.8528684E0,-1.8336812E0,-2.9381251E0,-6.153466E0,3.6925356E0,-1.4464794E0],"categories":[],"categories_nodes":[],"categories_segments":[],"categories_sizes":[],"default_left":[0,0,0,0,0,0,0,0,0,0,0,0,0,0,0,0,0,0,0,0,0,0,0,0,0,0,0,0,0,0,0,0,0,0,0,0,0],"id":15,"left_children":[1,3,5,7,-1,9,11,13,15,-1,-1,17,19,21,23,25,27,29,31,33,35,-1,-1,-1,-1,-1,-1,-1,-1,-1,-1,-1,-1,-1,-1,-1,-1],"loss_changes":[1.438992E3,8.94867E2,4.7180063E3,8.193068E2,0E0,3.681299E1,3.1682537E3,1.4729365E3,9.1277435E2,0E0,0E0,3.241524E3,1.497197E3,2.0663083E3,2.3090793E3,2.1948506E3,2.210988E3,6.15459E2,7.0680255E2,3.101477E2,1.4826128E3,0E0,0E0,0E0,0E0,0E0,0E0,0E0,0E0,0E0,0E0,0E0,0E0,0E0,0E0,0E0,0E0],"parents":[2147483647,0,0,1,1,2,2,3,3,5,5,6,6,7,7,8,8,11,11,12,12,13,13,14,14,15,15,16,16,17,17,18,18,19,19,20,20],"right_children":[2,4,6,8,-1,10,12,14,16,-1,-1,18,20,22,24,26,28,30,32,34,36,-1,-1,-1,-1,-1,-1,-1,-1,-1,-1,-1,-1,-1,-1,-1,-1],"split_conditions":[1.4714286E1,1.85E1,1.0214286E1,2.6025E1,5.3229384E0,4E1,-8.0604607E-1,2.1563732E1,5.8566666E1,1.0709158E1,8.450428E0,7.5269995E2,2.814942E1,5.071429E0,2.7142856E0,4.942857E1,-3.5465482E-1,8.5E1,1.6394829E1,7.5269995E2,7.0416665E0,5.6924693E-2,-2.9316099E0,2.7253668E0,-8.6741173E-1,-1.6492483E-1,-1.4475021E0,-1.9179577E-1,1.2860702E0,5.939933E0,1.18280325E1,1.8528684E0,-1.8336812E0,-2.9381251E0,-6.153466E0,3.6925356E0,-1.4464794E0],"split_indices":[34,35,35,21,0,3,30,10,8,0,0,41,21,35,34,42,30,0,25,41,27,0,0,0,0,0,0,0,0,0,0,0,0,0,0,0,0],"split_type":[0,0,0,0,0,0,0,0,0,0,0,0,0,0,0,0,0,0,0,0,0,0,0,0,0,0,0,0,0,0,0,0,0,0,0,0,0],"sum_hessian":[4.286E3,4.226E3,6E1,4.224E3,2E0,4E0,5.6E1,2.473E3,1.751E3,2E0,2E0,2.9E1,2.7E1,2.423E3,5E1,1.429E3,3.22E2,5E0,2.4E1,9E0,1.8E1,2.408E3,1.5E1,3.2E1,1.8E1,1.337E3,9.2E1,2.31E2,9.1E1,3E0,2E0,2E1,4E0,6E0,3E0,5E0,1.3E1],"tree_param":{"num_deleted":"0","num_feature":"45","num_nodes":"37","size_leaf_vector":"1"}},{"base_weights":[-3.3503924E-2,-1.6883987E-1,1.589729E0,-6.7838475E-2,-4.9563036E0,1.3808142E1,1.0887549E0,-2.63414E-1,2.8406832E0,-6.112125E-1,-8.3501E0,6.6824083E0,9.47533E0,6.7819743E0,2.4484068E-1,-2.1136843E-1,-6.128914E0,5.640209E0,-1.6540968E0,5.6891975E0,-7.6655126E0,-1.7875446E1,-6.627093E0,8.864472E0,3.784361E-1,1.7150892E1,-2.1686146E0,-2.9998283E0,2.2576542E0,3.9402798E-2,-2.1524213E-1,-2.101227E0,1.3688765E0,3.6113381E0,7.495275E-1,1.6593293E0,-9.4798917E-1,3.709898E-1,5.4383707E0,2.4112985E0,-2.8870335E0,-2.9270995E0,-5.716963E0,-3.6459184E0,-9.0819615E-1,1.3040421E0,2.612525E0,1.2550725E1,3.3766708E0,-7.2362146E0,5.072433E-1,-1.8037206E-1,-3.7996588E0,7.4512963E0,4.4948116E-1],"categories":[],"categories_nodes":[],"categories_segments":[],"categories_sizes":[],"default_left":[0,0,0,0,0,0,0,0,0,0,0,0,0,0,0,0,0,0,0,0,0,0,0,0,0,0,0,0,0,0,0,0,0,0,0,0,0,0,0,0,0,0,0,0,0,0,0,0,0,0,0,0,0,0,0],"id":16,"left_children":[1,3,5,7,9,11,13,15,17,19,21,23,-1,25,27,29,31,33,35,37,39,41,43,45,-1,47,49,51,53,-1,-1,-1,-1,-1,-1,-1,-1,-1,-1,-1,-1,-1,-1,-1,-1,-1,-1,-1,-1,-1,-1,-1,-1,-1,-1],"loss_changes":[9.449594E2,1.9194247E3,2.0223705E3,2.2121775E3,1.2072266E3,2.1647786E3,1.5262344E3,1.1111884E3,3.084231E3,1.6020225E3,7.4733154E2,1.1079465E2,0E0,3.810966E3,1.809117E3,8.424523E2,7.9214307E2,3.478919E3,1.5994976E3,1.2583369E3,1.0831042E3,1.9384497E2,9.148323E2,3.260565E1,0E0,2.3397217E3,2.4214946E3,2.8993218E3,2.2514678E3,0E0,0E0,0E0,0E0,0E0,0E0,0E0,0E0,0E0,0E0,0E0,0E0,0E0,0E0,0E0,0E0,0E0,0E0,0E0,0E0,0E0,0E0,0E0,0E0,0E0,0E0],"parents":[2147483647,0,0,1,1,2,2,3,3,4,4,5,5,6,6,7,7,8,8,9,9,10,10,11,11,13,13,14,14,15,15,16,16,17,17,18,18,19,19,20,20,21,21,22,22,23,23,25,25,26,26,27,27,28,28],"right_children":[2,4,6,8,10,12,14,16,18,20,22,24,-1,26,28,30,32,34,36,38,40,42,44,46,-1,48,50,52,54,-1,-1,-1,-1,-1,-1,-1,-1,-1,-1,-1,-1,-1,-1,-1,-1,-1,-1,-1,-1,-1,-1,-1,-1,-1,-1],"split_conditions":[7E1,2.1315E3,9.285714E-1,5.157143E1,1.6989492E1,9.1E1,4.3214287E1,5.1714287E1,5.5333332E1,6.446413E2,5.4666668E1,3.53265E1,9.47533E0,3.54765E1,5.142857E0,3.00265E1,4.2631886E1,6.9E1,4.0881686E0,6.857143E1,-7.6948124E-1,2.8818747E1,2.8420835E1,3.5E1,3.784361E-1,6.696387E0,5.6066866E0,9.966589E-1,5.285714E0,3.9402798E-2,-2.1524213E-1,-2.101227E0,1.3688765E0,3.6113381E0,7.495275E-1,1.6593293E0,-9.4798917E-1,3.709898E-1,5.4383707E0,2.4112985E0,-2.8870335E0,-2.9270995E0,-5.716963E0,-3.6459184E0,-9.0819615E-1,1.3040421E0,2.612525E0,1.2550725E1,3.3766708E0,-7.2362146E0,5.072433E-1,-1.8037206E-1,-3.7996588E0,7.4512963E0,4.4948116E-1],"split_indices":[0,40,35,7,10,3,7,42,5,41,5,19,0,19,35,19,23,13,28,42,29,21,21,3,0,25,28,16,35,0,0,0,0,0,0,0,0,0,0,0,0,0,0,0,0,0,0,0,0,0,0,0,0,0,0],"split_type":[0,0,0,0,0,0,0,0,0,0,0,0,0,0,0,0,0,0,0,0,0,0,0,0,0,0,0,0,0,0,0,0,0,0,0,0,0,0,0,0,0,0,0,0,0,0,0,0,0,0,0,0,0,0,0],"sum_hessian":[4.303E3,3.972E3,3.31E2,3.89E3,8.2E1,1.3E1,3.18E2,3.645E3,2.45E2,3.6E1,4.6E1,1E1,3E0,4.1E1,2.77E2,3.613E3,3.2E1,1.51E2,9.4E1,1.9E1,1.7E1,7E0,3.9E1,7E0,3E0,1.9E1,2.2E1,1.06E2,1.71E2,2.292E3,1.321E3,2.7E1,5E0,3.6E1,1.15E2,1.9E1,7.5E1,1.5E1,4E0,3E0,1.4E1,3E0,4E0,1.1E1,2.8E1,2E0,5E0,2E0,1.7E1,3E0,1.9E1,8.9E1,1.7E1,3E0,1.68E2],"tree_param":{"num_deleted":"0","num_feature":"45","num_nodes":"55","size_leaf_vector":"1"}},{"base_weights":[1.1467964E-2,-3.2878425E-2,4.11813E0,4.8998527E-2,-2.2910614E0,1.2888061E1,-1.0192672E0,-2.6393834E-1,7.364223E-1,-5.589075E0,1.3292238E0,2.0826923E1,-1.6449182E0,-3.9825816E0,1.027907E1,-2.2945926E-1,-1.0992846E1,3.3645942E0,-1.1685482E-1,1.2429378E0,-8.629374E0,-7.0992055E0,3.7869437E0,2.8837114E1,1.6155512E1,-5.4947844E0,1.5029374E0,2.8324296E0,-5.4433527E0,2.2729549E-1,1.4887479E1,-6.797846E-2,1.7447112E0,-1.1611798E0,-4.076129E0,1.6109226E0,3.7604603E-1,-3.6742574E-1,2.3030171E-1,-1.5591227E0,2.5358586E0,-3.606578E0,-8.744268E-1,2.5217524E0,-2.4276536E0,2.5208972E0,-2.4394545E-1,6.187428E0,8.368001E0,3.1329725E0,5.351509E0,-2.2703445E0,-4.7876766E-1,2.2106266E0,-1.7656502E0,4.6905365E0,2.8093064E0],"categories":[],"categories_nodes":[],"categories_segments":[],"categories_sizes":[],"default_left":[0,0,0,0,0,0,0,0,0,0,0,0,0,0,0,0,0,0,0,0,0,0,0,0,0,0,0,0,0,0,0,0,0,0,0,0,0,0,0,0,0,0,0,0,0,0,0,0,0,0,0,0,0,0,0,0,0],"id":17,"left_children":[1,3,5,7,9,11,13,15,17,19,21,23,25,27,29,31,33,35,37,39,41,43,45,47,49,51,-1,-1,53,-1,55,-1,-1,-1,-1,-1,-1,-1,-1,-1,-1,-1,-1,-1,-1,-1,-1,-1,-1,-1,-1,-1,-1,-1,-1,-1,-1],"loss_changes":[7.844435E2,7.8744635E2,2.0763608E3,8.8361896E2,1.7803779E3,1.9685674E3,9.707238E2,1.0412029E3,2.8825103E3,1.6224788E3,1.4707806E3,3.934048E2,1.7565208E2,5.0855496E2,2.5622412E2,7.6093536E2,2.8652063E2,1.7653557E3,1.3204784E3,1.5516532E3,1.5555603E3,6.7219995E2,1.6055594E3,4.6242188E1,1.192478E2,4.706385E1,0E0,0E0,4.4910522E2,0E0,4.4427856E1,0E0,0E0,0E0,0E0,0E0,0E0,0E0,0E0,0E0,0E0,0E0,0E0,0E0,0E0,0E0,0E0,0E0,0E0,0E0,0E0,0E0,0E0,0E0,0E0,0E0,0E0],"parents":[2147483647,0,0,1,1,2,2,3,3,4,4,5,5,6,6,7,7,8,8,9,9,10,10,11,11,12,12,13,13,14,14,15,15,16,16,17,17,18,18,19,19,20,20,21,21,22,22,23,23,24,24,25,25,28,28,30,30],"right_children":[2,4,6,8,10,12,14,16,18,20,22,24,26,28,30,32,34,36,38,40,42,44,46,48,50,52,-1,-1,54,-1,56,-1,-1,-1,-1,-1,-1,-1,-1,-1,-1,-1,-1,-1,-1,-1,-1,-1,-1,-1,-1,-1,-1,-1,-1,-1,-1],"split_conditions":[1.5571428E1,8.5666664E1,1.325E1,2.9E1,5.4E1,2.641248E1,9.7370905E2,2.641248E1,2.2566668E1,3.39765E1,4.754276E0,3.2E1,7.574147E1,-9.8058057E-1,3.5416667E0,5.4357143E1,6.5E1,1.3E1,8.435069E0,5.5E0,1.3E1,1E1,3.655E1,7E1,9.9887973E-1,1.21E2,1.5029374E0,2.8324296E0,1E1,2.2729549E-1,1.08E2,-6.797846E-2,1.7447112E0,-1.1611798E0,-4.076129E0,1.6109226E0,3.7604603E-1,-3.6742574E-1,2.3030171E-1,-1.5591227E0,2.5358586E0,-3.606578E0,-8.744268E-1,2.5217524E0,-2.4276536E0,2.5208972E0,-2.4394545E-1,6.187428E0,8.368001E0,3.1329725E0,5.351509E0,-2.2703445E0,-4.7876766E-1,2.2106266E0,-1.7656502E0,4.6905365E0,2.8093064E0],"split_indices":[34,5,33,0,4,9,26,9,8,19,28,32,22,30,27,7,4,12,25,35,12,12,19,2,16,5,0,0,12,0,5,0,0,0,0,0,0,0,0,0,0,0,0,0,0,0,0,0,0,0,0,0,0,0,0,0,0],"split_type":[0,0,0,0,0,0,0,0,0,0,0,0,0,0,0,0,0,0,0,0,0,0,0,0,0,0,0,0,0,0,0,0,0,0,0,0,0,0,0,0,0,0,0,0,0,0,0,0,0,0,0,0,0,0,0,0,0],"sum_hessian":[4.302E3,4.256E3,4.6E1,4.107E3,1.49E2,1.7E1,2.9E1,2.822E3,1.285E3,7.8E1,7.1E1,1.1E1,6E0,2.3E1,6E0,2.813E3,9E0,3.15E2,9.7E2,2.4E1,5.4E1,1.6E1,5.5E1,4E0,7E0,4E0,2E0,2E0,2.1E1,2E0,4E0,2.798E3,1.5E1,4E0,5E0,1.22E2,1.93E2,4.22E2,5.48E2,1.3E1,1.1E1,2.6E1,2.8E1,2E0,1.4E1,2.4E1,3.1E1,2E0,2E0,4E0,3E0,2E0,2E0,2E0,1.9E1,2E0,2E0],"tree_param":{"num_deleted":"0","num_feature":"45","num_nodes":"57","size_leaf_vector":"1"}},{"base_weights":[-2.3124812E-3,-1.6916974E-2,1.2411147E1,-2.2578824E0,4.6554808E-2,1.6048874E0,5.409491E0,-6.3552374E-1,-3.7693262E0,1.4072204E-1,-1.6160166E0,-1.6250386E0,1.6779816E0,-3.1394246E0,-6.6013484E0,1.484352E0,-1.5700731E-2,-3.497157E0,2.0928645E0,1.6865069E-2,-7.0148015E-1,8.2270116E-1,-5.1289195E-1,-9.387849E-1,-4.700686E-2,-2.395756E0,-1.0621554E0,9.201422E-1,6.1300855E-2,-1.0001093E0,1.4984278E-2,-9.816142E-1,1.7642969E0,6.763739E-1,-4.684142E0],"categories":[],"categories_nodes":[],"categories_segments":[],"categories_sizes":[],"default_left":[0,0,0,0,0,0,0,0,0,0,0,0,0,0,0,0,0,0,0,0,0,0,0,0,0,0,0,0,0,0,0,0,0,0,0],"id":18,"left_children":[1,3,5,7,9,-1,-1,11,13,15,17,19,21,23,25,27,29,31,33,-1,-1,-1,-1,-1,-1,-1,-1,-1,-1,-1,-1,-1,-1,-1,-1],"loss_changes":[7.740628E2,6.0945404E2,2.627162E2,2.8829626E2,6.514123E2,0E0,0E0,1.3056168E2,1.0615997E2,8.2844196E2,1.556439E3,7.7594765E1,9.863011E1,8.13284E1,7.152759E1,1.091562E3,1.0347648E3,5.680177E2,8.7537427E2,0E0,0E0,0E0,0E0,0E0,0E0,0E0,0E0,0E0,0E0,0E0,0E0,0E0,0E0,0E0,0E0],"parents":[2147483647,0,0,1,1,2,2,3,3,4,4,7,7,8,8,9,9,10,10,11,11,12,12,13,13,14,14,15,15,16,16,17,17,18,18],"right_children":[2,4,6,8,10,-1,-1,12,14,16,18,20,22,24,26,28,30,32,34,-1,-1,-1,-1,-1,-1,-1,-1,-1,-1,-1,-1,-1,-1,-1,-1],"split_conditions":[4.9E1,1.1966666E1,9.455964E-1,3.6E1,9.880227E-1,1.6048874E0,5.409491E0,1.2285714E1,1.4333333E1,2.705E1,2.2852081E1,1.0714286E1,9.7905975E1,2.2611569E-1,6.2291668E1,6.162896E1,1.49765E1,5.3E1,3.00265E1,1.6865069E-2,-7.0148015E-1,8.2270116E-1,-5.1289195E-1,-9.387849E-1,-4.700686E-2,-2.395756E0,-1.0621554E0,9.201422E-1,6.1300855E-2,-1.0001093E0,1.4984278E-2,-9.816142E-1,1.7642969E0,6.763739E-1,-4.684142E0],"split_indices":[31,8,16,12,17,0,0,6,5,19,21,6,22,17,27,23,20,12,19,0,0,0,0,0,0,0,0,0,0,0,0,0,0,0,0],"split_type":[0,0,0,0,0,0,0,0,0,0,0,0,0,0,0,0,0,0,0,0,0,0,0,0,0,0,0,0,0,0,0,0,0,0,0],"sum_hessian":[4.286E3,4.281E3,5E0,1.18E2,4.163E3,3E0,2E0,5.7E1,6.1E1,3.94E3,2.23E2,4E1,1.7E1,5E1,1.1E1,4.11E2,3.529E3,1.48E2,7.5E1,1.6E1,2.4E1,1.2E1,5E0,4.2E1,8E0,5E0,6E0,1.51E2,2.6E2,6.6E1,3.463E3,1.43E2,5E0,7.3E1,2E0],"tree_param":{"num_deleted":"0","num_feature":"45","num_nodes":"35","size_leaf_vector":"1"}},{"base_weights":[1.3874467E-2,-2.9085362E0,5.2413236E-2,-4.5671325E0,3.1509018E0,2.9556153E0,7.2956043E-3,-3.0544279E0,-1.6267124E1,8.018073E0,-1.685648E0,-4.74928E-1,5.901683E0,-4.1974196E0,3.8718794E-2,3.0697713E0,-5.469307E0,-3.1007123E0,-5.6079807E0,6.2070904E0,2.9048386E0,1.1926057E0,-1.9103338E0,1.1390637E0,-8.568515E0,8.593979E0,1.8405375E0,-2.6325495E0,-1.06515465E1,-1.3028693E0,1.349099E-1,1.3190897E0,-1.6079706E0,-1.5530847E0,7.069909E-1,1.9356264E0,1.1737632E0,1.0026548E0,-3.693522E-1,6.340974E-1,-5.8800906E-1,-3.4169557E0,-1.3141732E0,2.7559934E0,3.3319667E-1,-1.9888946E-1,1.3640625E0,-1.3702198E0,-1.5397642E-2,-5.059283E0,-1.496515E0,3.8103873E-1,-4.4736463E-1,4.0357795E-2,-1.2682412E0],"categories":[],"categories_nodes":[],"categories_segments":[],"categories_sizes":[],"default_left":[0,0,0,0,0,0,0,0,0,0,0,0,0,0,0,0,0,0,0,0,0,0,0,0,0,0,0,0,0,0,0,0,0,0,0,0,0,0,0,0,0,0,0,0,0,0,0,0,0,0,0,0,0,0,0],"id":19,"left_children":[1,3,5,7,9,11,13,15,17,19,21,23,25,27,29,31,33,-1,-1,35,-1,37,-1,39,41,43,45,47,49,51,53,-1,-1,-1,-1,-1,-1,-1,-1,-1,-1,-1,-1,-1,-1,-1,-1,-1,-1,-1,-1,-1,-1,-1,-1],"loss_changes":[4.847404E2,5.635724E2,5.565065E2,7.7356506E2,2.846416E2,6.5845135E2,5.5248505E2,5.7790125E2,1.0549487E2,3.180423E1,1.0273991E2,3.9406207E2,3.80104E2,3.096087E2,5.363112E2,2.2025354E2,1.503371E2,0E0,0E0,5.4684143E0,0E0,2.9990631E1,0E0,1.174498E2,7.7527374E1,3.4225854E2,1.3098949E2,1.7642102E2,2.572157E2,3.574072E2,4.7611432E2,0E0,0E0,0E0,0E0,0E0,0E0,0E0,0E0,0E0,0E0,0E0,0E0,0E0,0E0,0E0,0E0,0E0,0E0,0E0,0E0,0E0,0E0,0E0,0E0],"parents":[2147483647,0,0,1,1,2,2,3,3,4,4,5,5,6,6,7,7,8,8,9,9,10,10,11,11,12,12,13,13,14,14,15,15,16,16,19,19,21,21,23,23,24,24,25,25,26,26,27,27,28,28,29,29,30,30],"right_children":[2,4,6,8,10,12,14,16,18,20,22,24,26,28,30,32,34,-1,-1,36,-1,38,-1,40,42,44,46,48,50,52,54,-1,-1,-1,-1,-1,-1,-1,-1,-1,-1,-1,-1,-1,-1,-1,-1,-1,-1,-1,-1,-1,-1,-1,-1],"split_conditions":[6E0,3.8142857E1,1.9433332E1,3.3E1,3.9785713E1,3.1316414E-1,1.9928585E1,4.632475E1,3.2E1,3.7333332E1,4.877105E1,3.5E1,3.7142857E1,6.4285713E-1,1.1E1,9.2111824E1,5.3E1,-3.1007123E0,-5.6079807E0,2.9E1,2.9048386E0,5.3E1,-1.9103338E0,3.3E1,2.28265E1,4.1E1,5.0021538E1,4.2146006E0,-1.7537531E-1,9.699926E2,1.59E2,1.3190897E0,-1.6079706E0,-1.5530847E0,7.069909E-1,1.9356264E0,1.1737632E0,1.0026548E0,-3.693522E-1,6.340974E-1,-5.8800906E-1,-3.4169557E0,-1.3141732E0,2.7559934E0,3.3319667E-1,-1.9888946E-1,1.3640625E0,-1.3702198E0,-1.5397642E-2,-5.059283E0,-1.496515E0,3.8103873E-1,-4.4736463E-1,4.0357795E-2,-1.2682412E0],"split_indices":[13,6,21,5,7,29,21,23,1,5,23,3,6,35,0,22,12,0,0,0,0,1,0,0,19,3,23,9,29,26,2,0,0,0,0,0,0,0,0,0,0,0,0,0,0,0,0,0,0,0,0,0,0,0,0],"split_type":[0,0,0,0,0,0,0,0,0,0,0,0,0,0,0,0,0,0,0,0,0,0,0,0,0,0,0,0,0,0,0,0,0,0,0,0,0,0,0,0,0,0,0,0,0,0,0,0,0,0,0,0,0,0,0],"sum_hessian":[4.31E3,5.6E1,4.254E3,4.4E1,1.2E1,6.5E1,4.189E3,3.9E1,5E0,6E0,6E0,3E1,3.5E1,3.1E1,4.158E3,1.1E1,2.8E1,3E0,2E0,4E0,2E0,4E0,2E0,2.5E1,5E0,2.1E1,1.4E1,2.5E1,6E0,2.78E2,3.88E3,9E0,2E0,2.6E1,2E0,2E0,2E0,2E0,2E0,1.8E1,7E0,2E0,3E0,1.6E1,5E0,8E0,6E0,1.2E1,1.3E1,2E0,4E0,3.9E1,2.39E2,3.862E3,1.8E1],"tree_param":{"num_deleted":"0","num_feature":"45","num_nodes":"55","size_leaf_vector":"1"}},{"base_weights":[-7.2567994E-3,2.886885E0,-5.393848E-2,2.6912436E-1,8.729241E0,7.9896614E-2,-1.2106789E0,-9.7942346E-1,4.7141743E0,1.7295514E0,2.004551E1,-7.788083E-2,5.9541206E0,6.4853525E0,-1.5604887E0,4.4290714E0,-2.3396883E0,4.96399E0,-2.2704554E0,1.7292708E0,2.4385727E1,-2.1121228E-2,-4.6620107E0,1.092205E1,4.5059708E-1,9.486357E0,-2.3883193E0,-2.6189205E-1,-3.8634045E0,-2.3643284E0,6.578215E-1,6.8817997E-1,3.4955206E0,7.902272E0,5.2938247E0,-2.8689282E-2,4.5332083E-1,-1.9516559E0,1.8772304E0,6.212953E-1,4.116613E0,-4.6437807E0,5.601817E-1,1.3472323E0,4.72141E0,9.322624E-1,-3.802109E-1,6.9254103E0,-1.0885961E0],"categories":[],"categories_nodes":[],"categories_segments":[],"categories_sizes":[],"default_left":[0,0,0,0,0,0,0,0,0,0,0,0,0,0,0,0,0,0,0,0,0,0,0,0,0,0,0,0,0,0,0,0,0,0,0,0,0,0,0,0,0,0,0,0,0,0,0,0,0],"id":20,"left_children":[1,3,5,7,9,11,13,15,-1,17,19,21,23,25,27,-1,29,31,-1,-1,33,35,37,39,41,43,-1,45,47,-1,-1,-1,-1,-1,-1,-1,-1,-1,-1,-1,-1,-1,-1,-1,-1,-1,-1,-1,-1],"loss_changes":[5.789216E2,1.0380586E3,6.538929E2,1.0782867E3,1.6589868E3,3.5085159E3,1.1782057E3,1.0998503E3,0E0,4.4901657E2,4.5027002E2,9.57696E2,2.7044421E3,9.0835187E2,1.2520923E3,0E0,1.4111819E3,1.9412158E2,0E0,0E0,1.1972388E2,6.0328E2,1.6407759E3,2.3253164E3,1.5426443E3,6.0232324E2,0E0,1.3012646E3,1.9831929E3,0E0,0E0,0E0,0E0,0E0,0E0,0E0,0E0,0E0,0E0,0E0,0E0,0E0,0E0,0E0,0E0,0E0,0E0,0E0,0E0],"parents":[2147483647,0,0,1,1,2,2,3,3,4,4,5,5,6,6,7,7,9,9,10,10,11,11,12,12,13,13,14,14,16,16,17,17,20,20,21,21,22,22,23,23,24,24,25,25,27,27,28,28],"right_children":[2,4,6,8,10,12,14,16,-1,18,20,22,24,26,28,-1,30,32,-1,-1,34,36,38,40,42,44,-1,46,48,-1,-1,-1,-1,-1,-1,-1,-1,-1,-1,-1,-1,-1,-1,-1,-1,-1,-1,-1,-1],"split_conditions":[1.9251032E1,1.8875E1,5.6E1,3.2351505E1,1.7568237E1,2.7857144E0,-9.8237675E-1,3.39765E1,4.7141743E0,3.89E1,6.7E1,1E0,5.311804E0,1.5E1,-4.9732757E-1,4.4290714E0,9.2E1,8.6E1,-2.2704554E0,1.7292708E0,5.9E1,4.5081433E2,5.4566666E1,2.5168167E1,4.2143396E2,6E1,-2.3883193E0,2.09E1,7.8571427E-1,-2.3643284E0,6.578215E-1,6.8817997E-1,3.4955206E0,7.902272E0,5.2938247E0,-2.8689282E-2,4.5332083E-1,-1.9516559E0,1.8772304E0,6.212953E-1,4.116613E0,-4.6437807E0,5.601817E-1,1.3472323E0,4.72141E0,9.322624E-1,-3.802109E-1,6.9254103E0,-1.0885961E0],"split_indices":[23,27,6,21,23,35,29,19,0,19,0,14,28,12,30,0,1,1,0,0,1,41,8,21,41,4,0,20,35,0,0,0,0,0,0,0,0,0,0,0,0,0,0,0,0,0,0,0,0],"split_type":[0,0,0,0,0,0,0,0,0,0,0,0,0,0,0,0,0,0,0,0,0,0,0,0,0,0,0,0,0,0,0,0,0,0,0,0,0,0,0,0,0,0,0,0,0,0,0,0,0],"sum_hessian":[4.29E3,6.8E1,4.222E3,4.7E1,2.1E1,3.784E3,4.38E2,4.4E1,3E0,1.3E1,8E0,3.685E3,9.9E1,1.9E1,4.19E2,3E0,4.1E1,1E1,3E0,2E0,6E0,3.64E3,4.5E1,5.2E1,4.7E1,1.6E1,3E0,2.68E2,1.51E2,1.7E1,2.4E1,8E0,2E0,2E0,4E0,3.464E3,1.76E2,3.6E1,9E0,2E1,3.2E1,4E0,4.3E1,1.1E1,5E0,6.4E1,2.04E2,2E0,1.49E2],"tree_param":{"num_deleted":"0","num_feature":"45","num_nodes":"49","size_leaf_vector":"1"}},{"base_weights":[-1.8831477E-2,1.3773234E0,-9.758111E-2,1.218392E1,6.7486525E-1,4.226514E-1,-3.2790047E-1,-9.083131E-1,1.6502687E1,-2.309929E0,1.2933335E0,-1.11813925E-1,1.5208019E0,4.155313E-1,-5.6371015E-1,1.2550426E0,2.078827E1,-4.220643E0,-1.1341912E0,4.0133843E0,3.7769789E-1,1.5619995E-1,-3.8059967E0,9.734492E0,1.2508231E0,4.6716908E-1,-4.279712E0,-8.017761E-1,3.841268E-1,6.1683064E0,2.5547907E0,-8.091425E-1,-1.5285953E0,-5.361298E-1,5.915974E-1,6.566954E-1,3.3578582E0,4.8151873E-2,3.1916854E0,1.3053133E-2,4.1658564E0,-1.6698104E0,5.535333E-1,1.1167183E-1,6.2241383E0,5.790893E-1,-2.2488892E-1,-2.3850223E-2,4.966672E-1,-8.7101465E-1,-1.8522564E-1,3.8203272E-1,-3.0257592E-1],"categories":[],"categories_nodes":[],"categories_segments":[],"categories_sizes":[],"default_left":[0,0,0,0,0,0,0,0,0,0,0,0,0,0,0,0,0,0,0,0,0,0,0,0,0,0,0,0,0,0,0,0,0,0,0,0,0,0,0,0,0,0,0,0,0,0,0,0,0,0,0,0,0],"id":21,"left_children":[1,3,5,7,9,11,13,-1,15,17,19,21,23,25,27,-1,29,31,33,35,37,39,41,43,45,47,-1,49,51,-1,-1,-1,-1,-1,-1,-1,-1,-1,-1,-1,-1,-1,-1,-1,-1,-1,-1,-1,-1,-1,-1,-1,-1],"loss_changes":[4.7367853E2,1.7428871E3,4.889657E2,9.5819824E2,3.9857712E2,7.35178E2,4.9599002E2,0E0,5.379446E2,8.179631E1,4.447804E2,8.345576E2,9.063847E2,6.033834E2,4.848004E2,0E0,2.884043E2,2.354535E1,7.789016E1,5.874456E2,3.041914E2,1.3326624E3,9.460481E2,1.7810587E3,8.7322156E2,5.6745526E2,0E0,3.2609875E2,7.606254E2,0E0,0E0,0E0,0E0,0E0,0E0,0E0,0E0,0E0,0E0,0E0,0E0,0E0,0E0,0E0,0E0,0E0,0E0,0E0,0E0,0E0,0E0,0E0,0E0],"parents":[2147483647,0,0,1,1,2,2,3,3,4,4,5,5,6,6,8,8,9,9,10,10,11,11,12,12,13,13,14,14,16,16,17,17,18,18,19,19,20,20,21,21,22,22,23,23,24,24,25,25,27,27,28,28],"right_children":[2,4,6,8,10,12,14,-1,16,18,20,22,24,26,28,-1,30,32,34,36,38,40,42,44,46,48,-1,50,52,-1,-1,-1,-1,-1,-1,-1,-1,-1,-1,-1,-1,-1,-1,-1,-1,-1,-1,-1,-1,-1,-1,-1,-1],"split_conditions":[-9.8594815E-1,5.941117E1,3.0166666E1,1.6035675E0,3.08118E2,9.3669195E0,9.7071136E2,-9.083131E-1,2.773501E0,1.2E1,2.5236917E1,4.4E1,9.504272E0,9.796137E-1,9.7791156E2,1.2550426E0,1.8E1,8.731456E-1,-9.922222E-1,4.1E1,3E0,1.3433333E2,9.7599506E2,2.7E1,-4.6451873E-1,1.9642857E1,-4.279712E0,1.65265E1,9.2263955E-1,6.1683064E0,2.5547907E0,-8.091425E-1,-1.5285953E0,-5.361298E-1,5.915974E-1,6.566954E-1,3.3578582E0,4.8151873E-2,3.1916854E0,1.3053133E-2,4.1658564E0,-1.6698104E0,5.535333E-1,1.1167183E-1,6.2241383E0,5.790893E-1,-2.2488892E-1,-2.3850223E-2,4.966672E-1,-8.7101465E-1,-1.8522564E-1,3.8203272E-1,-3.0257592E-1],"split_indices":[16,23,27,9,40,25,26,0,10,7,21,32,25,16,26,0,3,30,16,12,32,5,26,32,30,7,0,20,17,0,0,0,0,0,0,0,0,0,0,0,0,0,0,0,0,0,0,0,0,0,0,0,0],"split_type":[0,0,0,0,0,0,0,0,0,0,0,0,0,0,0,0,0,0,0,0,0,0,0,0,0,0,0,0,0,0,0,0,0,0,0,0,0,0,0,0,0,0,0,0,0,0,0,0,0,0,0,0,0],"sum_hessian":[4.311E3,2.3E2,4.081E3,1.4E1,2.16E2,1.252E3,2.829E3,3E0,1.1E1,3.7E1,1.79E2,8.42E2,4.1E2,6.81E2,2.148E3,3E0,8E0,1.4E1,2.3E1,4.5E1,1.34E2,7.85E2,5.7E1,1.3E1,3.97E2,6.79E2,2E0,1.717E3,4.31E2,6E0,2E0,9E0,5E0,1.8E1,5E0,3.9E1,6E0,1.32E2,2E0,7.8E2,5E0,3.9E1,1.8E1,8E0,5E0,2.68E2,1.29E2,4.93E2,1.86E2,4.6E1,1.671E3,2.52E2,1.79E2],"tree_param":{"num_deleted":"0","num_feature":"45","num_nodes":"53","size_leaf_vector":"1"}},{"base_weights":[1.9669816E-2,9.012202E-3,9.10579E0,-7.5107766E-3,5.0781927E0,4.33816E0,9.251807E-1,4.876303E-2,-1.9462429E0,1.5881349E0,8.521608E0,-4.02543E-3,2.7466764E0,-3.4518218E0,2.6120708E0,-9.960514E-2,1.4961172E0,1.0159605E1,1.0809454E0,3.9817793E-3,-1.0741374E0,-5.921878E-1,1.1577806E0,-1.0179439E0,1.5352355E0,-6.4678574E-1,1.6685787E0,2.8495196E-1,-5.192145E-1,2.152132E0,3.1687038E0],"categories":[],"categories_nodes":[],"categories_segments":[],"categories_sizes":[],"default_left":[0,0,0,0,0,0,0,0,0,0,0,0,0,0,0,0,0,0,0,0,0,0,0,0,0,0,0,0,0,0,0],"id":22,"left_children":[1,3,5,7,9,-1,-1,11,13,15,17,19,21,23,25,27,-1,29,-1,-1,-1,-1,-1,-1,-1,-1,-1,-1,-1,-1,-1],"loss_changes":[4.1470206E2,3.613734E2,2.125481E2,4.6805902E2,1.6580515E2,0E0,0E0,5.9383215E2,8.308878E2,5.234926E1,4.483493E1,3.41059E2,7.368974E2,4.8050146E2,6.1404626E2,1.2178578E1,0E0,1.2751038E1,0E0,0E0,0E0,0E0,0E0,0E0,0E0,0E0,0E0,0E0,0E0,0E0,0E0],"parents":[2147483647,0,0,1,1,2,2,3,3,4,4,7,7,8,8,9,9,10,10,11,11,12,12,13,13,14,14,15,15,17,17],"right_children":[2,4,6,8,10,-1,-1,12,14,16,18,20,22,24,26,28,-1,30,-1,-1,-1,-1,-1,-1,-1,-1,-1,-1,-1,-1,-1],"split_conditions":[4.9E1,5.3E1,6.807143E1,9.962982E-1,9.998518E-1,4.33816E0,9.251807E-1,9.8129596E2,3.7E1,2.9E1,2.7E1,1.155E2,2.6214285E1,3.692857E1,1.5541667E1,2.815E1,1.4961172E0,2.7666666E1,1.0809454E0,3.9817793E-3,-1.0741374E0,-5.921878E-1,1.1577806E0,-1.0179439E0,1.5352355E0,-6.4678574E-1,1.6685787E0,2.8495196E-1,-5.192145E-1,2.152132E0,3.1687038E0],"split_indices":[31,12,7,17,17,0,0,26,5,1,2,8,7,7,27,19,0,5,0,0,0,0,0,0,0,0,0,0,0,0,0],"split_type":[0,0,0,0,0,0,0,0,0,0,0,0,0,0,0,0,0,0,0,0,0,0,0,0,0,0,0,0,0,0,0],"sum_hessian":[4.305E3,4.3E3,5E0,4.286E3,1.4E1,2E0,3E0,4.165E3,1.21E2,7E0,7E0,4.085E3,8E1,9.1E1,3E1,5E0,2E0,5E0,2E0,4.066E3,1.9E1,2.1E1,5.9E1,8.6E1,5E0,1.3E1,1.7E1,3E0,2E0,3E0,2E0],"tree_param":{"num_deleted":"0","num_feature":"45","num_nodes":"31","size_leaf_vector":"1"}},{"base_weights":[5.749818E-4,-4.626324E-1,1.580752E-1,-5.1593393E-1,1.1060372E1,9.460541E0,1.4347795E-1,-4.624922E-1,-5.722536E0,3.6796808E0,1.4529682E0,8.0605966E-1,3.4365222E0,4.8859367E-1,-2.0450966E-1,-5.8622575E-1,1.5960712E0,-1.6503559E0,-3.238712E0,3.9161244E-1,7.4898005E0,-4.7278185E0,5.4278336E-3,-8.362603E-2,-4.2195094E-1,1.291268E0,2.8150608E-3,-9.159442E-1,7.898527E-1,7.689983E-2,1.3569152E0,5.6206565E0,4.9957913E-1,4.527229E0,-1.4555081E0,-2.3779926E0,1.5533971E-2],"categories":[],"categories_nodes":[],"categories_segments":[],"categories_sizes":[],"default_left":[0,0,0,0,0,0,0,0,0,0,0,0,0,0,0,0,0,0,0,0,0,0,0,0,0,0,0,0,0,0,0,0,0,0,0,0,0],"id":23,"left_children":[1,3,5,7,9,11,13,15,17,-1,-1,-1,-1,19,21,23,25,27,-1,29,31,33,35,-1,-1,-1,-1,-1,-1,-1,-1,-1,-1,-1,-1,-1,-1],"loss_changes":[3.145858E2,6.695178E2,4.347924E2,3.0149454E2,8.554877E1,1.2363379E2,3.8606024E2,2.7436023E2,3.1153885E2,0E0,0E0,0E0,0E0,1.0939596E3,1.5205254E3,2.804823E2,3.3609985E2,6.564721E1,0E0,6.98873E2,1.7736589E3,1.6049274E3,7.96084E2,0E0,0E0,0E0,0E0,0E0,0E0,0E0,0E0,0E0,0E0,0E0,0E0,0E0,0E0],"parents":[2147483647,0,0,1,1,2,2,3,3,4,4,5,5,6,6,7,7,8,8,13,13,14,14,15,15,16,16,17,17,19,19,20,20,21,21,22,22],"right_children":[2,4,6,8,10,12,14,16,18,-1,-1,-1,-1,20,22,24,26,28,-1,30,32,34,36,-1,-1,-1,-1,-1,-1,-1,-1,-1,-1,-1,-1,-1,-1],"split_conditions":[1.5E1,6E1,3.8939953E0,9.322272E0,6.1666668E1,2.08E1,3.00265E1,2.5E1,9.765197E2,3.6796808E0,1.4529682E0,8.0605966E-1,3.4365222E0,4.2268314E0,2.4351503E1,3.4157076E-1,2.8E1,4.5E1,-3.238712E0,2.0846905E1,4E1,1.515E1,3.6E1,-8.362603E-2,-4.2195094E-1,1.291268E0,2.8150608E-3,-9.159442E-1,7.898527E-1,7.689983E-2,1.3569152E0,5.6206565E0,4.9957913E-1,4.527229E0,-1.4555081E0,-2.3779926E0,1.5533971E-2],"split_indices":[4,2,25,9,5,20,19,3,26,0,0,0,0,28,21,17,3,2,0,10,13,20,13,0,0,0,0,0,0,0,0,0,0,0,0,0,0],"split_type":[0,0,0,0,0,0,0,0,0,0,0,0,0,0,0,0,0,0,0,0,0,0,0,0,0,0,0,0,0,0,0,0,0,0,0,0,0],"sum_hessian":[4.313E3,1.094E3,3.219E3,1.089E3,5E0,5E0,3.214E3,1.078E3,1.1E1,3E0,2E0,2E0,3E0,1.614E3,1.6E3,1.017E3,6.1E1,7E0,4E0,1.592E3,2.2E1,7.1E1,1.529E3,8.21E2,1.96E2,1.9E1,4.2E1,5E0,2E0,1.564E3,2.8E1,6E0,1.6E1,3E0,6.8E1,9E0,1.52E3],"tree_param":{"num_deleted":"0","num_feature":"45","num_nodes":"37","size_leaf_vector":"1"}},{"base_weights":[9.498818E-3,-4.4365566E-2,1.6024855E0,3.277733E-2,-1.1495672E0,1.3293114E0,5.1546E0,-8.885194E-2,1.0584778E0,-1.3597578E-1,-4.37289E0,1.6074951E0,-4.4340034E0,2.7528336E-2,-1.8065414E0,5.7218714E0,1.2215107E-1,-4.4687203E-1,1.2334623E1,3.558759E0,-6.9680367E0,9.549055E-1,9.047615E0,-1.1229929E-2,1.1776445E0,-1.5301874E0,-2.2881041E-1,4.7052193E0,2.1514276E-1,-2.8119018E0,9.0399094E-2,-2.2950633E-1,2.1042795E0,4.560899E0,9.398698E-1,1.7040958E-1,4.0428734E0,-1.4739672E0,-6.2512646E0,3.590664E-1,-1.2634014E0,-5.0637996E-1,2.9276998E0],"categories":[],"categories_nodes":[],"categories_segments":[],"categories_sizes":[],"default_left":[0,0,0,0,0,0,0,0,0,0,0,0,0,0,0,0,0,0,0,0,0,0,0,0,0,0,0,0,0,0,0,0,0,0,0,0,0,0,0,0,0,0,0],"id":24,"left_children":[1,3,5,7,9,11,-1,13,15,17,19,21,-1,23,25,27,29,31,33,35,37,39,41,-1,-1,-1,-1,-1,-1,-1,-1,-1,-1,-1,-1,-1,-1,-1,-1,-1,-1,-1,-1],"loss_changes":[3.699384E2,3.554558E2,7.1442413E2,4.8603232E2,8.8762885E2,7.232277E2,0E0,6.962995E2,1.8020149E3,7.9987354E2,1.3395503E3,6.6272546E2,0E0,1.0790776E3,8.425813E2,4.3027617E3,8.976509E2,8.040326E2,2.3723755E2,5.6750793E2,9.9762964E2,3.420757E2,3.0427002E2,0E0,0E0,0E0,0E0,0E0,0E0,0E0,0E0,0E0,0E0,0E0,0E0,0E0,0E0,0E0,0E0,0E0,0E0,0E0,0E0],"parents":[2147483647,0,0,1,1,2,2,3,3,4,4,5,5,7,7,8,8,9,9,10,10,11,11,13,13,14,14,15,15,16,16,17,17,18,18,19,19,20,20,21,21,22,22],"right_children":[2,4,6,8,10,12,-1,14,16,18,20,22,-1,24,26,28,30,32,34,36,38,40,42,-1,-1,-1,-1,-1,-1,-1,-1,-1,-1,-1,-1,-1,-1,-1,-1,-1,-1,-1,-1],"split_conditions":[9.8058116E-1,1.30447235E1,1.332E1,5.8E1,6.2E1,1.2E1,5.1546E0,5.4E1,3.3E1,9.997685E-1,9.0658734E2,4.7024545E2,-4.4340034E0,2.857143E0,6.960386E1,1.4095436E1,9.692764E2,1.2913567E3,5.7E1,8.7253345E2,6.3411814E-1,1.463825E3,8.3333336E-2,-1.1229929E-2,1.1776445E0,-1.5301874E0,-2.2881041E-1,4.7052193E0,2.1514276E-1,-2.8119018E0,9.0399094E-2,-2.2950633E-1,2.1042795E0,4.560899E0,9.398698E-1,1.7040958E-1,4.0428734E0,-1.4739672E0,-6.2512646E0,3.590664E-1,-1.2634014E0,-5.0637996E-1,2.9276998E0],"split_indices":[29,25,25,3,3,31,0,2,4,16,44,41,0,35,22,10,26,41,0,44,29,40,27,0,0,0,0,0,0,0,0,0,0,0,0,0,0,0,0,0,0,0,0],"split_type":[0,0,0,0,0,0,0,0,0,0,0,0,0,0,0,0,0,0,0,0,0,0,0,0,0,0,0,0,0,0,0,0,0,0,0,0,0,0,0,0,0,0,0],"sum_hessian":[4.307E3,4.166E3,1.41E2,3.894E3,2.72E2,1.39E2,2E0,3.481E3,4.13E2,2.07E2,6.5E1,1.37E2,2E0,3.26E3,2.21E2,6.9E1,3.44E2,2.02E2,5E0,1.6E1,4.9E1,1.26E2,1.1E1,3.21E3,5E1,3.9E1,1.82E2,1.9E1,5E1,7E0,3.37E2,1.92E2,1E1,3E0,2E0,1.3E1,3E0,4.6E1,3E0,1.17E2,9E0,2E0,9E0],"tree_param":{"num_deleted":"0","num_feature":"45","num_nodes":"43","size_leaf_vector":"1"}},{"base_weights":[-2.101323E-2,8.877358E-1,-1.0768002E-1,-6.392117E-1,1.5897503E0,-7.2570837E-1,4.4796214E-2,2.2852573E0,-1.2031902E0,2.1687049E-1,2.8878155E0,-4.538053E-1,-2.5276701E0,3.5757762E-1,-3.2824504E-1,9.75031E0,2.6967722E-1,-1.6157013E0,3.1768996E-1,-1.9519717E-2,2.502816E0,5.2356076E0,-1.04194164E-1,-1.1739769E0,2.593323E-1,-1.2503791E0,-5.189066E0,2.8974587E-1,4.591576E0,-2.847699E-1,-9.165218E0,1.5521208E0,3.3493936E0,-1.4946209E-1,6.81043E-1,-4.4220933E-1,7.6278406E-1,9.607894E-1,-2.680118E-1,-9.027745E-1,1.3995026E-1,2.1868331E0,8.9066124E-1,-2.6358953E-1,2.4671688E0,-7.5858295E-1,-2.2145772E-1,-3.0471966E-1,2.7354673E-1,-8.855682E-2,-1.5176193E0,-9.421384E-1,-1.8894708E0,-2.8254446E-1,1.2861392E-1,5.178995E-1,4.8605194E0,8.40705E-1,-1.0404842E-1,7.934744E-1,-3.5869277E0],"categories":[],"categories_nodes":[],"categories_segments":[],"categories_sizes":[],"default_left":[0,0,0,0,0,0,0,0,0,0,0,0,0,0,0,0,0,0,0,0,0,0,0,0,0,0,0,0,0,0,0,0,0,0,0,0,0,0,0,0,0,0,0,0,0,0,0,0,0,0,0,0,0,0,0,0,0,0,0,0,0],"id":25,"left_children":[1,3,5,7,9,11,13,15,17,19,21,23,25,27,29,31,33,35,37,39,-1,41,43,45,47,49,51,53,55,57,59,-1,-1,-1,-1,-1,-1,-1,-1,-1,-1,-1,-1,-1,-1,-1,-1,-1,-1,-1,-1,-1,-1,-1,-1,-1,-1,-1,-1,-1,-1],"loss_changes":[3.392651E2,4.0224075E2,3.709782E2,1.9443964E2,4.572746E2,3.8095395E2,3.682543E2,2.8370248E2,6.2440735E1,2.8715976E2,9.2860754E2,3.479275E2,3.4514343E2,4.9193658E2,5.5055005E2,4.4234955E1,3.1607265E1,4.496115E1,1.007061E2,2.4682904E2,0E0,4.283927E2,5.298885E2,1.8356345E2,4.0564517E2,2.9249258E2,1.0678662E2,5.1321106E2,9.973257E2,6.422199E2,4.3089215E2,0E0,0E0,0E0,0E0,0E0,0E0,0E0,0E0,0E0,0E0,0E0,0E0,0E0,0E0,0E0,0E0,0E0,0E0,0E0,0E0,0E0,0E0,0E0,0E0,0E0,0E0,0E0,0E0,0E0,0E0],"parents":[2147483647,0,0,1,1,2,2,3,3,4,4,5,5,6,6,7,7,8,8,9,9,10,10,11,11,12,12,13,13,14,14,15,15,16,16,17,17,18,18,19,19,21,21,22,22,23,23,24,24,25,25,26,26,27,27,28,28,29,29,30,30],"right_children":[2,4,6,8,10,12,14,16,18,20,22,24,26,28,30,32,34,36,38,40,-1,42,44,46,48,50,52,54,56,58,60,-1,-1,-1,-1,-1,-1,-1,-1,-1,-1,-1,-1,-1,-1,-1,-1,-1,-1,-1,-1,-1,-1,-1,-1,-1,-1,-1,-1,-1,-1],"split_conditions":[-9.6573997E-1,1.2666667E1,-6.8077344E-1,2.62E2,9.7404443E2,6.798E2,3.9276369E0,5.1165614E0,3.708E2,1.163E1,4.861262E0,2.56E2,5.843063E-1,9.9956775E-1,9.291414E-1,9E0,9.732085E2,2.88E2,3.978975E2,9.5265816E1,2.502816E0,2.215E1,1.0488089E1,5.634891E0,1.26E1,2.7E1,2.7E1,2.1410416E1,9.812037E1,2.2749418E1,2.2566668E1,1.5521208E0,3.3493936E0,-1.4946209E-1,6.81043E-1,-4.4220933E-1,7.6278406E-1,9.607894E-1,-2.680118E-1,-9.027745E-1,1.3995026E-1,2.1868331E0,8.9066124E-1,-2.6358953E-1,2.4671688E0,-7.5858295E-1,-2.2145772E-1,-3.0471966E-1,2.7354673E-1,-8.855682E-2,-1.5176193E0,-9.421384E-1,-1.8894708E0,-2.8254446E-1,1.2861392E-1,5.178995E-1,4.8605194E0,8.40705E-1,-1.0404842E-1,7.934744E-1,-3.5869277E0],"split_indices":[16,5,16,13,26,40,28,25,40,33,10,13,29,30,17,0,26,13,40,22,0,20,9,25,4,4,1,21,22,21,8,0,0,0,0,0,0,0,0,0,0,0,0,0,0,0,0,0,0,0,0,0,0,0,0,0,0,0,0,0,0],"split_type":[0,0,0,0,0,0,0,0,0,0,0,0,0,0,0,0,0,0,0,0,0,0,0,0,0,0,0,0,0,0,0,0,0,0,0,0,0,0,0,0,0,0,0,0,0,0,0,0,0,0,0,0,0,0,0,0,0,0,0,0,0],"sum_hessian":[4.31E3,3.75E2,3.935E3,1.18E2,2.57E2,7.79E2,3.156E3,1.9E1,9.9E1,1.25E2,1.32E2,6.77E2,1.02E2,1.717E3,1.439E3,4E0,1.5E1,7.8E1,2.1E1,1.22E2,3E0,7.4E1,5.8E1,3.37E2,3.4E2,6.9E1,3.3E1,1.69E3,2.7E1,1.432E3,7E0,2E0,2E0,1.1E1,4E0,7.6E1,2E0,6E0,1.5E1,1.7E1,1.05E2,2.5E1,4.9E1,5.3E1,5E0,4.8E1,2.89E2,1.22E2,2.18E2,5.8E1,1.1E1,2E1,1.3E1,2.26E2,1.464E3,2.3E1,4E0,4.8E1,1.384E3,2E0,5E0],"tree_param":{"num_deleted":"0","num_feature":"45","num_nodes":"61","size_leaf_vector":"1"}},{"base_weights":[1.3178744E-3,6.6792504E-3,-2.8774815E0,-2.4272634E-2,2.9430413E0,3.1527966E-2,-1.5992266E0,1.029334E1,-3.9518867E-2,-4.036032E-2,2.7018378E0,-3.6371553E0,2.0801105E0,1.7031197E1,2.3662906E0,-8.634135E0,1.5477606E0,9.59736E-3,-6.539203E-1,4.504824E-1,4.069658E0,-7.271735E-1,-4.3969765E0,2.8992128E0,2.9711245E-2,3.671921E0,5.884473E0,1.8618523E0,-1.9623525E-2,-1.1538423E0,-3.698213E0,2.355574E0,4.765843E-2],"categories":[],"categories_nodes":[],"categories_segments":[],"categories_sizes":[],"default_left":[0,0,0,0,0,0,0,0,0,0,0,0,0,0,0,0,0,0,0,0,0,0,0,0,0,0,0,0,0,0,0,0,0],"id":26,"left_children":[1,3,-1,5,7,9,11,13,15,17,19,21,23,25,27,29,31,-1,-1,-1,-1,-1,-1,-1,-1,-1,-1,-1,-1,-1,-1,-1,-1],"loss_changes":[2.5911493E2,3.9223712E2,0E0,3.75024E2,9.893611E2,7.909573E2,1.0953752E3,6.8993823E2,4.3870923E2,7.9456415E2,1.3308645E3,9.895906E2,9.504411E2,9.604382E1,7.473537E1,1.1593683E2,2.8163464E2,0E0,0E0,0E0,0E0,0E0,0E0,0E0,0E0,0E0,0E0,0E0,0E0,0E0,0E0,0E0,0E0],"parents":[2147483647,0,0,1,1,3,3,4,4,5,5,6,6,7,7,8,8,9,9,10,10,11,11,12,12,13,13,14,14,15,15,16,16],"right_children":[2,4,-1,6,8,10,12,14,16,18,20,22,24,26,28,30,32,-1,-1,-1,-1,-1,-1,-1,-1,-1,-1,-1,-1,-1,-1,-1,-1],"split_conditions":[2.6428572E1,1.5571428E1,-2.8774815E0,8.5666664E1,1.3571428E1,7.3E1,6E1,2.641248E1,9.7080884E2,6.656795E2,1.1021506E3,8.064038E-1,6.4E1,9.7E1,3.394323E1,9.6E1,8.287822E0,9.59736E-3,-6.539203E-1,4.504824E-1,4.069658E0,-7.271735E-1,-4.3969765E0,2.8992128E0,2.9711245E-2,3.671921E0,5.884473E0,1.8618523E0,-1.9623525E-2,-1.1538423E0,-3.698213E0,2.355574E0,4.765843E-2],"split_indices":[34,34,0,5,35,0,4,9,26,41,44,30,4,0,9,1,25,0,0,0,0,0,0,0,0,0,0,0,0,0,0,0,0],"split_type":[0,0,0,0,0,0,0,0,0,0,0,0,0,0,0,0,0,0,0,0,0,0,0,0,0,0,0,0,0,0,0,0,0],"sum_hessian":[4.31E3,4.308E3,2E0,4.263E3,4.5E1,4.117E3,1.46E2,1.3E1,3.2E1,4.009E3,1.08E2,9.4E1,5.2E1,7E0,6E0,5E0,2.7E1,3.889E3,1.2E2,1.01E2,7E0,8.9E1,5E0,9E0,4.3E1,5E0,2E0,2E0,4E0,3E0,2E0,4E0,2.3E1],"tree_param":{"num_deleted":"0","num_feature":"45","num_nodes":"33","size_leaf_vector":"1"}},{"base_weights":[5.122492E-3,6.010424E-1,-1.2133666E-1,6.6942513E-1,-4.156815E0,5.8845304E-2,-9.850507E-1,1.0949966E0,-1.6380773E0,8.120475E-2,-7.1874495E0,-1.0991293E0,1.2817759E1,2.629695E0,1.9268867E-1,4.3247533E0,-3.983873E0,-1.1536215E-2,1.9054832E0,-1.1928067E1,-3.319127E0,-1.1928015E0,8.25145E0,8.438798E-1,6.8045754E0,2.8928554E-1,2.3093648E0,-5.3528273E-1,3.0556256E-1,1.4944082E0,-1.7512535E0,-7.6405E0,-8.478615E-1,7.5689317E-3,-1.040486E0,3.0116856E0,3.5208517E-1,-2.3839488E0,-3.6190534E0,-9.998049E-2,-1.9170259E0,-1.5779918E-1,-7.3700607E-1,3.2191392E-2,6.157021E0],"categories":[],"categories_nodes":[],"categories_segments":[],"categories_sizes":[],"default_left":[0,0,0,0,0,0,0,0,0,0,0,0,0,0,0,0,0,0,0,0,0,0,0,0,0,0,0,0,0,0,0,0,0,0,0,0,0,0,0,0,0,0,0,0,0],"id":27,"left_children":[1,3,5,7,-1,9,11,13,15,17,19,21,23,25,27,29,31,33,35,37,39,41,43,-1,-1,-1,-1,-1,-1,-1,-1,-1,-1,-1,-1,-1,-1,-1,-1,-1,-1,-1,-1,-1,-1],"loss_changes":[3.2499216E2,8.7245404E2,5.5363E2,7.383879E2,0E0,4.749863E2,9.642793E2,8.786698E2,1.6370083E3,4.966767E2,1.6103009E2,5.3191547E2,6.569489E2,2.2615522E3,9.294802E2,5.779867E2,1.4060767E3,4.7226776E2,7.304555E2,1.5726257E1,6.01178E1,5.8808124E2,7.7585547E2,0E0,0E0,0E0,0E0,0E0,0E0,0E0,0E0,0E0,0E0,0E0,0E0,0E0,0E0,0E0,0E0,0E0,0E0,0E0,0E0,0E0,0E0],"parents":[2147483647,0,0,1,1,2,2,3,3,5,5,6,6,7,7,8,8,9,9,10,10,11,11,12,12,13,13,14,14,15,15,16,16,17,17,18,18,19,19,20,20,21,21,22,22],"right_children":[2,4,6,8,-1,10,12,14,16,18,20,22,24,26,28,30,32,34,36,38,40,42,44,-1,-1,-1,-1,-1,-1,-1,-1,-1,-1,-1,-1,-1,-1,-1,-1,-1,-1,-1,-1,-1,-1],"split_conditions":[8.104946E1,2.8E0,3.15265E1,7.78413E-1,-4.156815E0,3.1E1,9.972678E-1,1.75E3,5.2128986E2,4.080922E2,8E0,1.41E2,6.8E1,5.0785713E1,1.0891237E1,1.4170728E1,5.232361E2,4.1285713E1,2.7E1,3.2E1,3.3E1,2E0,3.675771E1,8.438798E-1,6.8045754E0,2.8928554E-1,2.3093648E0,-5.3528273E-1,3.0556256E-1,1.4944082E0,-1.7512535E0,-7.6405E0,-8.478615E-1,7.5689317E-3,-1.040486E0,3.0116856E0,3.5208517E-1,-2.3839488E0,-3.6190534E0,-9.998049E-2,-1.9170259E0,-1.5779918E-1,-7.3700607E-1,3.2191392E-2,6.157021E0],"split_indices":[22,24,19,30,0,32,30,40,44,41,10,3,0,7,9,9,44,42,1,0,3,32,23,0,0,0,0,0,0,0,0,0,0,0,0,0,0,0,0,0,0,0,0,0,0],"split_type":[0,0,0,0,0,0,0,0,0,0,0,0,0,0,0,0,0,0,0,0,0,0,0,0,0,0,0,0,0,0,0,0,0,0,0,0,0,0,0,0,0,0,0,0,0],"sum_hessian":[4.311E3,7.55E2,3.556E3,7.52E2,3E0,2.942E3,6.14E2,6.35E2,1.17E2,2.933E3,9E0,6.09E2,5E0,2.35E2,4E2,3.3E1,8.4E1,2.791E3,1.42E2,4E0,5E0,6.03E2,6E0,3E0,2E0,1.91E2,4.4E1,1.22E2,2.78E2,2.9E1,4E0,2E0,8.2E1,2.763E3,2.8E1,7E0,1.35E2,2E0,2E0,3E0,2E0,4.52E2,1.51E2,4E0,2E0],"tree_param":{"num_deleted":"0","num_feature":"45","num_nodes":"45","size_leaf_vector":"1"}},{"base_weights":[7.5019677E-3,2.342247E0,-2.869992E-2,6.2575245E0,-7.215242E-1,-6.26586E0,-5.0536143E-3,2.5139062E0,1.602795E1,-6.912815E0,1.2630563E0,-1.2575775E1,2.7826095E-2,-5.3808663E-2,1.7086678E0,-1.7233992E0,9.41815E0,8.691315E0,9.843132E0,-2.670198E0,-2.3270237E0,-7.4449587E0,3.170681E0,-9.459283E0,-5.4975195E0,1.7122525E0,-2.1833298E0,1.8589395E-3,-2.3634825E0,4.5612073E0,-6.5045464E-1,-1.3660523E0,1.0350852E0,5.579478E-1,3.4747593E0,3.6150997E0,2.2792177E-1,-2.4158357E-1,-9.0530705E-1,-3.7790205E0,-5.9757847E-1,1.550408E0,-1.582456E-1,-2.904466E0,-1.3522652E0,9.0569906E-2,-1.2165807E0,-2.6445405E-3,4.170848E0,1.7587589E0,-7.568147E-1,9.638955E-2,2.4383519E0,-1.2259722E0,3.5171357E-1],"categories":[],"categories_nodes":[],"categories_segments":[],"categories_sizes":[],"default_left":[0,0,0,0,0,0,0,0,0,0,0,0,0,0,0,0,0,0,0,0,0,0,0,0,0,0,0,0,0,0,0,0,0,0,0,0,0,0,0,0,0,0,0,0,0,0,0,0,0,0,0,0,0,0,0],"id":28,"left_children":[1,3,5,7,9,11,13,15,17,19,21,23,25,27,29,31,33,-1,35,-1,37,39,41,43,-1,-1,45,47,49,51,53,-1,-1,-1,-1,-1,-1,-1,-1,-1,-1,-1,-1,-1,-1,-1,-1,-1,-1,-1,-1,-1,-1,-1,-1],"loss_changes":[3.654379E2,7.933142E2,6.2546515E2,1.0562288E3,4.563391E2,6.3909766E2,3.5345267E2,6.1699316E2,8.8564575E2,1.453811E2,4.648029E2,2.1560303E2,1.20362175E2,5.300346E2,7.884537E2,2.765856E2,2.4247223E2,0E0,2.3248303E2,0E0,5.7008915E0,1.8519968E2,2.57538E2,4.4106873E1,0E0,0E0,4.0927216E1,8.1409204E2,5.546994E2,1.1147148E3,5.450792E2,0E0,0E0,0E0,0E0,0E0,0E0,0E0,0E0,0E0,0E0,0E0,0E0,0E0,0E0,0E0,0E0,0E0,0E0,0E0,0E0,0E0,0E0,0E0,0E0],"parents":[2147483647,0,0,1,1,2,2,3,3,4,4,5,5,6,6,7,7,8,8,9,9,10,10,11,11,12,12,13,13,14,14,15,15,16,16,18,18,20,20,21,21,22,22,23,23,26,26,27,27,28,28,29,29,30,30],"right_children":[2,4,6,8,10,12,14,16,18,20,22,24,26,28,30,32,34,-1,36,-1,38,40,42,44,-1,-1,46,48,50,52,54,-1,-1,-1,-1,-1,-1,-1,-1,-1,-1,-1,-1,-1,-1,-1,-1,-1,-1,-1,-1,-1,-1,-1,-1],"split_conditions":[1.9251032E1,8.5666664E1,1.9904745E1,7.857143E1,6E0,3.78265E1,2.60765E1,-1.3062604E-1,-6.904778E-1,2.1061136E1,3.62E1,1.0296251E1,7E1,3.052025E1,5.6778603E0,1.08955765E1,9.714286E0,8.691315E0,2.7598309E1,-2.670198E0,7.9E1,1.09E2,1.3584932E1,-2.4018043E-1,-5.4975195E0,1.7122525E0,1.7166666E1,6.436497E0,2.1E1,4.861262E0,7.6941484E-1,-1.3660523E0,1.0350852E0,5.579478E-1,3.4747593E0,3.6150997E0,2.2792177E-1,-2.4158357E-1,-9.0530705E-1,-3.7790205E0,-5.9757847E-1,1.550408E0,-1.582456E-1,-2.904466E0,-1.3522652E0,9.0569906E-2,-1.2165807E0,-2.6445405E-3,4.170848E0,1.7587589E0,-7.568147E-1,9.638955E-2,2.4383519E0,-1.2259722E0,3.5171357E-1],"split_indices":[23,5,23,42,31,19,20,29,29,9,19,25,2,21,9,25,34,0,9,0,0,0,25,29,0,0,27,28,3,10,16,0,0,0,0,0,0,0,0,0,0,0,0,0,0,0,0,0,0,0,0,0,0,0,0],"split_type":[0,0,0,0,0,0,0,0,0,0,0,0,0,0,0,0,0,0,0,0,0,0,0,0,0,0,0,0,0,0,0,0,0,0,0,0,0,0,0,0,0,0,0,0,0,0,0,0,0,0,0,0,0,0,0],"sum_hessian":[4.317E3,6.6E1,4.251E3,2.9E1,3.7E1,1.6E1,4.235E3,2.1E1,8E0,9E0,2.8E1,8E0,8E0,4.118E3,1.17E2,1.3E1,8E0,2E0,6E0,5E0,4E0,5E0,2.3E1,6E0,2E0,2E0,6E0,4.021E3,9.7E1,5.3E1,6.4E1,8E0,5E0,3E0,5E0,4E0,2E0,2E0,2E0,2E0,3E0,1.3E1,1E1,4E0,2E0,3E0,3E0,4.018E3,3E0,6E0,9.1E1,2.9E1,2.4E1,2.1E1,4.3E1],"tree_param":{"num_deleted":"0","num_feature":"45","num_nodes":"55","size_leaf_vector":"1"}},{"base_weights":[-1.0823265E-2,-6.170284E-1,7.447643E-2,-2.1280397E-1,-1.6811734E0,-9.008171E-1,1.4024869E-1,-7.389769E-2,-4.9063535E0,-1.3215616E0,-3.496968E0,-1.2277238E0,6.517992E0,2.880439E0,7.505495E-2,-1.0213295E0,3.8946795E-1,-3.1340423E0,-6.967259E0,-1.4904088E0,2.573297E0,-3.8685513E0,1.19394034E-1,-9.969538E-1,-1.4031115E1,7.64982E0,5.354968E-1,-1.1659814E0,4.8709493E0,-2.2137568E0,1.3015E-1,1.5005865E-2,-4.0241683E-1,2.9582845E-2,1.1844962E0,-3.4167632E-1,-1.2256432E0,-1.3587751E0,-2.3387465E0,-2.887522E-1,-9.023555E-1,-1.7095631E-1,1.9113194E0,-6.9439465E-1,-1.2636856E0,2.5831523E0,-3.0526188E-1,-4.3924513E0,-2.674251E0,1.5440665E0,-3.263568E-1,-6.9069475E-1,1.9505635E0,2.3158195E0,5.1538897E-1,1.170193E0,-1.478763E0,8.886925E-1,1.5941745E-2],"categories":[],"categories_nodes":[],"categories_segments":[],"categories_sizes":[],"default_left":[0,0,0,0,0,0,0,0,0,0,0,0,0,0,0,0,0,0,0,0,0,0,0,0,0,0,0,0,0,0,0,0,0,0,0,0,0,0,0,0,0,0,0,0,0,0,0,0,0,0,0,0,0,0,0,0,0,0,0],"id":29,"left_children":[1,3,5,7,9,11,13,15,17,19,21,23,25,27,29,31,33,35,37,39,41,43,-1,45,47,-1,49,51,53,55,57,-1,-1,-1,-1,-1,-1,-1,-1,-1,-1,-1,-1,-1,-1,-1,-1,-1,-1,-1,-1,-1,-1,-1,-1,-1,-1,-1,-1],"loss_changes":[2.2258398E2,2.2796E2,2.4172086E2,2.4982054E2,9.41145E1,5.761283E2,6.3043945E2,1.6435432E2,3.744757E1,8.005083E1,3.624765E1,6.698737E2,1.4067562E3,6.615885E2,4.3468787E2,7.520151E1,2.9173712E2,1.6619583E1,1.3849594E1,8.412805E1,8.2384186E1,2.556958E1,0E0,5.1069788E2,3.6088745E1,0E0,8.2193054E1,3.7042126E2,6.6099365E2,1.9948269E3,7.641532E2,0E0,0E0,0E0,0E0,0E0,0E0,0E0,0E0,0E0,0E0,0E0,0E0,0E0,0E0,0E0,0E0,0E0,0E0,0E0,0E0,0E0,0E0,0E0,0E0,0E0,0E0,0E0,0E0],"parents":[2147483647,0,0,1,1,2,2,3,3,4,4,5,5,6,6,7,7,8,8,9,9,10,10,11,11,12,12,13,13,14,14,15,15,16,16,17,17,18,18,19,19,20,20,21,21,23,23,24,24,26,26,27,27,28,28,29,29,30,30],"right_children":[2,4,6,8,10,12,14,16,18,20,22,24,26,28,30,32,34,36,38,40,42,44,-1,46,48,-1,50,52,54,56,58,-1,-1,-1,-1,-1,-1,-1,-1,-1,-1,-1,-1,-1,-1,-1,-1,-1,-1,-1,-1,-1,-1,-1,-1,-1,-1,-1,-1],"split_conditions":[1.3833333E1,1.3578571E1,4E0,2.96E2,2.7118166E1,5.164033E2,5E0,1.05E1,3.8003192E0,2.7001503E1,7.601225E-1,2.5714285E0,5.282268E2,3.59232E0,6E0,9E0,4.1E1,6.12E0,1.3E1,1.95E1,1.38E1,9.303153E1,1.19394034E-1,1.21E1,3.1E1,7.64982E0,3E1,9.808852E2,2.9E1,2.2566668E1,4.1E1,1.5005865E-2,-4.0241683E-1,2.9582845E-2,1.1844962E0,-3.4167632E-1,-1.2256432E0,-1.3587751E0,-2.3387465E0,-2.887522E-1,-9.023555E-1,-1.7095631E-1,1.9113194E0,-6.9439465E-1,-1.2636856E0,2.5831523E0,-3.0526188E-1,-4.3924513E0,-2.674251E0,1.5440665E0,-3.263568E-1,-6.9069475E-1,1.9505635E0,2.3158195E0,5.1538897E-1,1.170193E0,-1.478763E0,8.886925E-1,1.5941745E-2],"split_indices":[8,7,12,13,21,41,12,1,28,21,29,35,41,9,12,1,12,25,1,1,3,22,0,0,1,0,2,26,3,8,13,0,0,0,0,0,0,0,0,0,0,0,0,0,0,0,0,0,0,0,0,0,0,0,0,0,0,0,0],"split_type":[0,0,0,0,0,0,0,0,0,0,0,0,0,0,0,0,0,0,0,0,0,0,0,0,0,0,0,0,0,0,0,0,0,0,0,0,0,0,0,0,0,0,0,0,0,0,0,0,0,0,0,0,0,0,0,0,0,0,0],"sum_hessian":[4.302E3,5.31E2,3.771E3,3.85E2,1.46E2,2.38E2,3.533E3,3.74E2,1.1E1,1.22E2,2.4E1,2.28E2,1E1,8.2E1,3.451E3,1.23E2,2.51E2,6E0,5E0,1.17E2,5E0,2.2E1,2E0,2.24E2,4E0,2E0,8E0,2.7E1,5.5E1,8.1E1,3.37E3,4.2E1,8.1E1,2.36E2,1.5E1,3E0,3E0,3E0,2E0,1E2,1.7E1,3E0,2E0,1.1E1,1.1E1,4E0,2.2E2,2E0,2E0,2E0,6E0,2.3E1,4E0,2.2E1,3.3E1,2.8E1,5.3E1,6.6E1,3.304E3],"tree_param":{"num_deleted":"0","num_feature":"45","num_nodes":"59","size_leaf_vector":"1"}},{"base_weights":[1.8370934E-2,-2.091542E-1,2.374246E-1,-1.1492514E-1,-3.8051775E0,8.351132E-1,-1.0909505E-1,-1.3353325E-1,3.1791224E0,-1.0132604E1,-3.1512806E0,5.2206844E-1,3.9828544E0,-1.740273E0,1.6099681E-1,5.7493067E0,-1.6238108E-1,-1.06219105E-1,-4.188266E0,-3.6403422E0,2.071413E0,1.183366E-1,3.1434E0,1.3686765E1,3.1069558E0,1.0356255E0,-3.1940644E0,1.8886241E0,-1.4717773E-1,1.7130387E-1,4.4293966E0,-2.629611E-2,-6.770186E-1,1.017405E0,-1.0587467E0,-8.010568E-1,8.1431106E-2,1.2120934E0,-4.7462192E-1,1.0773839E0,5.835051E0,5.28809E-1,2.6961446E0,-1.0391915E0,8.0707747E-1,2.5556033E0,-9.4675475E-1,1.5322951E0,-4.190599E-2,2.2988652E-1,-1.7469878E-1],"categories":[],"categories_nodes":[],"categories_segments":[],"categories_sizes":[],"default_left":[0,0,0,0,0,0,0,0,0,0,0,0,0,0,0,0,0,0,0,0,0,0,0,0,0,0,0,0,0,0,0,0,0,0,0,0,0,0,0,0,0,0,0,0,0,0,0,0,0,0,0],"id":30,"left_children":[1,3,5,7,9,11,13,15,-1,17,19,21,23,25,27,29,31,-1,-1,33,-1,35,37,39,41,43,45,47,49,-1,-1,-1,-1,-1,-1,-1,-1,-1,-1,-1,-1,-1,-1,-1,-1,-1,-1,-1,-1,-1,-1],"loss_changes":[2.1526839E2,7.167453E2,4.5602972E2,4.8222034E2,2.1976556E2,7.950945E2,6.141011E2,3.4845E2,0E0,3.0570032E2,2.7048917E2,7.7709375E2,6.158679E2,7.996879E2,6.366612E2,5.8974744E2,3.0146393E2,0E0,0E0,1.9018945E2,0E0,4.2097025E2,8.010408E2,5.196063E2,5.123136E2,7.4698444E2,9.1858044E2,1.5420181E3,5.768405E2,0E0,0E0,0E0,0E0,0E0,0E0,0E0,0E0,0E0,0E0,0E0,0E0,0E0,0E0,0E0,0E0,0E0,0E0,0E0,0E0,0E0,0E0],"parents":[2147483647,0,0,1,1,2,2,3,3,4,4,5,5,6,6,7,7,9,9,10,10,11,11,12,12,13,13,14,14,15,15,16,16,19,19,21,21,22,22,23,23,24,24,25,25,26,26,27,27,28,28],"right_children":[2,4,6,8,10,12,14,16,-1,18,20,22,24,26,28,30,32,-1,-1,34,-1,36,38,40,42,44,46,48,50,-1,-1,-1,-1,-1,-1,-1,-1,-1,-1,-1,-1,-1,-1,-1,-1,-1,-1,-1,-1,-1,-1],"split_conditions":[1.649413E2,1.6714285E1,5.5534368E0,3.1127085E1,1.45E1,2.9133333E1,4.75E0,3.75E-1,3.1791224E0,1.6E1,8E0,3.5666668E1,2.14E1,3E1,1.15E1,3.2E1,5.3E1,-1.06219105E-1,-4.188266E0,9.704702E2,2.071413E0,7.968295E1,9.562348E-1,3.2714287E1,1.1428572E0,3.65E1,-9.8237675E-1,-7.249986E-1,3.9276369E0,1.7130387E-1,4.4293966E0,-2.629611E-2,-6.770186E-1,1.017405E0,-1.0587467E0,-8.010568E-1,8.1431106E-2,1.2120934E0,-4.7462192E-1,1.0773839E0,5.835051E0,5.28809E-1,2.6961446E0,-1.0391915E0,8.0707747E-1,2.5556033E0,-9.4675475E-1,1.5322951E0,-4.190599E-2,2.2988652E-1,-1.7469878E-1],"split_indices":[41,42,10,21,3,8,27,27,0,0,31,5,4,4,27,3,4,0,0,26,0,22,16,7,35,7,29,30,28,0,0,0,0,0,0,0,0,0,0,0,0,0,0,0,0,0,0,0,0,0,0],"split_type":[0,0,0,0,0,0,0,0,0,0,0,0,0,0,0,0,0,0,0,0,0,0,0,0,0,0,0,0,0,0,0,0,0,0,0,0,0,0,0,0,0,0,0,0,0,0,0,0,0,0,0],"sum_hessian":[4.319E3,2.118E3,2.201E3,2.064E3,5.4E1,8.08E2,1.393E3,2.061E3,3E0,5E0,4.9E1,7.35E2,7.3E1,1.98E2,1.195E3,1E1,2.051E3,2E0,3E0,4.7E1,2E0,6.37E2,9.8E1,6E0,6.7E1,6.8E1,1.3E2,1.81E2,1.014E3,7E0,3E0,2.004E3,4.7E1,3E0,4.4E1,3.7E1,6E2,7.4E1,2.4E1,3E0,3E0,5.9E1,8E0,2E1,4.8E1,5E0,1.25E2,6E1,1.21E2,3.44E2,6.7E2],"tree_param":{"num_deleted":"0","num_feature":"45","num_nodes":"51","size_leaf_vector":"1"}},{"base_weights":[-7.2379815E-3,-9.285491E-2,8.118922E-1,1.6578838E-3,-3.136463E0,4.230806E0,6.935101E-1,-7.5020134E-2,3.3940809E0,3.8360236E0,-4.4774694E0,1.1969097E0,-2.5828133E0,-4.7485005E-2,-7.3260255E0,6.664487E-1,1.1558285E1,5.6697135E0,-1.4834901E0,3.7202575E0,-4.8768125E0,4.8615932E0,7.3927945E-1,-1.2232875E1,-6.4351255E-1,-1.999798E-2,1.2002758E0,9.3206906E-1,-2.6281843E0,-6.9396365E-1,1.6725762E0,5.644415E0,4.6266326E-1,2.4434412E0,8.2875353E-1,-1.5896935E0,2.9131368E-2,2.6317012E0,-2.3350649E-1,-1.3229617E0,2.9669768E-1,-7.723801E-1,-4.2586455E0,1.0038431E0,-6.928323E-1],"categories":[],"categories_nodes":[],"categories_segments":[],"categories_sizes":[],"default_left":[0,0,0,0,0,0,0,0,0,0,0,0,0,0,0,0,0,0,0,0,0,0,0,0,0,0,0,0,0,0,0,0,0,0,0,0,0,0,0,0,0,0,0,0,0],"id":31,"left_children":[1,3,5,7,9,-1,11,13,15,17,19,21,23,25,27,29,31,33,-1,-1,35,37,39,41,43,-1,-1,-1,-1,-1,-1,-1,-1,-1,-1,-1,-1,-1,-1,-1,-1,-1,-1,-1,-1],"loss_changes":[3.03149E2,1.1272308E3,7.628972E2,9.8875433E2,1.1039321E3,0E0,6.693668E2,7.397624E2,1.8679225E3,3.3798343E2,7.551356E2,5.889564E2,1.0076865E3,5.508065E2,4.679793E2,1.268902E3,2.1759841E3,1.4866852E2,0E0,0E0,6.7077515E2,1.24296E3,7.97625E2,3.7019995E2,4.311167E2,0E0,0E0,0E0,0E0,0E0,0E0,0E0,0E0,0E0,0E0,0E0,0E0,0E0,0E0,0E0,0E0,0E0,0E0,0E0,0E0],"parents":[2147483647,0,0,1,1,2,2,3,3,4,4,6,6,7,7,8,8,9,9,10,10,11,11,12,12,13,13,14,14,15,15,16,16,17,17,20,20,21,21,22,22,23,23,24,24],"right_children":[2,4,6,8,10,-1,12,14,16,18,20,22,24,26,28,30,32,34,-1,-1,36,38,40,42,44,-1,-1,-1,-1,-1,-1,-1,-1,-1,-1,-1,-1,-1,-1,-1,-1,-1,-1,-1,-1],"split_conditions":[5.8566666E1,5.2066666E1,6.2E1,4.69E1,1.0714285E0,4.230806E0,1.3779114E1,1.2842857E2,3E0,1.0202811E-1,5.7E1,3.15265E1,2.7174997E1,9.857142E0,9.53681E-1,5.123714E-1,-5.1148236E-1,5.6366665E1,-1.4834901E0,3.7202575E0,6.957143E1,6.7566666E1,4.2285713E1,2.005E1,6.2E1,-1.999798E-2,1.2002758E0,9.3206906E-1,-2.6281843E0,-6.9396365E-1,1.6725762E0,5.644415E0,4.6266326E-1,2.4434412E0,8.2875353E-1,-1.5896935E0,2.9131368E-2,2.6317012E0,-2.3350649E-1,-1.3229617E0,2.9669768E-1,-7.723801E-1,-4.2586455E0,1.0038431E0,-6.928323E-1],"split_indices":[8,8,13,8,35,0,25,6,34,29,13,19,21,35,16,17,30,8,0,0,42,8,6,20,3,0,0,0,0,0,0,0,0,0,0,0,0,0,0,0,0,0,0,0,0],"split_type":[0,0,0,0,0,0,0,0,0,0,0,0,0,0,0,0,0,0,0,0,0,0,0,0,0,0,0,0,0,0,0,0,0,0,0,0,0,0,0,0,0,0,0,0,0],"sum_hessian":[4.325E3,3.916E3,4.09E2,3.798E3,1.18E2,3E0,4.06E2,3.714E3,8.4E1,1.9E1,9.9E1,3.52E2,5.4E1,3.7E3,1.4E1,6.3E1,2.1E1,1.6E1,3E0,2E0,9.7E1,3.9E1,3.13E2,9E0,4.5E1,3.676E3,2.4E1,3E0,1.1E1,4E1,2.3E1,1E1,1.1E1,6E0,1E1,7.6E1,2.1E1,2E1,1.9E1,2.1E1,2.92E2,3E0,6E0,1.4E1,3.1E1],"tree_param":{"num_deleted":"0","num_feature":"45","num_nodes":"45","size_leaf_vector":"1"}},{"base_weights":[1.7034043E-2,6.6805416E-1,-5.962625E-2,1.0167562E0,-3.1509194E0,-6.65407E-1,5.9543386E-2,6.0739784E0,7.744757E-1,-2.2176483E0,-8.067856E0,-1.270297E0,2.7135727E-1,1.2776065E-2,